{"learner":{"attributes":{},"feature_names":["Age","Steep_axis_term","WTW_IOLMaster","MeanK_IOLMaster","Treated_astig","Type","AL","LASIK?","Age_x_Treated_astig"],"feature_types":["int","float","float","float","float","c","float","c","float"],"gradient_booster":{"model":{"gbtree_model_param":{"num_parallel_tree":"1","num_trees":"189"},"iteration_indptr":[0,1,2,3,4,5,6,7,8,9,10,11,12,13,14,15,16,17,18,19,20,21,22,23,24,25,26,27,28,29,30,31,32,33,34,35,36,37,38,39,40,41,42,43,44,45,46,47,48,49,50,51,52,53,54,55,56,57,58,59,60,61,62,63,64,65,66,67,68,69,70,71,72,73,74,75,76,77,78,79,80,81,82,83,84,85,86,87,88,89,90,91,92,93,94,95,96,97,98,99,100,101,102,103,104,105,106,107,108,109,110,111,112,113,114,115,116,117,118,119,120,121,122,123,124,125,126,127,128,129,130,131,132,133,134,135,136,137,138,139,140,141,142,143,144,145,146,147,148,149,150,151,152,153,154,155,156,157,158,159,160,161,162,163,164,165,166,167,168,169,170,171,172,173,174,175,176,177,178,179,180,181,182,183,184,185,186,187,188,189],"tree_info":[0,0,0,0,0,0,0,0,0,0,0,0,0,0,0,0,0,0,0,0,0,0,0,0,0,0,0,0,0,0,0,0,0,0,0,0,0,0,0,0,0,0,0,0,0,0,0,0,0,0,0,0,0,0,0,0,0,0,0,0,0,0,0,0,0,0,0,0,0,0,0,0,0,0,0,0,0,0,0,0,0,0,0,0,0,0,0,0,0,0,0,0,0,0,0,0,0,0,0,0,0,0,0,0,0,0,0,0,0,0,0,0,0,0,0,0,0,0,0,0,0,0,0,0,0,0,0,0,0,0,0,0,0,0,0,0,0,0,0,0,0,0,0,0,0,0,0,0,0,0,0,0,0,0,0,0,0,0,0,0,0,0,0,0,0,0,0,0,0,0,0,0,0,0,0,0,0,0,0,0,0,0,0,0,0,0,0,0,0],"trees":[{"base_weights":[-6.450416E-1,-9.629242E0,1.7969254E1,-1.3992713E1,-1.1081511E0,2.2712372E1,7.4003005E-1,-7.8034717E-1,-9.326162E0,-5.2064223E0,1.3704513E0,1.5544821E1,3.0235344E1,-1.002942E0,3.3507624E0,3.7349702E-3,-4.722281E-1,3.9653685E-2,-2.7945766E-1,2.0938055E-1,-1.7910358E-1,7.9350024E-1,-7.4005127E-4,7.040164E-2,1.5247592E0,-0E0,-7.600889E-2,-0E0,1.9430737E-1],"categories":[0],"categories_nodes":[4],"categories_segments":[0],"categories_sizes":[1],"default_left":[0,0,0,0,1,0,0,0,0,0,0,0,0,0,0,0,0,0,0,0,0,0,0,0,0,0,0,0,0],"id":0,"left_children":[1,3,5,7,9,11,13,-1,15,17,19,21,23,25,27,-1,-1,-1,-1,-1,-1,-1,-1,-1,-1,-1,-1,-1,-1],"loss_changes":[1.16081414E5,1.7308328E4,1.8361281E4,1.5749609E3,1.7054214E3,7.1482734E3,2.648743E2,0E0,1.1529834E2,1.7161926E2,1.5545242E3,5.2806445E2,3.6014062E2,1.9250439E1,4.380783E1,0E0,0E0,0E0,0E0,0E0,0E0,0E0,0E0,0E0,0E0,0E0,0E0,0E0,0E0],"parents":[2147483647,0,0,1,1,2,2,3,3,4,4,5,5,6,6,8,8,9,9,10,10,11,11,12,12,13,13,14,14],"right_children":[2,4,6,8,10,12,14,-1,16,18,20,22,24,26,28,-1,-1,-1,-1,-1,-1,-1,-1,-1,-1,-1,-1,-1,-1],"split_conditions":[7.1465194E-1,5.5E-1,1.7364818E-1,4.5614251E-1,1E-45,9.6E-1,8.5504466E-1,-7.8034717E-1,2.121E1,1.16E1,7.3E1,8.2E1,3.806E1,7.1E1,5E-1,3.7349702E-3,-4.722281E-1,3.9653685E-2,-2.7945766E-1,2.0938055E-1,-1.7910358E-1,7.9350024E-1,-7.4005127E-4,7.040164E-2,1.5247592E0,-0E0,-7.600889E-2,-0E0,1.9430737E-1],"split_indices":[4,4,1,4,5,4,4,0,6,2,0,0,3,0,1,0,0,0,0,0,0,0,0,0,0,0,0,0,0],"split_type":[0,0,0,0,1,0,0,0,0,0,0,0,0,0,0,0,0,0,0,0,0,0,0,0,0,0,0,0,0],"sum_hessian":[6.84E2,4.63E2,2.21E2,3.04E2,1.59E2,1.72E2,4.9E1,2.17E2,8.7E1,5.8E1,1.01E2,9.6E1,7.6E1,3.1E1,1.8E1,1E0,8.6E1,3E0,5.5E1,6.5E1,3.6E1,9.4E1,2E0,1E0,7.5E1,1.2E1,1.9E1,3E0,1.5E1],"tree_param":{"num_deleted":"0","num_feature":"9","num_nodes":"29","size_leaf_vector":"1"}},{"base_weights":[-4.1357753E-1,-9.862422E0,1.6299086E1,-1.395913E1,-2.6611812E0,2.1001558E1,6.3355994E-1,-8.045517E-1,-1.1502948E1,-4.5101684E-1,-6.0637026E0,1.4475782E1,2.8451597E1,-1.133429E0,3.7090902E0,3.7038487E-3,-5.79612E-1,1.11536585E-1,-2.3815063E-1,5.8941968E-2,-3.330721E-1,4.2592487E-1,8.3228415E-1,6.981497E-2,1.4342102E0,-2.26962E-2,-1.091932E-1,-0E0,1.9254342E-1],"categories":[],"categories_nodes":[],"categories_segments":[],"categories_sizes":[],"default_left":[0,0,0,0,0,0,0,0,0,0,0,0,0,0,0,0,0,0,0,0,0,0,0,0,0,0,0,0,0],"id":1,"left_children":[1,3,5,7,9,11,13,-1,15,17,19,21,23,25,27,-1,-1,-1,-1,-1,-1,-1,-1,-1,-1,-1,-1,-1,-1],"loss_changes":[1.0754809E5,1.2630746E4,1.803384E4,4.9216016E2,1.2131125E3,7.0864453E3,3.6053018E2,0E0,1.6673828E2,1.2698446E3,3.218125E2,7.0071875E2,2.92E2,2.3098026E1,1.0894867E1,0E0,0E0,0E0,0E0,0E0,0E0,0E0,0E0,0E0,0E0,0E0,0E0,0E0,0E0],"parents":[2147483647,0,0,1,1,2,2,3,3,4,4,5,5,6,6,8,8,9,9,10,10,11,11,12,12,13,13,14,14],"right_children":[2,4,6,8,10,12,14,-1,16,18,20,22,24,26,28,-1,-1,-1,-1,-1,-1,-1,-1,-1,-1,-1,-1,-1,-1],"split_conditions":[7.084782E-1,5.1E-1,2.7563736E-1,3.8E-1,7.3E1,9.6E-1,8.4848887E-1,-8.045517E-1,2.121E1,2.0791169E-1,2.225E1,7.8365165E-1,3.806E1,7.5E1,4.3837115E-1,3.7038487E-3,-5.79612E-1,1.11536585E-1,-2.3815063E-1,5.8941968E-2,-3.330721E-1,4.2592487E-1,8.3228415E-1,6.981497E-2,1.4342102E0,-2.26962E-2,-1.091932E-1,-0E0,1.9254342E-1],"split_indices":[4,4,1,4,0,4,4,0,6,1,6,4,3,0,1,0,0,0,0,0,0,0,0,0,0,0,0,0,0],"split_type":[0,0,0,0,0,0,0,0,0,0,0,0,0,0,0,0,0,0,0,0,0,0,0,0,0,0,0,0,0],"sum_hessian":[6.71E2,4.3E2,2.41E2,2.71E2,1.59E2,1.84E2,5.7E1,1.3E2,1.41E2,1E2,5.9E1,1.06E2,7.8E1,3.8E1,1.9E1,1E0,1.4E2,6.3E1,3.7E1,4E0,5.5E1,3.5E1,7.1E1,1E0,7.7E1,2.8E1,1E1,1E0,1.8E1],"tree_param":{"num_deleted":"0","num_feature":"9","num_nodes":"29","size_leaf_vector":"1"}},{"base_weights":[5.5862825E-2,-8.956994E0,1.6422323E1,-1.2667736E1,-6.38177E-1,2.0091066E1,5.4932314E-1,-7.2935766E-1,-9.0302E0,-4.909692E0,2.014523E0,1.2287996E1,2.6143772E1,-1.2588551E0,3.2643888E0,-4.5385334E-1,-2.0833015E-2,4.3133E-2,-2.6109383E-1,2.1875389E-1,-1.2784296E-1,3.0941388E-1,7.225718E-1,6.9233164E-2,1.3151301E0,-1.6897202E-3,-8.9696445E-2,-0E0,1.7730041E-1],"categories":[0],"categories_nodes":[4],"categories_segments":[0],"categories_sizes":[1],"default_left":[0,0,0,0,1,0,0,0,0,0,0,0,0,0,0,0,0,0,0,0,0,0,0,0,0,0,0,0,0],"id":2,"left_children":[1,3,5,7,9,11,13,-1,15,17,19,21,23,25,27,-1,-1,-1,-1,-1,-1,-1,-1,-1,-1,-1,-1,-1,-1],"loss_changes":[1.0134378E5,1.362123E4,1.4133266E4,1.4542344E3,1.6613574E3,7.7067812E3,2.7292795E2,0E0,1.9634766E1,1.2779712E2,1.0397312E3,7.990654E2,2.1097656E2,2.0156086E1,1.704631E1,0E0,0E0,0E0,0E0,0E0,0E0,0E0,0E0,0E0,0E0,0E0,0E0,0E0,0E0],"parents":[2147483647,0,0,1,1,2,2,3,3,4,4,5,5,6,6,8,8,9,9,10,10,11,11,12,12,13,13,14,14],"right_children":[2,4,6,8,10,12,14,-1,16,18,20,22,24,26,28,-1,-1,-1,-1,-1,-1,-1,-1,-1,-1,-1,-1,-1,-1],"split_conditions":[7.084782E-1,5.5E-1,2.7563736E-1,4.3093872E-1,1E-45,8.9700335E-1,8.4848887E-1,-7.2935766E-1,2.798E1,1.14E1,7.3E1,-9.702957E-1,3.806E1,7.1E1,4.3837115E-1,-4.5385334E-1,-2.0833015E-2,4.3133E-2,-2.6109383E-1,2.1875389E-1,-1.2784296E-1,3.0941388E-1,7.225718E-1,6.9233164E-2,1.3151301E0,-1.6897202E-3,-8.9696445E-2,-0E0,1.7730041E-1],"split_indices":[4,4,1,4,5,4,4,0,6,2,0,1,3,0,1,0,0,0,0,0,0,0,0,0,0,0,0,0,0],"split_type":[0,0,0,0,1,0,0,0,0,0,0,0,0,0,0,0,0,0,0,0,0,0,0,0,0,0,0,0,0],"sum_hessian":[6.77E2,4.38E2,2.39E2,3.01E2,1.37E2,1.93E2,4.6E1,1.87E2,1.14E2,5.1E1,8.6E1,9.1E1,1.02E2,2.9E1,1.7E1,1.13E2,1E0,2E0,4.9E1,5.7E1,2.9E1,2.9E1,6.2E1,1E0,1.01E2,1.1E1,1.8E1,2E0,1.5E1],"tree_param":{"num_deleted":"0","num_feature":"9","num_nodes":"29","size_leaf_vector":"1"}},{"base_weights":[2.354787E-1,-8.508672E0,1.564763E1,-1.229874E1,-1.1075776E0,9.9726254E-1,1.9515282E1,-7.139987E-1,-9.757603E0,-4.4685035E0,1.2022079E0,-1.2939095E0,3.6250112E0,9.819757E0,2.3232992E1,-1.1348919E-1,-5.0218934E-1,4.251682E-2,-2.3583873E-1,-7.4767E-2,2.4248464E-1,5.0679985E-3,-8.172723E-2,9.516007E-3,1.9035757E-1,6.310615E-1,2.339618E-1,6.865623E-2,1.1665772E0],"categories":[0,0],"categories_nodes":[2,4],"categories_segments":[0,1],"categories_sizes":[1,1],"default_left":[0,0,1,0,1,0,0,0,0,0,0,0,0,0,0,0,0,0,0,0,0,0,0,0,0,0,0,0,0],"id":3,"left_children":[1,3,5,7,9,11,13,-1,15,17,19,21,23,25,27,-1,-1,-1,-1,-1,-1,-1,-1,-1,-1,-1,-1,-1,-1],"loss_changes":[9.5682984E4,1.26254375E4,1.4444453E4,7.846133E2,1.2644464E3,3.8100012E2,6.1433984E3,0E0,1.8870605E2,1.11074585E2,1.00386206E3,1.89963E1,1.0521881E1,6.2347754E2,1.23171875E2,0E0,0E0,0E0,0E0,0E0,0E0,0E0,0E0,0E0,0E0,0E0,0E0,0E0,0E0],"parents":[2147483647,0,0,1,1,2,2,3,3,4,4,5,5,6,6,8,8,9,9,10,10,11,11,12,12,13,13,14,14],"right_children":[2,4,6,8,10,12,14,-1,16,18,20,22,24,26,28,-1,-1,-1,-1,-1,-1,-1,-1,-1,-1,-1,-1,-1,-1],"split_conditions":[7.084782E-1,5.3767407E-1,1E-45,4.0232593E-1,1E-45,8.5504466E-1,8.28284E-1,-7.139987E-1,4.1E-1,1.14E1,6.364344E-1,5.100982E1,1.18E1,7.1E1,3.806E1,-1.1348919E-1,-5.0218934E-1,4.251682E-2,-2.3583873E-1,-7.4767E-2,2.4248464E-1,5.0679985E-3,-8.172723E-2,9.516007E-3,1.9035757E-1,6.310615E-1,2.339618E-1,6.865623E-2,1.1665772E0],"split_indices":[4,4,5,4,5,4,4,0,4,2,4,8,2,0,3,0,0,0,0,0,0,0,0,0,0,0,0,0,0],"split_type":[0,0,1,0,1,0,0,0,0,0,0,0,0,0,0,0,0,0,0,0,0,0,0,0,0,0,0,0,0],"sum_hessian":[7E2,4.48E2,2.52E2,2.94E2,1.54E2,5.4E1,1.98E2,1.52E2,1.42E2,6.1E1,9.3E1,3E1,2.4E1,6E1,1.38E2,7E0,1.35E2,2E0,5.9E1,5.5E1,3.8E1,6E0,2.4E1,2E0,2.2E1,3.4E1,2.6E1,1E0,1.37E2],"tree_param":{"num_deleted":"0","num_feature":"9","num_nodes":"29","size_leaf_vector":"1"}},{"base_weights":[-4.3811943E-2,-8.215353E0,1.4556809E1,-1.1449114E1,-5.201423E-1,1.8180113E1,7.397064E-1,-6.891651E-1,-8.811144E0,-4.1886096E0,1.88724E0,1.0695669E1,2.3043123E1,-9.257599E-1,2.6656823E0,1.1640009E-2,-4.4405967E-1,4.1909408E-2,-2.2354579E-1,1.6847427E-1,-9.69341E-2,-0E0,5.540838E-1,1.1578735E0,7.5062685E-2,-1.3165848E-2,-9.73595E-2,-3.7270307E-3,1.5247086E-1],"categories":[0],"categories_nodes":[4],"categories_segments":[0],"categories_sizes":[1],"default_left":[0,0,0,0,1,0,0,0,0,0,0,0,0,0,0,0,0,0,0,0,0,0,0,0,0,0,0,0,0],"id":4,"left_children":[1,3,5,7,9,11,13,-1,15,17,19,21,23,25,27,-1,-1,-1,-1,-1,-1,-1,-1,-1,-1,-1,-1,-1,-1],"loss_changes":[8.279591E4,1.1031842E4,1.2379668E4,1.2974766E3,1.2517283E3,5.9041406E3,1.9691476E2,0E0,1.209834E2,1.0183948E2,5.217948E2,3.629287E2,8.478906E1,1.8231583E1,3.355394E1,0E0,0E0,0E0,0E0,0E0,0E0,0E0,0E0,0E0,0E0,0E0,0E0,0E0,0E0],"parents":[2147483647,0,0,1,1,2,2,3,3,4,4,5,5,6,6,8,8,9,9,10,10,11,11,12,12,13,13,14,14],"right_children":[2,4,6,8,10,12,14,-1,16,18,20,22,24,26,28,-1,-1,-1,-1,-1,-1,-1,-1,-1,-1,-1,-1,-1,-1],"split_conditions":[7.084782E-1,5.508774E-1,2.7563736E-1,4.0232593E-1,1E-45,8.844707E-1,8.5504466E-1,-6.891651E-1,2.121E1,1.14E1,7.5E1,-9.9939084E-1,2.798E1,7.5E1,5E-1,1.1640009E-2,-4.4405967E-1,4.1909408E-2,-2.2354579E-1,1.6847427E-1,-9.69341E-2,-0E0,5.540838E-1,1.1578735E0,7.5062685E-2,-1.3165848E-2,-9.73595E-2,-3.7270307E-3,1.5247086E-1],"split_indices":[4,4,1,4,5,4,4,0,6,2,0,1,6,0,1,0,0,0,0,0,0,0,0,0,0,0,0,0,0],"split_type":[0,0,0,0,1,0,0,0,0,0,0,0,0,0,0,0,0,0,0,0,0,0,0,0,0,0,0,0,0],"sum_hessian":[6.84E2,4.4E2,2.44E2,3.08E2,1.32E2,1.92E2,5.2E1,1.52E2,1.56E2,5.1E1,8.1E1,8.2E1,1.1E2,2.9E1,2.3E1,1E0,1.55E2,2E0,4.9E1,5.9E1,2.2E1,3E0,7.9E1,1.09E2,1E0,2.2E1,7E0,3E0,2E1],"tree_param":{"num_deleted":"0","num_feature":"9","num_nodes":"29","size_leaf_vector":"1"}},{"base_weights":[-1.1615729E-1,-8.5203285E0,1.2503281E1,-1.1786749E1,-3.1017728E0,3.2914189E-1,1.6567896E1,1.154302E-2,-5.920014E-1,-5.1292396E0,-7.329528E-1,-1.5506684E0,3.246167E0,1.0049969E1,2.2213072E1,-5.088078E-2,-2.967984E-1,1.7851199E-1,-9.7081766E-2,-3.0944308E-2,-1.4898507E-1,2.4290754E-2,1.7067383E-1,6.3128465E-1,2.3937283E-1,4.319029E-2,1.1179401E0],"categories":[0],"categories_nodes":[2],"categories_segments":[0],"categories_sizes":[1],"default_left":[0,0,1,0,0,0,0,0,0,0,0,0,0,0,0,0,0,0,0,0,0,0,0,0,0,0,0],"id":5,"left_children":[1,3,5,7,9,11,13,-1,-1,15,17,19,21,23,25,-1,-1,-1,-1,-1,-1,-1,-1,-1,-1,-1,-1],"loss_changes":[7.614655E4,7.430703E3,1.4157512E4,1.9623047E2,7.869973E2,4.4909006E2,6.762422E3,0E0,0E0,2.613706E2,4.6993213E2,5.375831E1,2.587799E0,1.157833E3,2.2555469E2,0E0,0E0,0E0,0E0,0E0,0E0,0E0,0E0,0E0,0E0,0E0,0E0],"parents":[2147483647,0,0,1,1,2,2,3,3,4,4,5,5,6,6,9,9,10,10,11,11,12,12,13,13,14,14],"right_children":[2,4,6,8,10,12,14,-1,-1,16,18,20,22,24,26,-1,-1,-1,-1,-1,-1,-1,-1,-1,-1,-1,-1],"split_conditions":[6.7343485E-1,4.869754E-1,1E-45,2.121E1,5.8546937E-1,8.5504466E-1,8.9700335E-1,1.154302E-2,-5.920014E-1,3.402E1,4.108E1,7.5E1,1.18E1,7.2E1,1.14E1,-5.088078E-2,-2.967984E-1,1.7851199E-1,-9.7081766E-2,-3.0944308E-2,-1.4898507E-1,2.4290754E-2,1.7067383E-1,6.3128465E-1,2.3937283E-1,4.319029E-2,1.1179401E0],"split_indices":[4,4,5,6,4,4,4,0,0,8,8,0,2,0,2,0,0,0,0,0,0,0,0,0,0,0,0],"split_type":[0,0,1,0,0,0,0,0,0,0,0,0,0,0,0,0,0,0,0,0,0,0,0,0,0,0,0],"sum_hessian":[7.08E2,4.26E2,2.82E2,2.62E2,1.64E2,7.2E1,2.1E2,1E0,2.61E2,8.5E1,7.9E1,4.5E1,2.7E1,1.04E2,1.06E2,1.6E1,6.9E1,1.5E1,6.4E1,3.2E1,1.3E1,3E0,2.4E1,6.5E1,3.9E1,1E0,1.05E2],"tree_param":{"num_deleted":"0","num_feature":"9","num_nodes":"27","size_leaf_vector":"1"}},{"base_weights":[-3.1031474E-1,-7.9716735E0,1.2112462E1,-1.0829035E1,-1.764526E0,3.2130122E-1,1.6271353E1,-5.907411E-1,-7.4657702E0,-4.583559E0,1.8236662E-1,-1.2487944E0,2.865574E0,1.1046813E1,2.3711958E1,1.1446825E-2,-3.7951598E-1,-2.5017092E-1,-5.6444317E-2,7.605224E-2,-1.6319565E-1,-1.4110761E-2,-1.4632048E-1,3.0878703E-3,1.4585634E-1,6.8241507E-1,2.74263E-1,1.1962514E0,5.6097575E-2],"categories":[0,0],"categories_nodes":[2,4],"categories_segments":[0,1],"categories_sizes":[1,1],"default_left":[0,0,1,0,1,0,0,0,0,0,0,0,0,0,0,0,0,0,0,0,0,0,0,0,0,0,0,0,0],"id":6,"left_children":[1,3,5,7,9,11,13,-1,15,17,19,21,23,25,27,-1,-1,-1,-1,-1,-1,-1,-1,-1,-1,-1,-1,-1,-1],"loss_changes":[6.586411E4,7.4829004E3,1.2903344E4,5.0780078E2,7.824385E2,3.1512097E2,6.2359062E3,0E0,9.271924E1,4.9753906E1,4.2906436E2,7.211783E1,4.5666504E-1,1.4006152E3,2.0654688E2,0E0,0E0,0E0,0E0,0E0,0E0,0E0,0E0,0E0,0E0,0E0,0E0,0E0,0E0],"parents":[2147483647,0,0,1,1,2,2,3,3,4,4,5,5,6,6,8,8,9,9,10,10,11,11,12,12,13,13,14,14],"right_children":[2,4,6,8,10,12,14,-1,16,18,20,22,24,26,28,-1,-1,-1,-1,-1,-1,-1,-1,-1,-1,-1,-1,-1,-1],"split_conditions":[6.8182707E-1,5.234349E-1,1E-45,4.5614251E-1,1E-45,8.5504466E-1,9.6E-1,-5.907411E-1,2.121E1,6.6E-1,7.5E1,7.5E1,5.2E1,7.2E1,1.29E1,1.1446825E-2,-3.7951598E-1,-2.5017092E-1,-5.6444317E-2,7.605224E-2,-1.6319565E-1,-1.4110761E-2,-1.4632048E-1,3.0878703E-3,1.4585634E-1,6.8241507E-1,2.74263E-1,1.1962514E0,5.6097575E-2],"split_indices":[4,4,5,4,5,4,4,0,6,4,0,0,0,0,2,0,0,0,0,0,0,0,0,0,0,0,0,0,0],"split_type":[0,0,1,0,1,0,0,0,0,0,0,0,0,0,0,0,0,0,0,0,0,0,0,0,0,0,0,0,0],"sum_hessian":[6.82E2,4.23E2,2.59E2,2.87E2,1.36E2,6.9E1,1.9E2,2.12E2,7.5E1,5.3E1,8.3E1,4.4E1,2.5E1,1.19E2,7.1E1,1E0,7.4E1,4.5E1,8E0,6.2E1,2.1E1,3.2E1,1.2E1,1E0,2.4E1,7.6E1,4.3E1,7E1,1E0],"tree_param":{"num_deleted":"0","num_feature":"9","num_nodes":"29","size_leaf_vector":"1"}},{"base_weights":[-2.3838896E-1,-7.7143097E0,1.1458962E1,-1.0418131E1,-2.1456413E0,-0E0,1.52232485E1,-1.2100832E1,-4.321598E-1,-4.227934E0,1.2439161E-1,-1.4055108E0,2.7506647E0,1.079894E1,2.1393494E1,-7.1138066E-1,-4.541343E-1,-2.3161049E-1,3.281954E-2,1.744503E-1,-7.595205E-2,-3.2961845E-2,-1.3847367E-1,4.569408E-3,1.4557827E-1,2.4863036E-1,6.1890274E-1,3.9150205E-2,1.0796086E0],"categories":[0,0],"categories_nodes":[2,7],"categories_segments":[0,1],"categories_sizes":[1,1],"default_left":[0,0,1,0,0,0,0,1,0,0,0,0,0,0,0,0,0,0,0,0,0,0,0,0,0,0,0,0,0],"id":7,"left_children":[1,3,5,7,9,11,13,15,-1,17,19,21,23,25,27,-1,-1,-1,-1,-1,-1,-1,-1,-1,-1,-1,-1,-1,-1],"loss_changes":[6.077769E4,6.259703E3,1.1692023E4,3.045254E2,6.9212964E2,2.9746857E2,4.3816836E3,1.842832E2,0E0,1.6924915E2,4.3765393E2,3.9354965E1,6.7914886E0,8.6175195E2,2.2067969E2,0E0,0E0,0E0,0E0,0E0,0E0,0E0,0E0,0E0,0E0,0E0,0E0,0E0,0E0],"parents":[2147483647,0,0,1,1,2,2,3,3,4,4,5,5,6,6,7,7,9,9,10,10,11,11,12,12,13,13,14,14],"right_children":[2,4,6,8,10,12,14,16,-1,18,20,22,24,26,28,-1,-1,-1,-1,-1,-1,-1,-1,-1,-1,-1,-1,-1,-1],"split_conditions":[6.8182707E-1,5.134006E-1,1E-45,3.7357897E-1,6.02674E-1,8.5504466E-1,9.6E-1,1E-45,-4.321598E-1,9.2718387E-1,6.8E1,7.5E1,6.6E1,-9.781476E-1,3.806E1,-7.1138066E-1,-4.541343E-1,-2.3161049E-1,3.281954E-2,1.744503E-1,-7.595205E-2,-3.2961845E-2,-1.3847367E-1,4.569408E-3,1.4557827E-1,2.4863036E-1,6.1890274E-1,3.9150205E-2,1.0796086E0],"split_indices":[4,4,5,4,4,4,4,5,0,1,0,0,0,1,3,0,0,0,0,0,0,0,0,0,0,0,0,0,0],"split_type":[0,0,1,0,0,0,0,1,0,0,0,0,0,0,0,0,0,0,0,0,0,0,0,0,0,0,0,0,0],"sum_hessian":[6.85E2,4.19E2,2.66E2,2.79E2,1.4E2,6.7E1,1.99E2,1.28E2,1.51E2,7.1E1,6.9E1,4.6E1,2.1E1,1.24E2,7.5E1,6.4E1,6.4E1,6.6E1,5E0,2.1E1,4.8E1,3.5E1,1.1E1,2E0,1.9E1,3.1E1,9.3E1,1E0,7.4E1],"tree_param":{"num_deleted":"0","num_feature":"9","num_nodes":"29","size_leaf_vector":"1"}},{"base_weights":[-5.373628E-3,-5.500373E0,1.5144957E1,-8.938825E0,1.449796E0,1.795279E1,1.8206629E0,-1.0628124E1,-5.9570985E0,3.1913862E0,-3.4334807E0,1.3378493E1,2.1585958E1,-4.492854E-1,2.7473025E0,-6.0624415E-1,-4.3938708E-1,7.398021E-2,-3.0939934E-1,-6.308498E-2,2.7251884E-1,-2.0167147E-1,6.479886E-2,3.6753964E-2,6.902419E-1,1.0891975E0,4.6155516E-2,-4.305492E-2,2.4678556E-2,-2.5501966E-3,1.5666501E-1],"categories":[0,0],"categories_nodes":[7,9],"categories_segments":[0,1],"categories_sizes":[1,1],"default_left":[0,0,0,0,0,0,0,1,0,1,0,0,0,0,0,0,0,0,0,0,0,0,0,0,0,0,0,0,0,0,0],"id":8,"left_children":[1,3,5,7,9,11,13,15,17,19,21,23,25,27,29,-1,-1,-1,-1,-1,-1,-1,-1,-1,-1,-1,-1,-1,-1,-1,-1],"loss_changes":[5.8183098E4,1.2331871E4,6.775504E3,1.3995879E3,1.5343577E3,1.0638359E3,8.839975E1,3.3066406E1,2.8400586E2,1.356364E3,1.6507025E2,3.7134766E2,1.9175781E2,8.316801E0,3.4125244E1,0E0,0E0,0E0,0E0,0E0,0E0,0E0,0E0,0E0,0E0,0E0,0E0,0E0,0E0,0E0,0E0],"parents":[2147483647,0,0,1,1,2,2,3,3,4,4,5,5,6,6,7,7,8,8,9,9,10,10,11,11,12,12,13,13,14,14],"right_children":[2,4,6,8,10,12,14,16,18,20,22,24,26,28,30,-1,-1,-1,-1,-1,-1,-1,-1,-1,-1,-1,-1,-1,-1,-1,-1],"split_conditions":[7.8365165E-1,5.8546937E-1,1.7364818E-1,4.5614251E-1,7.5E1,9.841346E-1,8.5504466E-1,1E-45,2.234E1,1E-45,4.5E1,-9.975641E-1,2.75E1,2.516E1,6.4278764E-1,-6.0624415E-1,-4.3938708E-1,7.398021E-2,-3.0939934E-1,-6.308498E-2,2.7251884E-1,-2.0167147E-1,6.479886E-2,3.6753964E-2,6.902419E-1,1.0891975E0,4.6155516E-2,-4.305492E-2,2.4678556E-2,-2.5501966E-3,1.5666501E-1],"split_indices":[4,4,1,4,0,4,4,5,6,5,3,1,6,6,1,0,0,0,0,0,0,0,0,0,0,0,0,0,0,0,0],"split_type":[0,0,0,0,0,0,0,1,0,1,0,0,0,0,0,0,0,0,0,0,0,0,0,0,0,0,0,0,0,0,0],"sum_hessian":[6.89E2,5.08E2,1.81E2,3.39E2,1.69E2,1.48E2,3.3E1,2.08E2,1.31E2,1.26E2,4.3E1,7.6E1,7.2E1,1E1,2.3E1,9.9E1,1.09E2,3E0,1.28E2,4.3E1,8.3E1,3.9E1,4E0,3E0,7.3E1,7.1E1,1E0,8E0,2E0,3E0,2E1],"tree_param":{"num_deleted":"0","num_feature":"9","num_nodes":"31","size_leaf_vector":"1"}},{"base_weights":[-2.1061547E-2,-6.8424573E0,1.0623055E1,-9.597926E0,-2.850409E0,5.4456383E-1,1.4182305E1,-1.1033045E1,-7.762612E0,-4.416483E0,-5.560305E-1,-8.700011E-1,3.0216174E0,1.0049634E1,2.0386782E1,-6.475443E-1,-4.096056E-1,1.4336268E-2,-3.923238E-1,-2.2888882E-1,9.59945E-2,4.2010248E-2,-2.0908459E-1,-6.612409E-2,1.06378044E-4,1.6411512E-1,2.5385305E-2,2.7969587E-1,6.152286E-1,2.9747296E-2,1.0300263E0],"categories":[0,0],"categories_nodes":[2,7],"categories_segments":[0,1],"categories_sizes":[1,1],"default_left":[0,0,1,0,0,0,0,1,0,0,0,0,0,0,0,0,0,0,0,0,0,0,0,0,0,0,0,0,0,0,0],"id":9,"left_children":[1,3,5,7,9,11,13,15,17,19,21,23,25,27,29,-1,-1,-1,-1,-1,-1,-1,-1,-1,-1,-1,-1,-1,-1,-1,-1],"loss_changes":[5.0386383E4,4.503748E3,9.6679375E3,2.061836E2,6.295189E2,2.815961E2,4.073379E3,1.4033691E2,1.0386426E2,1.5493579E2,4.208288E2,2.1854736E1,6.8825684E0,9.4410547E2,2.3480273E2,0E0,0E0,0E0,0E0,0E0,0E0,0E0,0E0,0E0,0E0,0E0,0E0,0E0,0E0,0E0,0E0],"parents":[2147483647,0,0,1,1,2,2,3,3,4,4,5,5,6,6,7,7,8,8,9,9,10,10,11,11,12,12,13,13,14,14],"right_children":[2,4,6,8,10,12,14,16,18,20,22,24,26,28,30,-1,-1,-1,-1,-1,-1,-1,-1,-1,-1,-1,-1,-1,-1,-1,-1],"split_conditions":[6.8182707E-1,4.869754E-1,1E-45,3.7357897E-1,6.02674E-1,8.5504466E-1,9.841346E-1,1E-45,2.121E1,2.75E1,7.6E1,9.5105654E-1,7.9E1,7.684889E-1,3.806E1,-6.475443E-1,-4.096056E-1,1.4336268E-2,-3.923238E-1,-2.2888882E-1,9.59945E-2,4.2010248E-2,-2.0908459E-1,-6.612409E-2,1.06378044E-4,1.6411512E-1,2.5385305E-2,2.7969587E-1,6.152286E-1,2.9747296E-2,1.0300263E0],"split_indices":[4,4,5,4,4,4,4,5,6,6,0,1,0,4,3,0,0,0,0,0,0,0,0,0,0,0,0,0,0,0,0],"split_type":[0,0,1,0,0,0,0,1,0,0,0,0,0,0,0,0,0,0,0,0,0,0,0,0,0,0,0,0,0,0,0],"sum_hessian":[6.84E2,4.18E2,2.66E2,2.43E2,1.75E2,7.1E1,1.95E2,1.22E2,1.21E2,1.01E2,7.4E1,4.7E1,2.4E1,1.25E2,7E1,6.2E1,6E1,1E0,1.2E2,1E2,1E0,5.6E1,1.8E1,3E1,1.7E1,2E1,4E0,4.8E1,7.7E1,1E0,6.9E1],"tree_param":{"num_deleted":"0","num_feature":"9","num_nodes":"31","size_leaf_vector":"1"}},{"base_weights":[2.4150605E-1,-5.9747295E0,1.1429916E1,-8.512407E0,-5.100493E-1,3.9680418E-1,1.4519717E1,-1.0535469E1,-6.7819405E0,-3.93219E0,1.5874408E0,-8.138601E-1,2.2215178E0,9.174695E0,1.794009E1,-6.1005515E-1,-3.9597604E-1,-3.4145162E-1,-2.8858513E-2,-2.2552636E-1,-8.134004E-2,1.4392598E-1,-8.7119415E-2,-7.556238E-2,-1.2714557E-2,-0E0,1.2422525E-1,1.843503E-1,5.5219287E-1,2.4508413E-2,9.030911E-1],"categories":[0,0,0],"categories_nodes":[2,4,7],"categories_segments":[0,1,2],"categories_sizes":[1,1,1],"default_left":[0,0,1,0,1,0,0,1,0,0,0,0,0,0,0,0,0,0,0,0,0,0,0,0,0,0,0,0,0,0,0],"id":10,"left_children":[1,3,5,7,9,11,13,15,17,19,21,23,25,27,29,-1,-1,-1,-1,-1,-1,-1,-1,-1,-1,-1,-1,-1,-1,-1,-1],"loss_changes":[4.965771E4,6.334498E3,8.649258E3,7.2118945E2,1.1174191E3,1.4520374E2,2.7880234E3,8.496973E1,2.6358398E1,3.5838318E1,4.4322357E2,1.1922436E1,1.3659927E1,6.843242E2,1.8358984E2,0E0,0E0,0E0,0E0,0E0,0E0,0E0,0E0,0E0,0E0,0E0,0E0,0E0,0E0,0E0,0E0],"parents":[2147483647,0,0,1,1,2,2,3,3,4,4,5,5,6,6,7,7,8,8,9,9,10,10,11,11,12,12,13,13,14,14],"right_children":[2,4,6,8,10,12,14,16,18,20,22,24,26,28,30,-1,-1,-1,-1,-1,-1,-1,-1,-1,-1,-1,-1,-1,-1,-1,-1],"split_conditions":[7.084782E-1,5.508774E-1,1E-45,3.7357897E-1,1E-45,8.5504466E-1,8.844707E-1,1E-45,2.798E1,9.2718387E-1,7.5E1,7.6604444E-1,6.4278764E-1,-9.702957E-1,1.14E1,-6.1005515E-1,-3.9597604E-1,-3.4145162E-1,-2.8858513E-2,-2.2552636E-1,-8.134004E-2,1.4392598E-1,-8.7119415E-2,-7.556238E-2,-1.2714557E-2,-0E0,1.2422525E-1,1.843503E-1,5.5219287E-1,2.4508413E-2,9.030911E-1],"split_indices":[4,4,5,4,5,4,4,5,6,1,0,1,1,1,2,0,0,0,0,0,0,0,0,0,0,0,0,0,0,0,0],"split_type":[0,0,1,0,1,0,0,1,0,0,0,0,0,0,0,0,0,0,0,0,0,0,0,0,0,0,0,0,0,0,0],"sum_hessian":[7.04E2,4.54E2,2.5E2,3.08E2,1.46E2,5.6E1,1.94E2,1.3E2,1.78E2,5.4E1,9.2E1,3.5E1,2.1E1,8.3E1,1.11E2,6.8E1,6.2E1,1.76E2,2E0,3.9E1,1.5E1,6.7E1,2.5E1,1.1E1,2.4E1,3E0,1.8E1,2.5E1,5.8E1,1E0,1.1E2],"tree_param":{"num_deleted":"0","num_feature":"9","num_nodes":"31","size_leaf_vector":"1"}},{"base_weights":[1.1880221E-1,-5.878071E0,1.0138999E1,-7.7507973E0,-1.5289143E-1,7.0743084E-1,1.2935359E1,-1.0266529E1,-6.100746E0,1.3647588E0,-3.3176107E0,-8.569074E-1,2.4927006E0,8.124617E0,1.7923088E1,-6.051695E-1,-3.8432318E-1,-2.351176E-1,-3.4948632E-1,1.483617E-1,-8.8236146E-2,-2.048236E-1,3.6677476E-2,-7.369473E-2,1.2181731E-2,4.8179628E-4,1.3139011E-1,1.4456788E-1,4.7573367E-1,9.3285626E-1,2.6167664E-1],"categories":[0,0],"categories_nodes":[2,7],"categories_segments":[0,1],"categories_sizes":[1,1],"default_left":[0,0,1,0,0,0,0,1,0,0,0,0,0,0,0,0,0,0,0,0,0,0,0,0,0,0,0,0,0,0,0],"id":11,"left_children":[1,3,5,7,9,11,13,15,17,19,21,23,25,27,29,-1,-1,-1,-1,-1,-1,-1,-1,-1,-1,-1,-1,-1,-1,-1,-1],"loss_changes":[4.0442266E4,4.500004E3,6.586867E3,9.863594E2,5.481117E2,1.8826009E2,3.9008262E3,7.427637E1,7.756885E1,4.135328E2,1.3513345E2,2.814947E1,7.6354218E0,6.356914E2,3.355254E2,0E0,0E0,0E0,0E0,0E0,0E0,0E0,0E0,0E0,0E0,0E0,0E0,0E0,0E0,0E0,0E0],"parents":[2147483647,0,0,1,1,2,2,3,3,4,4,5,5,6,6,7,7,8,8,9,9,10,10,11,11,12,12,13,13,14,14],"right_children":[2,4,6,8,10,12,14,16,18,20,22,24,26,28,30,-1,-1,-1,-1,-1,-1,-1,-1,-1,-1,-1,-1,-1,-1,-1,-1],"split_conditions":[7.084782E-1,5.8546937E-1,1E-45,3.7357897E-1,7.5E1,8.5504466E-1,9.392547E-1,1E-45,7E1,1.391731E-1,4.497E1,9.396926E-1,1.18E1,-9.848077E-1,7.7E1,-6.051695E-1,-3.8432318E-1,-2.351176E-1,-3.4948632E-1,1.483617E-1,-8.8236146E-2,-2.048236E-1,3.6677476E-2,-7.369473E-2,1.2181731E-2,4.8179628E-4,1.3139011E-1,1.4456788E-1,4.7573367E-1,9.3285626E-1,2.6167664E-1],"split_indices":[4,4,5,4,0,4,4,5,0,1,3,1,2,1,0,0,0,0,0,0,0,0,0,0,0,0,0,0,0,0,0],"split_type":[0,0,1,0,0,0,0,1,0,0,0,0,0,0,0,0,0,0,0,0,0,0,0,0,0,0,0,0,0,0,0],"sum_hessian":[6.63E2,4.16E2,2.47E2,3.12E2,1.04E2,5.8E1,1.89E2,1.13E2,1.99E2,7.2E1,3.2E1,3.2E1,2.6E1,1.03E2,8.6E1,5.5E1,5.8E1,9E1,1.09E2,4.8E1,2.4E1,2.7E1,5E0,2E1,1.2E1,2E0,2.4E1,2.5E1,7.8E1,7.9E1,7E0],"tree_param":{"num_deleted":"0","num_feature":"9","num_nodes":"31","size_leaf_vector":"1"}},{"base_weights":[6.9871485E-2,-4.5820026E0,1.1509848E1,-7.6744213E0,3.8593796E-1,1.3909532E1,1.1258307E0,-9.391517E0,-5.6368446E0,-2.8016007E0,2.3675246E0,9.827091E0,1.757462E1,-4.5200175E-1,2.2400217E0,-5.5424094E-1,-3.672831E-1,-3.7355024E-2,-2.9009828E-1,4.8677843E-2,-1.5988472E-1,2.1786581E-1,-4.6360176E-2,6.498468E-1,3.0546376E-1,1.419983E-2,8.880251E-1,-4.0371858E-2,2.7482916E-2,-4.2984723E-3,1.2951738E-1],"categories":[0,0],"categories_nodes":[4,7],"categories_segments":[0,1],"categories_sizes":[1,1],"default_left":[0,0,0,0,1,0,0,1,0,0,0,0,0,0,0,0,0,0,0,0,0,0,0,0,0,0,0,0,0,0,0],"id":12,"left_children":[1,3,5,7,9,11,13,15,17,19,21,23,25,27,29,-1,-1,-1,-1,-1,-1,-1,-1,-1,-1,-1,-1,-1,-1,-1,-1],"loss_changes":[3.7735617E4,7.7650254E3,5.0149277E3,8.083789E2,1.2833743E3,1.5928379E3,8.420279E1,1.3218652E2,9.692432E1,1.3442444E2,8.4310834E2,6.445254E2,2.1707227E2,1.030941E1,2.5618912E1,0E0,0E0,0E0,0E0,0E0,0E0,0E0,0E0,0E0,0E0,0E0,0E0,0E0,0E0,0E0,0E0],"parents":[2147483647,0,0,1,1,2,2,3,3,4,4,5,5,6,6,7,7,8,8,9,9,10,10,11,11,12,12,13,13,14,14],"right_children":[2,4,6,8,10,12,14,16,18,20,22,24,26,28,30,-1,-1,-1,-1,-1,-1,-1,-1,-1,-1,-1,-1,-1,-1,-1,-1],"split_conditions":[7.684889E-1,5.508774E-1,1.7364818E-1,4.0232593E-1,1E-45,9.841346E-1,8.5504466E-1,1E-45,4.1E-1,1.16E1,7.2E1,7E1,3.806E1,2.516E1,6.4278764E-1,-5.5424094E-1,-3.672831E-1,-3.7355024E-2,-2.9009828E-1,4.8677843E-2,-1.5988472E-1,2.1786581E-1,-4.6360176E-2,6.498468E-1,3.0546376E-1,1.419983E-2,8.880251E-1,-4.0371858E-2,2.7482916E-2,-4.2984723E-3,1.2951738E-1],"split_indices":[4,4,1,4,5,4,4,5,4,2,0,0,3,6,1,0,0,0,0,0,0,0,0,0,0,0,0,0,0,0,0],"split_type":[0,0,0,0,1,0,0,1,0,0,0,0,0,0,0,0,0,0,0,0,0,0,0,0,0,0,0,0,0,0,0],"sum_hessian":[6.99E2,4.99E2,2E2,3.06E2,1.93E2,1.61E2,3.9E1,1.56E2,1.5E2,7.3E1,1.2E2,8.5E1,7.6E1,1.7E1,2.2E1,7.3E1,8.3E1,6E0,1.44E2,6E0,6.7E1,7.4E1,4.6E1,3.9E1,4.6E1,1E0,7.5E1,1.4E1,3E0,3E0,1.9E1],"tree_param":{"num_deleted":"0","num_feature":"9","num_nodes":"31","size_leaf_vector":"1"}},{"base_weights":[-2.506561E-1,-4.9718423E0,9.4236555E0,-7.821457E0,-1.3129007E0,1.2307377E1,4.511395E-1,-8.726814E0,-6.077135E0,-3.366121E0,5.533518E-1,8.500944E0,1.724861E1,-8.653108E-1,2.0420537E0,-4.3850946E-1,-7.64176E-3,-0E0,-3.1927702E-1,-2.0909037E-2,-2.1032666E-1,-1.0125351E-1,1.03129625E-1,4.5407724E-1,6.853638E-2,1.408151E-2,8.731355E-1,-1.1310406E-1,-1.2145768E-2,4.0341294E-3,1.246349E-1],"categories":[0],"categories_nodes":[10],"categories_segments":[0],"categories_sizes":[1],"default_left":[0,0,0,0,0,0,0,0,0,0,1,0,0,0,0,0,0,0,0,0,0,0,0,0,0,0,0,0,0,0,0],"id":13,"left_children":[1,3,5,7,9,11,13,15,17,19,21,23,25,27,29,-1,-1,-1,-1,-1,-1,-1,-1,-1,-1,-1,-1,-1,-1,-1,-1],"loss_changes":[3.1333959E4,4.746172E3,5.7811816E3,1.2746973E2,8.0914606E2,2.438545E3,1.3567337E2,4.3134766E1,1.9969727E2,2.3432825E2,4.606569E2,3.6612646E2,2.083164E2,2.6043898E1,2.2053574E1,0E0,0E0,0E0,0E0,0E0,0E0,0E0,0E0,0E0,0E0,0E0,0E0,0E0,0E0,0E0,0E0],"parents":[2147483647,0,0,1,1,2,2,3,3,4,4,5,5,6,6,7,7,8,8,9,9,10,10,11,11,12,12,13,13,14,14],"right_children":[2,4,6,8,10,12,14,16,18,20,22,24,26,28,30,-1,-1,-1,-1,-1,-1,-1,-1,-1,-1,-1,-1,-1,-1,-1,-1],"split_conditions":[7.1465194E-1,4.869754E-1,6.975647E-2,4.0232593E-1,6.02674E-1,9.841346E-1,8.5504466E-1,1E0,4.1E-1,3.4929688E1,1E-45,1.27E1,3.806E1,5.8778524E-1,6.4278764E-1,-4.3850946E-1,-7.64176E-3,-0E0,-3.1927702E-1,-2.0909037E-2,-2.1032666E-1,-1.0125351E-1,1.03129625E-1,4.5407724E-1,6.853638E-2,1.408151E-2,8.731355E-1,-1.1310406E-1,-1.2145768E-2,4.0341294E-3,1.246349E-1],"split_indices":[4,4,1,4,4,4,4,1,4,8,5,2,3,1,1,0,0,0,0,0,0,0,0,0,0,0,0,0,0,0,0],"split_type":[0,0,0,0,0,0,0,0,0,0,1,0,0,0,0,0,0,0,0,0,0,0,0,0,0,0,0,0,0,0,0],"sum_hessian":[6.76E2,4.56E2,2.2E2,2.53E2,2.03E2,1.65E2,5.5E1,1.53E2,1E2,9.5E1,1.08E2,1.01E2,6.4E1,3.1E1,2.4E1,1.52E2,1E0,5E0,9.5E1,2.3E1,7.2E1,3.9E1,6.9E1,9.2E1,9E0,1E0,6.3E1,5E0,2.6E1,6E0,1.8E1],"tree_param":{"num_deleted":"0","num_feature":"9","num_nodes":"31","size_leaf_vector":"1"}},{"base_weights":[1.4855215E-1,-5.047841E0,9.343212E0,-7.3039975E0,-8.263996E-1,1.1785134E1,3.5271144E-1,-8.749281E0,-5.673559E0,-3.045175E0,7.5474566E-1,8.256067E0,1.608971E1,-6.643257E-1,1.9735819E0,-5.164251E-1,-3.2523572E-1,-0E0,-2.8969312E-1,4.84778E-2,-1.6293356E-1,-3.31842E-2,1.863278E-1,1.050369E-2,4.3747225E-1,8.510089E-1,3.0967826E-1,1.5359175E-3,-5.49847E-2,-7.6734736E-3,1.3131754E-1],"categories":[0,0],"categories_nodes":[4,7],"categories_segments":[0,1],"categories_sizes":[1,1],"default_left":[0,0,0,0,1,0,0,1,0,0,0,0,0,0,0,0,0,0,0,0,0,0,0,0,0,0,0,0,0,0,0],"id":14,"left_children":[1,3,5,7,9,11,13,15,17,19,21,23,25,27,29,-1,-1,-1,-1,-1,-1,-1,-1,-1,-1,-1,-1,-1,-1,-1,-1],"loss_changes":[3.2682098E4,4.1237793E3,5.389742E3,4.066084E2,5.6807874E2,2.258545E3,1.0347693E2,1.4704492E2,1.03470215E2,7.55141E1,4.200983E2,4.4630664E2,2.0476953E2,1.3039289E1,3.781154E1,0E0,0E0,0E0,0E0,0E0,0E0,0E0,0E0,0E0,0E0,0E0,0E0,0E0,0E0,0E0,0E0],"parents":[2147483647,0,0,1,1,2,2,3,3,4,4,5,5,6,6,7,7,8,8,9,9,10,10,11,11,12,12,13,13,14,14],"right_children":[2,4,6,8,10,12,14,16,18,20,22,24,26,28,30,-1,-1,-1,-1,-1,-1,-1,-1,-1,-1,-1,-1,-1,-1,-1,-1],"split_conditions":[7.084782E-1,5.134006E-1,2.7563736E-1,3.8E-1,1E-45,9.6E-1,8.5504466E-1,1E-45,3.8299665E-1,1.14E1,-5.2991927E-1,-9.975641E-1,7.5E1,7.1E1,6.4278764E-1,-5.164251E-1,-3.2523572E-1,-0E0,-2.8969312E-1,4.84778E-2,-1.6293356E-1,-3.31842E-2,1.863278E-1,1.050369E-2,4.3747225E-1,8.510089E-1,3.0967826E-1,1.5359175E-3,-5.49847E-2,-7.6734736E-3,1.3131754E-1],"split_indices":[4,4,1,4,5,4,4,5,4,2,1,1,0,0,1,0,0,0,0,0,0,0,0,0,0,0,0,0,0,0,0],"split_type":[0,0,0,0,1,0,0,1,0,0,0,0,0,0,0,0,0,0,0,0,0,0,0,0,0,0,0,0,0,0,0],"sum_hessian":[6.74E2,4.32E2,2.42E2,2.79E2,1.53E2,1.89E2,5.3E1,1.36E2,1.43E2,6.2E1,9.1E1,1.12E2,7.7E1,3.4E1,1.9E1,6.9E1,6.7E1,3E0,1.4E2,2E0,6E1,6.4E1,2.7E1,7E0,1.05E2,6.7E1,1E1,1.4E1,2E1,5E0,1.4E1],"tree_param":{"num_deleted":"0","num_feature":"9","num_nodes":"31","size_leaf_vector":"1"}},{"base_weights":[1.0177294E-1,-4.0256414E0,9.616819E0,-6.5375333E0,2.0540336E-1,1.1822285E1,9.21053E-1,-7.7287483E0,-4.540073E0,1.556307E0,-3.577667E0,8.472688E0,1.4615774E1,-4.0575504E-1,1.8947816E0,-3.8766694E-1,-1.8777085E-2,-6.480403E-2,-2.5230995E-1,1.6953442E-1,-6.973472E-2,-1.8617988E-1,-0E0,5.493428E-1,2.6061246E-1,7.8137964E-1,2.986422E-1,-5.4063227E-2,6.5795677E-3,-1.305399E-2,1.116102E-1],"categories":[],"categories_nodes":[],"categories_segments":[],"categories_sizes":[],"default_left":[0,0,0,0,0,0,0,0,0,0,0,0,0,0,0,0,0,0,0,0,0,0,0,0,0,0,0,0,0,0,0],"id":15,"left_children":[1,3,5,7,9,11,13,15,17,19,21,23,25,27,29,-1,-1,-1,-1,-1,-1,-1,-1,-1,-1,-1,-1,-1,-1,-1,-1],"loss_changes":[2.7257941E4,5.1569644E3,3.9602344E3,5.35624E2,9.7127264E2,9.2036914E2,6.7346756E1,1.0402344E1,1.6783203E2,7.8349756E2,2.5543457E1,4.1883154E2,2.4628125E2,1.0372679E1,2.5980682E1,0E0,0E0,0E0,0E0,0E0,0E0,0E0,0E0,0E0,0E0,0E0,0E0,0E0,0E0,0E0,0E0],"parents":[2147483647,0,0,1,1,2,2,3,3,4,4,5,5,6,6,7,7,8,8,9,9,10,10,11,11,12,12,13,13,14,14],"right_children":[2,4,6,8,10,12,14,16,18,20,22,24,26,28,30,-1,-1,-1,-1,-1,-1,-1,-1,-1,-1,-1,-1,-1,-1,-1,-1],"split_conditions":[7.684889E-1,5.508774E-1,1.7364818E-1,4.3093872E-1,7.5E1,9.6E-1,8.5504466E-1,2.896E1,6.5E1,6.975647E-2,4.528E1,7E1,7.5E1,1.18E1,5E-1,-3.8766694E-1,-1.8777085E-2,-6.480403E-2,-2.5230995E-1,1.6953442E-1,-6.973472E-2,-1.8617988E-1,-0E0,5.493428E-1,2.6061246E-1,7.8137964E-1,2.986422E-1,-5.4063227E-2,6.5795677E-3,-1.305399E-2,1.116102E-1],"split_indices":[4,4,1,4,0,4,4,6,0,1,3,0,0,2,1,0,0,0,0,0,0,0,0,0,0,0,0,0,0,0,0],"split_type":[0,0,0,0,0,0,0,0,0,0,0,0,0,0,0,0,0,0,0,0,0,0,0,0,0,0,0,0,0,0,0],"sum_hessian":[6.84E2,4.79E2,2.05E2,2.99E2,1.8E2,1.62E2,4.3E1,1.78E2,1.21E2,1.35E2,4.5E1,8.3E1,7.9E1,1.9E1,2.4E1,1.77E2,1E0,1.9E1,1.02E2,8.3E1,5.2E1,4.3E1,2E0,4E1,4.3E1,6.7E1,1.2E1,7E0,1.2E1,3E0,2.1E1],"tree_param":{"num_deleted":"0","num_feature":"9","num_nodes":"31","size_leaf_vector":"1"}},{"base_weights":[-4.967703E-2,-4.680799E0,8.188762E0,-6.589791E0,-4.0215158E-1,1.0243397E1,3.21923E-1,-7.675265E0,-4.649612E0,-2.6665926E0,1.1190937E0,7.082932E0,1.447672E1,-9.584775E-1,1.1359769E0,-4.4617563E-1,-3.006265E-1,-8.55389E-2,-2.5352192E-1,5.4214668E-2,-1.4939702E-1,-1.6328676E-2,1.8430558E-1,-4.1598924E-2,3.8444713E-1,7.330852E-1,-0E0,2.8137942E-3,-7.7297024E-2,-6.358088E-3,7.704181E-2],"categories":[0,0],"categories_nodes":[4,7],"categories_segments":[0,1],"categories_sizes":[1,1],"default_left":[0,0,0,0,1,0,0,1,0,0,0,0,0,0,0,0,0,0,0,0,0,0,0,0,0,0,0,0,0,0,0],"id":16,"left_children":[1,3,5,7,9,11,13,15,17,19,21,23,25,27,29,-1,-1,-1,-1,-1,-1,-1,-1,-1,-1,-1,-1,-1,-1,-1,-1],"loss_changes":[2.5979715E4,3.5409639E3,3.933E3,4.431494E2,4.9873618E2,2.06133E3,6.3991188E1,1.0076758E2,9.949243E1,8.801233E1,3.322401E2,6.192207E2,2.0546484E2,1.623178E1,2.1314903E1,0E0,0E0,0E0,0E0,0E0,0E0,0E0,0E0,0E0,0E0,0E0,0E0,0E0,0E0,0E0,0E0],"parents":[2147483647,0,0,1,1,2,2,3,3,4,4,5,5,6,6,7,7,8,8,9,9,10,10,11,11,12,12,13,13,14,14],"right_children":[2,4,6,8,10,12,14,16,18,20,22,24,26,28,30,-1,-1,-1,-1,-1,-1,-1,-1,-1,-1,-1,-1,-1,-1,-1,-1],"split_conditions":[7.084782E-1,5.5E-1,2.7563736E-1,4.3093872E-1,1E-45,9.841346E-1,7.966667E-1,1E-45,6.5E1,1.16E1,-4.6947157E-1,-9.975641E-1,2.798E1,7.1E1,1.19E1,-4.4617563E-1,-3.006265E-1,-8.55389E-2,-2.5352192E-1,5.4214668E-2,-1.4939702E-1,-1.6328676E-2,1.8430558E-1,-4.1598924E-2,3.8444713E-1,7.330852E-1,-0E0,2.8137942E-3,-7.7297024E-2,-6.358088E-3,7.704181E-2],"split_indices":[4,4,1,4,5,4,4,5,0,2,1,1,6,0,2,0,0,0,0,0,0,0,0,0,0,0,0,0,0,0,0],"split_type":[0,0,0,0,1,0,0,1,0,0,0,0,0,0,0,0,0,0,0,0,0,0,0,0,0,0,0,0,0,0,0],"sum_hessian":[6.71E2,4.31E2,2.4E2,2.96E2,1.35E2,1.89E2,5.1E1,1.8E2,1.16E2,5.3E1,8.2E1,1.16E2,7.3E1,1.9E1,3.2E1,9E1,9E1,1.8E1,9.8E1,3E0,5E1,5.5E1,2.7E1,8E0,1.08E2,7.2E1,1E0,8E0,1.1E1,8E0,2.4E1],"tree_param":{"num_deleted":"0","num_feature":"9","num_nodes":"31","size_leaf_vector":"1"}},{"base_weights":[1.491884E-1,-4.9921937E0,6.9877405E0,-6.835795E0,-1.8289925E0,-9.2669725E-2,9.419221E0,3.072907E-2,-6.8830214E0,-3.618422E-2,-2.9980867E0,-9.320078E-1,1.5968167E0,4.7775183E0,1.2347329E1,-3.8762316E-1,-2.8604814E-1,-7.338714E-2,1.336754E-1,-1.8285446E-1,1.0851724E-3,-9.8089926E-2,1.8301569E-2,-0E0,9.3018755E-2,1.2757772E-1,4.3928233E-1,7.0371866E-1,3.8022453E-1],"categories":[0],"categories_nodes":[2],"categories_segments":[0],"categories_sizes":[1],"default_left":[0,0,1,0,0,0,0,0,0,0,0,0,0,0,0,0,0,0,0,0,0,0,0,0,0,0,0,0,0],"id":17,"left_children":[1,3,5,7,9,11,13,-1,15,17,19,21,23,25,27,-1,-1,-1,-1,-1,-1,-1,-1,-1,-1,-1,-1,-1,-1],"loss_changes":[2.4084951E4,2.2090098E3,5.075159E3,1.13625E2,3.1291348E2,1.2022043E2,2.6644453E3,0E0,1.1291992E1,2.7055472E2,1.8512671E2,8.137857E1,1.1668846E1,7.0631885E2,5.162129E2,0E0,0E0,0E0,0E0,0E0,0E0,0E0,0E0,0E0,0E0,0E0,0E0,0E0,0E0],"parents":[2147483647,0,0,1,1,2,2,3,3,4,4,5,5,6,6,8,8,9,9,10,10,11,11,12,12,13,13,14,14],"right_children":[2,4,6,8,10,12,14,-1,16,18,20,22,24,26,28,-1,-1,-1,-1,-1,-1,-1,-1,-1,-1,-1,-1,-1,-1],"split_conditions":[6.617547E-1,4.869754E-1,1E-45,2.121E1,7E1,8.5504466E-1,8.28284E-1,3.072907E-2,3.7357897E-1,6.2E-1,9.2718387E-1,8.8294756E-1,6.4278764E-1,-5.2991927E-1,7.2E1,-3.8762316E-1,-2.8604814E-1,-7.338714E-2,1.336754E-1,-1.8285446E-1,1.0851724E-3,-9.8089926E-2,1.8301569E-2,-0E0,9.3018755E-2,1.2757772E-1,4.3928233E-1,7.0371866E-1,3.8022453E-1],"split_indices":[4,4,5,6,0,4,4,0,4,4,1,1,1,1,0,0,0,0,0,0,0,0,0,0,0,0,0,0,0],"split_type":[0,0,1,0,0,0,0,0,0,0,0,0,0,0,0,0,0,0,0,0,0,0,0,0,0,0,0,0,0],"sum_hessian":[6.75E2,3.86E2,2.89E2,2.4E2,1.46E2,7.5E1,2.14E2,1E0,2.39E2,6E1,8.6E1,5.2E1,2.3E1,8.8E1,1.26E2,1.2E2,1.19E2,4.1E1,1.9E1,7E1,1.6E1,2.8E1,2.4E1,4E0,1.9E1,6.2E1,2.6E1,8.5E1,4.1E1],"tree_param":{"num_deleted":"0","num_feature":"9","num_nodes":"29","size_leaf_vector":"1"}},{"base_weights":[8.7225504E-2,-3.4377315E0,9.027085E0,-6.4386234E0,-3.0459613E-1,1.08672285E1,1.1071253E0,-7.4622765E0,-5.1338534E0,9.888508E-1,-2.4911432E0,8.565279E0,7.662696E-1,-1.0064254E0,1.6128937E0,-4.5308742E-1,-2.63794E-1,-2.649022E-1,-0E0,-3.6219187E-2,1.5587169E-1,-1.4119576E-1,1.3838482E-1,5.5987877E-1,2.9152104E-1,-5.3299334E-2,-0E0,9.194144E-2,-1.1519456E-2],"categories":[0,1],"categories_nodes":[7,10],"categories_segments":[0,1],"categories_sizes":[1,1],"default_left":[0,0,0,0,0,0,0,1,0,0,1,0,0,0,0,0,0,0,0,0,0,0,0,0,0,0,0,0,0],"id":18,"left_children":[1,3,5,7,9,11,13,15,17,19,21,23,-1,25,27,-1,-1,-1,-1,-1,-1,-1,-1,-1,-1,-1,-1,-1,-1],"loss_changes":[2.2062025E4,4.7033545E3,2.8134941E3,1.3777441E2,7.23693E2,9.6177344E2,5.468834E1,2.082334E2,1.08677246E2,6.0081274E2,2.0538428E2,4.9881738E2,0E0,2.2146416E-1,1.9135788E1,0E0,0E0,0E0,0E0,0E0,0E0,0E0,0E0,0E0,0E0,0E0,0E0,0E0,0E0],"parents":[2147483647,0,0,1,1,2,2,3,3,4,4,5,5,6,6,7,7,8,8,9,9,10,10,11,11,13,13,14,14],"right_children":[2,4,6,8,10,12,14,16,18,20,22,24,-1,26,28,-1,-1,-1,-1,-1,-1,-1,-1,-1,-1,-1,-1,-1,-1],"split_conditions":[7.8365165E-1,4.869754E-1,1.7364818E-1,3.7357897E-1,7.3E1,1.0649554E0,5E-1,1E-45,1.28E1,6.617547E-1,1E-45,6.9E1,7.662696E-1,7.7E1,8.3E1,-4.5308742E-1,-2.63794E-1,-2.649022E-1,-0E0,-3.6219187E-2,1.5587169E-1,-1.4119576E-1,1.3838482E-1,5.5987877E-1,2.9152104E-1,-5.3299334E-2,-0E0,9.194144E-2,-1.1519456E-2],"split_indices":[4,4,1,4,0,4,1,5,2,4,7,0,0,0,0,0,0,0,0,0,0,0,0,0,0,0,0,0,0],"split_type":[0,0,0,0,0,0,0,1,0,0,1,0,0,0,0,0,0,0,0,0,0,0,0,0,0,0,0,0,0],"sum_hessian":[6.9E2,4.97E2,1.93E2,2.51E2,2.46E2,1.55E2,3.8E1,1.27E2,1.24E2,1.56E2,9E1,1.12E2,4.3E1,6E0,3.2E1,6.4E1,6.3E1,1.2E2,4E0,8.8E1,6.8E1,8.7E1,3E0,4.9E1,6.3E1,5E0,1E0,2.9E1,3E0],"tree_param":{"num_deleted":"0","num_feature":"9","num_nodes":"29","size_leaf_vector":"1"}},{"base_weights":[1.808952E-1,-4.498659E0,6.1597757E0,-6.20074E0,-2.3681643E0,7.486098E-2,8.227396E0,-4.8094196E0,-7.49365E0,-3.2738934E0,-1.1222155E0,-9.4377977E-1,2.0985928E0,4.483888E0,1.1478567E1,-2.911478E-1,-1.1228019E-1,-4.3260074E-1,-2.4778894E-1,-1.0552124E-1,-2.3987348E-1,2.3480277E-1,-9.045157E-2,-6.4578964E-3,-1.1842704E-1,1.1703888E-1,7.4430467E-3,7.788861E-2,3.1240046E-1,6.240643E-1,3.2452786E-1],"categories":[0],"categories_nodes":[2],"categories_segments":[0],"categories_sizes":[1],"default_left":[0,0,1,0,0,0,0,0,0,0,0,0,0,0,0,0,0,0,0,0,0,0,0,0,0,0,0,0,0,0,0],"id":19,"left_children":[1,3,5,7,9,11,13,15,17,19,21,23,25,27,29,-1,-1,-1,-1,-1,-1,-1,-1,-1,-1,-1,-1,-1,-1,-1,-1],"loss_changes":[1.905368E4,1.3032461E3,3.7504238E3,1.8345654E2,1.7810529E2,1.7803578E2,2.4407812E3,2.2538086E2,6.304297E1,1.1973193E2,3.7126416E2,6.2129288E1,9.461784E0,5.216758E2,1.561582E2,0E0,0E0,0E0,0E0,0E0,0E0,0E0,0E0,0E0,0E0,0E0,0E0,0E0,0E0,0E0,0E0],"parents":[2147483647,0,0,1,1,2,2,3,3,4,4,5,5,6,6,7,7,8,8,9,9,10,10,11,11,12,12,13,13,14,14],"right_children":[2,4,6,8,10,12,14,16,18,20,22,24,26,28,30,-1,-1,-1,-1,-1,-1,-1,-1,-1,-1,-1,-1,-1,-1,-1,-1],"split_conditions":[6.4E-1,4.5614251E-1,1E-45,2.7563736E-1,5.508774E-1,8.4848887E-1,8.7E-1,-1.391731E-1,3.542236E-1,7.4E1,5.6E-1,7.5E1,7.9E1,-9.5105654E-1,7.3E1,-2.911478E-1,-1.1228019E-1,-4.3260074E-1,-2.4778894E-1,-1.0552124E-1,-2.3987348E-1,2.3480277E-1,-9.045157E-2,-6.4578964E-3,-1.1842704E-1,1.1703888E-1,7.4430467E-3,7.788861E-2,3.1240046E-1,6.240643E-1,3.2452786E-1],"split_indices":[4,4,5,1,4,4,4,1,4,0,4,0,0,1,0,0,0,0,0,0,0,0,0,0,0,0,0,0,0,0,0],"split_type":[0,0,1,0,0,0,0,0,0,0,0,0,0,0,0,0,0,0,0,0,0,0,0,0,0,0,0,0,0,0,0],"sum_hessian":[6.71E2,3.77E2,2.94E2,2.04E2,1.73E2,7.6E1,2.18E2,1.1E2,9.4E1,9.5E1,7.8E1,5.2E1,2.4E1,1.07E2,1.11E2,7.4E1,3.6E1,5.6E1,3.8E1,6.1E1,3.4E1,5E0,7.3E1,3.7E1,1.5E1,2E1,4E0,4.4E1,6.3E1,8.6E1,2.5E1],"tree_param":{"num_deleted":"0","num_feature":"9","num_nodes":"31","size_leaf_vector":"1"}},{"base_weights":[-9.498233E-2,-3.8491025E0,7.116343E0,-5.8627796E0,-1.192858E0,8.769524E0,5.3031516E-1,-6.956036E0,-4.710851E0,3.6701005E-2,-3.2841072E0,5.181786E0,1.1019719E1,-7.3100604E-2,1.3414809E0,-4.2562705E-1,-2.3171778E-1,-2.4761395E-1,-4.585729E-2,7.3060684E-2,-1.07498646E-1,-2.0107415E-1,3.6067583E-2,7.474547E-2,3.8211596E-1,6.2181693E-1,3.337704E-1,-1.612601E-2,3.0585423E-2,-1.854575E-2,8.1345335E-2],"categories":[0],"categories_nodes":[7],"categories_segments":[0],"categories_sizes":[1],"default_left":[0,0,0,0,0,0,0,1,0,0,0,0,0,0,0,0,0,0,0,0,0,0,0,0,0,0,0,0,0,0,0],"id":20,"left_children":[1,3,5,7,9,11,13,15,17,19,21,23,25,27,29,-1,-1,-1,-1,-1,-1,-1,-1,-1,-1,-1,-1,-1,-1,-1,-1],"loss_changes":[1.9138361E4,2.4451772E3,2.6023164E3,1.5569824E2,5.361121E2,1.2564004E3,2.8190086E1,2.3770166E2,1.0331152E2,4.355366E2,2.4522626E2,6.957612E2,2.673828E2,6.675421E0,1.6003506E1,0E0,0E0,0E0,0E0,0E0,0E0,0E0,0E0,0E0,0E0,0E0,0E0,0E0,0E0,0E0,0E0],"parents":[2147483647,0,0,1,1,2,2,3,3,4,4,5,5,6,6,7,7,8,8,9,9,10,10,11,11,12,12,13,13,14,14],"right_children":[2,4,6,8,10,12,14,16,18,20,22,24,26,28,30,-1,-1,-1,-1,-1,-1,-1,-1,-1,-1,-1,-1,-1,-1,-1,-1],"split_conditions":[7.084782E-1,4.869754E-1,2.7563736E-1,3.6149058E-1,7.3E1,8.844707E-1,8.4848887E-1,1E-45,1.27E1,2.0791169E-1,9.2718387E-1,-9.135454E-1,7.2E1,2.516E1,5E-1,-4.2562705E-1,-2.3171778E-1,-2.4761395E-1,-4.585729E-2,7.3060684E-2,-1.07498646E-1,-2.0107415E-1,3.6067583E-2,7.474547E-2,3.8211596E-1,6.2181693E-1,3.337704E-1,-1.612601E-2,3.0585423E-2,-1.854575E-2,8.1345335E-2],"split_indices":[4,4,1,4,0,4,4,5,2,1,1,1,0,6,1,0,0,0,0,0,0,0,0,0,0,0,0,0,0,0,0],"split_type":[0,0,0,0,0,0,0,1,0,0,0,0,0,0,0,0,0,0,0,0,0,0,0,0,0,0,0,0,0,0,0],"sum_hessian":[6.97E2,4.6E2,2.37E2,2.58E2,2.02E2,1.88E2,4.9E1,1.19E2,1.39E2,1.3E2,7.2E1,7.9E1,1.09E2,3E1,1.9E1,6.3E1,5.6E1,1.29E2,1E1,8E1,5E1,6.1E1,1.1E1,3.5E1,4.4E1,7.5E1,3.4E1,2.5E1,5E0,2E0,1.7E1],"tree_param":{"num_deleted":"0","num_feature":"9","num_nodes":"31","size_leaf_vector":"1"}},{"base_weights":[6.422743E-2,-3.0032794E0,7.7824016E0,-4.748804E0,5.186978E-1,9.423096E0,8.718633E-1,-6.2986636E0,-3.7061586E0,2.5520375E0,-1.2317653E0,1.2552632E1,7.094761E0,-1.0797737E0,1.3484077E0,-3.9195305E-1,-2.1481411E-1,-1.349039E-1,-2.5613216E-1,2.0085855E-1,-2.8744234E-2,-2.8037244E-2,-1.778953E-1,6.394686E-1,7.0720896E-2,2.2464214E-1,4.5778862E-1,-5.738901E-2,-0E0,-0E0,9.97851E-2],"categories":[0],"categories_nodes":[7],"categories_segments":[0],"categories_sizes":[1],"default_left":[0,0,0,0,0,0,0,1,0,0,0,0,0,0,0,0,0,0,0,0,0,0,0,0,0,0,0,0,0,0,0],"id":21,"left_children":[1,3,5,7,9,11,13,15,17,19,21,23,25,27,29,-1,-1,-1,-1,-1,-1,-1,-1,-1,-1,-1,-1,-1,-1,-1,-1],"loss_changes":[1.664718E4,3.108838E3,2.2162412E3,4.1785205E2,6.2567566E2,7.08208E2,4.847035E1,2.1428174E2,2.286499E2,3.860794E2,1.341903E2,5.8833984E1,3.3838232E2,3.4897232E-1,3.446174E1,0E0,0E0,0E0,0E0,0E0,0E0,0E0,0E0,0E0,0E0,0E0,0E0,0E0,0E0,0E0,0E0],"parents":[2147483647,0,0,1,1,2,2,3,3,4,4,5,5,6,6,7,7,8,8,9,9,10,10,11,11,12,12,13,13,14,14],"right_children":[2,4,6,8,10,12,14,16,18,20,22,24,26,28,30,-1,-1,-1,-1,-1,-1,-1,-1,-1,-1,-1,-1,-1,-1,-1,-1],"split_conditions":[7.9E-1,5.8546937E-1,1.391731E-1,3.7357897E-1,7E1,6.7E1,5.8778524E-1,1E-45,7.3E1,3.4899496E-2,8E1,2.739E1,9.5E-1,7.8E1,8.5504466E-1,-3.9195305E-1,-2.1481411E-1,-1.349039E-1,-2.5613216E-1,2.0085855E-1,-2.8744234E-2,-2.8037244E-2,-1.778953E-1,6.394686E-1,7.0720896E-2,2.2464214E-1,4.5778862E-1,-5.738901E-2,-0E0,-0E0,9.97851E-2],"split_indices":[4,4,1,4,0,0,1,5,0,1,0,6,4,0,4,0,0,0,0,0,0,0,0,0,0,0,0,0,0,0,0],"split_type":[0,0,0,0,0,0,0,1,0,0,0,0,0,0,0,0,0,0,0,0,0,0,0,0,0,0,0,0,0,0,0],"sum_hessian":[6.93E2,4.98E2,1.95E2,3.32E2,1.66E2,1.56E2,3.9E1,1.23E2,2.09E2,7.6E1,9E1,5.7E1,9.9E1,6E0,3.3E1,6.1E1,6.2E1,1.31E2,7.8E1,5.1E1,2.5E1,7.5E1,1.5E1,5.5E1,2E0,5.1E1,4.8E1,5E0,1E0,1.2E1,2.1E1],"tree_param":{"num_deleted":"0","num_feature":"9","num_nodes":"31","size_leaf_vector":"1"}},{"base_weights":[-6.90554E-2,-3.3975594E0,5.881705E0,-4.9678063E0,-1.2732308E0,2.5814024E-1,7.764152E0,-5.9733562E0,-4.084957E0,-2.024497E0,6.456435E-1,-6.8026453E-1,1.5622169E0,5.0773373E0,1.1488121E1,-3.626295E-1,-2.1099642E-1,-1.4066026E-1,-2.5625023E-1,-5.6088895E-2,-1.9974904E-1,-2.7286423E-2,1.7501418E-1,-5.8429807E-2,8.288374E-3,1.2095579E-2,9.3399055E-2,1.360062E-1,3.8019124E-1,6.342856E-1,2.3467326E-1],"categories":[0,0],"categories_nodes":[2,7],"categories_segments":[0,1],"categories_sizes":[1,1],"default_left":[0,0,1,0,0,0,0,1,0,0,0,0,0,0,0,0,0,0,0,0,0,0,0,0,0,0,0,0,0,0,0],"id":22,"left_children":[1,3,5,7,9,11,13,15,17,19,21,23,25,27,29,-1,-1,-1,-1,-1,-1,-1,-1,-1,-1,-1,-1,-1,-1,-1,-1],"loss_changes":[1.3586089E4,1.4298501E3,2.586128E3,9.076221E1,2.87582E2,8.818692E1,1.5328232E3,7.326318E1,1.1837573E2,2.232857E2,2.0975998E2,1.9323462E1,7.741745E0,5.770935E2,2.7893848E2,0E0,0E0,0E0,0E0,0E0,0E0,0E0,0E0,0E0,0E0,0E0,0E0,0E0,0E0,0E0,0E0],"parents":[2147483647,0,0,1,1,2,2,3,3,4,4,5,5,6,6,7,7,8,8,9,9,10,10,11,11,12,12,13,13,14,14],"right_children":[2,4,6,8,10,12,14,16,18,20,22,24,26,28,30,-1,-1,-1,-1,-1,-1,-1,-1,-1,-1,-1,-1,-1,-1,-1,-1],"split_conditions":[7.084782E-1,4.869754E-1,1E-45,2.4224749E1,4.499E1,8.5504466E-1,9.841346E-1,1E-45,7.2E1,7.6E1,1.21E1,9.396926E-1,6.691306E-1,-7.193398E-1,7.3E1,-3.626295E-1,-2.1099642E-1,-1.4066026E-1,-2.5625023E-1,-5.6088895E-2,-1.9974904E-1,-2.7286423E-2,1.7501418E-1,-5.8429807E-2,8.288374E-3,1.2095579E-2,9.3399055E-2,1.360062E-1,3.8019124E-1,6.342856E-1,2.3467326E-1],"split_indices":[4,4,5,8,3,4,4,5,0,0,2,1,1,1,0,0,0,0,0,0,0,0,0,0,0,0,0,0,0,0,0],"split_type":[0,0,1,0,0,0,0,1,0,0,0,0,0,0,0,0,0,0,0,0,0,0,0,0,0,0,0,0,0,0,0],"sum_hessian":[6.76E2,4.35E2,2.41E2,2.46E2,1.89E2,6.2E1,1.79E2,1.01E2,1.45E2,1.36E2,5.3E1,3.7E1,2.5E1,1.11E2,6.8E1,4.9E1,5.2E1,7.4E1,7.1E1,9.9E1,3.7E1,4E1,1.3E1,2.3E1,1.4E1,7E0,1.8E1,6.3E1,4.8E1,5.4E1,1.4E1],"tree_param":{"num_deleted":"0","num_feature":"9","num_nodes":"31","size_leaf_vector":"1"}},{"base_weights":[4.0680747E-2,-3.990076E0,5.1137557E0,-5.0692787E0,-1.7893403E0,2.317078E0,8.370025E0,-6.7545896E0,-4.361E0,3.156578E-1,-2.5023038E0,-7.1668845E-1,3.7710311E0,9.426181E0,1.4597325E0,-3.9521286E-1,-1.578155E-1,3.791971E-2,-2.2055288E-1,-6.296723E-2,2.2337368E-1,-1.5197937E-1,5.412478E-2,5.2107736E-3,-8.374822E-2,9.32985E-2,3.4710953E-1,5.109825E-1,2.1159248E-1,-1.1525464E-2,8.940315E-2],"categories":[0,0],"categories_nodes":[5,7],"categories_segments":[0,1],"categories_sizes":[1,1],"default_left":[0,0,0,0,0,1,0,1,0,0,0,0,0,0,0,0,0,0,0,0,0,0,0,0,0,0,0,0,0,0,0],"id":23,"left_children":[1,3,5,7,9,11,13,15,17,19,21,23,25,27,29,-1,-1,-1,-1,-1,-1,-1,-1,-1,-1,-1,-1,-1,-1,-1,-1],"loss_changes":[1.44987705E4,8.859287E2,2.7518574E3,1.5434229E2,2.1324457E2,7.9289545E2,9.639785E2,1.4550195E2,7.137573E1,2.863643E2,2.1871832E2,5.0429337E1,6.513727E2,2.762588E2,1.7492336E1,0E0,0E0,0E0,0E0,0E0,0E0,0E0,0E0,0E0,0E0,0E0,0E0,0E0,0E0,0E0,0E0],"parents":[2147483647,0,0,1,1,2,2,3,3,4,4,5,5,6,6,7,7,8,8,9,9,10,10,11,11,12,12,13,13,14,14],"right_children":[2,4,6,8,10,12,14,16,18,20,22,24,26,28,30,-1,-1,-1,-1,-1,-1,-1,-1,-1,-1,-1,-1,-1,-1,-1,-1],"split_conditions":[6.4E-1,4.869754E-1,8.844707E-1,3.0989486E-1,6.7E1,1E-45,1.7364818E-1,1E-45,2.121E1,3.7726727E1,9.2718387E-1,4.457E1,-6.4278764E-1,7.5E1,6.4278764E-1,-3.9521286E-1,-1.578155E-1,3.791971E-2,-2.2055288E-1,-6.296723E-2,2.2337368E-1,-1.5197937E-1,5.412478E-2,5.2107736E-3,-8.374822E-2,9.32985E-2,3.4710953E-1,5.109825E-1,2.1159248E-1,-1.1525464E-2,8.940315E-2],"split_indices":[4,4,4,4,0,5,1,5,6,8,1,3,1,0,1,0,0,0,0,0,0,0,0,0,0,0,0,0,0,0,0],"split_type":[0,0,0,0,0,1,0,1,0,0,0,0,0,0,0,0,0,0,0,0,0,0,0,0,0,0,0,0,0,0,0],"sum_hessian":[6.99E2,3.9E2,3.09E2,2.57E2,1.33E2,1.71E2,1.38E2,6.3E1,1.94E2,3.4E1,9.9E1,5.6E1,1.15E2,1.18E2,2E1,4.3E1,2E1,1E0,1.93E2,2.7E1,7E0,8.7E1,1.2E1,3.2E1,2.4E1,7.7E1,3.8E1,9.8E1,2E1,3E0,1.7E1],"tree_param":{"num_deleted":"0","num_feature":"9","num_nodes":"31","size_leaf_vector":"1"}},{"base_weights":[3.1154176E-2,-2.799907E0,7.206503E0,-4.6969447E0,-4.5630476E-1,8.609689E0,9.793084E-1,-6.5306454E0,-4.005195E0,6.410656E-1,-2.197858E0,1.121861E1,6.6116147E0,-1.0787319E0,1.4302236E0,-4.026048E-1,-1.468947E-1,-2.668047E-1,-1.6238794E-1,1.10242866E-1,-7.351517E-2,-1.2675129E-1,1.0669427E-1,5.7413703E-1,3.9924458E-2,2.1408391E-1,3.9846957E-1,-5.770577E-2,-0E0,-0E0,8.4003754E-2],"categories":[0,1,0],"categories_nodes":[7,10,11],"categories_segments":[0,1,2],"categories_sizes":[1,1,1],"default_left":[0,0,0,0,0,0,0,1,0,0,1,1,0,0,0,0,0,0,0,0,0,0,0,0,0,0,0,0,0,0,0],"id":24,"left_children":[1,3,5,7,9,11,13,15,17,19,21,23,25,27,29,-1,-1,-1,-1,-1,-1,-1,-1,-1,-1,-1,-1,-1,-1,-1,-1],"loss_changes":[1.4142165E4,2.2026355E3,1.6696221E3,2.0750879E2,4.4625024E2,4.4535547E2,4.7041702E1,2.3696387E2,1.194834E2,4.9239432E2,1.5889545E2,1.1251465E2,1.4298096E2,3.5121727E-1,1.46399E1,0E0,0E0,0E0,0E0,0E0,0E0,0E0,0E0,0E0,0E0,0E0,0E0,0E0,0E0,0E0,0E0],"parents":[2147483647,0,0,1,1,2,2,3,3,4,4,5,5,6,6,7,7,8,8,9,9,10,10,11,11,12,12,13,13,14,14],"right_children":[2,4,6,8,10,12,14,16,18,20,22,24,26,28,30,-1,-1,-1,-1,-1,-1,-1,-1,-1,-1,-1,-1,-1,-1,-1,-1],"split_conditions":[7.9E-1,5.134006E-1,1.391731E-1,3.0989486E-1,7.3E1,6.7E1,5.8778524E-1,1E-45,-6.691306E-1,6.975647E-2,1E-45,1E-45,9.5E-1,7.8E1,1.18E1,-4.026048E-1,-1.468947E-1,-2.668047E-1,-1.6238794E-1,1.10242866E-1,-7.351517E-2,-1.2675129E-1,1.0669427E-1,5.7413703E-1,3.9924458E-2,2.1408391E-1,3.9846957E-1,-5.770577E-2,-0E0,-0E0,8.4003754E-2],"split_indices":[4,4,1,4,0,0,1,5,1,1,7,7,4,0,2,0,0,0,0,0,0,0,0,0,0,0,0,0,0,0,0],"split_type":[0,0,0,0,0,0,0,1,0,0,1,1,0,0,0,0,0,0,0,0,0,0,0,0,0,0,0,0,0,0,0],"sum_hessian":[6.86E2,4.94E2,1.92E2,2.7E2,2.24E2,1.55E2,3.7E1,6.2E1,2.08E2,1.39E2,8.5E1,5.7E1,9.8E1,5E0,3.2E1,3.9E1,2.3E1,6.4E1,1.44E2,8E1,5.9E1,8.1E1,4E0,5.5E1,2E0,4.4E1,5.4E1,4E0,1E0,5E0,2.7E1],"tree_param":{"num_deleted":"0","num_feature":"9","num_nodes":"31","size_leaf_vector":"1"}},{"base_weights":[7.1245685E-2,-3.0085974E0,5.4634857E0,-4.5175233E0,-8.927233E-1,3.2720977E-1,6.954738E0,-5.8546014E0,-3.9165843E0,-1.9893676E0,4.617345E-1,-4.073906E-1,1.3539228E0,3.3653722E0,8.614369E0,-3.5192963E-1,-1.4663246E-1,-1.5039366E-1,-2.2787409E-1,-1.1699052E-1,8.5288145E-2,8.070485E-2,-1.4086138E-1,-5.7710167E-2,2.9042561E-5,7.4752115E-2,-0E0,-1.019961E-2,2.8682926E-1,5.621286E-1,3.1867337E-1],"categories":[0,0,1],"categories_nodes":[2,7,9],"categories_segments":[0,1,2],"categories_sizes":[1,1,1],"default_left":[0,0,1,0,0,0,0,1,0,1,0,0,0,0,0,0,0,0,0,0,0,0,0,0,0,0,0,0,0,0,0],"id":25,"left_children":[1,3,5,7,9,11,13,15,17,19,21,23,25,27,29,-1,-1,-1,-1,-1,-1,-1,-1,-1,-1,-1,-1,-1,-1,-1,-1],"loss_changes":[1.1693112E4,1.4047537E3,1.9421675E3,8.448926E1,2.9279462E2,5.1220505E1,1.0225576E3,1.2898999E2,3.7458984E1,1.604425E2,3.61603E2,1.3344104E1,6.7869377E0,6.12308E2,4.015332E2,0E0,0E0,0E0,0E0,0E0,0E0,0E0,0E0,0E0,0E0,0E0,0E0,0E0,0E0,0E0,0E0],"parents":[2147483647,0,0,1,1,2,2,3,3,4,4,5,5,6,6,7,7,8,8,9,9,10,10,11,11,12,12,13,13,14,14],"right_children":[2,4,6,8,10,12,14,16,18,20,22,24,26,28,30,-1,-1,-1,-1,-1,-1,-1,-1,-1,-1,-1,-1,-1,-1,-1,-1],"split_conditions":[7.084782E-1,4.869754E-1,1E-45,3.0989486E-1,6.2E-1,8.5504466E-1,8.2121724E-1,1E-45,7.1E1,1E-45,7.6E1,7.6604444E-1,7.9E1,-9.135454E-1,6.7E1,-3.5192963E-1,-1.4663246E-1,-1.5039366E-1,-2.2787409E-1,-1.1699052E-1,8.5288145E-2,8.070485E-2,-1.4086138E-1,-5.7710167E-2,2.9042561E-5,7.4752115E-2,-0E0,-1.019961E-2,2.8682926E-1,5.621286E-1,3.1867337E-1],"split_indices":[4,4,5,4,4,4,4,5,0,7,0,1,0,1,0,0,0,0,0,0,0,0,0,0,0,0,0,0,0,0,0],"split_type":[0,0,1,0,0,0,0,1,0,1,0,0,0,0,0,0,0,0,0,0,0,0,0,0,0,0,0,0,0,0,0],"sum_hessian":[6.94E2,4.43E2,2.51E2,2.55E2,1.88E2,5.8E1,1.93E2,6.5E1,1.9E2,1.03E2,8.5E1,3.5E1,2.3E1,6.6E1,1.27E2,4.1E1,2.4E1,9.1E1,9.9E1,9.6E1,7E0,6.5E1,2E1,1E1,2.5E1,2.1E1,2E0,2.8E1,3.8E1,4.9E1,7.8E1],"tree_param":{"num_deleted":"0","num_feature":"9","num_nodes":"31","size_leaf_vector":"1"}},{"base_weights":[2.2079325E-1,-2.2752225E0,6.460302E0,-4.0220613E0,3.9744043E-1,7.8206406E0,5.1755595E-1,-4.825071E0,-2.7493289E0,2.1949682E0,-1.1312621E0,6.0275335E0,1.0911502E1,-8.1909716E-1,1.2220668E0,-2.4239281E-1,-0E0,-1.587508E-2,-1.538276E-1,2.0303157E-1,-5.7522263E-2,2.3906687E-1,-7.070039E-2,1.9966273E-1,3.948259E-1,5.546616E-1,5.360858E-3,-5.9743356E-2,-0E0,-1.4112622E-2,7.731207E-2],"categories":[],"categories_nodes":[],"categories_segments":[],"categories_sizes":[],"default_left":[0,0,0,0,0,0,0,0,0,0,0,0,0,0,0,0,0,0,0,0,0,0,0,0,0,0,0,0,0,0,0],"id":26,"left_children":[1,3,5,7,9,11,13,15,17,19,21,23,25,27,29,-1,-1,-1,-1,-1,-1,-1,-1,-1,-1,-1,-1,-1,-1,-1,-1],"loss_changes":[1.0683513E4,2.2992861E3,1.5559155E3,2.2963574E2,5.575603E2,5.3543164E2,4.4958763E1,1.5068115E1,9.278204E1,6.067194E2,2.1433075E2,2.562744E2,8.495166E1,5.7268467E0,1.8076004E1,0E0,0E0,0E0,0E0,0E0,0E0,0E0,0E0,0E0,0E0,0E0,0E0,0E0,0E0,0E0,0E0],"parents":[2147483647,0,0,1,1,2,2,3,3,4,4,5,5,6,6,7,7,8,8,9,9,10,10,11,11,12,12,13,13,14,14],"right_children":[2,4,6,8,10,12,14,16,18,20,22,24,26,28,30,-1,-1,-1,-1,-1,-1,-1,-1,-1,-1,-1,-1,-1,-1,-1,-1],"split_conditions":[7.8365165E-1,5.508774E-1,1.7364818E-1,4.284877E-1,7E1,1.0649554E0,8.5504466E-1,2.896E1,6.5E1,3.4899496E-2,5.542391E-1,-8.480481E-1,8.2E1,1.19E1,6.4278764E-1,-2.4239281E-1,-0E0,-1.587508E-2,-1.538276E-1,2.0303157E-1,-5.7522263E-2,2.3906687E-1,-7.070039E-2,1.9966273E-1,3.948259E-1,5.546616E-1,5.360858E-3,-5.9743356E-2,-0E0,-1.4112622E-2,7.731207E-2],"split_indices":[4,4,1,4,0,4,4,6,0,1,4,1,0,2,1,0,0,0,0,0,0,0,0,0,0,0,0,0,0,0,0],"split_type":[0,0,0,0,0,0,0,0,0,0,0,0,0,0,0,0,0,0,0,0,0,0,0,0,0,0,0,0,0,0,0],"sum_hessian":[6.76E2,4.85E2,1.91E2,2.92E2,1.93E2,1.54E2,3.7E1,1.7E2,1.22E2,8.8E1,1.05E2,1.07E2,4.7E1,1.2E1,2.5E1,1.69E2,1E0,1.6E1,1.06E2,5.6E1,3.2E1,1E0,1.04E2,5.9E1,4.8E1,4.6E1,1E0,7E0,5E0,4E0,2.1E1],"tree_param":{"num_deleted":"0","num_feature":"9","num_nodes":"31","size_leaf_vector":"1"}},{"base_weights":[4.8938077E-2,-2.4714262E0,5.9729795E0,-3.7543945E0,6.357153E-2,7.2066574E0,5.717002E-1,-5.8445463E0,-3.0129268E0,2.4201748E0,-8.8487786E-1,9.982411E0,5.306821E0,-4.9696004E-1,8.254633E-1,-3.570214E-1,-1.5463777E-1,-1.1465905E-1,-2.0969756E-1,1.945012E-1,-5.1321E-2,-7.479275E-3,-1.1317568E-1,4.3849755E-2,5.09464E-1,1.9147414E-1,3.8462123E-1,-0E0,-2.7957553E-2,-2.7426402E-3,5.864804E-2],"categories":[0],"categories_nodes":[7],"categories_segments":[0],"categories_sizes":[1],"default_left":[0,0,0,0,0,0,0,1,0,0,0,0,0,0,0,0,0,0,0,0,0,0,0,0,0,0,0,0,0,0,0],"id":27,"left_children":[1,3,5,7,9,11,13,15,17,19,21,23,25,27,29,-1,-1,-1,-1,-1,-1,-1,-1,-1,-1,-1,-1,-1,-1,-1,-1],"loss_changes":[1.0603484E4,1.6245403E3,1.384271E3,4.1607373E2,3.9668356E2,6.26875E2,1.4583009E1,1.6819434E2,1.6218506E2,2.8119232E2,1.23620186E2,6.4805664E1,2.3943872E2,4.0983748E-1,1.3370203E1,0E0,0E0,0E0,0E0,0E0,0E0,0E0,0E0,0E0,0E0,0E0,0E0,0E0,0E0,0E0,0E0],"parents":[2147483647,0,0,1,1,2,2,3,3,4,4,5,5,6,6,7,7,8,8,9,9,10,10,11,11,12,12,13,13,14,14],"right_children":[2,4,6,8,10,12,14,16,18,20,22,24,26,28,30,-1,-1,-1,-1,-1,-1,-1,-1,-1,-1,-1,-1,-1,-1,-1,-1],"split_conditions":[7.684889E-1,5.8546937E-1,1.7364818E-1,3.2E-1,6.8E1,6.7E1,5.8778524E-1,1E-45,7.3E1,-1.8369701E-16,7.6E1,7.79799E-1,1.05E0,6.6E1,1.19E1,-3.570214E-1,-1.5463777E-1,-1.1465905E-1,-2.0969756E-1,1.945012E-1,-5.1321E-2,-7.479275E-3,-1.1317568E-1,4.3849755E-2,5.09464E-1,1.9147414E-1,3.8462123E-1,-0E0,-2.7957553E-2,-2.7426402E-3,5.864804E-2],"split_indices":[4,4,1,4,0,0,1,5,0,1,0,4,4,0,2,0,0,0,0,0,0,0,0,0,0,0,0,0,0,0,0],"split_type":[0,0,0,0,0,0,0,1,0,0,0,0,0,0,0,0,0,0,0,0,0,0,0,0,0,0,0,0,0,0,0],"sum_hessian":[7E2,4.93E2,2.07E2,3.26E2,1.67E2,1.67E2,4E1,7.6E1,2.5E2,4.6E1,1.21E2,5.9E1,1.08E2,6E0,3.4E1,4.6E1,3E1,1.65E2,8.5E1,3.2E1,1.4E1,8.3E1,3.8E1,2E0,5.7E1,7.5E1,3.3E1,1E0,5E0,1E1,2.4E1],"tree_param":{"num_deleted":"0","num_feature":"9","num_nodes":"31","size_leaf_vector":"1"}},{"base_weights":[8.2396574E-2,-2.7572687E0,4.5064807E0,-3.8805287E0,-1.0552808E0,5.702461E0,2.621082E-1,-4.686173E0,-3.0137224E0,-1.3116877E0,2.567516E0,4.417503E0,9.694919E0,-3.519029E-1,1.2284762E0,-1.5940192E-1,-2.9410204E-1,-2.2483115E-1,-1.0506648E-1,-9.446425E-2,2.2097042E-2,2.4152906E-1,-5.0541796E-2,2.833053E-1,7.2476864E-2,4.9392158E-1,2.11099E-3,-4.0714726E-2,1.6671058E-2,-1.3658821E-2,7.9624884E-2],"categories":[1],"categories_nodes":[4],"categories_segments":[0],"categories_sizes":[1],"default_left":[0,0,0,0,1,0,0,0,0,0,0,0,0,0,0,0,0,0,0,0,0,0,0,0,0,0,0,0,0,0,0],"id":28,"left_children":[1,3,5,7,9,11,13,15,17,19,21,23,25,27,29,-1,-1,-1,-1,-1,-1,-1,-1,-1,-1,-1,-1,-1,-1,-1,-1],"loss_changes":[8.707164E3,7.813579E2,1.362208E3,9.766699E1,1.7814235E2,8.5420996E2,4.1606537E1,1.13948975E2,1.3016382E2,1.747749E2,1.3350894E2,5.781001E2,7.124951E1,1.5464577E1,1.8253593E1,0E0,0E0,0E0,0E0,0E0,0E0,0E0,0E0,0E0,0E0,0E0,0E0,0E0,0E0,0E0,0E0],"parents":[2147483647,0,0,1,1,2,2,3,3,4,4,5,5,6,6,7,7,8,8,9,9,10,10,11,11,12,12,13,13,14,14],"right_children":[2,4,6,8,10,12,14,16,18,20,22,24,26,28,30,-1,-1,-1,-1,-1,-1,-1,-1,-1,-1,-1,-1,-1,-1,-1,-1],"split_conditions":[6.8182707E-1,4.869754E-1,1.7364818E-1,3.6149058E-1,1E-45,1.0649554E0,8.5504466E-1,1.7364818E-1,-6.691306E-1,6.364344E-1,6.123234E-17,7.2E1,8.2E1,9.5105654E-1,6.4278764E-1,-1.5940192E-1,-2.9410204E-1,-2.2483115E-1,-1.0506648E-1,-9.446425E-2,2.2097042E-2,2.4152906E-1,-5.0541796E-2,2.833053E-1,7.2476864E-2,4.9392158E-1,2.11099E-3,-4.0714726E-2,1.6671058E-2,-1.3658821E-2,7.9624884E-2],"split_indices":[4,4,1,4,7,4,4,1,1,4,1,0,0,1,1,0,0,0,0,0,0,0,0,0,0,0,0,0,0,0,0],"split_type":[0,0,0,0,1,0,0,0,0,0,0,0,0,0,0,0,0,0,0,0,0,0,0,0,0,0,0,0,0,0,0],"sum_hessian":[6.83E2,4.17E2,2.66E2,2.47E2,1.7E2,2.06E2,6E1,1.16E2,1.31E2,1.62E2,8E0,1.64E2,4.2E1,3.8E1,2.2E1,6E1,5.6E1,4.2E1,8.9E1,1.22E2,4E1,4E0,4E0,1.12E2,5.2E1,4.1E1,1E0,2.3E1,1.5E1,4E0,1.8E1],"tree_param":{"num_deleted":"0","num_feature":"9","num_nodes":"31","size_leaf_vector":"1"}},{"base_weights":[4.553208E-2,-2.046141E0,5.4020305E0,-3.537326E0,5.129672E-2,6.5849185E0,2.8520983E-1,-5.26115E0,-3.0125809E0,1.3604642E0,-1.2390388E0,8.858135E0,4.892852E0,-8.67957E-1,7.615215E-1,-2.7419317E-1,1.1555645E-2,-2.1647154E-1,-1.16644084E-1,1.3685323E-1,-5.5239823E-2,-8.9956425E-2,7.4437425E-2,4.543015E-1,2.336066E-2,2.6312432E-1,4.640719E-2,-0E0,-4.792426E-2,-0E0,6.50699E-2],"categories":[],"categories_nodes":[],"categories_segments":[],"categories_sizes":[],"default_left":[0,0,0,0,0,0,0,0,0,0,0,0,0,0,0,0,0,0,0,0,0,0,0,0,0,0,0,0,0,0,0],"id":29,"left_children":[1,3,5,7,9,11,13,15,17,19,21,23,25,27,29,-1,-1,-1,-1,-1,-1,-1,-1,-1,-1,-1,-1,-1,-1,-1,-1],"loss_changes":[7.7782085E3,1.5650999E3,1.164001E3,1.7661182E2,3.6667398E2,3.7727832E2,2.6267612E1,8.6204956E1,1.5407202E2,3.832691E2,1.8023346E2,8.5868164E1,1.18868164E2,1.3961315E0,1.4735533E1,0E0,0E0,0E0,0E0,0E0,0E0,0E0,0E0,0E0,0E0,0E0,0E0,0E0,0E0,0E0,0E0],"parents":[2147483647,0,0,1,1,2,2,3,3,4,4,5,5,6,6,7,7,8,8,9,9,10,10,11,11,12,12,13,13,14,14],"right_children":[2,4,6,8,10,12,14,16,18,20,22,24,26,28,30,-1,-1,-1,-1,-1,-1,-1,-1,-1,-1,-1,-1,-1,-1,-1,-1],"split_conditions":[7.79799E-1,5.5E-1,1.7364818E-1,3.0989486E-1,7E1,6.7E1,6.691306E-1,8.1E1,-6.691306E-1,3.4899496E-2,9.2718387E-1,2.739E1,1.27E1,5.2E1,8.5504466E-1,-2.7419317E-1,1.1555645E-2,-2.1647154E-1,-1.16644084E-1,1.3685323E-1,-5.5239823E-2,-8.9956425E-2,7.4437425E-2,4.543015E-1,2.336066E-2,2.6312432E-1,4.640719E-2,-0E0,-4.792426E-2,-0E0,6.50699E-2],"split_indices":[4,4,1,4,0,0,1,0,1,1,1,6,2,0,4,0,0,0,0,0,0,0,0,0,0,0,0,0,0,0,0],"split_type":[0,0,0,0,0,0,0,0,0,0,0,0,0,0,0,0,0,0,0,0,0,0,0,0,0,0,0,0,0,0,0],"sum_hessian":[6.84E2,4.94E2,1.9E2,2.87E2,2.07E2,1.53E2,3.7E1,5.6E1,2.31E2,1.03E2,1.04E2,5.6E1,9.7E1,9E0,2.8E1,5.4E1,2E0,6.9E1,1.62E2,6.6E1,3.7E1,8.8E1,1.6E1,5.4E1,2E0,8.7E1,1E1,1E0,8E0,1.3E1,1.5E1],"tree_param":{"num_deleted":"0","num_feature":"9","num_nodes":"31","size_leaf_vector":"1"}},{"base_weights":[-1.9839373E-1,-2.2400198E0,4.8455844E0,-3.2520883E0,1.3722135E-1,5.950707E0,4.996733E-1,-4.473254E0,-2.4299405E0,2.0664842E0,-1.4779775E0,4.4364967E0,9.162445E0,-6.667222E-1,1.0731072E0,-2.7619743E-1,-1.5008403E-1,-1.2796043E-1,7.51537E-2,1.672618E-1,-3.472904E-2,-3.4242284E-2,-1.2151017E-1,3.259897E-1,1.1435194E-1,4.8111978E-1,8.817732E-2,-5.551842E-2,-0E0,-1.2556522E-2,6.624304E-2],"categories":[0],"categories_nodes":[7],"categories_segments":[0],"categories_sizes":[1],"default_left":[0,0,0,0,0,0,0,1,0,0,0,0,0,0,0,0,0,0,0,0,0,0,0,0,0,0,0,0,0,0,0],"id":30,"left_children":[1,3,5,7,9,11,13,15,17,19,21,23,25,27,29,-1,-1,-1,-1,-1,-1,-1,-1,-1,-1,-1,-1,-1,-1,-1,-1],"loss_changes":[7.2911016E3,1.2179353E3,9.584468E2,2.941565E2,4.988618E2,5.7100146E2,3.541969E1,1.1884839E2,1.3366565E2,2.7201062E2,5.4269333E1,4.5399292E2,6.371338E1,4.3278465E0,1.4072262E1,0E0,0E0,0E0,0E0,0E0,0E0,0E0,0E0,0E0,0E0,0E0,0E0,0E0,0E0,0E0,0E0],"parents":[2147483647,0,0,1,1,2,2,3,3,4,4,5,5,6,6,7,7,8,8,9,9,10,10,11,11,12,12,13,13,14,14],"right_children":[2,4,6,8,10,12,14,16,18,20,22,24,26,28,30,-1,-1,-1,-1,-1,-1,-1,-1,-1,-1,-1,-1,-1,-1,-1,-1],"split_conditions":[7.684889E-1,5.8546937E-1,1.7364818E-1,3.7357897E-1,7E1,1.06E0,1.19E1,1E-45,4.4550407E1,3.4899496E-2,7.6E1,6.9E1,-4.3837115E-1,5.695E1,6.4278764E-1,-2.7619743E-1,-1.5008403E-1,-1.2796043E-1,7.51537E-2,1.672618E-1,-3.472904E-2,-3.4242284E-2,-1.2151017E-1,3.259897E-1,1.1435194E-1,4.8111978E-1,8.817732E-2,-5.551842E-2,-0E0,-1.2556522E-2,6.624304E-2],"split_indices":[4,4,1,4,0,4,2,5,8,1,0,0,1,8,1,0,0,0,0,0,0,0,0,0,0,0,0,0,0,0,0],"split_type":[0,0,0,0,0,0,0,1,0,0,0,0,0,0,0,0,0,0,0,0,0,0,0,0,0,0,0,0,0,0,0],"sum_hessian":[6.98E2,4.99E2,1.99E2,3.49E2,1.5E2,1.57E2,4.2E1,1.31E2,2.18E2,6.8E1,8.2E1,1.15E2,4.2E1,1.3E1,2.9E1,6.8E1,6.3E1,2.13E2,5E0,4.6E1,2.2E1,5E1,3.2E1,5.3E1,6.2E1,3.8E1,4E0,5E0,8E0,4E0,2.5E1],"tree_param":{"num_deleted":"0","num_feature":"9","num_nodes":"31","size_leaf_vector":"1"}},{"base_weights":[3.1410426E-2,-1.9778919E0,5.359371E0,-2.9864204E0,4.4787464E-1,6.315378E0,5.774244E-1,-3.6729784E0,-1.8535732E0,1.4648997E0,-1.1376938E0,8.576661E0,4.654066E0,2.8425893E-2,1.6717438E0,-2.3013397E-1,-1.368505E-1,-1.2374916E-1,-0E0,1.2995039E-1,-3.058056E-2,-7.720033E-2,1.5364067E-1,4.4175687E-1,4.60513E-3,1.4397329E-1,2.9775614E-1,2.1019889E-2,-3.4201432E-2,9.401398E-2,-0E0],"categories":[0,1,0],"categories_nodes":[7,10,11],"categories_segments":[0,1,2],"categories_sizes":[1,1,1],"default_left":[0,0,0,0,0,0,0,1,0,0,1,1,0,0,0,0,0,0,0,0,0,0,0,0,0,0,0,0,0,0,0],"id":31,"left_children":[1,3,5,7,9,11,13,15,17,19,21,23,25,27,29,-1,-1,-1,-1,-1,-1,-1,-1,-1,-1,-1,-1,-1,-1,-1,-1],"loss_changes":[7.582338E3,1.2667041E3,8.6175977E2,2.435393E2,2.5860748E2,3.9201562E2,2.0891853E1,1.21980225E2,1.7144656E2,2.3836913E2,1.2997275E2,1.2297363E2,1.4554858E2,9.831315E0,5.353237E0,0E0,0E0,0E0,0E0,0E0,0E0,0E0,0E0,0E0,0E0,0E0,0E0,0E0,0E0,0E0,0E0],"parents":[2147483647,0,0,1,1,2,2,3,3,4,4,5,5,6,6,7,7,8,8,9,9,10,10,11,11,12,12,13,13,14,14],"right_children":[2,4,6,8,10,12,14,16,18,20,22,24,26,28,30,-1,-1,-1,-1,-1,-1,-1,-1,-1,-1,-1,-1,-1,-1,-1,-1],"split_conditions":[7.9E-1,6.02674E-1,1.7364818E-1,4.5614251E-1,7.2E1,6.7E1,1.02E0,1E-45,4.478E1,3.4899496E-2,1E-45,1E-45,9.6E-1,7.6E1,7.9E1,-2.3013397E-1,-1.368505E-1,-1.2374916E-1,-0E0,1.2995039E-1,-3.058056E-2,-7.720033E-2,1.5364067E-1,4.4175687E-1,4.60513E-3,1.4397329E-1,2.9775614E-1,2.1019889E-2,-3.4201432E-2,9.401398E-2,-0E0],"split_indices":[4,4,1,4,0,0,4,5,3,1,7,7,4,0,0,0,0,0,0,0,0,0,0,0,0,0,0,0,0,0,0],"split_type":[0,0,0,0,0,0,0,1,0,0,1,1,0,0,0,0,0,0,0,0,0,0,0,0,0,0,0,0,0,0,0],"sum_hessian":[6.98E2,5.09E2,1.89E2,3.59E2,1.5E2,1.56E2,3.3E1,2.16E2,1.43E2,9.2E1,5.8E1,5.7E1,9.9E1,2.6E1,7E0,9.8E1,1.18E2,1.06E2,3.7E1,5.9E1,3.3E1,5.6E1,2E0,5.5E1,2E0,4.9E1,5E1,1.9E1,7E0,6E0,1E0],"tree_param":{"num_deleted":"0","num_feature":"9","num_nodes":"31","size_leaf_vector":"1"}},{"base_weights":[-4.0455116E-3,-1.8053354E0,4.6817107E0,-2.9898553E0,1.0304885E-1,5.5897436E0,3.7715158E-1,-4.508973E0,-2.5132148E0,1.0921046E0,-1.6622765E0,4.3737674E0,8.053234E0,-2.630806E-1,7.8632164E-1,-2.7710468E-1,-9.5753714E-2,-7.400817E-2,-1.6891699E-1,1.1190488E-1,-5.2703034E-2,2.3836271E-1,-1.05132E-1,-4.8586395E-2,2.3577467E-1,4.1137728E-1,-0E0,1.0334067E-2,-3.3370607E-2,-4.3240446E-3,5.0506115E-2],"categories":[0],"categories_nodes":[7],"categories_segments":[0],"categories_sizes":[1],"default_left":[0,0,0,0,0,0,0,1,0,0,0,0,0,0,0,0,0,0,0,0,0,0,0,0,0,0,0,0,0,0,0],"id":32,"left_children":[1,3,5,7,9,11,13,15,17,19,21,23,25,27,29,-1,-1,-1,-1,-1,-1,-1,-1,-1,-1,-1,-1,-1,-1,-1,-1],"loss_changes":[5.8379424E3,1.1346866E3,7.33959E2,1.600564E2,3.5072372E2,2.8475488E2,1.177416E1,1.1902234E2,1.9088745E2,3.3025378E2,2.5131027E2,2.4037793E2,6.2852295E1,4.5693507E0,6.439102E0,0E0,0E0,0E0,0E0,0E0,0E0,0E0,0E0,0E0,0E0,0E0,0E0,0E0,0E0,0E0,0E0],"parents":[2147483647,0,0,1,1,2,2,3,3,4,4,5,5,6,6,7,7,8,8,9,9,10,10,11,11,12,12,13,13,14,14],"right_children":[2,4,6,8,10,12,14,16,18,20,22,24,26,28,30,-1,-1,-1,-1,-1,-1,-1,-1,-1,-1,-1,-1,-1,-1,-1,-1],"split_conditions":[7.8365165E-1,5.508774E-1,1.7364818E-1,3.0989486E-1,7.3E1,1.0649554E0,8.8294756E-1,1E-45,7.1E1,6.975647E-2,5.542391E-1,-9.945219E-1,8.2E1,6.9E1,1.18E1,-2.7710468E-1,-9.5753714E-2,-7.400817E-2,-1.6891699E-1,1.1190488E-1,-5.2703034E-2,2.3836271E-1,-1.05132E-1,-4.8586395E-2,2.3577467E-1,4.1137728E-1,-0E0,1.0334067E-2,-3.3370607E-2,-4.3240446E-3,5.0506115E-2],"split_indices":[4,4,1,4,0,4,1,5,0,1,4,1,0,0,2,0,0,0,0,0,0,0,0,0,0,0,0,0,0,0,0],"split_type":[0,0,0,0,0,0,0,1,0,0,0,0,0,0,0,0,0,0,0,0,0,0,0,0,0,0,0,0,0,0,0],"sum_hessian":[6.82E2,4.95E2,1.87E2,3.04E2,1.91E2,1.53E2,3.4E1,6.2E1,2.42E2,1.24E2,6.7E1,1.12E2,4.1E1,1.3E1,2.1E1,4E1,2.2E1,1.17E2,1.25E2,8.1E1,4.3E1,1E0,6.6E1,6E0,1.06E2,4E1,1E0,6E0,7E0,4E0,1.7E1],"tree_param":{"num_deleted":"0","num_feature":"9","num_nodes":"31","size_leaf_vector":"1"}},{"base_weights":[-1.4040369E-2,-1.7414147E0,4.5166564E0,-3.558123E0,-4.6709594E-1,5.476034E0,3.4606034E-1,-4.146915E0,-2.8252707E0,4.3759784E-1,-1.6588871E0,4.061863E0,8.104458E0,-8.19849E-1,9.2426187E-1,-2.3123212E-1,-9.8581105E-2,-2.0103827E-1,-8.364731E-2,-3.9894976E-2,7.847767E-2,-1.0751241E-1,4.3674797E-2,1.4042035E-1,3.8387904E-1,4.2558718E-1,7.045933E-2,-5.0942626E-2,-0E0,-1.22805275E-2,5.900484E-2],"categories":[0],"categories_nodes":[3],"categories_segments":[0],"categories_sizes":[1],"default_left":[0,0,0,1,0,0,0,0,0,0,0,0,0,0,0,0,0,0,0,0,0,0,0,0,0,0,0,0,0,0,0],"id":33,"left_children":[1,3,5,7,9,11,13,15,17,19,21,23,25,27,29,-1,-1,-1,-1,-1,-1,-1,-1,-1,-1,-1,-1,-1,-1,-1,-1],"loss_changes":[5.5305503E3,1.1729786E3,7.649326E2,2.506128E1,3.3586017E2,4.1053027E2,3.2206673E1,5.692932E1,1.1220941E2,2.5597139E2,1.7740598E2,3.938374E2,6.645044E1,2.7403479E0,1.1661825E1,0E0,0E0,0E0,0E0,0E0,0E0,0E0,0E0,0E0,0E0,0E0,0E0,0E0,0E0,0E0,0E0],"parents":[2147483647,0,0,1,1,2,2,3,3,4,4,5,5,6,6,7,7,8,8,9,9,10,10,11,11,12,12,13,13,14,14],"right_children":[2,4,6,8,10,12,14,16,18,20,22,24,26,28,30,-1,-1,-1,-1,-1,-1,-1,-1,-1,-1,-1,-1,-1,-1,-1,-1],"split_conditions":[7.8365165E-1,4.5614251E-1,1.7364818E-1,1E-45,7.2E1,1.0649554E0,1.19E1,9.781476E-1,-6.691306E-1,6.2E-1,9.2718387E-1,-4.0673664E-1,-4.3837115E-1,8.4848887E-1,6.4278764E-1,-2.3123212E-1,-9.8581105E-2,-2.0103827E-1,-8.364731E-2,-3.9894976E-2,7.847767E-2,-1.0751241E-1,4.3674797E-2,1.4042035E-1,3.8387904E-1,4.2558718E-1,7.045933E-2,-5.0942626E-2,-0E0,-1.22805275E-2,5.900484E-2],"split_indices":[4,4,1,5,0,4,2,1,1,4,1,1,1,4,1,0,0,0,0,0,0,0,0,0,0,0,0,0,0,0,0],"split_type":[0,0,0,1,0,0,0,0,0,0,0,0,0,0,0,0,0,0,0,0,0,0,0,0,0,0,0,0,0,0,0],"sum_hessian":[6.97E2,5.07E2,1.9E2,2.05E2,3.02E2,1.53E2,3.7E1,1E2,1.05E2,1.73E2,1.29E2,1.08E2,4.5E1,1.1E1,2.6E1,7.7E1,2.3E1,4.5E1,6E1,8.3E1,9E1,1.09E2,2E1,8.7E1,2.1E1,4.1E1,4E0,8E0,3E0,4E0,2.2E1],"tree_param":{"num_deleted":"0","num_feature":"9","num_nodes":"31","size_leaf_vector":"1"}},{"base_weights":[1.5130357E-1,-2.353178E0,3.1212187E0,-3.0952544E0,-1.362862E0,2.2739735E0,7.5199757E0,-3.9674704E0,-2.5831804E0,-2.3423736E0,-7.1887493E-1,-9.339628E-2,3.1735702E0,8.304253E0,2.0772657E0,-2.0492248E-1,3.173455E-2,-1.8285322E-1,-8.703594E-2,6.5910086E-2,-1.2590899E-1,-1.0143494E-1,8.7021075E-2,-2.7927477E-2,5.6866016E-2,1.0205543E-1,3.1620976E-1,4.2267904E-1,1.1092822E-2,-1.7683528E-1,2.3982452E-1],"categories":[0,0],"categories_nodes":[5,10],"categories_segments":[0,1],"categories_sizes":[1,1],"default_left":[0,0,0,0,0,1,0,0,0,0,1,0,0,0,0,0,0,0,0,0,0,0,0,0,0,0,0,0,0,0,0],"id":34,"left_children":[1,3,5,7,9,11,13,15,17,19,21,23,25,27,29,-1,-1,-1,-1,-1,-1,-1,-1,-1,-1,-1,-1,-1,-1,-1,-1],"loss_changes":[5.16978E3,2.5150342E2,1.0898357E3,3.64469E1,9.638495E1,5.880939E2,1.12528564E2,5.7459473E1,9.666913E1,5.9628143E1,3.7550043E2,4.8395218E1,6.3711707E2,3.1431396E1,2.8453207E2,0E0,0E0,0E0,0E0,0E0,0E0,0E0,0E0,0E0,0E0,0E0,0E0,0E0,0E0,0E0,0E0],"parents":[2147483647,0,0,1,1,2,2,3,3,4,4,5,5,6,6,7,7,8,8,9,9,10,10,11,11,12,12,13,13,14,14],"right_children":[2,4,6,8,10,12,14,16,18,20,22,24,26,28,30,-1,-1,-1,-1,-1,-1,-1,-1,-1,-1,-1,-1,-1,-1,-1,-1],"split_conditions":[6.2747765E-1,4.5614251E-1,1.0649554E0,3.0989486E-1,-4.6947157E-1,1E-45,-4.3837115E-1,8.1E1,-2.7563736E-1,2.213E1,1E-45,8.5504466E-1,-5E-1,7.7E1,6.8E1,-2.0492248E-1,3.173455E-2,-1.8285322E-1,-8.703594E-2,6.5910086E-2,-1.2590899E-1,-1.0143494E-1,8.7021075E-2,-2.7927477E-2,5.6866016E-2,1.0205543E-1,3.1620976E-1,4.2267904E-1,1.1092822E-2,-1.7683528E-1,2.3982452E-1],"split_indices":[4,4,4,4,1,5,1,0,1,6,5,4,1,0,0,0,0,0,0,0,0,0,0,0,0,0,0,0,0,0,0],"split_type":[0,0,0,0,0,1,0,0,0,0,1,0,0,0,0,0,0,0,0,0,0,0,0,0,0,0,0,0,0,0,0],"sum_hessian":[6.85E2,3.72E2,3.13E2,2.06E2,1.66E2,2.69E2,4.4E1,6.3E1,1.43E2,6E1,1.06E2,7.5E1,1.94E2,3.6E1,8E0,6.2E1,1E0,5.5E1,8.8E1,1E0,5.9E1,7E1,3.6E1,5.7E1,1.8E1,1.49E2,4.5E1,3.5E1,1E0,2E0,6E0],"tree_param":{"num_deleted":"0","num_feature":"9","num_nodes":"31","size_leaf_vector":"1"}},{"base_weights":[1.3896985E-1,-2.0981674E0,3.2352884E0,-2.9167898E0,-6.317105E-1,1.7926985E0,6.679362E0,-2.4528532E0,-3.7650256E0,-9.1020465E-1,2.486445E0,-1.3540725E-1,2.7103975E0,7.5587587E0,2.277818E0,-1.3231455E-1,8.94637E-2,-1.0476246E-1,-2.3787954E-1,1.320781E-2,-7.042453E-2,2.376993E-1,-3.4878217E-2,-1.12905346E-1,1.5051271E-3,5.6315083E-2,3.5447785E-1,-5.8067676E-2,3.8902855E-1,1.276103E-1,-0E0],"categories":[1,0],"categories_nodes":[4,5],"categories_segments":[0,1],"categories_sizes":[1,1],"default_left":[0,0,0,0,1,1,0,0,0,0,0,0,0,0,0,0,0,0,0,0,0,0,0,0,0,0,0,0,0,0,0],"id":35,"left_children":[1,3,5,7,9,11,13,15,17,19,21,23,25,27,29,-1,-1,-1,-1,-1,-1,-1,-1,-1,-1,-1,-1,-1,-1,-1,-1],"loss_changes":[5.036292E3,4.9383875E2,1.4470151E3,5.346582E1,1.4694493E2,3.9722137E2,2.44698E2,1.7962292E2,8.4181274E1,9.019459E1,1.2171569E2,2.9268772E1,9.9934766E2,1.8912964E2,1.6129097E1,0E0,0E0,0E0,0E0,0E0,0E0,0E0,0E0,0E0,0E0,0E0,0E0,0E0,0E0,0E0,0E0],"parents":[2147483647,0,0,1,1,2,2,3,3,4,4,5,5,6,6,7,7,8,8,9,9,10,10,11,11,12,12,13,13,14,14],"right_children":[2,4,6,8,10,12,14,16,18,20,22,24,26,28,30,-1,-1,-1,-1,-1,-1,-1,-1,-1,-1,-1,-1,-1,-1,-1,-1],"split_conditions":[6.617547E-1,4.869754E-1,9.9E-1,2.468E1,1E-45,1E-45,7.4E1,2.461E1,6.123234E-17,6.8E1,6.123234E-17,-1.04528464E-1,-5E-1,3.806E1,8.2E1,-1.3231455E-1,8.94637E-2,-1.0476246E-1,-2.3787954E-1,1.320781E-2,-7.042453E-2,2.376993E-1,-3.4878217E-2,-1.12905346E-1,1.5051271E-3,5.6315083E-2,3.5447785E-1,-5.8067676E-2,3.8902855E-1,1.276103E-1,-0E0],"split_indices":[4,4,4,6,7,5,0,6,1,0,1,1,1,3,0,0,0,0,0,0,0,0,0,0,0,0,0,0,0,0,0],"split_type":[0,0,0,0,1,1,0,0,0,0,0,0,0,0,0,0,0,0,0,0,0,0,0,0,0,0,0,0,0,0,0],"sum_hessian":[7.17E2,4.17E2,3E2,2.64E2,1.53E2,2.17E2,8.3E1,1.84E2,8E1,1.44E2,9E0,7.1E1,1.46E2,6.6E1,1.7E1,1.78E2,6E0,3.6E1,4.4E1,4.3E1,1.01E2,4E0,5E0,1E0,7E1,1.12E2,3.4E1,1E0,6.5E1,1.5E1,2E0],"tree_param":{"num_deleted":"0","num_feature":"9","num_nodes":"31","size_leaf_vector":"1"}},{"base_weights":[2.8083348E-1,-1.6221721E0,3.5180895E0,-2.5913482E0,-3.2791498E-1,6.316442E0,2.0768845E0,-3.2385242E0,-1.9270792E0,-1.3854142E0,4.006279E-1,6.8716717E0,3.8534164E-2,8.645993E-1,4.0652027E0,-2.0515548E-1,-1.0931797E-1,-3.253665E-2,-1.2192658E-1,-1.0920439E-1,-2.496626E-2,-2.1488562E-3,2.929438E-1,1.1416259E-1,3.8048452E-1,-4.4709533E-2,3.8608726E-2,-4.1782424E-2,9.315556E-2,2.2867696E-1,9.793972E-3],"categories":[0,0],"categories_nodes":[4,7],"categories_segments":[0,1],"categories_sizes":[1,1],"default_left":[0,0,0,0,1,0,0,1,0,0,0,0,0,0,0,0,0,0,0,0,0,0,0,0,0,0,0,0,0,0,0],"id":36,"left_children":[1,3,5,7,9,11,13,15,17,19,21,23,25,27,29,-1,-1,-1,-1,-1,-1,-1,-1,-1,-1,-1,-1,-1,-1,-1,-1],"loss_changes":[4.2442236E3,5.372256E2,9.544287E2,6.981494E1,1.5168323E2,2.8456274E2,4.0172833E2,5.5289307E1,7.710327E1,4.8479385E1,2.9036774E2,1.639812E2,1.1541754E1,2.0574727E2,1.1860095E2,0E0,0E0,0E0,0E0,0E0,0E0,0E0,0E0,0E0,0E0,0E0,0E0,0E0,0E0,0E0,0E0],"parents":[2147483647,0,0,1,1,2,2,3,3,4,4,5,5,6,6,7,7,8,8,9,9,10,10,11,11,12,12,13,13,14,14],"right_children":[2,4,6,8,10,12,14,16,18,20,22,24,26,28,30,-1,-1,-1,-1,-1,-1,-1,-1,-1,-1,-1,-1,-1,-1,-1,-1],"split_conditions":[7.084782E-1,4.869754E-1,6.7E1,3.6149058E-1,1E-45,-1.391731E-1,9.5E-1,1E-45,2.8784676E1,7.431448E-1,6.975647E-2,7.79799E-1,4.3837115E-1,-7.193398E-1,2.549E1,-2.0515548E-1,-1.0931797E-1,-3.253665E-2,-1.2192658E-1,-1.0920439E-1,-2.496626E-2,-2.1488562E-3,2.929438E-1,1.1416259E-1,3.8048452E-1,-4.4709533E-2,3.8608726E-2,-4.1782424E-2,9.315556E-2,2.2867696E-1,9.793972E-3],"split_indices":[4,4,0,4,5,1,4,5,8,1,1,4,1,1,6,0,0,0,0,0,0,0,0,0,0,0,0,0,0,0,0],"split_type":[0,0,0,0,1,0,0,1,0,0,0,0,0,0,0,0,0,0,0,0,0,0,0,0,0,0,0,0,0,0,0],"sum_hessian":[6.79E2,4.29E2,2.5E2,2.42E2,1.87E2,7.9E1,1.71E2,1.12E2,1.3E2,7.5E1,1.12E2,7.2E1,7E0,1.11E2,6E1,5.3E1,5.9E1,4.1E1,8.9E1,3.5E1,4E1,1.08E2,4E0,1.3E1,5.9E1,2E0,5E0,4.1E1,7E1,5.2E1,8E0],"tree_param":{"num_deleted":"0","num_feature":"9","num_nodes":"31","size_leaf_vector":"1"}},{"base_weights":[-1.7872998E-2,-1.5480071E0,3.9387653E0,-2.8848684E0,-5.3731424E-1,4.92769E0,1.3515423E-1,-2.9782887E0,-9.6400714E-1,-1.4530637E0,1.01366036E-1,6.4310102E0,2.9547377E0,-9.000078E-1,5.3560007E-1,-1.4978056E-1,-0E0,-8.7834165E-2,2.2423765E-2,-1.1281677E-1,-3.5675038E-2,-1.1987823E-2,3.8338536E-1,3.290728E-1,-0E0,4.4343587E-2,1.9221985E-1,-0E0,-4.9252015E-2,8.094805E-3,6.818264E-2],"categories":[0],"categories_nodes":[4],"categories_segments":[0],"categories_sizes":[1],"default_left":[0,0,0,0,1,0,0,0,0,0,0,0,0,0,0,0,0,0,0,0,0,0,0,0,0,0,0,0,0,0,0],"id":37,"left_children":[1,3,5,7,9,11,13,15,17,19,21,23,25,27,29,-1,-1,-1,-1,-1,-1,-1,-1,-1,-1,-1,-1,-1,-1,-1,-1],"loss_changes":[4.2781353E3,6.779171E2,7.326199E2,2.0821655E1,1.7579489E2,3.5829712E2,2.1114025E1,1.2240234E1,2.540089E1,6.20513E1,4.7862766E2,7.781323E1,1.1987793E2,1.2737579E0,8.820126E0,0E0,0E0,0E0,0E0,0E0,0E0,0E0,0E0,0E0,0E0,0E0,0E0,0E0,0E0,0E0,0E0],"parents":[2147483647,0,0,1,1,2,2,3,3,4,4,5,5,6,6,7,7,8,8,9,9,10,10,11,11,12,12,13,13,14,14],"right_children":[2,4,6,8,10,12,14,16,18,20,22,24,26,28,30,-1,-1,-1,-1,-1,-1,-1,-1,-1,-1,-1,-1,-1,-1,-1,-1],"split_conditions":[7.684889E-1,4.5614251E-1,1.7364818E-1,4.58E1,1E-45,6.9E1,6.691306E-1,2.896E1,7.1E1,7.431448E-1,1.391731E-1,2.739E1,6.5E1,5.2E1,7.8583115E1,-1.4978056E-1,-0E0,-8.7834165E-2,2.2423765E-2,-1.1281677E-1,-3.5675038E-2,-1.1987823E-2,3.8338536E-1,3.290728E-1,-0E0,4.4343587E-2,1.9221985E-1,-0E0,-4.9252015E-2,8.094805E-3,6.818264E-2],"split_indices":[4,4,1,3,5,0,1,6,0,1,1,6,8,0,8,0,0,0,0,0,0,0,0,0,0,0,0,0,0,0,0],"split_type":[0,0,0,0,1,0,0,0,0,0,0,0,0,0,0,0,0,0,0,0,0,0,0,0,0,0,0,0,0,0,0],"sum_hessian":[6.97E2,5.05E2,1.92E2,2.13E2,2.92E2,1.51E2,4.1E1,2E2,1.3E1,1.18E2,1.74E2,7.9E1,7.2E1,9E0,3.2E1,1.99E2,1E0,8E0,5E0,5.1E1,6.7E1,1.71E2,3E0,7.7E1,2E0,2.5E1,4.7E1,1E0,8E0,2.7E1,5E0],"tree_param":{"num_deleted":"0","num_feature":"9","num_nodes":"31","size_leaf_vector":"1"}},{"base_weights":[-1.0533267E-2,-1.6773933E0,2.6467607E0,-2.2209055E0,-2.1799265E-1,-8.774003E-2,3.5744078E0,-1.2124265E0,-2.6544442E0,4.184895E0,-5.502282E-1,-1.2182118E0,2.6679662E-1,2.2880323E0,6.0943046E0,-1.1082458E-1,-1.5328496E-2,-1.838449E-1,-1.0700955E-1,1.3661248E-3,2.6051998E-1,-8.893766E-2,8.5865455E-3,-8.872651E-2,3.4869958E-3,-3.1763714E-2,2.3427203E-2,4.1166674E-2,3.3950576E-1,-8.6962275E-2,3.3834675E-1],"categories":[0,0],"categories_nodes":[2,10],"categories_segments":[0,1],"categories_sizes":[1,1],"default_left":[0,0,1,0,0,0,0,0,0,0,1,0,0,0,0,0,0,0,0,0,0,0,0,0,0,0,0,0,0,0,0],"id":38,"left_children":[1,3,5,7,9,11,13,15,17,19,21,23,25,27,29,-1,-1,-1,-1,-1,-1,-1,-1,-1,-1,-1,-1,-1,-1,-1,-1],"loss_changes":[3.1040474E3,3.3701062E2,6.899508E2,1.1688977E2,1.8780243E2,3.1834423E1,5.7668774E2,8.867143E1,6.7357666E1,3.2422943E1,1.08680786E2,1.5937283E1,1.2058979E1,9.008096E2,4.0636475E2,0E0,0E0,0E0,0E0,0E0,0E0,0E0,0E0,0E0,0E0,0E0,0E0,0E0,0E0,0E0,0E0],"parents":[2147483647,0,0,1,1,2,2,3,3,4,4,5,5,6,6,7,7,8,8,9,9,10,10,11,11,12,12,13,13,14,14],"right_children":[2,4,6,8,10,12,14,16,18,20,22,24,26,28,30,-1,-1,-1,-1,-1,-1,-1,-1,-1,-1,-1,-1,-1,-1,-1,-1],"split_conditions":[6.8182707E-1,5.508774E-1,1E-45,1.2E1,5.6E-1,7.3E-1,-6.4278764E-1,3.9680117E-1,-5.591929E-1,4.341E1,1E-45,9.5105654E-1,1.15E1,1.0649554E0,4.4087467E1,-1.1082458E-1,-1.5328496E-2,-1.838449E-1,-1.0700955E-1,1.3661248E-3,2.6051998E-1,-8.893766E-2,8.5865455E-3,-8.872651E-2,3.4869958E-3,-3.1763714E-2,2.3427203E-2,4.1166674E-2,3.3950576E-1,-8.6962275E-2,3.3834675E-1],"split_indices":[4,4,5,2,4,4,1,4,1,3,5,1,2,4,8,0,0,0,0,0,0,0,0,0,0,0,0,0,0,0,0],"split_type":[0,0,1,0,0,0,0,0,0,0,1,0,0,0,0,0,0,0,0,0,0,0,0,0,0,0,0,0,0,0,0],"sum_hessian":[6.91E2,4.26E2,2.65E2,3.08E2,1.18E2,6.8E1,1.97E2,9.9E1,2.09E2,4E0,1.14E2,1.4E1,5.4E1,1.37E2,6E1,4.3E1,5.6E1,5.9E1,1.5E2,2E0,2E0,4E1,7.4E1,9E0,5E0,7E0,4.7E1,1.08E2,2.9E1,4E0,5.6E1],"tree_param":{"num_deleted":"0","num_feature":"9","num_nodes":"31","size_leaf_vector":"1"}},{"base_weights":[1.59567E-1,-2.0387337E0,2.6333203E0,-2.6671972E0,-1.3934722E0,1.8075504E0,6.35465E0,-3.4190373E0,-1.8404387E0,-1.6453623E0,6.401606E-1,3.5040908E0,6.013037E-1,4.080421E-1,3.4183466E0,2.440015E-2,-1.8067054E-1,-1.5186481E-1,-4.016792E-2,-4.4860285E-2,-1.4817755E-1,-3.233669E-2,2.0932217E-1,2.1742819E-1,1.1108808E-2,-2.2302028E-2,7.456768E-2,2.2390173E-1,-3.670391E-2],"categories":[0],"categories_nodes":[3],"categories_segments":[0],"categories_sizes":[1],"default_left":[0,0,0,1,0,0,0,0,0,0,0,0,0,0,0,0,0,0,0,0,0,0,0,0,0,0,0,0,0],"id":39,"left_children":[1,3,5,7,9,11,13,15,17,19,21,23,25,-1,27,-1,-1,-1,-1,-1,-1,-1,-1,-1,-1,-1,-1,-1,-1],"loss_changes":[3.5132305E3,1.1604492E2,8.685867E2,6.7083496E1,9.847702E1,5.0924963E2,1.3002466E2,7.345563E1,9.691177E1,1.4261102E2,1.2204218E2,2.8160486E2,1.4979279E2,0E0,1.4778806E2,0E0,0E0,0E0,0E0,0E0,0E0,0E0,0E0,0E0,0E0,0E0,0E0,0E0,0E0],"parents":[2147483647,0,0,1,1,2,2,3,3,4,4,5,5,6,6,7,7,8,8,9,9,10,10,11,11,12,12,14,14],"right_children":[2,4,6,8,10,12,14,16,18,20,22,24,26,-1,28,-1,-1,-1,-1,-1,-1,-1,-1,-1,-1,-1,-1,-1,-1],"split_conditions":[6.2747765E-1,4.284877E-1,1.0649554E0,1E-45,9.2718387E-1,6.9E1,8.107E1,1.15E1,-6.691306E-1,7.4E1,4.03E1,3.4899496E-2,-5E-1,4.080421E-1,2.525E1,2.440015E-2,-1.8067054E-1,-1.5186481E-1,-4.016792E-2,-4.4860285E-2,-1.4817755E-1,-3.233669E-2,2.0932217E-1,2.1742819E-1,1.1108808E-2,-2.2302028E-2,7.456768E-2,2.2390173E-1,-3.670391E-2],"split_indices":[4,4,4,5,1,0,8,2,1,0,8,1,1,0,6,0,0,0,0,0,0,0,0,0,0,0,0,0,0],"split_type":[0,0,0,1,0,0,0,0,0,0,0,0,0,0,0,0,0,0,0,0,0,0,0,0,0,0,0,0,0],"sum_hessian":[6.36E2,3.37E2,2.99E2,1.62E2,1.75E2,2.51E2,4.8E1,7.6E1,8.6E1,1.57E2,1.8E1,1E2,1.51E2,2.4E1,2.4E1,3E0,7.3E1,3.5E1,5.1E1,1.06E2,5.1E1,1.6E1,2E0,7.8E1,2.2E1,7E1,8.1E1,1.9E1,5E0],"tree_param":{"num_deleted":"0","num_feature":"9","num_nodes":"29","size_leaf_vector":"1"}},{"base_weights":[6.008129E-2,-1.1481323E0,3.853293E0,-1.9206003E0,2.0128323E-1,4.585955E0,2.403772E-1,-1.9943024E0,1.7704539E0,1.91252E0,-6.4804476E-1,5.183831E0,1.8316554E0,-9.682757E-1,5.9624356E-1,-7.699297E-2,-1.3762206E-1,2.2632268E-1,-6.390398E-2,-4.4673547E-2,1.3784415E-1,-1.4988472E-2,-1.2098449E-1,2.9044443E-1,1.05165005E-1,-1.641994E-3,1.0644859E-1,-5.193751E-2,-0E0,4.1026663E-2,-2.0419313E-2],"categories":[],"categories_nodes":[],"categories_segments":[],"categories_sizes":[],"default_left":[0,0,0,0,0,0,0,0,0,0,0,0,0,0,0,0,0,0,0,0,0,0,0,0,0,0,0,0,0,0,0],"id":40,"left_children":[1,3,5,7,9,11,13,15,17,19,21,23,25,27,29,-1,-1,-1,-1,-1,-1,-1,-1,-1,-1,-1,-1,-1,-1,-1,-1],"loss_changes":[3.2054346E3,5.561138E2,4.370127E2,1.09826904E2,2.9378152E2,1.7605176E2,1.7138649E1,8.958923E1,1.0779003E2,1.7292079E2,7.695154E1,1.4665552E2,2.0739098E1,1.9399452E-1,8.847461E0,0E0,0E0,0E0,0E0,0E0,0E0,0E0,0E0,0E0,0E0,0E0,0E0,0E0,0E0,0E0,0E0],"parents":[2147483647,0,0,1,1,2,2,3,3,4,4,5,5,6,6,7,7,8,8,9,9,10,10,11,11,12,12,13,13,14,14],"right_children":[2,4,6,8,10,12,14,16,18,20,22,24,26,28,30,-1,-1,-1,-1,-1,-1,-1,-1,-1,-1,-1,-1,-1,-1,-1,-1],"split_conditions":[8.1989485E-1,5.8546937E-1,1.7364818E-1,4.4550407E1,6.8E1,7.4E1,5E-1,7.3E1,8.2E1,6.1E1,8E1,1.25E1,6.432E1,7.7E1,9.975641E-1,-7.699297E-2,-1.3762206E-1,2.2632268E-1,-6.390398E-2,-4.4673547E-2,1.3784415E-1,-1.4988472E-2,-1.2098449E-1,2.9044443E-1,1.05165005E-1,-1.641994E-3,1.0644859E-1,-5.193751E-2,-0E0,4.1026663E-2,-2.0419313E-2],"split_indices":[4,4,1,8,0,0,1,0,0,0,0,2,8,0,1,0,0,0,0,0,0,0,0,0,0,0,0,0,0,0,0],"split_type":[0,0,0,0,0,0,0,0,0,0,0,0,0,0,0,0,0,0,0,0,0,0,0,0,0,0,0,0,0,0,0],"sum_hessian":[6.89E2,5.25E2,1.64E2,3.33E2,1.92E2,1.35E2,2.9E1,3.29E2,4E0,6.2E1,1.3E2,1.07E2,2.8E1,4E0,2.5E1,2.16E2,1.13E2,1E0,3E0,1.4E1,4.8E1,1.14E2,1.6E1,8.5E1,2.2E1,4E0,2.4E1,3E0,1E0,2.2E1,3E0],"tree_param":{"num_deleted":"0","num_feature":"9","num_nodes":"31","size_leaf_vector":"1"}},{"base_weights":[2.069816E-2,-1.6393079E0,2.1610212E0,-1.960652E0,-2.6419684E-1,-1.8397713E-1,2.957898E0,-2.8180113E0,-1.5831172E0,4.645817E0,-7.636728E-1,3.6819464E-1,-1.0899587E0,2.1249526E0,5.50457E0,-6.610411E-2,-1.6534099E-1,-1.1509754E-1,-1.6197564E-2,2.5369327E-3,2.5615788E-1,-5.7549465E-2,1.0138523E-1,3.3551525E-2,-3.840342E-2,-9.881928E-2,-0E0,5.3319182E-2,2.8490552E-1,-3.6885418E-2,3.2006064E-1],"categories":[0,0],"categories_nodes":[2,8],"categories_segments":[0,1],"categories_sizes":[1,1],"default_left":[0,0,1,0,0,0,0,0,1,0,0,0,0,0,0,0,0,0,0,0,0,0,0,0,0,0,0,0,0,0,0],"id":41,"left_children":[1,3,5,7,9,11,13,15,17,19,21,23,25,27,29,-1,-1,-1,-1,-1,-1,-1,-1,-1,-1,-1,-1,-1,-1,-1,-1],"loss_changes":[2.4875342E3,1.6928748E2,5.773093E2,7.6223755E1,2.1250443E2,4.374946E1,4.196493E2,3.9321716E1,2.0454095E2,1.107373E1,9.5122025E1,2.1061413E1,3.1105465E1,6.474742E2,3.2592053E2,0E0,0E0,0E0,0E0,0E0,0E0,0E0,0E0,0E0,0E0,0E0,0E0,0E0,0E0,0E0,0E0],"parents":[2147483647,0,0,1,1,2,2,3,3,4,4,5,5,6,6,7,7,8,8,9,9,10,10,11,11,12,12,13,13,14,14],"right_children":[2,4,6,8,10,12,14,16,18,20,22,24,26,28,30,-1,-1,-1,-1,-1,-1,-1,-1,-1,-1,-1,-1,-1,-1,-1,-1],"split_conditions":[6.4E-1,5.508774E-1,1E-45,-6.691306E-1,5.542391E-1,4.446E1,-5E-1,6.7E1,1E-45,5.5E1,2.595E1,7.9E1,5.325E1,1.0649554E0,4.422E1,-6.610411E-2,-1.6534099E-1,-1.1509754E-1,-1.6197564E-2,2.5369327E-3,2.5615788E-1,-5.7549465E-2,1.0138523E-1,3.3551525E-2,-3.840342E-2,-9.881928E-2,-0E0,5.3319182E-2,2.8490552E-1,-3.6885418E-2,3.2006064E-1],"split_indices":[4,4,5,1,4,3,1,0,5,0,6,0,8,4,8,0,0,0,0,0,0,0,0,0,0,0,0,0,0,0,0],"split_type":[0,0,1,0,0,0,0,0,1,0,0,0,0,0,0,0,0,0,0,0,0,0,0,0,0,0,0,0,0,0,0],"sum_hessian":[6.9E2,3.89E2,3.01E2,3.13E2,7.6E1,7.7E1,2.24E2,8.5E1,2.28E2,3E0,7.3E1,4.9E1,2.8E1,1.76E2,4.8E1,2.6E1,5.9E1,1.42E2,8.6E1,1E0,2E0,6.7E1,6E0,4.1E1,8E0,1.3E1,1.5E1,1.41E2,3.5E1,6E0,4.2E1],"tree_param":{"num_deleted":"0","num_feature":"9","num_nodes":"31","size_leaf_vector":"1"}},{"base_weights":[3.256352E-3,-1.1051776E0,3.3858325E0,-1.9607524E0,6.192432E-2,3.9757502E0,3.7738025E-1,-1.0547463E0,-2.344391E0,7.431764E-1,-1.1001042E0,5.7154837E0,2.65659E0,-9.3713915E-1,8.0008E-1,-6.818389E-2,3.379261E-2,-1.6336186E-1,-9.496703E-2,-2.4137972E-2,8.190879E-2,-8.294549E-2,1.1274385E-1,-6.697238E-2,2.9894575E-1,-5.4214735E-2,1.5223883E-1,-4.9816173E-2,-0E0,-2.3326492E-3,5.1393438E-2],"categories":[],"categories_nodes":[],"categories_segments":[],"categories_sizes":[],"default_left":[0,0,0,0,0,0,0,0,0,0,0,0,0,0,0,0,0,0,0,0,0,0,0,0,0,0,0,0,0,0,0],"id":42,"left_children":[1,3,5,7,9,11,13,15,17,19,21,23,25,27,29,-1,-1,-1,-1,-1,-1,-1,-1,-1,-1,-1,-1,-1,-1,-1,-1],"loss_changes":[2.6117998E3,5.257424E2,2.9340002E2,8.955359E1,1.826403E2,2.4389258E2,2.2503872E1,5.875969E1,4.9233765E1,1.6530258E2,1.7746365E2,1.5061572E2,1.5061432E2,1.5164757E-1,6.814392E0,0E0,0E0,0E0,0E0,0E0,0E0,0E0,0E0,0E0,0E0,0E0,0E0,0E0,0E0,0E0,0E0],"parents":[2147483647,0,0,1,1,2,2,3,3,4,4,5,5,6,6,7,7,8,8,9,9,10,10,11,11,12,12,13,13,14,14],"right_children":[2,4,6,8,10,12,14,16,18,20,22,24,26,28,30,-1,-1,-1,-1,-1,-1,-1,-1,-1,-1,-1,-1,-1,-1,-1,-1],"split_conditions":[8.1989485E-1,5.5E-1,1.7364818E-1,1.2E1,7.3E1,6.7E1,5E-1,5.0930387E-1,-5.591929E-1,4.4443058E1,4.512E1,3.806E1,6.8E1,7.7E1,1.2E1,-6.818389E-2,3.379261E-2,-1.6336186E-1,-9.496703E-2,-2.4137972E-2,8.190879E-2,-8.294549E-2,1.1274385E-1,-6.697238E-2,2.9894575E-1,-5.4214735E-2,1.5223883E-1,-4.9816173E-2,-0E0,-2.3326492E-3,5.1393438E-2],"split_indices":[4,4,1,2,0,0,1,4,1,8,3,3,0,0,2,0,0,0,0,0,0,0,0,0,0,0,0,0,0,0,0],"split_type":[0,0,0,0,0,0,0,0,0,0,0,0,0,0,0,0,0,0,0,0,0,0,0,0,0,0,0,0,0,0,0],"sum_hessian":[6.86E2,5.19E2,1.67E2,2.98E2,2.21E2,1.38E2,2.9E1,9.5E1,2.03E2,1.41E2,8E1,5.2E1,8.6E1,5E0,2.4E1,8.2E1,1.3E1,5.5E1,1.48E2,6E1,8.1E1,7.1E1,9E0,1E0,5.1E1,7E0,7.9E1,4E0,1E0,5E0,1.9E1],"tree_param":{"num_deleted":"0","num_feature":"9","num_nodes":"31","size_leaf_vector":"1"}},{"base_weights":[1.4881957E-1,-8.959893E-1,3.7470136E0,-1.6061282E0,3.3574796E-1,4.4046087E0,3.52742E-1,-2.2762175E0,-1.1681825E0,1.9222164E0,-4.91893E-1,6.252585E0,3.083982E0,1.2646776E0,-0E0,-1.17156506E-1,2.103901E-2,-2.6851768E-2,-1.02079235E-1,1.4833516E-2,1.5396462E-1,-7.658555E-2,8.899327E-3,3.2911143E-1,-1.4200483E-2,1.6911408E-1,-4.0741283E-3,7.542677E-2,-0E0,-1.6234545E-2,3.348051E-2],"categories":[0],"categories_nodes":[11],"categories_segments":[0],"categories_sizes":[1],"default_left":[0,0,0,0,0,0,0,0,0,0,0,1,0,0,0,0,0,0,0,0,0,0,0,0,0,0,0,0,0,0,0],"id":43,"left_children":[1,3,5,7,9,11,13,15,17,19,21,23,25,27,29,-1,-1,-1,-1,-1,-1,-1,-1,-1,-1,-1,-1,-1,-1,-1,-1],"loss_changes":[2.6061218E3,4.73683E2,3.356748E2,8.362463E1,2.6876318E2,2.115122E2,1.0537454E1,3.0131775E1,1.1211087E2,1.2371799E2,9.675148E1,1.21227905E2,8.588489E1,3.8107452E0,6.8031106E0,0E0,0E0,0E0,0E0,0E0,0E0,0E0,0E0,0E0,0E0,0E0,0E0,0E0,0E0,0E0,0E0],"parents":[2147483647,0,0,1,1,2,2,3,3,4,4,5,5,6,6,7,7,8,8,9,9,10,10,11,11,12,12,13,13,14,14],"right_children":[2,4,6,8,10,12,14,16,18,20,22,24,26,28,30,-1,-1,-1,-1,-1,-1,-1,-1,-1,-1,-1,-1,-1,-1,-1,-1],"split_conditions":[8.2121724E-1,5.8546937E-1,1.7364818E-1,2.5920708E1,6.9E1,6.7E1,2.312E1,8.1E1,7.3E1,4.35E1,-6.4278764E-1,1E-45,1.27E1,9.848077E-1,2.516E1,-1.17156506E-1,2.103901E-2,-2.6851768E-2,-1.02079235E-1,1.4833516E-2,1.5396462E-1,-7.658555E-2,8.899327E-3,3.2911143E-1,-1.4200483E-2,1.6911408E-1,-4.0741283E-3,7.542677E-2,-0E0,-1.6234545E-2,3.348051E-2],"split_indices":[4,4,1,8,0,0,6,0,0,8,1,7,2,1,6,0,0,0,0,0,0,0,0,0,0,0,0,0,0,0,0],"split_type":[0,0,0,0,0,0,0,0,0,0,0,1,0,0,0,0,0,0,0,0,0,0,0,0,0,0,0,0,0,0,0],"sum_hessian":[6.83E2,5.32E2,1.51E2,3.37E2,1.95E2,1.25E2,2.6E1,1.24E2,2.13E2,6.5E1,1.3E2,4.4E1,8.1E1,4E0,2.2E1,1.22E2,2E0,1.29E2,8.4E1,3E1,3.5E1,4.9E1,8.1E1,4.2E1,2E0,7.4E1,7E0,3E0,1E0,1.7E1,5E0],"tree_param":{"num_deleted":"0","num_feature":"9","num_nodes":"31","size_leaf_vector":"1"}},{"base_weights":[4.3363415E-2,-9.64E-1,3.306312E0,-1.978798E0,-3.1906202E-1,3.9270935E0,9.745124E-2,-2.1369324E0,-0E0,1.7961241E-1,-1.7142136E0,4.8137555E0,1.7901773E0,-5.6469012E-2,4.662868E-1,-7.392111E-2,-1.4358157E-1,-4.302733E-2,7.148444E-2,-2.1319559E-2,4.7823813E-2,-1.12884335E-1,5.324402E-2,3.0275032E-1,1.24015786E-1,2.5256718E-2,1.9252539E-1,4.436615E-2,-3.213942E-3],"categories":[],"categories_nodes":[],"categories_segments":[],"categories_sizes":[],"default_left":[0,0,0,0,0,0,0,0,0,0,0,0,0,0,0,0,0,0,0,0,0,0,0,0,0,0,0,0,0],"id":44,"left_children":[1,3,5,7,9,11,13,15,17,19,21,23,25,-1,27,-1,-1,-1,-1,-1,-1,-1,-1,-1,-1,-1,-1,-1,-1],"loss_changes":[2.2008303E3,3.289855E2,3.0879822E2,5.9717896E1,2.2501079E2,2.0041187E2,1.5997454E1,6.247534E1,3.0244736E1,1.1508621E2,1.4159447E2,1.770476E2,1.1035704E2,0E0,7.363071E0,0E0,0E0,0E0,0E0,0E0,0E0,0E0,0E0,0E0,0E0,0E0,0E0,0E0,0E0],"parents":[2147483647,0,0,1,1,2,2,3,3,4,4,5,5,6,6,7,7,8,8,9,9,10,10,11,11,12,12,14,14],"right_children":[2,4,6,8,10,12,14,16,18,20,22,24,26,-1,28,-1,-1,-1,-1,-1,-1,-1,-1,-1,-1,-1,-1,-1,-1],"split_conditions":[8.28284E-1,4.5614251E-1,1.7364818E-1,9.781476E-1,7.5E1,7.2E1,5E-1,2.419219E-1,7.7E1,4.4087467E1,4.512E1,1.23E1,-6.4278764E-1,-5.6469012E-2,9.5105654E-1,-7.392111E-2,-1.4358157E-1,-4.302733E-2,7.148444E-2,-2.1319559E-2,4.7823813E-2,-1.12884335E-1,5.324402E-2,3.0275032E-1,1.24015786E-1,2.5256718E-2,1.9252539E-1,4.436615E-2,-3.213942E-3],"split_indices":[4,4,1,1,0,0,1,1,0,8,3,2,1,0,1,0,0,0,0,0,0,0,0,0,0,0,0,0,0],"split_type":[0,0,0,0,0,0,0,0,0,0,0,0,0,0,0,0,0,0,0,0,0,0,0,0,0,0,0,0,0],"sum_hessian":[6.59E2,5.06E2,1.53E2,1.92E2,3.14E2,1.27E2,2.6E1,1.77E2,1.5E1,2.34E2,8E1,8.5E1,4.2E1,3E0,2.3E1,1.02E2,7.5E1,1.1E1,4E0,1.32E2,1.02E2,6.8E1,1.2E1,5E1,3.5E1,3E1,1.2E1,1.2E1,1.1E1],"tree_param":{"num_deleted":"0","num_feature":"9","num_nodes":"29","size_leaf_vector":"1"}},{"base_weights":[1.5024224E-1,-8.997637E-1,2.871754E0,-1.8252382E0,-6.5326397E-3,4.218744E0,1.3108805E0,-1.3817459E0,-2.539756E0,-3.1092083E-1,3.8835812E0,4.774429E0,-1.6284227E-1,3.6890897E-1,2.4276693E0,-7.77118E-2,8.086574E-2,-4.3134492E-2,-1.5297146E-1,1.4552291E-2,-8.320033E-2,2.7690467E-1,-1.372633E-2,2.7383533E-1,9.065824E-2,-4.5391824E-2,1.9021051E-2,-9.708836E-3,1.1598023E-1,1.3098015E-1,-1.4385305E-2],"categories":[1],"categories_nodes":[4],"categories_segments":[0],"categories_sizes":[1],"default_left":[0,0,0,0,1,0,0,0,0,0,0,0,0,0,0,0,0,0,0,0,0,0,0,0,0,0,0,0,0,0,0],"id":45,"left_children":[1,3,5,7,9,11,13,15,17,19,21,23,25,27,29,-1,-1,-1,-1,-1,-1,-1,-1,-1,-1,-1,-1,-1,-1,-1,-1],"loss_changes":[1.9809226E3,4.1143988E2,3.7259778E2,5.6168396E1,3.1033197E2,2.5441199E2,9.476784E1,9.682657E1,5.870398E1,2.0416454E2,1.4357852E2,1.3022607E2,8.729864E0,6.918362E1,2.8510696E1,0E0,0E0,0E0,0E0,0E0,0E0,0E0,0E0,0E0,0E0,0E0,0E0,0E0,0E0,0E0,0E0],"parents":[2147483647,0,0,1,1,2,2,3,3,4,4,5,5,6,6,7,7,8,8,9,9,10,10,11,11,12,12,13,13,14,14],"right_children":[2,4,6,8,10,12,14,16,18,20,22,24,26,28,30,-1,-1,-1,-1,-1,-1,-1,-1,-1,-1,-1,-1,-1,-1,-1,-1],"split_conditions":[7.9E-1,4.869754E-1,7E1,2.468E1,1E-45,1.7364818E-1,9.9E-1,2.461E1,1.22E1,7.5E1,2.7563736E-1,1.24E1,1.19E1,2.554E1,8.2E1,-7.77118E-2,8.086574E-2,-4.3134492E-2,-1.5297146E-1,1.4552291E-2,-8.320033E-2,2.7690467E-1,-1.372633E-2,2.7383533E-1,9.065824E-2,-4.5391824E-2,1.9021051E-2,-9.708836E-3,1.1598023E-1,1.3098015E-1,-1.4385305E-2],"split_indices":[4,4,0,6,7,1,4,6,2,0,1,2,2,6,0,0,0,0,0,0,0,0,0,0,0,0,0,0,0,0,0],"split_type":[0,0,0,0,1,0,0,0,0,0,0,0,0,0,0,0,0,0,0,0,0,0,0,0,0,0,0,0,0,0,0],"sum_hessian":[6.83E2,4.95E2,1.88E2,2.4E2,2.55E2,9.6E1,9.2E1,1.58E2,8.2E1,2.41E2,1.4E1,8.5E1,1.1E1,5.4E1,3.8E1,1.52E2,6E0,2.3E1,5.9E1,1.69E2,7.2E1,9E0,5E0,6.5E1,2E1,4E0,7E0,4.5E1,9E0,3.6E1,2E0],"tree_param":{"num_deleted":"0","num_feature":"9","num_nodes":"31","size_leaf_vector":"1"}},{"base_weights":[1.2096282E-1,-1.1301631E0,2.1086817E0,-2.0197365E0,-5.9298694E-1,-1.6461375E-1,2.8976705E0,-2.7120233E0,-1.2960875E0,-9.5241165E-1,2.7160665E-1,-1.2687758E0,2.7782124E-1,2.2979763E0,6.874966E0,1.4094819E-2,-1.4545402E-1,-9.900849E-2,5.2696235E-2,-2.3238325E-2,-1.2510523E-1,-8.517054E-3,1.5572153E-1,8.967896E-3,-8.882062E-2,-3.025316E-2,2.520575E-2,1.8297419E-1,1.7622797E-2,-1.15912475E-1,3.9110586E-1],"categories":[0,0],"categories_nodes":[2,3],"categories_segments":[0,1],"categories_sizes":[1,1],"default_left":[0,0,1,1,0,0,0,0,0,0,0,0,0,0,0,0,0,0,0,0,0,0,0,0,0,0,0,0,0,0,0],"id":46,"left_children":[1,3,5,7,9,11,13,15,17,19,21,23,25,27,29,-1,-1,-1,-1,-1,-1,-1,-1,-1,-1,-1,-1,-1,-1,-1,-1],"loss_changes":[1.7636625E3,1.992669E2,4.965658E2,5.9073425E1,8.867522E1,3.9392414E1,3.9840747E2,5.2155396E1,1.5443755E2,1.41603E2,1.1238894E2,2.0098011E1,1.2812258E1,4.7957452E2,3.0514856E2,0E0,0E0,0E0,0E0,0E0,0E0,0E0,0E0,0E0,0E0,0E0,0E0,0E0,0E0,0E0,0E0],"parents":[2147483647,0,0,1,1,2,2,3,3,4,4,5,5,6,6,7,7,8,8,9,9,10,10,11,11,12,12,13,13,14,14],"right_children":[2,4,6,8,10,12,14,16,18,20,22,24,26,28,30,-1,-1,-1,-1,-1,-1,-1,-1,-1,-1,-1,-1,-1,-1,-1,-1],"split_conditions":[6.8182707E-1,4.0232593E-1,1E-45,1E-45,4.478E1,7.377424E-1,-3.09017E-1,1.15E1,-1.04528464E-1,7.6E1,1.24E1,6.9340056E-1,6.4278764E-1,7.1E1,4.4087467E1,1.4094819E-2,-1.4545402E-1,-9.900849E-2,5.2696235E-2,-2.3238325E-2,-1.2510523E-1,-8.517054E-3,1.5572153E-1,8.967896E-3,-8.882062E-2,-3.025316E-2,2.520575E-2,1.8297419E-1,1.7622797E-2,-1.15912475E-1,3.9110586E-1],"split_indices":[4,4,5,5,3,4,1,2,1,0,2,4,1,0,8,0,0,0,0,0,0,0,0,0,0,0,0,0,0,0,0],"split_type":[0,0,1,1,0,0,0,0,0,0,0,0,0,0,0,0,0,0,0,0,0,0,0,0,0,0,0,0,0,0,0],"sum_hessian":[6.99E2,4.3E2,2.69E2,1.56E2,2.74E2,7E1,1.99E2,7.2E1,8.4E1,1.94E2,8E1,1.8E1,5.2E1,1.8E2,1.9E1,4E0,6.8E1,6.6E1,1.8E1,1.53E2,4.1E1,7.3E1,7E0,5E0,1.3E1,8E0,4.4E1,1.03E2,7.7E1,1E0,1.8E1],"tree_param":{"num_deleted":"0","num_feature":"9","num_nodes":"31","size_leaf_vector":"1"}},{"base_weights":[-1.3954416E-2,-9.148247E-1,2.7722876E0,2.413511E-2,-1.6096964E0,1.6466091E0,5.2619753E0,-5.864445E-1,2.4981537E0,-1.9304188E0,-3.2580268E-1,-2.557991E0,2.0485308E0,5.589661E0,5.162964E-1,-8.925249E-2,3.7878447E-3,1.8938474E-1,-2.8801123E-2,-1.4932038E-1,-7.61671E-2,-6.3810125E-2,1.0287606E-1,8.835125E-3,-1.7833751E-1,-6.3129544E-2,1.1779106E-1,2.900158E-1,4.9989973E-3,-0E0,3.58984E-2],"categories":[],"categories_nodes":[],"categories_segments":[],"categories_sizes":[],"default_left":[0,0,0,0,0,0,0,0,0,0,0,0,0,0,0,0,0,0,0,0,0,0,0,0,0,0,0,0,0,0,0],"id":47,"left_children":[1,3,5,7,9,11,13,15,17,19,21,23,25,27,29,-1,-1,-1,-1,-1,-1,-1,-1,-1,-1,-1,-1,-1,-1,-1,-1],"loss_changes":[1.7678531E3,3.495392E2,4.3181458E2,3.5818204E2,1.2101355E2,2.3862103E2,5.877417E1,1.5239813E2,2.0044168E2,7.763159E1,1.6637524E2,4.2403732E1,1.3602753E2,4.5552246E1,1.2092886E0,0E0,0E0,0E0,0E0,0E0,0E0,0E0,0E0,0E0,0E0,0E0,0E0,0E0,0E0,0E0,0E0],"parents":[2147483647,0,0,1,1,2,2,3,3,4,4,5,5,6,6,7,7,8,8,9,9,10,10,11,11,12,12,13,13,14,14],"right_children":[2,4,6,8,10,12,14,16,18,20,22,24,26,28,30,-1,-1,-1,-1,-1,-1,-1,-1,-1,-1,-1,-1,-1,-1,-1,-1],"split_conditions":[8.1989485E-1,7E1,1.0649554E0,4.4087467E1,4.512E1,6E1,6.123234E-17,2.5920708E1,1.7364818E-1,-6.946584E-1,2.393E1,2.419E1,2.231E1,1.28E1,1.28E0,-8.925249E-2,3.7878447E-3,1.8938474E-1,-2.8801123E-2,-1.4932038E-1,-7.61671E-2,-6.3810125E-2,1.0287606E-1,8.835125E-3,-1.7833751E-1,-6.3129544E-2,1.1779106E-1,2.900158E-1,4.9989973E-3,-0E0,3.58984E-2],"split_indices":[4,0,4,8,3,0,1,8,1,1,6,6,6,2,4,0,0,0,0,0,0,0,0,0,0,0,0,0,0,0,0],"split_type":[0,0,0,0,0,0,0,0,0,0,0,0,0,0,0,0,0,0,0,0,0,0,0,0,0,0,0,0,0,0,0],"sum_hessian":[6.95E2,5.28E2,1.67E2,2.26E2,3.02E2,1.21E2,4.6E1,1.84E2,4.2E1,2.39E2,6.3E1,8E0,1.13E2,4.2E1,4E0,6.3E1,1.21E2,2.9E1,1.3E1,5.7E1,1.82E2,4.7E1,1.6E1,3E0,5E0,8E0,1.05E2,4E1,2E0,2E0,2E0],"tree_param":{"num_deleted":"0","num_feature":"9","num_nodes":"31","size_leaf_vector":"1"}},{"base_weights":[1.13990396E-1,-1.2492083E0,1.5982885E0,-1.8174348E0,-5.12066E-1,-2.5976905E-1,2.3261883E0,-1.9239633E0,2.1357386E-1,-1.3811798E0,1.032259E-1,-8.787222E-1,2.3412108E-1,3.4447134E0,1.205087E0,-7.860299E-2,-1.4645563E-1,4.9371444E-2,-4.294802E-2,-8.712993E-2,1.4609064E-1,-5.5019606E-2,1.0762624E-1,-7.360484E-2,5.1150094E-3,-0E0,5.1132865E-2,2.0879956E-1,2.481994E-2,-1.0485288E-2,1.870443E-1],"categories":[0,1,0],"categories_nodes":[2,9,10],"categories_segments":[0,1,2],"categories_sizes":[1,1,1],"default_left":[0,0,1,0,0,0,0,0,0,1,1,0,0,0,0,0,0,0,0,0,0,0,0,0,0,0,0,0,0,0,0],"id":48,"left_children":[1,3,5,7,9,11,13,15,17,19,21,23,25,27,29,-1,-1,-1,-1,-1,-1,-1,-1,-1,-1,-1,-1,-1,-1,-1,-1],"loss_changes":[1.394333E3,1.4338934E2,4.51406E2,4.703705E1,8.969124E1,3.1325638E1,2.7304163E2,4.003473E1,1.5989083E1,1.3158609E2,2.5955255E2,2.8317894E1,1.0471439E1,2.3506311E2,4.6308258E2,0E0,0E0,0E0,0E0,0E0,0E0,0E0,0E0,0E0,0E0,0E0,0E0,0E0,0E0,0E0,0E0],"parents":[2147483647,0,0,1,1,2,2,3,3,4,4,5,5,6,6,7,7,8,8,9,9,10,10,11,11,12,12,13,13,14,14],"right_children":[2,4,6,8,10,12,14,16,18,20,22,24,26,28,30,-1,-1,-1,-1,-1,-1,-1,-1,-1,-1,-1,-1,-1,-1,-1,-1],"split_conditions":[6.2747765E-1,4.5614251E-1,1E-45,4.613E1,-4.6947157E-1,7.377424E-1,6.9E1,7.6E1,4.0673664E-1,1E-45,1E-45,2.376E1,7.8583115E1,1.25E1,-6.4278764E-1,-7.860299E-2,-1.4645563E-1,4.9371444E-2,-4.294802E-2,-8.712993E-2,1.4609064E-1,-5.5019606E-2,1.0762624E-1,-7.360484E-2,5.1150094E-3,-0E0,5.1132865E-2,2.0879956E-1,2.481994E-2,-1.0485288E-2,1.870443E-1],"split_indices":[4,4,5,3,1,4,0,0,1,7,5,6,8,2,1,0,0,0,0,0,0,0,0,0,0,0,0,0,0,0,0],"split_type":[0,0,1,0,0,0,0,0,0,1,1,0,0,0,0,0,0,0,0,0,0,0,0,0,0,0,0,0,0,0,0],"sum_hessian":[6.79E2,3.54E2,3.25E2,1.95E2,1.59E2,9.2E1,2.33E2,1.86E2,9E0,6.4E1,9.5E1,4E1,5.2E1,1.11E2,1.22E2,1.48E2,3.8E1,6E0,3E0,6.2E1,2E0,6.1E1,3.4E1,2.4E1,1.6E1,4.4E1,8E0,8.7E1,2.4E1,8.1E1,4.1E1],"tree_param":{"num_deleted":"0","num_feature":"9","num_nodes":"31","size_leaf_vector":"1"}},{"base_weights":[1.4808947E-1,-1.1600506E0,1.5940871E0,-1.9728677E0,-7.635531E-1,9.8245275E-1,3.592632E0,-2.1282458E0,4.0088826E-1,-1.724815E0,9.559047E-1,-3.6185804E-1,1.5748975E0,4.132985E0,-0E0,-2.2824049E-2,-1.1978336E-1,-8.194854E-2,1.4400361E-1,-1.6626094E-1,-5.8346726E-2,9.599275E-3,1.5670845E-1,8.001773E-3,-4.765583E-2,6.6290842E-3,1.654985E-1,2.83068E-1,1.071497E-1,-2.2552173E-1,9.759153E-2],"categories":[1,0,0],"categories_nodes":[3,4,5],"categories_segments":[0,1,2],"categories_sizes":[1,1,1],"default_left":[0,0,0,1,1,1,0,0,0,0,0,0,0,0,0,0,0,0,0,0,0,0,0,0,0,0,0,0,0,0,0],"id":49,"left_children":[1,3,5,7,9,11,13,15,17,19,21,23,25,27,29,-1,-1,-1,-1,-1,-1,-1,-1,-1,-1,-1,-1,-1,-1,-1,-1],"loss_changes":[1.3299943E3,1.0865289E2,3.860515E2,4.9146423E1,4.3379498E2,2.1352354E2,1.4645093E2,4.13042E1,8.0471924E1,1.25209595E2,1.5174695E2,2.7475956E1,4.5482736E2,1.3227026E2,1.7539911E2,0E0,0E0,0E0,0E0,0E0,0E0,0E0,0E0,0E0,0E0,0E0,0E0,0E0,0E0,0E0,0E0],"parents":[2147483647,0,0,1,1,2,2,3,3,4,4,5,5,6,6,7,7,8,8,9,9,10,10,11,11,12,12,13,13,14,14],"right_children":[2,4,6,8,10,12,14,16,18,20,22,24,26,28,30,-1,-1,-1,-1,-1,-1,-1,-1,-1,-1,-1,-1,-1,-1,-1,-1],"split_conditions":[6.2747765E-1,-4.6947157E-1,1.02E0,1E-45,1E-45,1E-45,-4.3837115E-1,1.18E1,-9.2718387E-1,3.0989486E-1,5.0149834E-1,4.402E1,-8.09017E-1,6.8E1,-3.09017E-1,-2.2824049E-2,-1.1978336E-1,-8.194854E-2,1.4400361E-1,-1.6626094E-1,-5.8346726E-2,9.599275E-3,1.5670845E-1,8.001773E-3,-4.765583E-2,6.6290842E-3,1.654985E-1,2.83068E-1,1.071497E-1,-2.2552173E-1,9.759153E-2],"split_indices":[4,1,4,7,5,5,1,2,1,4,4,3,1,0,1,0,0,0,0,0,0,0,0,0,0,0,0,0,0,0,0],"split_type":[0,0,0,1,1,1,0,0,0,0,0,0,0,0,0,0,0,0,0,0,0,0,0,0,0,0,0,0,0,0,0],"sum_hessian":[6.93E2,3.64E2,3.29E2,1.12E2,2.52E2,2.58E2,7.1E1,1.06E2,6E0,1.62E2,9E1,7.9E1,1.79E2,6.1E1,1E1,1.7E1,8.9E1,4E0,2E0,3.5E1,1.27E2,7.1E1,1.9E1,4.3E1,3.6E1,1.01E2,7.8E1,2.9E1,3.2E1,1E0,9E0],"tree_param":{"num_deleted":"0","num_feature":"9","num_nodes":"31","size_leaf_vector":"1"}},{"base_weights":[1.0895569E-1,-6.947122E-1,2.1933556E0,-1.514501E0,-7.151172E-2,1.4266726E0,4.339932E0,-2.2996275E0,-1.1068622E0,-7.8171414E-1,4.2561114E-1,2.2453892E0,1.019852E-1,4.9483604E0,7.2171634E-1,-1.5931214E-1,-3.0610377E-2,-1.120587E-1,-2.7370045E-2,-4.9742963E-2,1.0213028E-2,-4.0036146E-2,1.3509241E-1,1.4131157E-1,-9.980748E-3,-1.5519606E-1,3.3158865E-2,2.6099637E-1,2.3731995E-2,5.2232396E-2,-7.920102E-3],"categories":[0,0],"categories_nodes":[4,7],"categories_segments":[0,1],"categories_sizes":[1,1],"default_left":[0,0,0,0,1,0,0,1,0,0,0,0,0,0,0,0,0,0,0,0,0,0,0,0,0,0,0,0,0,0,0],"id":50,"left_children":[1,3,5,7,9,11,13,15,17,19,21,23,25,27,29,-1,-1,-1,-1,-1,-1,-1,-1,-1,-1,-1,-1,-1,-1,-1,-1],"loss_changes":[1.1616311E3,2.5331882E2,2.8090356E2,5.2677002E1,1.0440642E2,1.5918918E2,8.214172E1,8.818259E1,8.753705E1,2.744564E1,4.956351E2,1.361022E2,1.2119664E2,3.05141E1,5.408451E0,0E0,0E0,0E0,0E0,0E0,0E0,0E0,0E0,0E0,0E0,0E0,0E0,0E0,0E0,0E0,0E0],"parents":[2147483647,0,0,1,1,2,2,3,3,4,4,5,5,6,6,7,7,8,8,9,9,10,10,11,11,12,12,13,13,14,14],"right_children":[2,4,6,8,10,12,14,16,18,20,22,24,26,28,30,-1,-1,-1,-1,-1,-1,-1,-1,-1,-1,-1,-1,-1,-1,-1,-1],"split_conditions":[7.8365165E-1,4.5614251E-1,1.0649554E0,3.0989486E-1,1E-45,1.23E1,7.4E1,1E-45,-6.691306E-1,9.612617E-1,-5E-1,1.7364818E-1,6E1,-2.0791169E-1,1.21E0,-1.5931214E-1,-3.0610377E-2,-1.120587E-1,-2.7370045E-2,-4.9742963E-2,1.0213028E-2,-4.0036146E-2,1.3509241E-1,1.4131157E-1,-9.980748E-3,-1.5519606E-1,3.3158865E-2,2.6099637E-1,2.3731995E-2,5.2232396E-2,-7.920102E-3],"split_indices":[4,4,4,4,5,2,0,5,1,1,1,1,0,1,4,0,0,0,0,0,0,0,0,0,0,0,0,0,0,0,0],"split_type":[0,0,0,0,1,0,0,1,0,0,0,0,0,0,0,0,0,0,0,0,0,0,0,0,0,0,0,