{"learner":{"attributes":{},"feature_names":["Age","Steep_axis_term","Eye","WTW_IOLMaster","MeanK_IOLMaster","Type","Treated_astig","Residual_astigmatism"],"feature_types":["int","float","c","float","float","c","float","float"],"gradient_booster":{"model":{"gbtree_model_param":{"num_parallel_tree":"1","num_trees":"217"},"iteration_indptr":[0,1,2,3,4,5,6,7,8,9,10,11,12,13,14,15,16,17,18,19,20,21,22,23,24,25,26,27,28,29,30,31,32,33,34,35,36,37,38,39,40,41,42,43,44,45,46,47,48,49,50,51,52,53,54,55,56,57,58,59,60,61,62,63,64,65,66,67,68,69,70,71,72,73,74,75,76,77,78,79,80,81,82,83,84,85,86,87,88,89,90,91,92,93,94,95,96,97,98,99,100,101,102,103,104,105,106,107,108,109,110,111,112,113,114,115,116,117,118,119,120,121,122,123,124,125,126,127,128,129,130,131,132,133,134,135,136,137,138,139,140,141,142,143,144,145,146,147,148,149,150,151,152,153,154,155,156,157,158,159,160,161,162,163,164,165,166,167,168,169,170,171,172,173,174,175,176,177,178,179,180,181,182,183,184,185,186,187,188,189,190,191,192,193,194,195,196,197,198,199,200,201,202,203,204,205,206,207,208,209,210,211,212,213,214,215,216,217],"tree_info":[0,0,0,0,0,0,0,0,0,0,0,0,0,0,0,0,0,0,0,0,0,0,0,0,0,0,0,0,0,0,0,0,0,0,0,0,0,0,0,0,0,0,0,0,0,0,0,0,0,0,0,0,0,0,0,0,0,0,0,0,0,0,0,0,0,0,0,0,0,0,0,0,0,0,0,0,0,0,0,0,0,0,0,0,0,0,0,0,0,0,0,0,0,0,0,0,0,0,0,0,0,0,0,0,0,0,0,0,0,0,0,0,0,0,0,0,0,0,0,0,0,0,0,0,0,0,0,0,0,0,0,0,0,0,0,0,0,0,0,0,0,0,0,0,0,0,0,0,0,0,0,0,0,0,0,0,0,0,0,0,0,0,0,0,0,0,0,0,0,0,0,0,0,0,0,0,0,0,0,0,0,0,0,0,0,0,0,0,0,0,0,0,0,0,0,0,0,0,0,0,0,0,0,0,0,0,0,0,0,0,0,0,0,0,0,0,0],"trees":[{"base_weights":[-6.063845E-2,-2.3014417E0,5.284953E0,-1.0391205E1,-1.3966107E0,-1.7972921E-1,6.092167E0,-1.0971389E0,-1.6131424E1,8.902862E0,-1.8939334E0,3.031049E-1,-1.6063256E0,4.538706E0,9.306709E0,-2.2919345E-1,4.8643824E-1,-2.3517132E-1,-8.2898647E-1,3.643824E-2,5.319177E-1,-1.1387875E-1,2.02539E-1,-1.18082345E-1,3.7258912E-3,1.924964E-1,4.8970634E-1,1.3474302E-1,4.9707747E-1],"categories":[0,1,3,1,1],"categories_nodes":[3,4,5],"categories_segments":[0,3,4],"categories_sizes":[3,1,1],"default_left":[0,0,0,1,1,1,0,0,0,0,0,0,0,0,0,0,0,0,0,0,0,0,0,0,0,0,0,0,0],"id":0,"left_children":[1,3,5,7,9,11,13,15,17,19,21,-1,23,25,27,-1,-1,-1,-1,-1,-1,-1,-1,-1,-1,-1,-1,-1,-1],"loss_changes":[4.420221E3,1.888653E3,4.819121E2,1.3694009E3,1.2205691E3,1.4330623E2,4.321582E2,4.5981244E2,3.9902344E0,1.48294E2,5.2237E2,0E0,1.6680485E1,2.0120093E2,9.913306E1,0E0,0E0,0E0,0E0,0E0,0E0,0E0,0E0,0E0,0E0,0E0,0E0,0E0,0E0],"parents":[2147483647,0,0,1,1,2,2,3,3,4,4,5,5,6,6,7,7,8,8,9,9,10,10,12,12,13,13,14,14],"right_children":[2,4,6,8,10,12,14,16,18,20,22,-1,24,26,28,-1,-1,-1,-1,-1,-1,-1,-1,-1,-1,-1,-1,-1,-1],"split_conditions":[1.0001523E0,5.1E-1,-2.0725939E-1,NaN,NaN,NaN,1.32899E0,2.1918558E-1,-9.702957E-1,5.863354E-1,3.2139382E-1,3.031049E-1,1.3697639E0,2.0225425E-1,-1.3023613E-1,-2.2919345E-1,4.8643824E-1,-2.3517132E-1,-8.2898647E-1,3.643824E-2,5.319177E-1,-1.1387875E-1,2.02539E-1,-1.18082345E-1,3.7258912E-3,1.924964E-1,4.8970634E-1,1.3474302E-1,4.9707747E-1],"split_indices":[6,6,7,5,5,5,6,7,1,6,7,0,6,7,7,0,0,0,0,0,0,0,0,0,0,0,0,0,0],"split_type":[0,0,0,1,1,1,0,0,0,0,0,0,0,0,0,0,0,0,0,0,0,0,0,0,0,0,0,0,0],"sum_hessian":[3.67E2,2.59E2,1.08E2,2.5E1,2.34E2,1.4E1,9.4E1,1E1,1.5E1,1E1,2.24E2,2E0,1.2E1,6.5E1,2.9E1,8E0,2E0,1E0,1.4E1,2E0,8E0,2.11E2,1.3E1,8E0,4E0,5.9E1,6E0,3E0,2.6E1],"tree_param":{"num_deleted":"0","num_feature":"8","num_nodes":"29","size_leaf_vector":"1"}},{"base_weights":[-6.668508E-3,-2.1145995E0,5.506446E0,-9.476814E0,-1.2309158E0,-1.1535597E-1,6.1726303E0,-7.075735E-1,-1.6750962E0,8.341925E0,-1.8057593E0,2.9300144E-1,-1.8964357E0,4.310156E0,8.532656E0,-3.1224534E-1,2.9858097E-1,2.151223E-1,5.8833843E-1,-1.1064174E-1,3.2684582E-1,-1.03076555E-1,-1.0264444E-2,5.9668833E-1,1.8937223E-1,1.0396824E-1,4.4998485E-1],"categories":[1,1,0,1,3],"categories_nodes":[4,5,13],"categories_segments":[0,1,2],"categories_sizes":[1,1,3],"default_left":[0,0,0,1,1,1,0,0,0,0,0,0,0,1,0,0,0,0,0,0,0,0,0,0,0,0,0],"id":1,"left_children":[1,3,5,7,9,11,13,-1,15,17,19,-1,21,23,25,-1,-1,-1,-1,-1,-1,-1,-1,-1,-1,-1,-1],"loss_changes":[4.369618E3,1.757931E3,3.9020825E2,1.033935E3,1.3577675E3,1.3882481E2,3.7200342E2,0E0,4.566207E2,1.4305823E2,7.9896375E2,0E0,2.3687935E0,1.6998865E2,1.0184424E2,0E0,0E0,0E0,0E0,0E0,0E0,0E0,0E0,0E0,0E0,0E0,0E0],"parents":[2147483647,0,0,1,1,2,2,3,3,4,4,5,5,6,6,8,8,9,9,10,10,12,12,13,13,14,14],"right_children":[2,4,6,8,10,12,14,-1,16,18,20,-1,22,24,26,-1,-1,-1,-1,-1,-1,-1,-1,-1,-1,-1,-1],"split_conditions":[1.0001523E0,5.4E-1,-2.0725939E-1,2.7563736E-1,NaN,NaN,1.2808144E0,-7.075735E-1,3.5E-1,7.027406E-1,4.6359193E-1,2.9300144E-1,4.554E1,NaN,-1.0168416E-1,-3.1224534E-1,2.9858097E-1,2.151223E-1,5.8833843E-1,-1.1064174E-1,3.2684582E-1,-1.03076555E-1,-1.0264444E-2,5.9668833E-1,1.8937223E-1,1.0396824E-1,4.4998485E-1],"split_indices":[6,6,7,1,5,5,6,0,6,6,7,0,4,5,7,0,0,0,0,0,0,0,0,0,0,0,0],"split_type":[0,0,0,0,1,1,0,0,0,0,0,0,0,1,0,0,0,0,0,0,0,0,0,0,0,0,0],"sum_hessian":[3.74E2,2.71E2,1.03E2,2.8E1,2.43E2,1.1E1,9.2E1,1.7E1,1.1E1,1.3E1,2.3E2,2E0,9E0,5.3E1,3.9E1,7E0,4E0,7E0,6E0,2.2E2,1E1,8E0,1E0,2E0,5.1E1,3E0,3.6E1],"tree_param":{"num_deleted":"0","num_feature":"8","num_nodes":"27","size_leaf_vector":"1"}},{"base_weights":[-5.537781E-2,-1.9435542E0,5.0810156E0,-1.0179407E1,-9.567374E-1,2.3211439E-1,5.802896E0,-1.3424803E0,-1.5505169E1,7.847847E0,-1.567727E0,2.832347E-1,-1.1453732E0,2.5803983E0,6.8538895E0,-2.7983463E-1,2.8663775E-1,-6.283101E-1,-1.1325003E0,1.9586277E-1,5.6443906E-1,-9.6038155E-2,2.8017104E-1,-1.0081545E-1,3.080702E-3,6.151737E-2,4.3427762E-1,7.075008E-1,3.1988314E-1],"categories":[0,1,3,1,1,0,0,1,3],"categories_nodes":[3,4,5,8,14],"categories_segments":[0,3,4,5,6],"categories_sizes":[3,1,1,1,3],"default_left":[0,0,0,1,1,1,0,0,1,0,0,0,0,0,1,0,0,0,0,0,0,0,0,0,0,0,0,0,0],"id":2,"left_children":[1,3,5,7,9,11,13,15,17,19,21,-1,23,25,27,-1,-1,-1,-1,-1,-1,-1,-1,-1,-1,-1,-1,-1,-1],"loss_changes":[3.607988E3,2.2008804E3,3.486858E2,1.3440222E3,1.3249036E3,1.1125452E2,2.7696802E2,3.932791E2,9.334766E1,1.7217749E2,5.905161E2,0E0,1.2738732E1,1.7888593E2,1.2583765E2,0E0,0E0,0E0,0E0,0E0,0E0,0E0,0E0,0E0,0E0,0E0,0E0,0E0,0E0],"parents":[2147483647,0,0,1,1,2,2,3,3,4,4,5,5,6,6,7,7,8,8,9,9,10,10,12,12,13,13,14,14],"right_children":[2,4,6,8,10,12,14,16,18,20,22,-1,24,26,28,-1,-1,-1,-1,-1,-1,-1,-1,-1,-1,-1,-1,-1,-1],"split_conditions":[1.0001523E0,5.4E-1,-2.0725939E-1,NaN,NaN,NaN,1.1284276E0,3.5E-1,NaN,7.027406E-1,4.6359193E-1,2.832347E-1,1.25E0,2.0225425E-1,NaN,-2.7983463E-1,2.8663775E-1,-6.283101E-1,-1.1325003E0,1.9586277E-1,5.6443906E-1,-9.6038155E-2,2.8017104E-1,-1.0081545E-1,3.080702E-3,6.151737E-2,4.3427762E-1,7.075008E-1,3.1988314E-1],"split_indices":[6,6,7,5,5,5,6,6,5,6,7,0,6,7,5,0,0,0,0,0,0,0,0,0,0,0,0,0,0],"split_type":[0,0,0,1,1,1,0,0,1,0,0,0,0,0,1,0,0,0,0,0,0,0,0,0,0,0,0,0,0],"sum_hessian":[3.7E2,2.71E2,9.9E1,2.8E1,2.43E2,1.3E1,8.6E1,1.1E1,1.7E1,1.5E1,2.28E2,2E0,1.1E1,2.2E1,6.4E1,7E0,4E0,1.4E1,3E0,8E0,7E0,2.18E2,1E1,6E0,5E0,1.9E1,3E0,2E0,6.2E1],"tree_param":{"num_deleted":"0","num_feature":"8","num_nodes":"29","size_leaf_vector":"1"}},{"base_weights":[-6.499889E-2,-2.0070431E0,4.916587E0,-1.0300435E1,-1.1434112E0,1.8818636E0,6.006778E0,-3.1056085E0,-1.3926779E1,6.6092753E0,-1.6272217E0,1.2320114E0,3.659931E-1,-1.08697E0,6.604716E0,-2.8634188E-1,2.4597691E-1,-1.9589496E-1,-7.153732E-1,5.5464696E-2,3.945915E-1,-1.0103581E-1,2.6693502E-1,3.4093755E-1,2.700013E-2,-8.894815E-2,2.1433767E-2,6.4686066E-1,3.074253E-1],"categories":[0,1,1,0,1,3,0,1,3],"categories_nodes":[3,4,11,14],"categories_segments":[0,2,3,6],"categories_sizes":[2,1,3,3],"default_left":[0,0,0,1,1,0,0,0,0,0,0,1,0,0,1,0,0,0,0,0,0,0,0,0,0,0,0,0,0],"id":3,"left_children":[1,3,5,7,9,11,13,15,17,19,21,23,-1,25,27,-1,-1,-1,-1,-1,-1,-1,-1,-1,-1,-1,-1,-1,-1],"loss_changes":[3.7248606E3,1.9722179E3,3.4600635E2,6.3511255E2,9.5596423E2,9.699871E1,3.422671E2,2.3853085E2,8.718994E0,9.705603E1,6.6315857E2,1.0456792E2,0E0,8.104311E0,1.3134863E2,0E0,0E0,0E0,0E0,0E0,0E0,0E0,0E0,0E0,0E0,0E0,0E0,0E0,0E0],"parents":[2147483647,0,0,1,1,2,2,3,3,4,4,5,5,6,6,7,7,8,8,9,9,10,10,11,11,13,13,14,14],"right_children":[2,4,6,8,10,12,14,16,18,20,22,24,-1,26,28,-1,-1,-1,-1,-1,-1,-1,-1,-1,-1,-1,-1,-1,-1],"split_conditions":[1.0001523E0,5.4E-1,1.1284276E0,NaN,NaN,2.0225425E-1,-3.5210368E-1,3.5E-1,-9.9939084E-1,5.863354E-1,4.6359193E-1,NaN,3.659931E-1,-3.8302222E-1,NaN,-2.8634188E-1,2.4597691E-1,-1.9589496E-1,-7.153732E-1,5.5464696E-2,3.945915E-1,-1.0103581E-1,2.6693502E-1,3.4093755E-1,2.700013E-2,-8.894815E-2,2.1433767E-2,6.4686066E-1,3.074253E-1],"split_indices":[6,6,6,5,5,7,7,6,1,6,7,5,0,7,5,0,0,0,0,0,0,0,0,0,0,0,0,0,0],"split_type":[0,0,0,1,1,0,0,0,0,0,0,1,0,0,1,0,0,0,0,0,0,0,0,0,0,0,0,0,0],"sum_hessian":[3.83E2,2.76E2,1.07E2,2.5E1,2.51E2,2.9E1,7.8E1,9E0,1.6E1,1.4E1,2.37E2,2.7E1,2E0,6E0,7.2E1,7E0,2E0,1E0,1.5E1,3E0,1.1E1,2.25E2,1.2E1,2E0,2.5E1,4E0,2E0,3E0,6.9E1],"tree_param":{"num_deleted":"0","num_feature":"8","num_nodes":"29","size_leaf_vector":"1"}},{"base_weights":[-6.766723E-2,-1.7949303E0,4.584642E0,-1.0421038E1,-9.941488E-1,3.7814674E0,4.8653173E-1,9.95854E-3,-1.4103151E1,6.72274E0,-1.4458041E0,8.493335E0,3.1452157E0,-1.1838173E-1,3.568879E-1,-5.5248994E-1,-1.063205E0,1.7527251E-1,5.2141094E-1,-9.241233E-2,2.815381E-1,5.0766635E-1,6.1778802E-2,4.829092E-1,1.3376732E-1],"categories":[0,1,3,1,0,0,1,3],"categories_nodes":[3,4,8,12],"categories_segments":[0,3,4,5],"categories_sizes":[3,1,1,3],"default_left":[0,0,0,1,1,0,0,0,1,0,0,0,1,0,0,0,0,0,0,0,0,0,0,0,0],"id":4,"left_children":[1,3,5,7,9,11,-1,13,15,17,19,21,23,-1,-1,-1,-1,-1,-1,-1,-1,-1,-1,-1,-1],"loss_changes":[2.9975327E3,1.8685149E3,3.8065015E2,8.835271E2,8.810632E2,2.4010266E2,0E0,1.3552866E2,1.3673926E2,1.303468E2,6.853618E2,1.07933044E2,2.1898047E2,0E0,0E0,0E0,0E0,0E0,0E0,0E0,0E0,0E0,0E0,0E0,0E0],"parents":[2147483647,0,0,1,1,2,2,3,3,4,4,5,5,7,7,8,8,9,9,10,10,11,11,12,12],"right_children":[2,4,6,8,10,12,-1,14,16,18,20,22,24,-1,-1,-1,-1,-1,-1,-1,-1,-1,-1,-1,-1],"split_conditions":[1.0097982E0,5.4E-1,1.4927406E0,NaN,NaN,6.2E1,4.8653173E-1,2.1918558E-1,NaN,7.027406E-1,4.6359193E-1,-7.431448E-1,NaN,-1.1838173E-1,3.568879E-1,-5.5248994E-1,-1.063205E0,1.7527251E-1,5.2141094E-1,-9.241233E-2,2.815381E-1,5.0766635E-1,6.1778802E-2,4.829092E-1,1.3376732E-1],"split_indices":[6,6,6,5,5,0,0,7,5,6,7,1,5,0,0,0,0,0,0,0,0,0,0,0,0],"split_type":[0,0,0,1,1,0,0,0,1,0,0,0,1,0,0,0,0,0,0,0,0,0,0,0,0],"sum_hessian":[3.71E2,2.71E2,1E2,2.2E1,2.49E2,8.8E1,1.2E1,6E0,1.6E1,1.3E1,2.36E2,9E0,7.9E1,5E0,1E0,1.3E1,3E0,8E0,5E0,2.24E2,1.2E1,7E0,2E0,4E0,7.5E1],"tree_param":{"num_deleted":"0","num_feature":"8","num_nodes":"25","size_leaf_vector":"1"}},{"base_weights":[-6.675443E-2,-1.6156728E0,5.2471724E0,-1.24225855E1,-9.513962E-1,-1.4035218E0,5.8542404E0,-9.23694E0,-1.0233349E0,6.1062765E0,-1.4039781E0,-2.0339663E0,3.2520804E-1,6.04449E-1,5.4490666E0,-5.452142E-2,-4.8898584E-1,3.6381143E-1,2.4243832E-2,-5.045494E-1,-5.1036637E-2,-1.1866243E-1,-4.5180067E-2,3.8355447E-2,-1.3964844E-2,3.4693253E-1,1.648916E-1],"categories":[0,1,0,1,3],"categories_nodes":[3,4,6],"categories_segments":[0,1,2],"categories_sizes":[1,1,3],"default_left":[0,0,0,1,1,0,1,0,0,0,0,0,0,0,0,0,0,0,0,0,0,0,0,0,0,0,0],"id":5,"left_children":[1,3,5,7,9,11,13,15,-1,17,19,21,23,-1,25,-1,-1,-1,-1,-1,-1,-1,-1,-1,-1,-1,-1],"loss_changes":[3.1361965E3,2.1059211E3,3.5543506E2,2.4658691E2,8.997479E2,9.380409E0,1.3369214E2,5.1240112E1,0E0,1.0827698E2,8.6529407E2,1.5660667E-1,1.0156449E0,0E0,2.2065527E2,0E0,0E0,0E0,0E0,0E0,0E0,0E0,0E0,0E0,0E0,0E0,0E0],"parents":[2147483647,0,0,1,1,2,2,3,3,4,4,5,5,6,6,7,7,9,9,10,10,11,11,12,12,14,14],"right_children":[2,4,6,8,10,12,14,16,-1,18,20,22,24,-1,26,-1,-1,-1,-1,-1,-1,-1,-1,-1,-1,-1,-1],"split_conditions":[1.125E0,3.5640806E-1,-3.5210368E-1,NaN,NaN,-3.8302222E-1,NaN,6.5E1,-1.0233349E0,7.6E1,5.9848887E-1,1.22E1,7.2E1,6.04449E-1,-1.391731E-1,-5.452142E-2,-4.8898584E-1,3.6381143E-1,2.4243832E-2,-5.045494E-1,-5.1036637E-2,-1.1866243E-1,-4.5180067E-2,3.8355447E-2,-1.3964844E-2,3.4693253E-1,1.648916E-1],"split_indices":[6,6,7,5,5,7,5,0,0,0,6,3,0,0,1,0,0,0,0,0,0,0,0,0,0,0,0],"split_type":[0,0,0,1,1,0,1,0,0,0,0,0,0,0,0,0,0,0,0,0,0,0,0,0,0,0,0],"sum_hessian":[3.79E2,2.94E2,8.5E1,1.6E1,2.78E2,7E0,7.8E1,1.3E1,3E0,1.6E1,2.62E2,5E0,2E0,3E0,7.5E1,1E0,1.2E1,1.3E1,3E0,1E1,2.52E2,3E0,2E0,1E0,1E0,4.3E1,3.2E1],"tree_param":{"num_deleted":"0","num_feature":"8","num_nodes":"27","size_leaf_vector":"1"}},{"base_weights":[1.331911E-1,-1.1892074E0,5.0528364E0,-1.7673166E0,6.819254E0,-5.5316057E-2,5.7939496E0,-9.727288E0,-1.0366974E0,-1.22069314E-1,7.43515E0,-8.746416E-2,1.1625627E0,4.2397323E0,3.8957503E-1,-1.3836394E-1,-6.0104907E-1,3.0833513E-1,-7.4222796E-2,4.820009E-1,2.6728213E-1,8.5992336E-2,-7.6882364E-3,4.165494E-1,1.4977293E-1],"categories":[0,1,1],"categories_nodes":[7,8],"categories_segments":[0,2],"categories_sizes":[2,1],"default_left":[0,0,0,0,0,0,0,1,1,0,0,0,0,0,0,0,0,0,0,0,0,0,0,0,0],"id":6,"left_children":[1,3,5,7,9,11,13,15,17,-1,19,-1,21,23,-1,-1,-1,-1,-1,-1,-1,-1,-1,-1,-1],"loss_changes":[2.4261409E3,1.3732028E3,2.993927E2,1.5892355E3,1.3222388E2,2.4727167E1,1.811853E2,3.3390942E2,8.251763E2,0E0,3.6002686E1,0E0,5.3994274E0,1.8376111E2,0E0,0E0,0E0,0E0,0E0,0E0,0E0,0E0,0E0,0E0,0E0],"parents":[2147483647,0,0,1,1,2,2,3,3,4,4,5,5,6,6,7,7,8,8,10,10,12,12,13,13],"right_children":[2,4,6,8,10,12,14,16,18,-1,20,-1,22,24,-1,-1,-1,-1,-1,-1,-1,-1,-1,-1,-1],"split_conditions":[1.1284276E0,3.715724E-1,-1.3023613E-1,5.4E-1,1.12E1,-3.8302222E-1,1.3427876E0,NaN,NaN,-1.22069314E-1,4.399E1,-8.746416E-2,4.392E1,5.9E1,3.8957503E-1,-1.3836394E-1,-6.0104907E-1,3.0833513E-1,-7.4222796E-2,4.820009E-1,2.6728213E-1,8.5992336E-2,-7.6882364E-3,4.165494E-1,1.4977293E-1],"split_indices":[6,7,7,6,3,7,6,5,5,0,4,0,4,0,0,0,0,0,0,0,0,0,0,0,0],"split_type":[0,0,0,0,0,0,0,1,1,0,0,0,0,0,0,0,0,0,0,0,0,0,0,0,0],"sum_hessian":[3.71E2,2.93E2,7.8E1,2.74E2,1.9E1,1E1,6.8E1,2.2E1,2.52E2,1E0,1.8E1,4E0,6E0,4E1,2.8E1,6E0,1.6E1,1.4E1,2.38E2,7E0,1.1E1,4E0,2E0,8E0,3.2E1],"tree_param":{"num_deleted":"0","num_feature":"8","num_nodes":"25","size_leaf_vector":"1"}},{"base_weights":[-3.83224E-3,-1.433425E0,3.959433E0,-1.9366058E0,5.9982405E0,-9.2417336E-1,4.7559233E0,-8.273533E0,-1.2948439E0,2.5011556E0,7.538353E0,1.0544529E-1,-1.291458E0,3.120743E0,6.688434E0,-5.3099066E-1,-1.5915433E-1,2.4511562E-1,-8.212557E-2,3.6960617E-2,3.2682037E-1,1.339625E-1,4.1211244E-1,-1.0629516E-1,8.772627E-3,1.18656926E-1,4.041527E-1,1.10418275E-1,3.5002148E-1],"categories":[1,1],"categories_nodes":[5,8],"categories_segments":[0,1],"categories_sizes":[1,1],"default_left":[0,0,0,0,0,1,0,1,1,0,0,0,0,0,0,0,0,0,0,0,0,0,0,0,0,0,0,0,0],"id":7,"left_children":[1,3,5,7,9,11,13,15,17,19,21,-1,23,25,27,-1,-1,-1,-1,-1,-1,-1,-1,-1,-1,-1,-1,-1,-1],"loss_changes":[2.1587007E3,1.058668E3,3.9725964E2,1.058855E3,7.8091736E1,1.9433613E1,2.5404736E2,2.528429E2,5.251439E2,4.4937397E1,1.8960571E1,0E0,1.750978E1,1.6260025E2,3.9053223E1,0E0,0E0,0E0,0E0,0E0,0E0,0E0,0E0,0E0,0E0,0E0,0E0,0E0,0E0],"parents":[2147483647,0,0,1,1,2,2,3,3,4,4,5,5,6,6,7,7,8,8,9,9,10,10,12,12,13,13,14,14],"right_children":[2,4,6,8,10,12,14,16,18,20,22,-1,24,26,28,-1,-1,-1,-1,-1,-1,-1,-1,-1,-1,-1,-1,-1,-1],"split_conditions":[1.0097982E0,3.715724E-1,-2.0725939E-1,5.4E-1,7.3255026E-1,NaN,1.2808144E0,2.7563736E-1,NaN,1.04528464E-1,-9.945219E-1,1.0544529E-1,1.3697639E0,2.0225425E-1,-5.2317355E-2,-5.3099066E-1,-1.5915433E-1,2.4511562E-1,-8.212557E-2,3.6960617E-2,3.2682037E-1,1.339625E-1,4.1211244E-1,-1.0629516E-1,8.772627E-3,1.18656926E-1,4.041527E-1,1.10418275E-1,3.5002148E-1],"split_indices":[6,7,7,6,6,5,6,1,5,1,1,0,6,7,7,0,0,0,0,0,0,0,0,0,0,0,0,0,0],"split_type":[0,0,0,0,0,1,0,0,1,0,0,0,0,0,0,0,0,0,0,0,0,0,0,0,0,0,0,0,0],"sum_hessian":[3.79E2,2.79E2,1E2,2.62E2,1.7E1,1.4E1,8.6E1,2.3E1,2.39E2,6E0,1.1E1,1E0,1.3E1,4.8E1,3.8E1,1.5E1,8E0,1.2E1,2.27E2,5E0,1E0,2E0,9E0,8E0,5E0,4.3E1,5E0,3E0,3.5E1],"tree_param":{"num_deleted":"0","num_feature":"8","num_nodes":"29","size_leaf_vector":"1"}},{"base_weights":[1.19942375E-1,-1.2524682E0,3.718152E0,-1.7548647E0,6.1018615E0,2.64558E0,5.9116693E0,-8.791661E0,-1.0703409E0,-1.2718812E-1,6.7600603E0,1.940426E0,4.0662023E-1,2.762963E-1,6.873758E0,-2.2250979E-1,-5.031084E-1,2.4562824E-1,-7.181137E-2,5.1958126E-1,2.4216501E-1,2.829531E-1,7.0165776E-2,-2.9760147E-2,6.730983E-2,3.729043E-1,2.3732872E-1],"categories":[0,1,3,1],"categories_nodes":[7,8],"categories_segments":[0,3],"categories_sizes":[3,1],"default_left":[0,0,0,0,0,0,0,1,1,0,0,0,0,0,0,0,0,0,0,0,0,0,0,0,0,0,0],"id":8,"left_children":[1,3,5,7,9,11,13,15,17,-1,19,21,-1,23,25,-1,-1,-1,-1,-1,-1,-1,-1,-1,-1,-1,-1],"loss_changes":[1.8959956E3,1.0378593E3,2.3374683E2,1.247789E3,1.1962579E2,2.6666086E2,1.8243958E2,8.208594E1,5.302419E2,0E0,6.8004456E1,1.2388159E2,0E0,6.3957634E0,6.45874E-1,0E0,0E0,0E0,0E0,0E0,0E0,0E0,0E0,0E0,0E0,0E0,0E0],"parents":[2147483647,0,0,1,1,2,2,3,3,4,4,5,5,6,6,7,7,8,8,10,10,11,11,13,13,14,14],"right_children":[2,4,6,8,10,12,14,16,18,-1,20,22,-1,24,26,-1,-1,-1,-1,-1,-1,-1,-1,-1,-1,-1,-1],"split_conditions":[1.0001523E0,3.715724E-1,1.32899E0,5.4E-1,1.12E1,2.0225425E-1,-1.7101008E-1,NaN,NaN,-1.2718812E-1,4.399E1,5.9E1,4.0662023E-1,-2.5E-1,7.4E1,-2.2250979E-1,-5.031084E-1,2.4562824E-1,-7.181137E-2,5.1958126E-1,2.4216501E-1,2.829531E-1,7.0165776E-2,-2.9760147E-2,6.730983E-2,3.729043E-1,2.3732872E-1],"split_indices":[6,7,6,6,3,7,7,5,5,0,4,0,0,7,0,0,0,0,0,0,0,0,0,0,0,0,0],"split_type":[0,0,0,0,0,0,0,1,1,0,0,0,0,0,0,0,0,0,0,0,0,0,0,0,0,0,0],"sum_hessian":[3.82E2,2.77E2,1.05E2,2.6E2,1.7E1,7.2E1,3.3E1,2.2E1,2.38E2,1E0,1.6E1,6.5E1,7E0,5E0,2.8E1,6E0,1.6E1,1.3E1,2.25E2,4E0,1.2E1,7E0,5.8E1,3E0,2E0,2E1,8E0],"tree_param":{"num_deleted":"0","num_feature":"8","num_nodes":"27","size_leaf_vector":"1"}},{"base_weights":[3.6159057E-2,-1.4361637E0,3.723508E0,-8.979699E0,-8.8947123E-1,-8.948943E-1,4.371743E0,-6.9787693E-1,-5.991489E0,-1.4281921E0,5.078814E0,1.0105496E-1,-1.2746707E0,2.7636092E0,6.061409E0,-4.0157653E-2,-3.1784603E-1,2.103962E-1,-8.781173E-2,5.125918E-1,1.8235488E-1,-1.0113951E-1,1.6343936E-2,8.8218965E-2,3.8945097E-1,5.2498102E-2,3.1971854E-1],"categories":[1,1,0,1,3],"categories_nodes":[5,9,10],"categories_segments":[0,1,2],"categories_sizes":[1,1,3],"default_left":[0,0,0,1,0,1,0,0,0,1,1,0,0,0,0,0,0,0,0,0,0,0,0,0,0,0,0],"id":9,"left_children":[1,3,5,7,9,11,13,-1,15,17,19,-1,21,23,25,-1,-1,-1,-1,-1,-1,-1,-1,-1,-1,-1,-1],"loss_changes":[2.0357815E3,1.0972432E3,3.2425012E2,1.841206E2,8.142787E2,1.8080193E1,2.3866626E2,0E0,1.9542206E1,4.3448276E2,1.1814282E2,0E0,1.6237162E1,2.3733426E2,6.837402E1,0E0,0E0,0E0,0E0,0E0,0E0,0E0,0E0,0E0,0E0,0E0,0E0],"parents":[2147483647,0,0,1,1,2,2,3,3,4,4,5,5,6,6,8,8,9,9,10,10,12,12,13,13,14,14],"right_children":[2,4,6,8,10,12,14,-1,16,18,20,-1,22,24,26,-1,-1,-1,-1,-1,-1,-1,-1,-1,-1,-1,-1],"split_conditions":[1.0001523E0,3.53272E-1,-2.0725939E-1,-6.4278764E-1,3.2139382E-1,NaN,1.2808144E0,-6.9787693E-1,6.5E1,NaN,NaN,1.0105496E-1,1.4165064E0,2.0225425E-1,-1.0168416E-1,-4.0157653E-2,-3.1784603E-1,2.103962E-1,-8.781173E-2,5.125918E-1,1.8235488E-1,-1.0113951E-1,1.6343936E-2,8.8218965E-2,3.8945097E-1,5.2498102E-2,3.1971854E-1],"split_indices":[6,6,7,1,7,5,6,0,0,5,5,0,6,7,7,0,0,0,0,0,0,0,0,0,0,0,0],"split_type":[0,0,0,0,0,1,0,0,0,1,1,0,0,0,0,0,0,0,0,0,0,0,0,0,0,0,0],"sum_hessian":[3.73E2,2.67E2,1.06E2,1.7E1,2.5E2,1.3E1,9.3E1,5E0,1.2E1,2.3E2,2E1,1E0,1.2E1,4.9E1,4.4E1,1E0,1.1E1,1.2E1,2.18E2,3E0,1.7E1,8E0,4E0,4.2E1,7E0,3E0,4.1E1],"tree_param":{"num_deleted":"0","num_feature":"8","num_nodes":"27","size_leaf_vector":"1"}},{"base_weights":[-1.46498615E-2,-1.3617487E0,3.81339E0,-1.4958254E1,-1.0181997E0,1.0955485E-1,4.5092936E0,-4.0197763E-1,-9.068696E-1,-1.4252003E0,5.3861165E0,2.0930111E-1,-7.130423E-1,6.08417E-1,4.0806904E0,-2.3776594E-1,-4.060223E-2,1.860515E-1,4.9336955E-1,-9.969961E-2,3.2851886E-2,3.4381247E-1,1.5339948E-1],"categories":[0,1,0,1,3],"categories_nodes":[3,5,6],"categories_segments":[0,1,2],"categories_sizes":[1,1,3],"default_left":[0,0,0,1,0,1,1,0,0,0,0,0,0,0,0,0,0,0,0,0,0,0,0],"id":10,"left_children":[1,3,5,7,9,11,13,-1,-1,15,17,-1,19,-1,21,-1,-1,-1,-1,-1,-1,-1,-1],"loss_changes":[2.0008544E3,1.3253656E3,2.5983472E2,8.151978E0,7.401199E2,5.9990753E1,2.2937354E2,0E0,0E0,5.372371E2,9.013223E1,0E0,2.7635183E1,0E0,2.110509E2,0E0,0E0,0E0,0E0,0E0,0E0,0E0,0E0],"parents":[2147483647,0,0,1,1,2,2,3,3,4,4,5,5,6,6,9,9,10,10,12,12,14,14],"right_children":[2,4,6,8,10,12,14,-1,-1,16,18,-1,20,-1,22,-1,-1,-1,-1,-1,-1,-1,-1],"split_conditions":[1.0001523E0,2.5798798E-1,-1.7101008E-1,NaN,3.715724E-1,NaN,NaN,-4.0197763E-1,-9.068696E-1,6.513695E-1,1.04528464E-1,2.0930111E-1,1.3697639E0,6.08417E-1,6.4E1,-2.3776594E-1,-4.060223E-2,1.860515E-1,4.9336955E-1,-9.969961E-2,3.2851886E-2,3.4381247E-1,1.5339948E-1],"split_indices":[6,6,7,5,7,5,5,0,0,6,1,0,6,0,0,0,0,0,0,0,0,0,0],"split_type":[0,0,0,1,0,1,1,0,0,0,0,0,0,0,0,0,0,0,0,0,0,0,0],"sum_hessian":[3.86E2,2.86E2,1E2,6E0,2.8E2,1.6E1,8.4E1,3E0,3E0,2.64E2,1.6E1,2E0,1.4E1,3E0,8.1E1,4E1,2.24E2,1.3E1,3E0,7E0,7E0,2E1,6.1E1],"tree_param":{"num_deleted":"0","num_feature":"8","num_nodes":"23","size_leaf_vector":"1"}},{"base_weights":[-1.4236347E-1,-1.3102132E0,4.014664E0,-9.041931E0,-7.0878166E-1,8.023887E-1,4.5247307E0,-6.794396E0,-8.72862E-1,5.648525E0,-1.0828859E0,2.1019058E-1,1.6861916E-1,5.474497E0,3.1070848E0,-4.3745622E-1,-1.8251751E-1,1.1905928E-1,3.962607E-1,-7.614993E-2,1.2443918E-1,-3.5088968E-2,7.637665E-2,4.2425665E-1,2.2719593E-1,4.081752E-1,1.3403179E-1],"categories":[0,0,1,3,0,1,3,0,1,3],"categories_nodes":[3,4,5,14],"categories_segments":[0,1,4,7],"categories_sizes":[1,3,3,3],"default_left":[0,0,0,1,1,1,0,0,0,0,0,0,0,0,1,0,0,0,0,0,0,0,0,0,0,0,0],"id":11,"left_children":[1,3,5,7,9,11,13,15,-1,17,19,-1,21,23,25,-1,-1,-1,-1,-1,-1,-1,-1,-1,-1,-1,-1],"loss_changes":[1.9034805E3,1.4165215E3,1.3727832E2,2.9749E2,6.8393085E2,2.7315495E1,8.262622E1,8.483197E1,0E0,1.0014798E2,4.282135E2,0E0,1.526555E1,8.191443E1,4.711841E1,0E0,0E0,0E0,0E0,0E0,0E0,0E0,0E0,0E0,0E0,0E0,0E0],"parents":[2147483647,0,0,1,1,2,2,3,3,4,4,5,5,6,6,7,7,9,9,10,10,12,12,13,13,14,14],"right_children":[2,4,6,8,10,12,14,16,-1,18,20,-1,22,24,26,-1,-1,-1,-1,-1,-1,-1,-1,-1,-1,-1,-1],"split_conditions":[1.1284276E0,4.3322727E-1,-1.3023613E-1,NaN,NaN,NaN,-2.419219E-1,2.7563736E-1,-8.72862E-1,6.6728264E-1,1.736646E-1,2.1019058E-1,-2.4863048E-1,5.9E1,NaN,-4.3745622E-1,-1.8251751E-1,1.1905928E-1,3.962607E-1,-7.614993E-2,1.2443918E-1,-3.5088968E-2,7.637665E-2,4.2425665E-1,2.2719593E-1,4.081752E-1,1.3403179E-1],"split_indices":[6,6,7,5,5,5,1,1,0,6,7,0,7,0,5,0,0,0,0,0,0,0,0,0,0,0,0],"split_type":[0,0,0,1,1,1,0,0,0,0,0,0,0,0,1,0,0,0,0,0,0,0,0,0,0,0,0],"sum_hessian":[3.9E2,3.05E2,8.5E1,2.1E1,2.84E2,1.2E1,7.3E1,1.8E1,3E0,1.5E1,2.69E2,1E0,1.1E1,4.2E1,3.1E1,1E1,8E0,7E0,8E0,2.4E2,2.9E1,7E0,4E0,8E0,3.4E1,1E0,3E1],"tree_param":{"num_deleted":"0","num_feature":"8","num_nodes":"27","size_leaf_vector":"1"}},{"base_weights":[-2.7455634E-2,-3.9666383E0,1.0661217E0,-3.2752576E0,-8.401297E-1,8.72411E0,7.1552944E-1,1.0213313E0,-4.365363E0,8.338957E-2,4.586577E-1,-1.995549E-1,3.400839E0,-1.6981784E-1,1.8698695E-1,-4.130709E-1,-1.3901886E-1,-3.900982E-2,1.7757314E-1,-5.0451994E-2,1.941921E-1],"categories":[0,0,1,3,1,3],"categories_nodes":[1,2,3],"categories_segments":[0,1,4],"categories_sizes":[1,3,2],"default_left":[0,1,1,1,0,0,0,0,0,0,0,0,0,0,0,0,0,0,0,0,0],"id":12,"left_children":[1,3,5,7,-1,9,11,13,15,-1,-1,17,19,-1,-1,-1,-1,-1,-1,-1,-1],"loss_changes":[1.645501E3,6.815532E2,7.965221E2,3.7915735E2,0E0,2.5892822E1,7.0591943E2,2.168558E2,3.722423E2,0E0,0E0,4.710401E2,1.5940771E2,0E0,0E0,0E0,0E0,0E0,0E0,0E0,0E0],"parents":[2147483647,0,0,1,1,2,2,3,3,5,5,6,6,7,7,8,8,11,11,12,12],"right_children":[2,4,6,8,-1,10,12,14,16,-1,-1,18,20,-1,-1,-1,-1,-1,-1,-1,-1],"split_conditions":[7.095195E-1,NaN,NaN,NaN,-8.401297E-1,-4.1451877E-1,1.1284276E0,3.5E-1,5.76588E-1,8.338957E-2,4.586577E-1,1.3023613E-1,-2.5E-1,-1.6981784E-1,1.8698695E-1,-4.130709E-1,-1.3901886E-1,-3.900982E-2,1.7757314E-1,-5.0451994E-2,1.941921E-1],"split_indices":[6,5,5,5,0,7,6,6,6,0,0,7,7,0,0,0,0,0,0,0,0],"split_type":[0,1,1,1,0,0,0,0,0,0,0,0,0,0,0,0,0,0,0,0,0],"sum_hessian":[3.8E2,8.2E1,2.98E2,7.9E1,3E0,1.2E1,2.86E2,1.6E1,6.3E1,1E0,1.1E1,2.14E2,7.2E1,6E0,1E1,1.7E1,4.6E1,1.86E2,2.8E1,7E0,6.5E1],"tree_param":{"num_deleted":"0","num_feature":"8","num_nodes":"21","size_leaf_vector":"1"}},{"base_weights":[-1.33084E-1,-5.0806284E0,8.1879336E-1,-4.2131176E0,-8.0862474E-1,-7.569348E-2,3.6463811E0,-5.5108104E0,-1.3276898E0,6.5424275E0,-4.560469E-1,4.6740117E0,1.8551735E0,-3.9658666E-1,-1.5290162E-1,-1.9046324E-1,4.1169446E-2,3.788987E-1,2.8230667E-2,-4.6052188E-2,1.8440506E-1,1.4247638E-1,2.6438996E-1,3.8650438E-1,6.846403E-2],"categories":[0,1,0,1,3],"categories_nodes":[1,5,12],"categories_segments":[0,1,2],"categories_sizes":[1,1,3],"default_left":[0,1,0,0,0,1,0,0,0,0,0,1,1,0,0,0,0,0,0,0,0,0,0,0,0],"id":13,"left_children":[1,3,5,7,-1,9,11,13,15,17,19,21,23,-1,-1,-1,-1,-1,-1,-1,-1,-1,-1,-1,-1],"loss_changes":[1.751368E3,5.0920215E2,7.8939905E2,2.0611401E2,0E0,6.020831E2,1.2938129E2,2.0732605E2,1.0455971E2,7.619537E1,4.3890247E2,3.756494E1,7.2198135E1,0E0,0E0,0E0,0E0,0E0,0E0,0E0,0E0,0E0,0E0,0E0,0E0],"parents":[2147483647,0,0,1,1,2,2,3,3,5,5,6,6,7,7,8,8,9,9,10,10,11,11,12,12],"right_children":[2,4,6,8,-1,10,12,14,16,18,20,22,24,-1,-1,-1,-1,-1,-1,-1,-1,-1,-1,-1,-1],"split_conditions":[6.513695E-1,NaN,1.125E0,2.7563736E-1,-8.0862474E-1,NaN,5.2991927E-1,5.76588E-1,3.5E-1,1.23E1,2.1201202E-1,1.19E1,NaN,-3.9658666E-1,-1.5290162E-1,-1.9046324E-1,4.1169446E-2,3.788987E-1,2.8230667E-2,-4.6052188E-2,1.8440506E-1,1.4247638E-1,2.6438996E-1,3.8650438E-1,6.846403E-2],"split_indices":[6,5,6,1,0,5,1,6,6,3,7,3,5,0,0,0,0,0,0,0,0,0,0,0,0],"split_type":[0,1,0,0,0,1,0,0,0,0,0,0,1,0,0,0,0,0,0,0,0,0,0,0,0],"sum_hessian":[3.7E2,5.9E1,3.11E2,5.6E1,3E0,2.37E2,7.4E1,3.8E1,1.8E1,1.2E1,2.25E2,4.6E1,2.8E1,1.8E1,2E1,8E0,1E1,1E1,2E0,2.03E2,2.2E1,1.3E1,3.3E1,1E0,2.7E1],"tree_param":{"num_deleted":"0","num_feature":"8","num_nodes":"25","size_leaf_vector":"1"}},{"base_weights":[1.5551427E-2,-3.8062801E0,1.072873E0,-3.1707141E0,-7.7830136E-1,6.517501E-1,6.36471E0,-4.220782E0,-8.2746667E-1,-3.2557154E-1,3.4141312E0,2.2123147E-2,6.6256523E0,-3.622625E-1,-1.3970993E-1,-2.1053901E-1,3.203186E-2,3.2666406E-1,-3.3516698E-2,3.1586415E-1,1.2441909E-1,4.4698145E-2,3.4337693E-1],"categories":[0,1],"categories_nodes":[1,9],"categories_segments":[0,1],"categories_sizes":[1,1],"default_left":[0,1,0,0,0,0,0,0,0,1,0,0,0,0,0,0,0,0,0,0,0,0,0],"id":14,"left_children":[1,3,5,7,-1,9,11,13,15,17,19,-1,21,-1,-1,-1,-1,-1,-1,-1,-1,-1,-1],"loss_changes":[1.5477092E3,5.709944E2,6.64406E2,1.933529E2,0E0,7.543375E2,3.1066345E1,2.170614E2,1.3184103E2,4.9386707E2,1.8047424E2,0E0,2.2975464E1,0E0,0E0,0E0,0E0,0E0,0E0,0E0,0E0,0E0,0E0],"parents":[2147483647,0,0,1,1,2,2,3,3,5,5,6,6,7,7,8,8,9,9,10,10,12,12],"right_children":[2,4,6,8,-1,10,12,14,16,18,20,-1,22,-1,-1,-1,-1,-1,-1,-1,-1,-1,-1],"split_conditions":[7.095195E-1,NaN,2.4939102E-1,2.7563736E-1,-7.7830136E-1,1.1949475E0,7.3255026E-1,5.9848887E-1,3.5E-1,NaN,6.4E1,2.2123147E-2,-9.9939084E-1,-3.622625E-1,-1.3970993E-1,-2.1053901E-1,3.203186E-2,3.2666406E-1,-3.3516698E-2,3.1586415E-1,1.2441909E-1,4.4698145E-2,3.4337693E-1],"split_indices":[6,5,7,1,0,6,6,6,6,5,0,0,1,0,0,0,0,0,0,0,0,0,0],"split_type":[0,1,0,0,0,0,0,0,0,1,0,0,0,0,0,0,0,0,0,0,0,0,0],"sum_hessian":[3.81E2,8.2E1,2.99E2,7.9E1,3E0,2.78E2,2.1E1,5.4E1,2.5E1,2.06E2,7.2E1,1E0,2E1,1.6E1,3.8E1,7E0,1.8E1,9E0,1.97E2,1.6E1,5.6E1,1E0,1.9E1],"tree_param":{"num_deleted":"0","num_feature":"8","num_nodes":"23","size_leaf_vector":"1"}},{"base_weights":[4.22705E-2,-2.2691991E0,1.2718033E0,-5.553372E0,-1.5320232E0,7.9329624E0,9.612009E-1,-7.6454725E0,-1.2170404E0,2.8084795E0,-1.9941583E0,7.243242E-2,4.2182645E-1,2.616715E-1,4.0713396E0,-7.531901E-2,-3.9771602E-1,1.6630517E-1,-1.4951195E-1,-4.348264E-2,2.148243E-1,7.886429E-2,-1.2495486E-1,-6.102833E-3,2.4628551E-1,6.975021E-3,2.5391993E-1],"categories":[0,1,3,1],"categories_nodes":[2,4],"categories_segments":[0,3],"categories_sizes":[3,1],"default_left":[0,0,1,0,1,0,0,0,0,0,0,0,0,0,0,0,0,0,0,0,0,0,0,0,0,0,0],"id":15,"left_children":[1,3,5,7,9,11,13,15,17,19,21,-1,-1,23,25,-1,-1,-1,-1,-1,-1,-1,-1,-1,-1,-1,-1],"loss_changes":[1.0885405E3,3.1348682E2,5.096177E2,2.084242E2,2.2624939E2,2.3696533E1,5.210866E2,1.8354553E1,8.2448906E1,6.394037E1,1.8427786E2,0E0,0E0,3.5317664E2,1.7351361E2,0E0,0E0,0E0,0E0,0E0,0E0,0E0,0E0,0E0,0E0,0E0,0E0],"parents":[2147483647,0,0,1,1,2,2,3,3,4,4,5,5,6,6,7,7,8,8,9,9,10,10,13,13,14,14],"right_children":[2,4,6,8,10,12,14,16,18,20,22,-1,-1,24,26,-1,-1,-1,-1,-1,-1,-1,-1,-1,-1,-1,-1],"split_conditions":[7.7161366E-1,5.4E-1,NaN,2.7563736E-1,NaN,-4.1451877E-1,1.2808144E0,-9.9939084E-1,3.09017E-1,6.946584E-1,5.9E1,7.243242E-2,4.2182645E-1,2.0672801E-1,-1.0168416E-1,-7.531901E-2,-3.9771602E-1,1.6630517E-1,-1.4951195E-1,-4.348264E-2,2.148243E-1,7.886429E-2,-1.2495486E-1,-6.102833E-3,2.4628551E-1,6.975021E-3,2.5391993E-1],"split_indices":[6,6,5,1,5,7,6,1,1,1,0,0,0,7,7,0,0,0,0,0,0,0,0,0,0,0,0],"split_type":[0,0,1,0,1,0,0,0,0,0,0,0,0,0,0,0,0,0,0,0,0,0,0,0,0,0,0],"sum_hessian":[3.81E2,1.32E2,2.49E2,2.3E1,1.09E2,1E1,2.39E2,1.5E1,8E0,1E1,9.9E1,1E0,9E0,1.96E2,4.3E1,1E0,1.4E1,2E0,6E0,3E0,7E0,1.2E1,8.7E1,1.82E2,1.4E1,9E0,3.4E1],"tree_param":{"num_deleted":"0","num_feature":"8","num_nodes":"27","size_leaf_vector":"1"}},{"base_weights":[1.2099787E-2,-3.0312915E0,8.64209E-1,-6.257179E0,-1.9920754E0,4.2191657E-1,5.193208E-1,-3.223675E0,-7.642629E0,2.7064435E0,-2.795524E0,-2.8719947E-1,2.7728667E0,9.087817E-3,-2.1945558E-1,-7.343602E-2,-4.017364E-1,6.899222E-2,2.670947E-1,-3.478757E-1,-1.12553194E-1,-3.155982E-2,2.3237784E-1,-1.7954882E-2,1.7124225E-1],"categories":[0,1,3,1],"categories_nodes":[2,4],"categories_segments":[0,3],"categories_sizes":[3,1],"default_left":[0,0,1,0,1,0,0,0,0,0,0,0,0,0,0,0,0,0,0,0,0,0,0,0,0],"id":16,"left_children":[1,3,5,7,9,-1,11,13,15,17,19,21,23,-1,-1,-1,-1,-1,-1,-1,-1,-1,-1,-1,-1],"loss_changes":[9.958542E2,2.6913635E2,7.792855E2,5.941803E1,2.5294211E2,0E0,5.242451E2,3.2548256E1,1.9669434E1,2.7590881E1,1.112363E2,3.6450977E2,1.5641974E2,0E0,0E0,0E0,0E0,0E0,0E0,0E0,0E0,0E0,0E0,0E0,0E0],"parents":[2147483647,0,0,1,1,2,2,3,3,4,4,6,6,7,7,8,8,9,9,10,10,11,11,12,12],"right_children":[2,4,6,8,10,-1,12,14,16,18,20,22,24,-1,-1,-1,-1,-1,-1,-1,-1,-1,-1,-1,-1],"split_conditions":[7.095195E-1,4.3322727E-1,NaN,4.237E1,NaN,4.2191657E-1,1.1284276E0,1.21E1,-9.9939084E-1,6.0480475E-2,5.9848887E-1,2.4939102E-1,-1.0168416E-1,9.087817E-3,-2.1945558E-1,-7.343602E-2,-4.017364E-1,6.899222E-2,2.670947E-1,-3.478757E-1,-1.12553194E-1,-3.155982E-2,2.3237784E-1,-1.7954882E-2,1.7124225E-1],"split_indices":[6,6,5,4,5,0,6,3,1,7,6,7,7,0,0,0,0,0,0,0,0,0,0,0,0],"split_type":[0,0,1,0,1,0,0,0,0,0,0,0,0,0,0,0,0,0,0,0,0,0,0,0,0],"sum_hessian":[3.82E2,8.3E1,2.99E2,1.9E1,6.4E1,1.2E1,2.87E2,7E0,1.2E1,9E0,5.5E1,2.12E2,7.5E1,2E0,5E0,1E0,1.1E1,7E0,2E0,5E0,5E1,1.99E2,1.3E1,1.3E1,6.2E1],"tree_param":{"num_deleted":"0","num_feature":"8","num_nodes":"25","size_leaf_vector":"1"}},{"base_weights":[1.5881564E-1,-1.0746937E1,3.8560522E-1,-5.553191E0,-7.276192E-1,-5.3499013E-1,2.6545918E0,-3.103754E-1,-7.3398165E-2,-8.648308E-1,4.502297E0,8.117969E0,2.3203008E0,1.2084229E-1,-5.679148E-2,1.4753428E-1,4.4036815E-1,6.0073663E-2,4.6304867E-1,1.7449558E-1,1.9046012E-2],"categories":[0,0,1,3,1,3],"categories_nodes":[1,6,9],"categories_segments":[0,1,4],"categories_sizes":[1,3,2],"default_left":[0,1,0,0,0,0,1,0,0,1,0,0,0,0,0,0,0,0,0,0,0],"id":17,"left_children":[1,3,5,7,-1,9,11,-1,-1,13,15,17,19,-1,-1,-1,-1,-1,-1,-1,-1],"loss_changes":[9.712087E2,7.730408E1,8.035265E2,4.252762E0,0E0,4.5914523E2,1.8388959E2,0E0,0E0,2.3219232E2,8.7568665E1,3.63067E1,2.3911255E2,0E0,0E0,0E0,0E0,0E0,0E0,0E0,0E0],"parents":[2147483647,0,0,1,1,2,2,3,3,5,5,6,6,9,9,10,10,11,11,12,12],"right_children":[2,4,6,8,-1,10,12,-1,-1,14,16,18,20,-1,-1,-1,-1,-1,-1,-1,-1],"split_conditions":[2.5798798E-1,NaN,1.0001523E0,3.4202015E-1,-7.276192E-1,3.715724E-1,NaN,-3.103754E-1,-7.3398165E-2,NaN,1.04528464E-1,4.255E1,1.391731E-1,1.2084229E-1,-5.679148E-2,1.4753428E-1,4.4036815E-1,6.0073663E-2,4.6304867E-1,1.7449558E-1,1.9046012E-2],"split_indices":[6,5,6,1,0,7,5,0,0,5,1,4,1,0,0,0,0,0,0,0,0],"split_type":[0,1,0,0,0,0,1,0,0,1,0,0,0,0,0,0,0,0,0,0,0],"sum_hessian":[3.9E2,7E0,3.83E2,4E0,3E0,2.73E2,1.1E2,3E0,1E0,2.57E2,1.6E1,5E0,1.05E2,1.9E1,2.38E2,1.3E1,3E0,1E0,4E0,6.5E1,4E1],"tree_param":{"num_deleted":"0","num_feature":"8","num_nodes":"21","size_leaf_vector":"1"}},{"base_weights":[5.0874453E-2,-6.713604E0,4.1689786E-1,-8.07281E0,-2.4231882E0,-6.614712E-2,4.0708027E0,-7.018032E-2,-8.477857E0,2.4635458E-2,-1.5524547E-1,4.6715846E0,-4.0781796E-1,6.2161976E-1,4.888131E0,-6.1270475E-1,-3.3386296E-1,1.1589658E-1,3.1218317E-1,-4.483721E-2,1.216445E-1,-9.117889E-3,6.506367E-2,3.474312E-2,2.4987283E-1],"categories":[1],"categories_nodes":[5],"categories_segments":[0],"categories_sizes":[1],"default_left":[0,1,0,0,0,1,0,0,1,0,0,0,0,0,0,0,0,0,0,0,0,0,0,0,0],"id":18,"left_children":[1,3,5,7,9,11,13,-1,15,-1,-1,17,19,21,23,-1,-1,-1,-1,-1,-1,-1,-1,-1,-1],"loss_changes":[9.164272E2,9.123767E1,6.197844E2,2.5919128E1,1.3456795E1,5.053348E2,1.1254523E2,0E0,6.569519E0,0E0,0E0,6.3230255E1,4.063506E2,5.155134E0,1.1655579E1,0E0,0E0,0E0,0E0,0E0,0E0,0E0,0E0,0E0,0E0],"parents":[2147483647,0,0,1,1,2,2,3,3,4,4,5,5,6,6,8,8,11,11,12,12,13,13,14,14],"right_children":[2,4,6,8,10,12,14,-1,16,-1,-1,18,20,22,24,-1,-1,-1,-1,-1,-1,-1,-1,-1,-1],"split_conditions":[4.3322727E-1,5E-1,1.2808144E0,-9.9939084E-1,5.2991927E-1,NaN,-5.2317355E-2,-7.018032E-2,-9.135454E-1,2.4635458E-2,-1.5524547E-1,7.027406E-1,1.3781868E-1,1.4165064E0,-9.975641E-1,-6.1270475E-1,-3.3386296E-1,1.1589658E-1,3.1218317E-1,-4.483721E-2,1.216445E-1,-9.117889E-3,6.506367E-2,3.474312E-2,2.4987283E-1],"split_indices":[6,1,6,1,1,5,7,0,1,0,0,6,7,6,1,0,0,0,0,0,0,0,0,0,0],"split_type":[0,0,0,0,0,1,0,0,0,0,0,0,0,0,0,0,0,0,0,0,0,0,0,0,0],"sum_hessian":[3.68E2,1.8E1,3.5E2,1.3E1,5E0,3.1E2,4E1,1E0,1.2E1,1E0,4E0,2E1,2.9E2,8E0,3.2E1,2E0,1E1,9E0,1.1E1,2.48E2,4.2E1,4E0,4E0,1E0,3.1E1],"tree_param":{"num_deleted":"0","num_feature":"8","num_nodes":"25","size_leaf_vector":"1"}},{"base_weights":[1.0272858E-1,-2.920939E0,9.544056E-1,-2.340139E0,-6.830753E-1,7.3790083E0,6.9951224E-1,-3.0894156E0,-4.9432054E-1,3.6813455E0,8.966052E0,-2.7097159E-3,2.5271246E0,-2.901511E-1,-1.02335654E-1,-5.172791E-2,1.816098E-1,5.076723E-2,2.0470047E-1,1.2056303E-1,4.82832E-1,-2.3779776E-2,1.4933504E-1,2.4981062E-1,9.0467826E-2],"categories":[0,0,1,3],"categories_nodes":[1,2],"categories_segments":[0,1],"categories_sizes":[1,3],"default_left":[0,1,1,0,0,0,0,0,0,0,0,0,0,0,0,0,0,0,0,0,0,0,0,0,0],"id":19,"left_children":[1,3,5,7,-1,9,11,13,15,17,19,21,23,-1,-1,-1,-1,-1,-1,-1,-1,-1,-1,-1,-1],"loss_changes":[9.607577E2,4.7955615E2,4.7137656E2,1.0773212E2,0E0,3.1544739E1,3.6063928E2,1.4657391E2,5.726091E1,1.3439865E0,8.401978E0,2.89805E2,1.2919424E2,0E0,0E0,0E0,0E0,0E0,0E0,0E0,0E0,0E0,0E0,0E0,0E0],"parents":[2147483647,0,0,1,1,2,2,3,3,5,5,6,6,7,7,8,8,9,9,10,10,11,11,12,12],"right_children":[2,4,6,8,-1,10,12,14,16,18,20,22,24,-1,-1,-1,-1,-1,-1,-1,-1,-1,-1,-1,-1],"split_conditions":[7.095195E-1,NaN,NaN,2.7563736E-1,-6.830753E-1,-1.7983495E-1,1.1949475E0,5.9848887E-1,1.26E1,4.255E1,6.9E1,1.6728266E-1,6.4E1,-2.901511E-1,-1.02335654E-1,-5.172791E-2,1.816098E-1,5.076723E-2,2.0470047E-1,1.2056303E-1,4.82832E-1,-2.3779776E-2,1.4933504E-1,2.4981062E-1,9.0467826E-2],"split_indices":[6,5,5,1,0,7,6,6,3,4,0,7,0,0,0,0,0,0,0,0,0,0,0,0,0],"split_type":[0,1,1,0,0,0,0,0,0,0,0,0,0,0,0,0,0,0,0,0,0,0,0,0,0],"sum_hessian":[3.71E2,8.1E1,2.9E2,7.8E1,3E0,1E1,2.8E2,5.5E1,2.3E1,4E0,6E0,2.03E2,7.7E1,1.4E1,4.1E1,2.1E1,2E0,1E0,3E0,1E0,5E0,1.76E2,2.7E1,1.6E1,6.1E1],"tree_param":{"num_deleted":"0","num_feature":"8","num_nodes":"25","size_leaf_vector":"1"}},{"base_weights":[9.98465E-2,-1.9578761E0,1.1893128E0,-4.6909213E0,-1.2879947E0,7.8206104E-1,5.2278275E0,-6.2437E0,-1.5821059E0,-1.7502079E0,9.9355227E-1,-4.9985982E-2,2.5480256E0,8.061941E-2,5.6895237E0,-7.21763E-2,-3.393744E-1,-2.5397643E-1,3.2121822E-2,5.2912712E-2,-1.0747998E-1,1.5566237E-2,2.2641622E-1,2.3341274E-1,-1.3347226E-2,-6.537639E-2,1.5175882E-1,2.9610857E-1,3.173065E-2],"categories":[0,1],"categories_nodes":[8,11],"categories_segments":[0,1],"categories_sizes":[1,1],"default_left":[0,0,0,1,0,0,1,0,1,0,0,1,0,0,0,0,0,0,0,0,0,0,0,0,0,0,0,0,0],"id":20,"left_children":[1,3,5,7,9,11,13,15,17,19,21,23,25,-1,27,-1,-1,-1,-1,-1,-1,-1,-1,-1,-1,-1,-1,-1,-1],"loss_changes":[8.6767084E2,2.3928741E2,4.1201862E2,1.1563165E2,1.16686066E2,3.3955078E2,2.9218689E1,3.4576782E1,8.106491E1,1.0434738E2,4.4409073E1,1.6298486E2,1.4295801E2,0E0,1.9761963E1,0E0,0E0,0E0,0E0,0E0,0E0,0E0,0E0,0E0,0E0,0E0,0E0,0E0,0E0],"parents":[2147483647,0,0,1,1,2,2,3,3,4,4,5,5,6,6,7,7,8,8,9,9,10,10,11,11,12,12,14,14],"right_children":[2,4,6,8,10,12,14,16,18,20,22,24,26,-1,28,-1,-1,-1,-1,-1,-1,-1,-1,-1,-1,-1,-1,-1,-1],"split_conditions":[7.7161366E-1,5.4E-1,2.0672801E-1,2.7563736E-1,1.736646E-1,1.1501523E0,1.15E1,-9.702957E-1,NaN,5.9E1,4.9726096E-1,NaN,-2.5E-1,8.061941E-2,4.628E1,-7.21763E-2,-3.393744E-1,-2.5397643E-1,3.2121822E-2,5.2912712E-2,-1.0747998E-1,1.5566237E-2,2.2641622E-1,2.3341274E-1,-1.3347226E-2,-6.537639E-2,1.5175882E-1,2.9610857E-1,3.173065E-2],"split_indices":[6,6,7,1,7,6,3,1,2,0,7,5,7,0,4,0,0,0,0,0,0,0,0,0,0,0,0,0,0],"split_type":[0,0,0,0,0,0,0,0,1,0,0,1,0,0,0,0,0,0,0,0,0,0,0,0,0,0,0,0,0],"sum_hessian":[3.85E2,1.33E2,2.52E2,2.5E1,1.08E2,2.3E2,2.2E1,1.6E1,9E0,9E1,1.8E1,1.57E2,7.3E1,3E0,1.9E1,2E0,1.4E1,3E0,6E0,1.1E1,7.9E1,1.6E1,2E0,6E0,1.51E2,8E0,6.5E1,1.8E1,1E0],"tree_param":{"num_deleted":"0","num_feature":"8","num_nodes":"29","size_leaf_vector":"1"}},{"base_weights":[-3.182408E-2,-2.0630243E0,1.1163839E0,-1.1799761E1,-1.6602726E0,7.0499654E0,8.146304E-1,-6.491409E-1,-1.7668839E-1,-2.0281107E0,2.8094609E0,2.8303318E0,8.278537E0,3.4555426E-1,4.1548576E0,-2.3206E-1,-7.040758E-2,2.558152E-1,2.0942403E-2,1.5958029E-1,4.3662738E-2,1.6626798E-1,4.6876845E-1,2.0147108E-1,1.8322796E-3,6.0843863E-2,2.4681671E-1],"categories":[0,1,3,0],"categories_nodes":[2,3],"categories_segments":[0,3],"categories_sizes":[3,1],"default_left":[0,0,1,1,0,0,0,0,0,0,0,0,0,0,0,0,0,0,0,0,0,0,0,0,0,0,0],"id":21,"left_children":[1,3,5,7,9,11,13,-1,-1,15,17,19,21,23,25,-1,-1,-1,-1,-1,-1,-1,-1,-1,-1,-1,-1],"loss_changes":[8.3957733E2,4.902025E2,4.060671E2,3.017456E0,2.1285931E2,3.35943E1,3.4326483E2,0E0,0E0,1.8300552E2,5.3004738E1,4.107666E-2,1.2286011E1,2.2062015E2,5.59841E1,0E0,0E0,0E0,0E0,0E0,0E0,0E0,0E0,0E0,0E0,0E0,0E0],"parents":[2147483647,0,0,1,1,2,2,3,3,4,4,5,5,6,6,9,9,10,10,11,11,12,12,13,13,14,14],"right_children":[2,4,6,8,10,12,14,-1,-1,16,18,20,22,24,26,-1,-1,-1,-1,-1,-1,-1,-1,-1,-1,-1,-1],"split_conditions":[7.784276E-1,2.5798798E-1,NaN,NaN,3.715724E-1,4.345E1,1.3023613E-1,-6.491409E-1,-1.7668839E-1,5.76588E-1,4.399E1,7.1E1,-2.1650635E-1,5.9E1,8.4341204E-1,-2.3206E-1,-7.040758E-2,2.558152E-1,2.0942403E-2,1.5958029E-1,4.3662738E-2,1.6626798E-1,4.6876845E-1,2.0147108E-1,1.8322796E-3,6.0843863E-2,2.4681671E-1],"split_indices":[6,6,5,2,7,4,7,0,0,6,4,0,7,0,6,0,0,0,0,0,0,0,0,0,0,0,0],"split_type":[0,0,1,1,0,0,0,0,0,0,0,0,0,0,0,0,0,0,0,0,0,0,0,0,0,0,0],"sum_hessian":[3.58E2,1.29E2,2.29E2,4E0,1.25E2,1E1,2.19E2,3E0,1E0,1.16E2,9E0,3E0,7E0,1.93E2,2.6E1,2.1E1,9.5E1,4E0,5E0,2E0,1E0,2E0,5E0,1.4E1,1.79E2,6E0,2E1],"tree_param":{"num_deleted":"0","num_feature":"8","num_nodes":"27","size_leaf_vector":"1"}},{"base_weights":[-2.3757622E-2,-1.907393E0,1.0538843E0,-4.489015E-1,-1.5555578E0,6.727332E0,7.641043E-1,-2.3265064E0,9.8902774E-1,1.354578E-1,7.8955035E0,4.032547E0,3.5998833E-1,6.2047865E-2,-1.3986199E-1,2.20747E-1,6.3623847E-3,1.5426096E-1,4.4923645E-1,2.4428697E-1,6.312727E-2,-1.549221E-3,1.6510652E-1],"categories":[0,1,3,0,1,3],"categories_nodes":[2,8],"categories_segments":[0,3],"categories_sizes":[3,3],"default_left":[0,0,1,0,0,0,0,0,1,0,0,0,0,0,0,0,0,0,0,0,0,0,0],"id":22,"left_children":[1,3,5,-1,7,9,11,13,15,-1,17,19,21,-1,-1,-1,-1,-1,-1,-1,-1,-1,-1],"loss_changes":[7.307386E2,3.119226E2,3.713474E2,0E0,2.4948077E2,3.024292E1,2.8781006E2,1.6636566E2,8.800969E1,0E0,1.4196045E1,5.055179E1,2.2556062E2,0E0,0E0,0E0,0E0,0E0,0E0,0E0,0E0,0E0,0E0],"parents":[2147483647,0,0,1,1,2,2,4,4,5,5,6,6,7,7,8,8,10,10,11,11,12,12],"right_children":[2,4,6,-1,8,10,12,14,16,-1,18,20,22,-1,-1,-1,-1,-1,-1,-1,-1,-1,-1],"split_conditions":[7.7161366E-1,2.5798798E-1,NaN,-4.489015E-1,6.0480475E-2,-1.7983495E-1,5.9E1,5.9E1,NaN,1.354578E-1,7.1E1,1.04528464E-1,1.25E-1,6.2047865E-2,-1.3986199E-1,2.20747E-1,6.3623847E-3,1.5426096E-1,4.4923645E-1,2.4428697E-1,6.312727E-2,-1.549221E-3,1.6510652E-1],"split_indices":[6,6,5,0,7,7,0,0,5,0,0,1,7,0,0,0,0,0,0,0,0,0,0],"split_type":[0,0,1,0,0,0,0,0,1,0,0,0,0,0,0,0,0,0,0,0,0,0,0],"sum_hessian":[3.58E2,1.3E2,2.28E2,5E0,1.25E2,1E1,2.18E2,9.6E1,2.9E1,3E0,7E0,2.3E1,1.95E2,1.1E1,8.5E1,5E0,2.4E1,2E0,5E0,1.7E1,6E0,1.73E2,2.2E1],"tree_param":{"num_deleted":"0","num_feature":"8","num_nodes":"23","size_leaf_vector":"1"}},{"base_weights":[1.7457262E-2,-1.757681E0,1.0327938E0,-1.4388274E0,-6.079643E-1,7.3416364E-1,4.9596314E0,1.2857738E0,-1.8922735E0,1.2486724E-1,3.1288981E0,6.568632E-2,5.6470594E0,-1.1029636E-1,1.6678035E-1,-2.793768E-1,-6.4703636E-2,2.069559E-1,-2.967744E-3,2.3388863E-3,1.9918716E-1,1.7326516E-1,3.4251067E-1],"categories":[0,1,3,1],"categories_nodes":[1,3,9],"categories_segments":[0,1,3],"categories_sizes":[1,2,1],"default_left":[0,1,0,1,0,0,1,0,0,1,0,0,0,0,0,0,0,0,0,0,0,0,0],"id":23,"left_children":[1,3,5,7,-1,9,11,13,15,17,19,-1,21,-1,-1,-1,-1,-1,-1,-1,-1,-1,-1],"loss_changes":[6.8851556E2,4.435108E2,2.813181E2,1.7045557E2,0E0,3.3082568E2,3.5188354E1,1.5050621E2,2.5139883E2,1.3483719E2,1.21011475E2,0E0,1.301178E1,0E0,0E0,0E0,0E0,0E0,0E0,0E0,0E0,0E0,0E0],"parents":[2147483647,0,0,1,1,2,2,3,3,5,5,6,6,7,7,8,8,9,9,10,10,12,12],"right_children":[2,4,6,8,-1,10,12,14,16,18,20,-1,22,-1,-1,-1,-1,-1,-1,-1,-1,-1,-1],"split_conditions":[7.7161366E-1,NaN,2.0672801E-1,NaN,-6.079643E-1,1.2808144E0,1.19E1,3.5E-1,5.9848887E-1,NaN,-1.0168416E-1,6.568632E-2,3.2139382E-1,-1.1029636E-1,1.6678035E-1,-2.793768E-1,-6.4703636E-2,2.069559E-1,-2.967744E-3,2.3388863E-3,1.9918716E-1,1.7326516E-1,3.4251067E-1],"split_indices":[6,5,7,5,0,6,3,6,6,5,7,0,7,0,0,0,0,0,0,0,0,0,0],"split_type":[0,1,0,1,0,0,0,0,0,1,0,0,0,0,0,0,0,0,0,0,0,0,0],"sum_hessian":[3.8E2,1.38E2,2.42E2,1.35E2,3E0,2.26E2,1.6E1,1.9E1,1.16E2,1.81E2,4.5E1,3E0,1.3E1,7E0,1.2E1,1.5E1,1.01E2,7E0,1.74E2,1E1,3.5E1,6E0,7E0],"tree_param":{"num_deleted":"0","num_feature":"8","num_nodes":"23","size_leaf_vector":"1"}},{"base_weights":[2.0744052E-2,-1.7899088E0,1.0314268E0,-1.4851769E0,-5.851656E-1,6.8924445E-1,4.5307965E0,-1.8646696E0,2.5916364E0,-9.53991E-2,2.1993976E0,1.7988243E0,5.0379667E0,-1.8005918E-1,-7.2940044E-2,2.3899893E-1,4.4998385E-2,9.4862275E-2,-1.7280903E-2,3.7406704E-1,9.441843E-2,9.899254E-2,2.6867962E-2,1.6073896E-2,2.6482484E-1],"categories":[0,0,1,3],"categories_nodes":[1,10],"categories_segments":[0,1],"categories_sizes":[1,3],"default_left":[0,1,0,0,0,0,1,0,0,0,1,0,0,0,0,0,0,0,0,0,0,0,0,0,0],"id":24,"left_children":[1,3,5,7,-1,9,11,13,15,17,19,21,23,-1,-1,-1,-1,-1,-1,-1,-1,-1,-1,-1,-1],"loss_changes":[7.1005444E2,4.025277E2,2.9503537E2,2.1524094E2,0E0,2.7037427E2,2.1420197E1,8.284625E1,4.0121582E1,7.5943924E1,1.14013794E2,7.790184E-2,2.0245667E1,0E0,0E0,0E0,0E0,0E0,0E0,0E0,0E0,0E0,0E0,0E0,0E0],"parents":[2147483647,0,0,1,1,2,2,3,3,5,5,6,6,7,7,8,8,9,9,10,10,11,11,12,12],"right_children":[2,4,6,8,-1,10,12,14,16,18,20,22,24,-1,-1,-1,-1,-1,-1,-1,-1,-1,-1,-1,-1],"split_conditions":[7.7161366E-1,NaN,2.0672801E-1,3.715724E-1,-5.851656E-1,1.1501523E0,1.15E1,5.4E-1,4.399E1,6E1,NaN,2.0791169E-1,3.784E1,-1.8005918E-1,-7.2940044E-2,2.3899893E-1,4.4998385E-2,9.4862275E-2,-1.7280903E-2,3.7406704E-1,9.441843E-2,9.899254E-2,2.6867962E-2,1.6073896E-2,2.6482484E-1],"split_indices":[6,5,7,7,0,6,3,6,4,0,5,1,4,0,0,0,0,0,0,0,0,0,0,0,0],"split_type":[0,1,0,0,0,0,0,0,0,0,1,0,0,0,0,0,0,0,0,0,0,0,0,0,0],"sum_hessian":[3.86E2,1.38E2,2.48E2,1.35E2,3E0,2.27E2,2.1E1,1.24E2,1.1E1,1.5E2,7.7E1,4E0,1.7E1,2.2E1,1.02E2,4E0,7E0,1.6E1,1.34E2,3E0,7.4E1,3E0,1E0,1E0,1.6E1],"tree_param":{"num_deleted":"0","num_feature":"8","num_nodes":"25","size_leaf_vector":"1"}},{"base_weights":[1.3228047E-2,-1.0267599E0,1.6115099E0,-9.503795E0,-7.9511267E-1,1.2762547E0,4.753167E0,-5.632219E-1,-1.9941692E-1,3.2698746E0,-1.1447487E0,4.0376143E0,8.208132E-1,2.807574E-1,1.039286E-1,2.5424868E-1,-1.5442385E-2,-2.17798E-1,-4.264703E-2,2.5357923E-1,6.409111E-3,2.617223E-1,3.4979578E-2],"categories":[0,1,3,0,1,3],"categories_nodes":[3,4,12],"categories_segments":[0,1,3],"categories_sizes":[1,2,3],"default_left":[0,0,0,1,1,0,0,0,0,0,0,0,1,0,0,0,0,0,0,0,0,0,0],"id":25,"left_children":[1,3,5,7,9,11,13,-1,-1,15,17,19,21,-1,-1,-1,-1,-1,-1,-1,-1,-1,-1],"loss_changes":[6.283017E2,4.421264E2,1.5086905E2,1.3338074E1,3.221068E2,1.6772461E2,2.0604797E1,0E0,0E0,1.1849365E2,1.902555E2,7.6152374E1,5.947132E1,0E0,0E0,0E0,0E0,0E0,0E0,0E0,0E0,0E0,0E0],"parents":[2147483647,0,0,1,1,2,2,3,3,4,4,5,5,6,6,9,9,10,10,11,11,12,12],"right_children":[2,4,6,8,10,12,14,-1,-1,16,18,20,22,-1,-1,-1,-1,-1,-1,-1,-1,-1,-1],"split_conditions":[1E0,2.5798798E-1,1.4927406E0,NaN,NaN,6.2E1,8.480481E-1,-5.632219E-1,-1.9941692E-1,1.22E1,5.9848887E-1,-5E-1,NaN,2.807574E-1,1.039286E-1,2.5424868E-1,-1.5442385E-2,-2.17798E-1,-4.264703E-2,2.5357923E-1,6.409111E-3,2.617223E-1,3.4979578E-2],"split_indices":[6,6,6,2,5,0,1,0,0,3,6,1,5,0,0,0,0,0,0,0,0,0,0],"split_type":[0,0,0,1,1,0,0,0,0,0,0,0,1,0,0,0,0,0,0,0,0,0,0],"sum_hessian":[3.76E2,2.28E2,1.48E2,5E0,2.23E2,1.35E2,1.3E1,3E0,2E0,1.7E1,2.06E2,1.8E1,1.17E2,9E0,4E0,1.1E1,6E0,1.6E1,1.9E2,1.4E1,4E0,2E0,1.15E2],"tree_param":{"num_deleted":"0","num_feature":"8","num_nodes":"23","size_leaf_vector":"1"}},{"base_weights":[-4.231118E-2,-1.0076121E0,1.167403E0,-1.354682E0,3.6640222E0,6.9275683E-1,2.8548403E0,-4.694764E0,-9.130064E-1,5.7678204E0,2.0353413E0,4.0240353E-1,3.3643217E0,-3.144147E-1,3.4783869E0,-1.8671766E-1,-4.9263597E-1,1.3233486E-1,-5.9396725E-2,9.5459364E-2,3.60992E-1,3.1071255E-2,2.0004296E-1,1.9849192E-1,1.39554115E-2,1.7769037E-1,2.7262403E-2,-5.1470306E-2,2.3959016E-2,1.9929036E-1,1.23460226E-1],"categories":[0,1,0,1,3],"categories_nodes":[7,8,11],"categories_segments":[0,1,2],"categories_sizes":[1,1,3],"default_left":[0,0,0,0,0,0,0,1,1,0,0,1,0,0,0,0,0,0,0,0,0,0,0,0,0,0,0,0,0,0,0],"id":26,"left_children":[1,3,5,7,9,11,13,15,17,19,21,23,25,27,29,-1,-1,-1,-1,-1,-1,-1,-1,-1,-1,-1,-1,-1,-1,-1,-1],"loss_changes":[4.472523E2,3.5031827E2,1.3418135E2,2.8928494E2,3.9656754E1,1.0258968E2,7.421222E1,7.714288E1,1.7636737E2,1.983284E1,2.5304543E1,5.2553436E1,5.006546E0,4.4651666E0,6.0326843E0,0E0,0E0,0E0,0E0,0E0,0E0,0E0,0E0,0E0,0E0,0E0,0E0,0E0,0E0,0E0,0E0],"parents":[2147483647,0,0,1,1,2,2,3,3,4,4,5,5,6,6,7,7,8,8,9,9,10,10,11,11,12,12,13,13,14,14],"right_children":[2,4,6,8,10,12,14,16,18,20,22,24,26,28,30,-1,-1,-1,-1,-1,-1,-1,-1,-1,-1,-1,-1,-1,-1,-1,-1],"split_conditions":[9.2447174E-1,3.345653E-1,1.3697639E0,5.4E-1,4.399E1,8.550504E-2,-1.7101008E-1,NaN,NaN,6.7E1,4.9878204E-1,NaN,9.5105654E-1,-3.5210368E-1,-2.419219E-1,-1.8671766E-1,-4.9263597E-1,1.3233486E-1,-5.9396725E-2,9.5459364E-2,3.60992E-1,3.1071255E-2,2.0004296E-1,1.9849192E-1,1.39554115E-2,1.7769037E-1,2.7262403E-2,-5.1470306E-2,2.3959016E-2,1.9929036E-1,1.23460226E-1],"split_indices":[6,7,6,6,4,7,7,5,5,0,7,5,1,7,1,0,0,0,0,0,0,0,0,0,0,0,0,0,0,0,0],"split_type":[0,0,0,0,0,0,0,1,1,0,0,1,0,0,0,0,0,0,0,0,0,0,0,0,0,0,0,0,0,0,0],"sum_hessian":[3.81E2,2.12E2,1.69E2,1.98E2,1.4E1,1.33E2,3.6E1,2.2E1,1.76E2,5E0,9E0,1.21E2,1.2E1,6E0,3E1,2E1,2E0,1.2E1,1.64E2,2E0,3E0,6E0,3E0,3E0,1.18E2,1.1E1,1E0,3E0,3E0,1.8E1,1.2E1],"tree_param":{"num_deleted":"0","num_feature":"8","num_nodes":"31","size_leaf_vector":"1"}},{"base_weights":[4.478689E-2,-2.0878553E0,6.3664144E-1,-1.7866555E0,-4.7621474E-1,5.5733447E0,4.1080943E-1,-2.5888262E0,3.487673E-1,2.5620818E0,6.6270084E0,9.5333025E-2,2.7555213E0,-1.4903203E-1,1.4078426E-2,7.092305E-2,-5.9184026E-2,2.2937585E-2,1.4866133E-1,1.5560399E-1,3.9328966E-1,-2.2304906E-2,7.6244816E-2,1.9338122E-1,3.307688E-2],"categories":[0,0,1,3,1],"categories_nodes":[1,2,8],"categories_segments":[0,1,4],"categories_sizes":[1,3,1],"default_left":[0,1,1,0,0,0,0,0,1,0,0,0,0,0,0,0,0,0,0,0,0,0,0,0,0],"id":27,"left_children":[1,3,5,7,-1,9,11,13,15,17,19,21,23,-1,-1,-1,-1,-1,-1,-1,-1,-1,-1,-1,-1],"loss_changes":[4.8223276E2,1.6889124E2,3.3105527E2,1.3965375E2,0E0,2.4268219E1,2.1203154E2,6.7194305E1,3.938175E1,2.9598923E0,1.4709137E1,1.972788E2,7.66181E1,0E0,0E0,0E0,0E0,0E0,0E0,0E0,0E0,0E0,0E0,0E0,0E0],"parents":[2147483647,0,0,1,1,2,2,3,3,5,5,6,6,7,7,8,8,9,9,10,10,11,11,12,12],"right_children":[2,4,6,8,-1,10,12,14,16,18,20,22,24,-1,-1,-1,-1,-1,-1,-1,-1,-1,-1,-1,-1],"split_conditions":[7.25E-1,NaN,NaN,3.4202015E-1,-4.7621474E-1,-1.7983495E-1,1.3023613E-1,2.0725939E-1,NaN,4.255E1,7.431448E-1,1.1924039E0,-5E-1,-1.4903203E-1,1.4078426E-2,7.092305E-2,-5.9184026E-2,2.2937585E-2,1.4866133E-1,1.5560399E-1,3.9328966E-1,-2.2304906E-2,7.6244816E-2,1.9338122E-1,3.307688E-2],"split_indices":[6,5,5,1,0,7,7,7,5,4,1,6,1,0,0,0,0,0,0,0,0,0,0,0,0],"split_type":[0,1,1,0,0,0,0,0,1,0,0,0,0,0,0,0,0,0,0,0,0,0,0,0,0],"sum_hessian":[3.8E2,8.2E1,2.98E2,8E1,2E0,1.2E1,2.86E2,5.8E1,2.2E1,4E0,8E0,2.53E2,3.3E1,5.1E1,7E0,1.3E1,9E0,1E0,3E0,3E0,5E0,1.84E2,6.9E1,2.1E1,1.2E1],"tree_param":{"num_deleted":"0","num_feature":"8","num_nodes":"25","size_leaf_vector":"1"}},{"base_weights":[1.2807181E-2,-2.849871E0,5.960713E-1,-2.3351624E0,-5.057692E-1,5.1797957E0,4.0003064E-1,-3.2490423E0,-5.258789E-1,2.236414E-2,5.536898E0,1.9491653E0,-1.1807934E-1,-1.9168113E-1,-7.5841896E-2,-1.3299201E-1,3.236462E-2,1.21619456E-1,3.392552E-1,5.218309E-2,1.7482615E-1,-5.4764863E-2,2.987418E-2],"categories":[0,0,1,3],"categories_nodes":[1,2],"categories_segments":[0,1],"categories_sizes":[1,3],"default_left":[0,1,1,0,0,0,0,0,0,0,0,0,0,0,0,0,0,0,0,0,0,0,0],"id":28,"left_children":[1,3,5,7,-1,9,11,13,15,-1,17,19,21,-1,-1,-1,-1,-1,-1,-1,-1,-1,-1],"loss_changes":[6.4119293E2,2.1945422E2,2.8458017E2,1.0080643E2,0E0,1.9493378E1,2.4663516E2,3.5702118E1,5.679875E1,0E0,2.9996765E1,1.042384E2,1.6218369E2,0E0,0E0,0E0,0E0,0E0,0E0,0E0,0E0,0E0,0E0],"parents":[2147483647,0,0,1,1,2,2,3,3,5,5,6,6,7,7,8,8,10,10,11,11,12,12],"right_children":[2,4,6,8,-1,10,12,14,16,-1,18,20,22,-1,-1,-1,-1,-1,-1,-1,-1,-1,-1],"split_conditions":[7E-1,NaN,NaN,6.0480475E-2,-5.057692E-1,-4.1451877E-1,6.4E1,6.975647E-2,3.5640806E-1,2.236414E-2,7.1E1,1.0001523E0,9.2447174E-1,-1.9168113E-1,-7.5841896E-2,-1.3299201E-1,3.236462E-2,1.21619456E-1,3.392552E-1,5.218309E-2,1.7482615E-1,-5.4764863E-2,2.987418E-2],"split_indices":[6,5,5,7,0,7,0,1,6,0,0,6,6,0,0,0,0,0,0,0,0,0,0],"split_type":[0,1,1,0,0,0,0,0,0,0,0,0,0,0,0,0,0,0,0,0,0,0,0],"sum_hessian":[3.82E2,6.4E1,3.18E2,6.1E1,3E0,1.2E1,3.06E2,4E1,2.1E1,1E0,1.1E1,7.6E1,2.3E2,2.9E1,1.1E1,7E0,1.4E1,4E0,7E0,4.9E1,2.7E1,9.7E1,1.33E2],"tree_param":{"num_deleted":"0","num_feature":"8","num_nodes":"23","size_leaf_vector":"1"}},{"base_weights":[-2.5483433E-3,-2.62689E0,4.8799074E-1,-3.8475966E0,-7.639967E-1,4.7461276E0,2.9285467E-1,-4.730625E0,-1.0786602E0,-2.355882E0,-2.4823132E-1,6.942686E-2,5.1900144E0,-6.4403005E-2,2.32907E0,-3.1378266E-1,-1.292003E-1,-1.131207E-1,1.218785E-1,-3.6497116E-3,-1.7395388E-1,4.026847E-2,-5.917418E-2,3.2789853E-1,1.8431452E-1,-1.8928345E-2,1.1076488E-1,-2.5596896E-2,1.5169811E-1],"categories":[0,1,3,0],"categories_nodes":[2,12],"categories_segments":[0,3],"categories_sizes":[3,1],"default_left":[0,1,1,0,0,0,0,0,0,0,0,0,1,0,0,0,0,0,0,0,0,0,0,0,0,0,0,0,0],"id":29,"left_children":[1,3,5,7,9,11,13,15,17,19,21,-1,23,25,27,-1,-1,-1,-1,-1,-1,-1,-1,-1,-1,-1,-1,-1,-1],"loss_changes":[4.904719E2,1.335032E2,2.6533414E2,8.291907E1,1.9941183E1,1.3658966E1,2.242057E2,7.333154E1,4.7138298E1,1.5130817E1,2.066079E1,0E0,5.097351E-1,1.8919917E2,9.3673035E1,0E0,0E0,0E0,0E0,0E0,0E0,0E0,0E0,0E0,0E0,0E0,0E0,0E0,0E0],"parents":[2147483647,0,0,1,1,2,2,3,3,4,4,5,5,6,6,7,7,8,8,9,9,10,10,12,12,13,13,14,14],"right_children":[2,4,6,8,10,12,14,16,18,20,22,-1,24,26,28,-1,-1,-1,-1,-1,-1,-1,-1,-1,-1,-1,-1,-1,-1],"split_conditions":[6.7E-1,6.975647E-2,NaN,6.0480475E-2,3.393031E-1,6.7E1,1.2808144E0,6.397982E-1,6.282218E-1,1.21E1,6.175202E-1,6.942686E-2,NaN,1.3023613E-1,-1.0168416E-1,-3.1378266E-1,-1.292003E-1,-1.131207E-1,1.218785E-1,-3.6497116E-3,-1.7395388E-1,4.026847E-2,-5.917418E-2,3.2789853E-1,1.8431452E-1,-1.8928345E-2,1.1076488E-1,-2.5596896E-2,1.5169811E-1],"split_indices":[6,1,5,7,6,0,6,6,6,3,6,0,2,7,7,0,0,0,0,0,0,0,0,0,0,0,0,0,0],"split_type":[0,0,1,0,0,0,0,0,0,0,0,0,1,0,0,0,0,0,0,0,0,0,0,0,0,0,0,0,0],"sum_hessian":[3.79E2,5.9E1,3.2E2,3.5E1,2.4E1,1.3E1,3.07E2,2.6E1,9E0,5E0,1.9E1,2E0,1.1E1,2.62E2,4.5E1,1.4E1,1.2E1,7E0,2E0,2E0,3E0,9E0,1E1,4E0,7E0,2.31E2,3.1E1,9E0,3.6E1],"tree_param":{"num_deleted":"0","num_feature":"8","num_nodes":"29","size_leaf_vector":"1"}},{"base_weights":[-1.1934224E-3,-2.2995708E0,4.1208324E-1,3.647426E-1,-3.348199E0,4.693415E0,1.987761E-1,-1.6515121E0,1.9412721E0,-5.094455E0,-1.760066E0,1.3607502E-2,4.989781E0,-9.5662914E-2,2.1943545E0,-1.0545099E-1,3.8776018E-2,-3.1596165E-2,1.8810283E-1,-2.99031E-1,-1.08883046E-1,-1.2721322E-1,-1.28752915E-2,9.2666864E-2,2.8383446E-1,-3.892457E-2,3.1512655E-2,4.028189E-2,1.7366768E-1],"categories":[0,1,0,1,3],"categories_nodes":[1,2],"categories_segments":[0,2],"categories_sizes":[2,3],"default_left":[0,1,1,0,0,0,0,0,0,0,0,0,0,0,0,0,0,0,0,0,0,0,0,0,0,0,0,0,0],"id":30,"left_children":[1,3,5,7,9,11,13,15,17,19,21,-1,23,25,27,-1,-1,-1,-1,-1,-1,-1,-1,-1,-1,-1,-1,-1,-1],"loss_changes":[3.5524753E2,1.6047208E2,2.8856372E2,5.7243683E1,1.0473813E2,1.8296692E1,1.782455E2,1.0518673E1,4.9229664E1,3.608667E1,2.644587E1,0E0,1.9641449E1,1.318448E2,6.6472275E1,0E0,0E0,0E0,0E0,0E0,0E0,0E0,0E0,0E0,0E0,0E0,0E0,0E0,0E0],"parents":[2147483647,0,0,1,1,2,2,3,3,4,4,5,5,6,6,7,7,8,8,9,9,10,10,12,12,13,13,14,14],"right_children":[2,4,6,8,10,12,14,16,18,20,22,-1,24,26,28,-1,-1,-1,-1,-1,-1,-1,-1,-1,-1,-1,-1,-1,-1],"split_conditions":[6.7E-1,NaN,NaN,3.5E-1,5.9848887E-1,-4.1451877E-1,1.3023613E-1,1.970027E-1,6.946584E-1,6.0480475E-2,1.7449748E-2,1.3607502E-2,6.9E1,1E0,8.4341204E-1,-1.0545099E-1,3.8776018E-2,-3.1596165E-2,1.8810283E-1,-2.99031E-1,-1.08883046E-1,-1.2721322E-1,-1.28752915E-2,9.2666864E-2,2.8383446E-1,-3.892457E-2,3.1512655E-2,4.028189E-2,1.7366768E-1],"split_indices":[6,5,5,6,6,7,7,7,1,7,7,0,0,6,6,0,0,0,0,0,0,0,0,0,0,0,0,0,0],"split_type":[0,1,1,0,0,0,0,0,0,0,0,0,0,0,0,0,0,0,0,0,0,0,0,0,0,0,0,0,0],"sum_hessian":[3.72E2,5.6E1,3.16E2,1.6E1,4E1,1.4E1,3.02E2,7E0,9E0,1.8E1,2.2E1,1E0,1.3E1,2.64E2,3.8E1,6E0,1E0,4E0,5E0,1.3E1,5E0,1.4E1,8E0,3E0,1E1,1.36E2,1.28E2,1.9E1,1.9E1],"tree_param":{"num_deleted":"0","num_feature":"8","num_nodes":"29","size_leaf_vector":"1"}},{"base_weights":[-4.0441405E-2,-1.7966948E0,4.6492064E-1,9.343221E-1,-2.453027E0,4.788395E0,2.7863377E-1,-1.5284059E0,2.4165742E0,-4.8033767E0,-1.5753932E0,2.015818E0,5.922706E0,-1.8467152E0,5.885278E-1,-1.5154886E-2,-1.1858063E-1,5.9045818E-2,2.6590118E-1,-2.4878217E-2,-2.6552528E-1,-5.1384002E-2,-1.4747576E-1,1.3267326E-2,1.1935496E-1,1.1035227E-1,3.3967096E-1,-1.7149861E-1,-5.529241E-2,1.48014E-2,1.3423294E-1],"categories":[0,1,0,1,3],"categories_nodes":[1,2],"categories_segments":[0,2],"categories_sizes":[2,3],"default_left":[0,1,1,0,0,0,0,0,0,0,0,0,0,0,0,0,0,0,0,0,0,0,0,0,0,0,0,0,0,0,0],"id":31,"left_children":[1,3,5,7,9,11,13,15,17,19,21,23,25,27,29,-1,-1,-1,-1,-1,-1,-1,-1,-1,-1,-1,-1,-1,-1,-1,-1],"loss_changes":[3.336642E2,1.528581E2,2.3384448E2,6.575003E1,1.3269952E2,2.5800476E1,1.861627E2,6.513487E0,3.315705E1,3.6662506E1,3.5352715E1,2.6161785E0,1.0888794E1,3.8434357E1,1.5003226E2,0E0,0E0,0E0,0E0,0E0,0E0,0E0,0E0,0E0,0E0,0E0,0E0,0E0,0E0,0E0,0E0],"parents":[2147483647,0,0,1,1,2,2,3,3,4,4,5,5,6,6,7,7,8,8,9,9,10,10,11,11,12,12,13,13,14,14],"right_children":[2,4,6,8,10,12,14,16,18,20,22,24,26,28,30,-1,-1,-1,-1,-1,-1,-1,-1,-1,-1,-1,-1,-1,-1,-1,-1],"split_conditions":[7.25E-1,NaN,NaN,3.5E-1,5.76588E-1,-1.7983495E-1,-4.59E-17,4.237E1,1.3247982E-1,-9.702957E-1,7.4E1,4.255E1,7.1E1,-4.2402405E-1,1.2808144E0,-1.5154886E-2,-1.1858063E-1,5.9045818E-2,2.6590118E-1,-2.4878217E-2,-2.6552528E-1,-5.1384002E-2,-1.4747576E-1,1.3267326E-2,1.1935496E-1,1.1035227E-1,3.3967096E-1,-1.7149861E-1,-5.529241E-2,1.48014E-2,1.3423294E-1],"split_indices":[6,5,5,6,6,7,7,4,7,1,0,4,0,7,6,0,0,0,0,0,0,0,0,0,0,0,0,0,0,0,0],"split_type":[0,1,1,0,0,0,0,0,0,0,0,0,0,0,0,0,0,0,0,0,0,0,0,0,0,0,0,0,0,0,0],"sum_hessian":[3.74E2,8.3E1,2.91E2,1.6E1,6.7E1,1.1E1,2.8E2,6E0,1E1,1.7E1,5E1,4E0,7E0,3.5E1,2.45E2,3E0,3E0,8E0,2E0,2E0,1.5E1,3.7E1,1.3E1,1E0,3E0,2E0,5E0,1E1,2.5E1,2.16E2,2.9E1],"tree_param":{"num_deleted":"0","num_feature":"8","num_nodes":"31","size_leaf_vector":"1"}},{"base_weights":[-4.1883443E-2,5.3530432E-2,-4.6074992E-1,-6.753141E-1,9.5058453E-1,-9.6300274E-1,2.6982136E0,6.9257563E-1,3.622107E0,8.206317E-2,-6.251034E-2,2.5330067E-1,6.447312E-2,2.3146596E-2,1.518981E-1,2.0384172E-1,6.76199E-2],"categories":[0],"categories_nodes":[0],"categories_segments":[0],"categories_sizes":[1],"default_left":[1,0,0,0,0,0,0,0,0,0,0,0,0,0,0,0,0],"id":32,"left_children":[1,3,-1,5,7,9,11,13,15,-1,-1,-1,-1,-1,-1,-1,-1],"loss_changes":[3.4008734E2,2.5235997E2,0E0,2.0932031E2,1.1673627E2,1.4939922E2,5.0173462E1,8.423155E1,9.967987E0,0E0,0E0,0E0,0E0,0E0,0E0,0E0,0E0],"parents":[2147483647,0,0,1,1,3,3,4,4,5,5,6,6,7,7,8,8],"right_children":[2,4,-1,6,8,10,12,14,16,-1,-1,-1,-1,-1,-1,-1,-1],"split_conditions":[NaN,9.426414E-1,-4.6074992E-1,3.715724E-1,1.4927406E0,5.9E1,4.399E1,1.7449748E-2,8.480481E-1,8.206317E-2,-6.251034E-2,2.5330067E-1,6.447312E-2,2.3146596E-2,1.518981E-1,2.0384172E-1,6.76199E-2],"split_indices":[5,6,0,7,6,0,4,7,1,0,0,0,0,0,0,0,0],"split_type":[1,0,0,0,0,0,0,0,0,0,0,0,0,0,0,0,0],"sum_hessian":[3.87E2,3.84E2,3E0,2.12E2,1.72E2,1.96E2,1.6E1,1.58E2,1.4E1,1.9E1,1.77E2,5E0,1.1E1,1.45E2,1.3E1,1.1E1,3E0],"tree_param":{"num_deleted":"0","num_feature":"8","num_nodes":"17","size_leaf_vector":"1"}},{"base_weights":[7.00946E-2,-1.6443073E0,5.7760006E-1,-2.3462243E0,2.3749113E-1,3.43857E-1,3.680877E0,-3.830072E0,-1.4343562E0,-2.224489E0,1.3821E0,2.453161E0,5.7605598E-2,1.9862998E0,4.265246E0,-2.3600224E-1,-9.606103E-2,-1.0187769E-1,-3.9578993E-2,3.974824E-2,-1.3847029E-1,2.1461931E-1,7.822191E-3,2.1200375E-1,6.5762505E-2,-1.6087148E-2,1.09228626E-1,4.8096976E-3,1.3615517E-1,2.3564188E-1,5.265643E-2],"categories":[0,1,3],"categories_nodes":[10],"categories_segments":[0],"categories_sizes":[3],"default_left":[0,0,0,0,0,0,0,0,0,0,1,0,0,0,0,0,0,0,0,0,0,0,0,0,0,0,0,0,0,0,0],"id":33,"left_children":[1,3,5,7,9,11,13,15,17,19,21,23,25,27,29,-1,-1,-1,-1,-1,-1,-1,-1,-1,-1,-1,-1,-1,-1,-1,-1],"loss_changes":[3.2374512E2,1.1283084E2,2.0691533E2,7.839685E1,7.0706566E1,1.6167474E2,1.1333099E1,3.000473E1,1.389595E1,1.5364391E1,5.9967644E1,5.9490402E1,1.9192911E2,9.486509E0,1.5164841E1,0E0,0E0,0E0,0E0,0E0,0E0,0E0,0E0,0E0,0E0,0E0,0E0,0E0,0E0,0E0,0E0],"parents":[2147483647,0,0,1,1,2,2,3,3,4,4,5,5,6,6,7,7,8,8,9,9,10,10,11,11,12,12,13,13,14,14],"right_children":[2,4,6,8,10,12,14,16,18,20,22,24,26,28,30,-1,-1,-1,-1,-1,-1,-1,-1,-1,-1,-1,-1,-1,-1,-1,-1],"split_conditions":[7.027406E-1,6.0480475E-2,2.4939102E-1,6.397982E-1,3.5640806E-1,5.9E1,3.4202015E-1,6.975647E-2,7E-1,4.237E1,NaN,-8.2903755E-1,1.3697639E0,7.8E-1,1.3E1,-2.3600224E-1,-9.606103E-2,-1.0187769E-1,-3.9578993E-2,3.974824E-2,-1.3847029E-1,2.1461931E-1,7.822191E-3,2.1200375E-1,6.5762505E-2,-1.6087148E-2,1.09228626E-1,4.8096976E-3,1.3615517E-1,2.3564188E-1,5.265643E-2],"split_indices":[6,7,7,6,6,0,7,1,6,4,5,1,6,6,3,0,0,0,0,0,0,0,0,0,0,0,0,0,0,0,0],"split_type":[0,0,0,0,0,0,0,0,0,0,1,0,0,0,0,0,0,0,0,0,0,0,0,0,0,0,0,0,0,0,0],"sum_hessian":[3.7E2,8.4E1,2.86E2,6.1E1,2.3E1,2.67E2,1.9E1,2.2E1,3.9E1,7E0,1.6E1,3.1E1,2.36E2,6E0,1.3E1,1.4E1,8E0,1.9E1,2E1,1E0,6E0,4E0,1.2E1,1.1E1,2E1,2.01E2,3.5E1,2E0,4E0,1.1E1,2E0],"tree_param":{"num_deleted":"0","num_feature":"8","num_nodes":"31","size_leaf_vector":"1"}},{"base_weights":[5.271773E-2,1.5106347E-1,-4.3812028E-1,-2.4675633E-1,1.8208704E0,-5.154745E-1,1.7916944E0,4.327073E0,1.372822E0,-1.0550433E-1,-8.80823E-3,3.8250443E-2,1.4494513E-1,2.6404324E-1,1.7063586E-2,2.8564483E-1,5.2208543E-2],"categories":[0,0,1,3],"categories_nodes":[0,8],"categories_segments":[0,1],"categories_sizes":[1,3],"default_left":[1,0,0,0,0,0,0,0,1,0,0,0,0,0,0,0,0],"id":34,"left_children":[1,3,-1,5,7,9,11,13,15,-1,-1,-1,-1,-1,-1,-1,-1],"loss_changes":[3.142853E2,2.3826236E2,0E0,1.5977652E2,7.1539795E1,1.3868265E2,3.6431984E1,3.621402E1,7.961701E1,0E0,0E0,0E0,0E0,0E0,0E0,0E0,0E0],"parents":[2147483647,0,0,1,1,3,3,4,4,5,5,6,6,7,7,8,8],"right_children":[2,4,-1,6,8,10,12,14,16,-1,-1,-1,-1,-1,-1,-1,-1],"split_conditions":[NaN,1.1284276E0,-4.3812028E-1,2.1201202E-1,5.9E1,6.866317E-1,7.698463E-1,-5E-1,NaN,-1.0550433E-1,-8.80823E-3,3.8250443E-2,1.4494513E-1,2.6404324E-1,1.7063586E-2,2.8564483E-1,5.2208543E-2],"split_indices":[5,6,0,7,0,6,6,1,5,0,0,0,0,0,0,0,0],"split_type":[1,0,0,0,0,0,0,0,1,0,0,0,0,0,0,0,0],"sum_hessian":[3.6E2,3.57E2,3E0,2.89E2,6.8E1,2.56E2,3.3E1,9E0,5.9E1,4.4E1,2.12E2,1.8E1,1.5E1,7E0,2E0,3E0,5.6E1],"tree_param":{"num_deleted":"0","num_feature":"8","num_nodes":"17","size_leaf_vector":"1"}},{"base_weights":[4.4026107E-2,-3.5537179E0,2.0204775E-1,-3.285314E-1,-2.3520746E0,3.3898392E0,-1.2926665E-2,-2.743519E0,-7.854452E-1,1.1520402E0,4.2968736E0,-2.858954E-1,1.8423138E0,-3.065362E-2,-1.456058E-1,3.7798263E-2,-7.7561855E-2,1.4756183E-1,3.0217648E-3,2.562661E-1,7.246121E-2,4.3050822E-2,-3.3687495E-2,-1.3267604E-2,1.1959332E-1],"categories":[1],"categories_nodes":[2],"categories_segments":[0],"categories_sizes":[1],"default_left":[0,1,1,0,0,0,0,0,0,0,0,0,0,0,0,0,0,0,0,0,0,0,0,0,0],"id":35,"left_children":[1,3,5,-1,7,9,11,13,15,17,19,21,23,-1,-1,-1,-1,-1,-1,-1,-1,-1,-1,-1,-1],"loss_changes":[2.1618762E2,4.2549377E1,2.4949069E2,0E0,5.8173447E0,4.1734344E1,1.7372325E2,1.8065338E0,5.89428E0,1.5533736E1,3.0318298E1,1.3358572E2,5.159871E1,0E0,0E0,0E0,0E0,0E0,0E0,0E0,0E0,0E0,0E0,0E0,0E0],"parents":[2147483647,0,0,1,1,2,2,4,4,5,5,6,6,7,7,8,8,9,9,10,10,11,11,12,12],"right_children":[2,4,6,-1,8,10,12,14,16,18,20,22,24,-1,-1,-1,-1,-1,-1,-1,-1,-1,-1,-1,-1],"split_conditions":[3.5640806E-1,-8.09017E-1,NaN,-3.285314E-1,2.0725939E-1,6.946584E-1,1.2808144E0,4.164E1,7.5E1,7E1,1.22E1,6.5E1,-1.0168416E-1,-3.065362E-2,-1.456058E-1,3.7798263E-2,-7.7561855E-2,1.4756183E-1,3.0217648E-3,2.562661E-1,7.246121E-2,4.3050822E-2,-3.3687495E-2,-1.3267604E-2,1.1959332E-1],"split_indices":[6,1,5,0,7,1,6,4,0,0,3,0,7,0,0,0,0,0,0,0,0,0,0,0,0],"split_type":[0,0,1,0,0,0,0,0,0,0,0,0,0,0,0,0,0,0,0,0,0,0,0,0,0],"sum_hessian":[3.78E2,1.5E1,3.63E2,3E0,1.2E1,2.2E1,3.41E2,9E0,3E0,7E0,1.5E1,2.98E2,4.3E1,1E0,8E0,1E0,2E0,2E0,5E0,1.1E1,4E0,7.5E1,2.23E2,9E0,3.4E1],"tree_param":{"num_deleted":"0","num_feature":"8","num_nodes":"25","size_leaf_vector":"1"}},{"base_weights":[4.098702E-2,-5.865741E0,1.7069261E-1,-2.7986672E0,-4.116574E-1,-2.657428E-1,1.3580147E0,-1.552966E-1,-3.924022E-2,1.9535903E0,-4.730037E-1,-1.0067315E0,1.6996855E0,1.5038069E-1,5.305871E-2,1.1246132E-1,-3.42921E-2,5.5404663E-2,-7.459904E-2,6.2156063E-2,1.6221237E-1],"categories":[0,1,3,1],"categories_nodes":[1,10,11],"categories_segments":[0,1,3],"categories_sizes":[1,2,1],"default_left":[0,1,0,0,0,0,0,0,0,0,1,1,0,0,0,0,0,0,0,0,0],"id":36,"left_children":[1,3,5,7,-1,9,11,-1,-1,13,15,17,19,-1,-1,-1,-1,-1,-1,-1,-1],"loss_changes":[2.8523758E2,3.5046234E1,1.8898181E2,6.5639496E-1,0E0,1.2373896E2,8.089168E1,0E0,0E0,1.8442833E1,1.4349438E2,1.4994078E1,5.661348E1,0E0,0E0,0E0,0E0,0E0,0E0,0E0,0E0],"parents":[2147483647,0,0,1,1,2,2,3,3,5,5,6,6,9,9,10,10,11,11,12,12],"right_children":[2,4,6,8,-1,10,12,-1,-1,14,16,18,20,-1,-1,-1,-1,-1,-1,-1,-1],"split_conditions":[2.5798798E-1,NaN,1.0001523E0,3.4202015E-1,-4.116574E-1,5.8E1,-2.0725939E-1,-1.552966E-1,-3.924022E-2,5.1E1,NaN,NaN,1.450609E0,1.5038069E-1,5.305871E-2,1.1246132E-1,-3.42921E-2,5.5404663E-2,-7.459904E-2,6.2156063E-2,1.6221237E-1],"split_indices":[6,5,6,1,0,0,7,0,0,0,5,5,6,0,0,0,0,0,0,0,0],"split_type":[0,1,0,0,0,0,0,0,0,0,1,1,0,0,0,0,0,0,0,0,0],"sum_hessian":[3.7E2,7E0,3.63E2,4E0,3E0,2.66E2,9.7E1,3E0,1E0,2.2E1,2.44E2,1.2E1,8.5E1,9E0,1.3E1,1.7E1,2.27E2,2E0,1E1,6.7E1,1.8E1],"tree_param":{"num_deleted":"0","num_feature":"8","num_nodes":"21","size_leaf_vector":"1"}},{"base_weights":[1.03279516E-1,-1.3090693E0,4.868264E-1,-1.9446975E0,7.2683173E-1,4.0053744E0,3.251902E-1,-3.2457402E0,-1.338686E0,2.2676318E0,-2.7726305E-1,1.7164414E0,4.8319626E0,2.0972435E0,2.9863506E-3,-1.9592099E-1,-5.67599E-2,1.9555705E-2,-8.110524E-2,-6.682911E-3,2.3511682E-1,-3.7879642E-2,7.881835E-2,9.782696E-3,1.02386236E-1,1.09331325E-1,2.8950965E-1,1.5227424E-1,3.4463443E-2,-1.4556906E-2,9.097748E-2],"categories":[0,1,3,1],"categories_nodes":[2,8],"categories_segments":[0,3],"categories_sizes":[3,1],"default_left":[0,0,1,0,0,0,0,1,1,0,0,0,0,0,0,0,0,0,0,0,0,0,0,0,0,0,0,0,0,0,0],"id":37,"left_children":[1,3,5,7,9,11,13,15,17,19,21,23,25,27,29,-1,-1,-1,-1,-1,-1,-1,-1,-1,-1,-1,-1,-1,-1,-1,-1],"loss_changes":[2.0540065E2,1.0623363E2,1.6817746E2,4.453868E1,3.1570913E1,1.6302292E1,1.63289E2,2.2526474E1,2.2205772E1,4.7399963E1,1.2768843E1,2.118413E0,1.0152573E1,5.6645218E1,1.3036359E2,0E0,0E0,0E0,0E0,0E0,0E0,0E0,0E0,0E0,0E0,0E0,0E0,0E0,0E0,0E0,0E0],"parents":[2147483647,0,0,1,1,2,2,3,3,4,4,5,5,6,6,7,7,8,8,9,9,10,10,11,11,12,12,13,13,14,14],"right_children":[2,4,6,8,10,12,14,16,18,20,22,24,26,28,30,-1,-1,-1,-1,-1,-1,-1,-1,-1,-1,-1,-1,-1,-1,-1,-1],"split_conditions":[7.095195E-1,6.0480475E-2,NaN,5.4E-1,7E1,-1.7983495E-1,6.1E1,9.2718387E-1,NaN,6.7E1,5.591929E-1,4.255E1,7.431448E-1,-5E-1,1.3697639E0,-1.9592099E-1,-5.67599E-2,1.9555705E-2,-8.110524E-2,-6.682911E-3,2.3511682E-1,-3.7879642E-2,7.881835E-2,9.782696E-3,1.02386236E-1,1.09331325E-1,2.8950965E-1,1.5227424E-1,3.4463443E-2,-1.4556906E-2,9.097748E-2],"split_indices":[6,7,5,6,0,7,0,1,5,0,1,4,1,1,6,0,0,0,0,0,0,0,0,0,0,0,0,0,0,0,0],"split_type":[0,0,1,0,0,0,0,0,1,0,0,0,0,0,0,0,0,0,0,0,0,0,0,0,0,0,0,0,0,0,0],"sum_hessian":[3.77E2,8E1,2.97E2,6.1E1,1.9E1,1.2E1,2.85E2,1.8E1,4.3E1,7E0,1.2E1,4E0,8E0,4.3E1,2.42E2,1.3E1,5E0,6E0,3.7E1,4E0,3E0,1E1,2E0,1E0,3E0,3E0,5E0,2.5E1,1.8E1,2.09E2,3.3E1],"tree_param":{"num_deleted":"0","num_feature":"8","num_nodes":"31","size_leaf_vector":"1"}},{"base_weights":[-6.105814E-2,-1.9951377E0,2.775966E-1,-1.5184659E0,-3.9061272E-1,1.23366065E-1,3.6398232E0,-2.123559E0,-3.2390133E-1,-4.2973075E-2,2.963444E0,5.564092E-1,4.107358E0,5.0166894E-2,-1.17173605E-1,-1.5849272E-3,-1.3958879E-1,-1.5238594E-1,3.1865283E-3,1.7306478E-1,5.3817064E-2,4.0092565E-2,1.6381264E-3,1.613531E-2,2.2110403E-1],"categories":[0],"categories_nodes":[1],"categories_segments":[0],"categories_sizes":[1],"default_left":[0,1,0,0,0,0,1,0,0,0,0,0,0,0,0,0,0,0,0,0,0,0,0,0,0],"id":38,"left_children":[1,3,5,7,-1,9,11,13,15,17,19,21,23,-1,-1,-1,-1,-1,-1,-1,-1,-1,-1,-1,-1],"loss_changes":[2.4617326E2,1.4341725E2,1.654895E2,3.762178E1,0E0,1.451591E2,1.7897095E1,2.64189E1,1.3612781E1,9.349387E1,1.2245911E1,3.59304E-1,1.2866333E1,0E0,0E0,0E0,0E0,0E0,0E0,0E0,0E0,0E0,0E0,0E0,0E0],"parents":[2147483647,0,0,1,1,2,2,3,3,5,5,6,6,7,7,8,8,9,9,10,10,11,11,12,12],"right_children":[2,4,6,8,-1,10,12,14,16,18,20,22,24,-1,-1,-1,-1,-1,-1,-1,-1,-1,-1,-1,-1],"split_conditions":[6.866317E-1,NaN,3.4202015E-1,2.7563736E-1,-3.9061272E-1,1.4927406E0,1.19E1,5.3E1,1.26E1,-4.2402405E-1,8.480481E-1,6.7E1,-9.9939084E-1,5.0166894E-2,-1.17173605E-1,-1.5849272E-3,-1.3958879E-1,-1.5238594E-1,3.1865283E-3,1.7306478E-1,5.3817064E-2,4.0092565E-2,1.6381264E-3,1.613531E-2,2.2110403E-1],"split_indices":[6,5,7,1,0,6,3,0,3,7,1,0,1,0,0,0,0,0,0,0,0,0,0,0,0],"split_type":[0,1,0,0,0,0,0,0,0,0,0,0,0,0,0,0,0,0,0,0,0,0,0,0,0],"sum_hessian":[3.74E2,5.5E1,3.19E2,5.2E1,3E0,3.06E2,1.3E1,3.4E1,1.8E1,2.9E2,1.6E1,2E0,1.1E1,2E0,3.2E1,1.7E1,1E0,9E0,2.81E2,1.2E1,4E0,1E0,1E0,1E0,1E1],"tree_param":{"num_deleted":"0","num_feature":"8","num_nodes":"25","size_leaf_vector":"1"}},{"base_weights":[1.283572E-1,-5.1424503E-1,9.318131E-1,-4.6595163E0,-3.8339004E-1,-1.3753825E0,1.199579E0,-2.8737736E-1,-8.278186E-2,-7.231296E-1,1.2960399E0,-1.683223E0,-2.9992104E-1,9.252412E-1,1.5892401E-1,9.310236E-2,-4.3475784E-2,2.3046668E-1,3.400457E-2,9.458542E-3,-9.2751004E-2,1.8536633E-2,-4.353005E-2,1.3635777E-1,3.3893052E-2],"categories":[0,1,3,1],"categories_nodes":[10,11],"categories_segments":[0,3],"categories_sizes":[3,1],"default_left":[0,0,0,1,0,0,0,0,0,0,1,1,0,0,0,0,0,0,0,0,0,0,0,0,0],"id":39,"left_children":[1,3,5,7,9,11,13,-1,-1,15,17,19,21,23,-1,-1,-1,-1,-1,-1,-1,-1,-1,-1,-1],"loss_changes":[1.8479922E2,1.0615706E2,9.987819E1,1.0094025E1,1.1162753E2,5.1233673E0,7.4692E1,0E0,0E0,6.292537E1,6.421224E1,4.53265E0,2.2364032E0,5.4762627E1,0E0,0E0,0E0,0E0,0E0,0E0,0E0,0E0,0E0,0E0,0E0],"parents":[2147483647,0,0,1,1,2,2,3,3,4,4,5,5,6,6,9,9,10,10,11,11,12,12,13,13],"right_children":[2,4,6,8,10,12,14,-1,-1,16,18,20,22,24,-1,-1,-1,-1,-1,-1,-1,-1,-1,-1,-1],"split_conditions":[9.2447174E-1,2.5798798E-1,-2.0725939E-1,-7.6604444E-1,1.736646E-1,1.4165064E0,8.550504E-2,-2.8737736E-1,-8.278186E-2,5.4E1,NaN,NaN,4.0673664E-1,5.9E1,1.5892401E-1,9.310236E-2,-4.3475784E-2,2.3046668E-1,3.400457E-2,9.458542E-3,-9.2751004E-2,1.8536633E-2,-4.353005E-2,1.3635777E-1,3.3893052E-2],"split_indices":[6,6,7,1,7,6,7,0,0,0,5,5,1,0,0,0,0,0,0,0,0,0,0,0,0],"split_type":[0,0,0,0,0,0,0,0,0,0,1,1,0,0,0,0,0,0,0,0,0,0,0,0,0],"sum_hessian":[3.56E2,1.98E2,1.58E2,5E0,1.93E2,1.6E1,1.42E2,3E0,2E0,1.61E2,3.2E1,1.2E1,4E0,1.26E2,1.6E1,8E0,1.53E2,4E0,2.8E1,1E0,1.1E1,2E0,2E0,1.4E1,1.12E2],"tree_param":{"num_deleted":"0","num_feature":"8","num_nodes":"25","size_leaf_vector":"1"}},{"base_weights":[2.036503E-1,2.9920274E-2,2.8687274E0,-3.643338E-1,1.4069356E0,2.135583E-1,1.6620767E0,-2.4353662E-1,-2.6321673E-1,3.0992343E0,9.2795116E-1,6.568874E-1,1.6700199E-1,6.494099E-2,-2.1362003E-2,1.9366008E-1,5.1738042E-2,2.5326544E-1,3.1833075E-2,-5.471175E-3,9.168549E-2],"categories":[1,0,1,3],"categories_nodes":[8,10],"categories_segments":[0,1],"categories_sizes":[1,3],"default_left":[0,0,0,0,0,0,0,0,1,0,1,0,0,0,0,0,0,0,0,0,0],"id":40,"left_children":[1,3,5,7,9,-1,11,-1,13,15,17,19,-1,-1,-1,-1,-1,-1,-1,-1,-1],"loss_changes":[1.7400365E2,1.9269704E2,3.1822815E1,1.2448392E2,6.1160263E1,0E0,2.1419353E1,0E0,6.998792E1,2.3155365E1,7.27008E1,9.218769E0,0E0,0E0,0E0,0E0,0E0,0E0,0E0,0E0,0E0],"parents":[2147483647,0,0,1,1,2,2,3,3,4,4,6,6,8,8,9,9,10,10,11,11],"right_children":[2,4,6,8,10,-1,12,-1,14,16,18,20,-1,-1,-1,-1,-1,-1,-1,-1,-1],"split_conditions":[3.715724E-1,1.1501523E0,4.399E1,2.5798798E-1,6.4E1,2.135583E-1,4.9878204E-1,-2.4353662E-1,NaN,-6.156615E-1,NaN,1.25E1,1.6700199E-1,6.494099E-2,-2.1362003E-2,1.9366008E-1,5.1738042E-2,2.5326544E-1,3.1833075E-2,-5.471175E-3,9.168549E-2],"split_indices":[7,6,4,6,0,0,7,0,5,1,5,3,0,0,0,0,0,0,0,0,0],"split_type":[0,0,0,0,0,0,0,0,1,0,1,0,0,0,0,0,0,0,0,0,0],"sum_hessian":[3.75E2,3.53E2,2.2E1,2.75E2,7.8E1,9E0,1.3E1,5E0,2.7E2,1.6E1,6.2E1,9E0,4E0,2.5E1,2.45E2,1.1E1,5E0,3E0,5.9E1,6E0,3E0],"tree_param":{"num_deleted":"0","num_feature":"8","num_nodes":"21","size_leaf_vector":"1"}},{"base_weights":[6.1584115E-2,-5.461342E-1,8.741061E-1,-3.6607416E0,-3.5166538E-1,6.5924996E-1,3.3616333E0,-2.7202478E-1,-1.612275E0,2.1039155E0,-5.829123E-1,2.527039E0,4.369547E-1,1.9011708E-1,3.8603082E-2,2.7643204E-2,-1.0326377E-1,6.548452E-2,2.1788621E-1,6.8058796E-2,-4.180063E-2,1.7187487E-1,-4.1804742E-2,-5.035579E-2,3.3256803E-2],"categories":[0,1],"categories_nodes":[3,4],"categories_segments":[0,1],"categories_sizes":[1,1],"default_left":[0,0,0,1,1,0,0,0,0,0,0,0,0,0,0,0,0,0,0,0,0,0,0,0,0],"id":41,"left_children":[1,3,5,7,9,11,13,-1,15,17,19,21,23,-1,-1,-1,-1,-1,-1,-1,-1,-1,-1,-1,-1],"loss_changes":[1.7774602E2,1.2348561E2,8.009078E1,3.4977615E1,1.1195629E2,5.826949E1,1.0759293E1,0E0,8.007481E0,2.4723267E1,8.921477E1,4.8803963E1,4.3176655E1,0E0,0E0,0E0,0E0,0E0,0E0,0E0,0E0,0E0,0E0,0E0,0E0],"parents":[2147483647,0,0,1,1,2,2,3,3,4,4,5,5,6,6,8,8,9,9,10,10,11,11,12,12],"right_children":[2,4,6,8,10,12,14,-1,16,18,20,22,24,-1,-1,-1,-1,-1,-1,-1,-1,-1,-1,-1,-1],"split_conditions":[9.5968455E-1,3.4E-1,1.4927406E0,NaN,NaN,6.2E1,7.880108E-1,-2.7202478E-1,4.237E1,1.3247982E-1,5.9E1,-8.2903755E-1,-2.0725939E-1,1.9011708E-1,3.8603082E-2,2.7643204E-2,-1.0326377E-1,6.548452E-2,2.1788621E-1,6.8058796E-2,-4.180063E-2,1.7187487E-1,-4.1804742E-2,-5.035579E-2,3.3256803E-2],"split_indices":[6,6,6,2,5,0,1,0,4,7,0,1,7,0,0,0,0,0,0,0,0,0,0,0,0],"split_type":[0,0,0,1,1,0,0,0,0,0,0,0,0,0,0,0,0,0,0,0,0,0,0,0,0],"sum_hessian":[3.58E2,2.05E2,1.53E2,1.1E1,1.94E2,1.42E2,1.1E1,5E0,6E0,1.6E1,1.78E2,1.4E1,1.28E2,9E0,2E0,1E0,5E0,1.3E1,3E0,2E1,1.58E2,1.1E1,3E0,1.7E1,1.11E2],"tree_param":{"num_deleted":"0","num_feature":"8","num_nodes":"25","size_leaf_vector":"1"}},{"base_weights":[4.676209E-2,-4.6384102E-1,8.522938E-1,-8.4088004E-1,8.907657E-1,4.025782E0,7.122007E-1,-2.234672E0,-4.451279E-1,-8.48256E-2,1.1470555E0,2.6620227E-1,9.5283765E-1,1.2175659E0,-8.563818E-2,-1.4316936E-1,-3.5430916E-2,-1.7056572E-1,-1.3368668E-2,2.0254016E-1,3.1165838E-2,8.857346E-3,6.260548E-2,-4.957374E-2,6.821773E-2,-1.1490801E-2,1.2690544E-1],"categories":[0,1,3,0,1,3],"categories_nodes":[2,10],"categories_segments":[0,3],"categories_sizes":[3,3],"default_left":[0,0,1,0,0,0,0,1,0,0,1,0,0,0,0,0,0,0,0,0,0,0,0,0,0,0,0],"id":42,"left_children":[1,3,5,7,9,11,13,15,17,-1,19,-1,21,23,25,-1,-1,-1,-1,-1,-1,-1,-1,-1,-1,-1,-1],"loss_changes":[1.5586938E2,1.19240616E2,6.2486664E1,9.939578E1,3.5763733E1,1.886399E1,5.735869E1,3.634909E1,7.4485115E1,0E0,6.895291E1,0E0,4.7461987E-1,2.9563538E1,2.1767323E1,0E0,0E0,0E0,0E0,0E0,0E0,0E0,0E0,0E0,0E0,0E0,0E0],"parents":[2147483647,0,0,1,1,2,2,3,3,4,4,5,5,6,6,7,7,8,8,10,10,12,12,13,13,14,14],"right_children":[2,4,6,8,10,12,14,16,18,-1,20,-1,22,24,26,-1,-1,-1,-1,-1,-1,-1,-1,-1,-1,-1,-1],"split_conditions":[1E0,6.0480475E-2,NaN,6.6728264E-1,3.5640806E-1,1.22E1,-3.4899496E-2,1.7364818E-1,-2.4984771E-1,-8.48256E-2,NaN,2.6620227E-1,7.6E1,-2.2838636E-1,2.0225425E-1,-1.4316936E-1,-3.5430916E-2,-1.7056572E-1,-1.3368668E-2,2.0254016E-1,3.1165838E-2,8.857346E-3,6.260548E-2,-4.957374E-2,6.821773E-2,-1.1490801E-2,1.2690544E-1],"split_indices":[6,7,5,6,6,3,1,1,7,0,5,0,0,7,7,0,0,0,0,0,0,0,0,0,0,0,0],"split_type":[0,0,1,0,0,0,0,0,0,0,1,0,0,0,0,0,0,0,0,0,0,0,0,0,0,0,0],"sum_hessian":[3.77E2,2.31E2,1.46E2,1.81E2,5E1,5E0,1.41E2,3.9E1,1.42E2,4E0,4.6E1,3E0,2E0,8.6E1,5.5E1,2.7E1,1.2E1,7E0,1.35E2,6E0,4E1,1E0,1E0,5E0,8.1E1,5.3E1,2E0],"tree_param":{"num_deleted":"0","num_feature":"8","num_nodes":"27","size_leaf_vector":"1"}},{"base_weights":[-5.9347913E-2,-3.159693E0,1.1697666E-1,-2.096628E0,-3.4438986E-1,2.7459018E0,-5.8108922E-2,-9.585582E-1,-2.6302514E0,3.001283E0,-6.5427594E-2,1.1181749E0,-3.7216142E-1,2.943913E-2,-8.476256E-2,-3.3281516E-2,-1.3800752E-1,2.2371197E-2,1.7010346E-1,1.9304888E-2,1.0407039E-1,-5.1285185E-2,8.112668E-3],"categories":[0,1],"categories_nodes":[1,2],"categories_segments":[0,1],"categories_sizes":[1,1],"default_left":[0,1,1,0,0,0,0,0,0,0,0,0,0,0,0,0,0,0,0,0,0,0,0],"id":43,"left_children":[1,3,5,7,-1,9,11,13,15,17,-1,19,21,-1,-1,-1,-1,-1,-1,-1,-1,-1,-1],"loss_changes":[2.0318307E2,6.48232E1,1.6218054E2,7.802864E0,0E0,2.6706833E1,1.2269247E2,8.977541E0,9.6998596E-1,1.9972412E1,0E0,4.855761E1,9.167323E1,0E0,0E0,0E0,0E0,0E0,0E0,0E0,0E0,0E0,0E0],"parents":[2147483647,0,0,1,1,2,2,3,3,5,5,6,6,7,7,8,8,9,9,11,11,12,12],"right_children":[2,4,6,8,-1,10,12,14,16,18,-1,20,22,-1,-1,-1,-1,-1,-1,-1,-1,-1,-1],"split_conditions":[4.3322727E-1,NaN,NaN,4.237E1,-3.4438986E-1,7.8E1,6.4E1,1.21E1,0E0,4.276E1,-6.5427594E-2,8.6E-1,8.9341205E-1,2.943913E-2,-8.476256E-2,-3.3281516E-2,-1.3800752E-1,2.2371197E-2,1.7010346E-1,1.9304888E-2,1.0407039E-1,-5.1285185E-2,8.112668E-3],"split_indices":[6,5,5,4,0,0,0,3,6,4,0,6,6,0,0,0,0,0,0,0,0,0,0],"split_type":[0,1,1,0,0,0,0,0,0,0,0,0,0,0,0,0,0,0,0,0,0,0,0],"sum_hessian":[3.7E2,1.9E1,3.51E2,1.6E1,3E0,2.1E1,3.3E2,6E0,1E1,2E1,1E0,6.9E1,2.61E2,2E0,4E0,1E0,9E0,3E0,1.7E1,4E1,2.9E1,1.17E2,1.44E2],"tree_param":{"num_deleted":"0","num_feature":"8","num_nodes":"23","size_leaf_vector":"1"}},{"base_weights":[4.519279E-2,-3.5774367E0,1.875288E-1,-2.1423724E0,-3.3147523E-1,-9.122938E-2,2.0680997E0,-1.1918225E-1,-3.5221543E-2,-3.34867E-1,1.7791933E0,2.3191212E-1,1.71289E0,9.037369E-2,-2.4566917E-2,4.0943963E-3,1.0579623E-1,1.22445635E-1,2.432251E-2],"categories":[0,0,1,3,1],"categories_nodes":[1,6,9],"categories_segments":[0,1,4],"categories_sizes":[1,3,1],"default_left":[0,1,0,0,0,0,1,0,0,1,0,0,0,0,0,0,0,0,0],"id":44,"left_children":[1,3,5,7,-1,9,11,-1,-1,13,15,-1,17,-1,-1,-1,-1,-1,-1],"loss_changes":[1.9093857E2,4.7115936E1,1.8681262E2,2.1371765E0,0E0,1.4232014E2,3.405043E1,0E0,0E0,9.3407394E1,2.040203E1,0E0,3.6721596E1,0E0,0E0,0E0,0E0,0E0,0E0],"parents":[2147483647,0,0,1,1,2,2,3,3,5,5,6,6,9,9,10,10,12,12],"right_children":[2,4,6,8,-1,10,12,-1,-1,14,16,-1,18,-1,-1,-1,-1,-1,-1],"split_conditions":[3.53272E-1,NaN,1.736646E-1,8.480481E-1,-3.3147523E-1,1.3697639E0,NaN,-1.1918225E-1,-3.5221543E-2,NaN,-1.3023613E-1,2.3191212E-1,-5E-1,9.037369E-2,-2.4566917E-2,4.0943963E-3,1.0579623E-1,1.22445635E-1,2.432251E-2],"split_indices":[6,5,7,1,0,6,5,0,0,5,7,0,1,0,0,0,0,0,0],"split_type":[0,1,0,0,0,0,1,0,0,1,0,0,0,0,0,0,0,0,0],"sum_hessian":[3.68E2,1.3E1,3.55E2,1E1,3E0,3.1E2,4.5E1,8E0,2E0,2.75E2,3.5E1,4E0,4.1E1,1.8E1,2.57E2,6E0,2.9E1,2.5E1,1.6E1],"tree_param":{"num_deleted":"0","num_feature":"8","num_nodes":"19","size_leaf_vector":"1"}},{"base_weights":[-6.609039E-3,-6.644314E-1,6.4432365E-1,-1.0667379E0,6.764519E-1,4.5847744E-1,3.1394238E0,2.2194423E-1,-1.5264748E0,-1.4780093E0,1.055525E0,3.31986E0,3.2193044E-1,6.6306116E-3,1.6894703E-1,7.715994E-2,-5.7652593E-3,-2.4993125E-1,-6.715519E-2,-9.665599E-2,3.131633E-2,2.1021347E-1,2.2552019E-2,6.858162E-2,2.4625897E-1,-6.1742652E-2,2.9848043E-2],"categories":[0,1,3,0,1,3],"categories_nodes":[5,10],"categories_segments":[0,3],"categories_sizes":[3,3],"default_left":[0,0,0,0,0,1,0,0,0,0,1,0,0,0,0,0,0,0,0,0,0,0,0,0,0,0,0],"id":45,"left_children":[1,3,5,7,9,11,13,15,17,19,21,23,25,-1,-1,-1,-1,-1,-1,-1,-1,-1,-1,-1,-1,-1,-1],"loss_changes":[1.6185878E2,1.0213745E2,8.666459E1,8.624475E1,3.7494797E1,6.847819E1,8.914276E0,1.755604E1,6.141237E1,7.9147024E0,7.043167E1,1.8264687E1,7.3953E1,0E0,0E0,0E0,0E0,0E0,0E0,0E0,0E0,0E0,0E0,0E0,0E0,0E0,0E0],"parents":[2147483647,0,0,1,1,2,2,3,3,4,4,5,5,6,6,7,7,8,8,9,9,10,10,11,11,12,12],"right_children":[2,4,6,8,10,12,14,16,18,20,22,24,26,-1,-1,-1,-1,-1,-1,-1,-1,-1,-1,-1,-1,-1,-1],"split_conditions":[8.9523053E-1,6.0480475E-2,1.970027E-1,6.5E1,3.4E-1,NaN,1.15E1,5.4E1,2.7379805E-1,1.19E1,NaN,-1.7983495E-1,-4.3412045E-2,6.6306116E-3,1.6894703E-1,7.715994E-2,-5.7652593E-3,-2.4993125E-1,-6.715519E-2,-9.665599E-2,3.131633E-2,2.1021347E-1,2.2552019E-2,6.858162E-2,2.4625897E-1,-6.1742652E-2,2.9848043E-2],"split_indices":[6,7,7,0,6,5,3,0,6,3,5,7,7,0,0,0,0,0,0,0,0,0,0,0,0,0,0],"split_type":[0,0,0,0,0,1,0,0,0,0,1,0,0,0,0,0,0,0,0,0,0,0,0,0,0,0,0],"sum_hessian":[3.76E2,1.87E2,1.89E2,1.44E2,4.3E1,1.77E2,1.2E1,3.8E1,1.06E2,6E0,3.7E1,7E0,1.7E2,1E0,1.1E1,7E0,3.1E1,4E0,1.02E2,5E0,1E0,5E0,3.2E1,4E0,3E0,2.5E1,1.45E2],"tree_param":{"num_deleted":"0","num_feature":"8","num_nodes":"27","size_leaf_vector":"1"}},{"base_weights":[7.20407E-2,2.123061E0,-1.3207254E-1,2.1607538E-1,1.6858845E0,-2.8446642E-1,2.335692E0,2.0567594E0,5.9198105E-1,-9.328152E-1,3.267625E-1,2.435421E-1,2.843508E0,6.880928E-2,1.4434505E-1,-2.7641201E-2,4.9902152E-2,-1.2248593E-1,-3.203347E-2,8.32349E-3,1.10640466E-1,4.0525567E-2,-2.0230388E-2,8.931742E-2,1.9737604E-1],"categories":[],"categories_nodes":[],"categories_segments":[],"categories_sizes":[],"default_left":[0,0,0,0,0,0,1,0,0,0,0,0,0,0,0,0,0,0,0,0,0,0,0,0,0],"id":46,"left_children":[1,3,5,-1,7,9,11,13,15,17,19,21,23,-1,-1,-1,-1,-1,-1,-1,-1,-1,-1,-1,-1],"loss_changes":[1.5727055E2,2.539215E1,1.292811E2,0E0,1.0953476E1,1.2830632E2,2.0556046E1,8.456482E0,4.7354994E0,6.8006195E1,5.0119003E1,2.165344E0,1.1622238E1,0E0,0E0,0E0,0E0,0E0,0E0,0E0,0E0,0E0,0E0,0E0,0E0],"parents":[2147483647,0,0,1,1,2,2,4,4,5,5,6,6,7,7,8,8,9,9,10,10,11,11,12,12],"right_children":[2,4,6,-1,8,10,12,14,16,18,20,22,24,-1,-1,-1,-1,-1,-1,-1,-1,-1,-1,-1,-1],"split_conditions":[5.9E1,4.161E1,3.596699E-1,2.1607538E-1,1.04528464E-1,8.9523053E-1,1.19E1,9.516842E-1,4.6947157E-1,5.863354E-1,1.4927406E0,6.7E1,6.9E1,6.880928E-2,1.4434505E-1,-2.7641201E-2,4.9902152E-2,-1.2248593E-1,-3.203347E-2,8.32349E-3,1.10640466E-1,4.0525567E-2,-2.0230388E-2,8.931742E-2,1.9737604E-1],"split_indices":[0,4,7,0,1,6,3,6,1,6,6,0,0,0,0,0,0,0,0,0,0,0,0,0,0],"split_type":[0,0,0,0,0,0,0,0,0,0,0,0,0,0,0,0,0,0,0,0,0,0,0,0,0],"sum_hessian":[3.74E2,3.3E1,3.41E2,4E0,2.9E1,3.22E2,1.9E1,2.1E1,8E0,1.56E2,1.66E2,4E0,1.5E1,1.3E1,8E0,2E0,6E0,2.4E1,1.32E2,1.54E2,1.2E1,2E0,2E0,9E0,6E0],"tree_param":{"num_deleted":"0","num_feature":"8","num_nodes":"25","size_leaf_vector":"1"}},{"base_weights":[-1.2490706E-3,-6.075605E-1,6.240161E-1,-7.965011E-1,1.7506146E0,4.344271E-1,2.832204E0,1.6582547E0,-9.621691E-1,3.3246849E0,6.3111115E-1,2.3432224E0,2.5719324E-1,4.9609315E-2,1.519481E-1,1.4384301E-2,9.518E-2,-2.0549165E-1,-4.3167483E-2,4.9194656E-2,2.1245538E-1,-1.2208666E-2,1.0025406E-1,1.563194E-1,7.5806812E-3,-6.363431E-2,2.1559244E-2],"categories":[],"categories_nodes":[],"categories_segments":[],"categories_sizes":[],"default_left":[0,0,0,0,0,0,0,0,0,0,0,0,0,0,0,0,0,0,0,0,0,0,0,0,0,0,0],"id":47,"left_children":[1,3,5,7,9,11,13,15,17,19,21,23,25,-1,-1,-1,-1,-1,-1,-1,-1,-1,-1,-1,-1,-1,-1],"loss_changes":[1.4785112E2,8.9614265E1,7.915005E1,7.642364E1,2.4334408E1,5.9615303E1,2.6913528E0,3.4875107E0,5.0263504E1,8.802612E0,1.2515734E1,2.5271889E1,4.42033E1,0E0,0E0,0E0,0E0,0E0,0E0,0E0,0E0,0E0,0E0,0E0,0E0,0E0,0E0],"parents":[2147483647,0,0,1,1,2,2,3,3,4,4,5,5,6,6,7,7,8,8,9,9,10,10,11,11,12,12],"right_children":[2,4,6,8,10,12,14,16,18,20,22,24,26,-1,-1,-1,-1,-1,-1,-1,-1,-1,-1,-1,-1,-1,-1],"split_conditions":[8.9523053E-1,3.715724E-1,1.970027E-1,5.4E1,4.399E1,5.9E1,4.066E1,-9.945219E-1,2.1E-1,6.7E1,4.9240386E-1,-7.431448E-1,-2.2838636E-1,4.9609315E-2,1.519481E-1,1.4384301E-2,9.518E-2,-2.0549165E-1,-4.3167483E-2,4.9194656E-2,2.1245538E-1,-1.2208666E-2,1.0025406E-1,1.563194E-1,7.5806812E-3,-6.363431E-2,2.1559244E-2],"split_indices":[6,7,7,0,4,0,4,1,6,0,7,1,7,0,0,0,0,0,0,0,0,0,0,0,0,0,0],"split_type":[0,0,0,0,0,0,0,0,0,0,0,0,0,0,0,0,0,0,0,0,0,0,0,0,0,0,0],"sum_hessian":[3.88E2,1.97E2,1.91E2,1.83E2,1.4E1,1.77E2,1.4E1,1.1E1,1.72E2,5E0,9E0,1.4E1,1.63E2,2E0,1.2E1,2E0,9E0,4E0,1.68E2,2E0,3E0,6E0,3E0,1E1,4E0,1.6E1,1.47E2],"tree_param":{"num_deleted":"0","num_feature":"8","num_nodes":"27","size_leaf_vector":"1"}},{"base_weights":[1.5446122E-2,-1.0610024E0,3.3434182E-1,-1.5695177E0,2.1197693E-1,3.3806846E0,2.0535423E-1,-2.8941634E0,-1.0170581E0,2.1483693E0,-4.7635928E-1,1.3269379E0,4.2416906E0,-1.4070401E0,4.3579584E-1,-1.4043554E-2,-1.6016352E-1,-1.4801382E-2,-9.697982E-2,2.0209313E-3,1.859614E-1,-6.6135876E-2,4.055977E-3,5.4855347E-3,8.019085E-2,9.142978E-2,2.3706448E-1,-9.4487846E-2,1.8499661E-3,8.499484E-2,9.404974E-3],"categories":[0,1,3],"categories_nodes":[2],"categories_segments":[0],"categories_sizes":[3],"default_left":[0,0,1,1,0,0,0,0,0,0,0,0,0,0,0,0,0,0,0,0,0,0,0,0,0,0,0,0,0,0,0],"id":48,"left_children":[1,3,5,7,9,11,13,15,17,19,21,23,25,27,29,-1,-1,-1,-1,-1,-1,-1,-1,-1,-1,-1,-1,-1,-1,-1,-1],"loss_changes":[1.3217227E2,5.729769E1,1.1600906E2,4.3160706E1,3.5678513E1,1.5591003E1,1.0688013E2,1.3640457E1,3.0024017E1,2.3028717E1,9.543832E0,1.5091677E0,9.7473145E-1,2.5164146E1,7.827167E1,0E0,0E0,0E0,0E0,0E0,0E0,0E0,0E0,0E0,0E0,0E0,0E0,0E0,0E0,0E0,0E0],"parents":[2147483647,0,0,1,1,2,2,3,3,4,4,5,5,6,6,7,7,8,8,9,9,10,10,11,11,12,12,13,13,14,14],"right_children":[2,4,6,8,10,12,14,16,18,20,22,24,26,28,30,-1,-1,-1,-1,-1,-1,-1,-1,-1,-1,-1,-1,-1,-1,-1,-1],"split_conditions":[7.25E-1,6.0480475E-2,NaN,-8.09017E-1,7E1,-1.7983495E-1,-4.3412045E-2,-9.945219E-1,7.1E1,6.6E1,1.19E1,4.255E1,7.1E1,1.3697639E0,6.2E1,-1.4043554E-2,-1.6016352E-1,-1.4801382E-2,-9.697982E-2,2.0209313E-3,1.859614E-1,-6.6135876E-2,4.055977E-3,5.4855347E-3,8.019085E-2,9.142978E-2,2.3706448E-1,-9.4487846E-2,1.8499661E-3,8.499484E-2,9.404974E-3],"split_indices":[6,7,5,1,0,7,7,1,0,0,3,4,0,6,0,0,0,0,0,0,0,0,0,0,0,0,0,0,0,0,0],"split_type":[0,0,1,0,0,0,0,0,0,0,0,0,0,0,0,0,0,0,0,0,0,0,0,0,0,0,0,0,0,0,0],"sum_hessian":[3.83E2,8.7E1,2.96E2,6.2E1,2.5E1,1.1E1,2.85E2,1.7E1,4.5E1,6E0,1.9E1,4E0,7E0,3.5E1,2.5E2,2E0,1.5E1,2.6E1,1.9E1,3E0,3E0,7E0,1.2E1,1E0,3E0,2E0,5E0,2.6E1,9E0,4E1,2.1E2],"tree_param":{"num_deleted":"0","num_feature":"8","num_nodes":"31","size_leaf_vector":"1"}},{"base_weights":[3.5149246E-2,-1.3219E0,2.6463446E-1,-1.880183E0,-2.2298145E-1,3.263269E0,1.3178693E-1,-2.758648E0,-9.955553E-1,-1.20238736E-1,3.034982E-1,7.6864624E-1,3.6149855E0,-1.3542633E0,3.3830184E-1,-1.6787738E-1,-6.6893525E-2,-2.1765405E-2,-1.2946177E-1,-3.821918E-3,7.7870086E-2,5.1377106E-2,6.2713623E-3,8.607846E-2,2.0274194E-1,-9.00815E-2,-2.5863736E-3,7.7750124E-3,9.0079755E-2],"categories":[0,1,3],"categories_nodes":[2],"categories_segments":[0],"categories_sizes":[3],"default_left":[0,1,1,0,0,0,0,0,0,0,0,0,0,0,0,0,0,0,0,0,0,0,0,0,0,0,0,0,0],"id":49,"left_children":[1,3,5,7,9,11,13,15,17,-1,19,21,23,25,27,-1,-1,-1,-1,-1,-1,-1,-1,-1,-1,-1,-1,-1,-1],"loss_changes":[1.20559E2,3.3937172E1,1.314275E2,2.6006836E1,2.370324E1,9.504959E0,9.804966E1,1.0824295E1,1.6729982E1,0E0,8.217909E0,3.7069857E-1,3.013214E0,2.263253E1,7.461771E1,0E0,0E0,0E0,0E0,0E0,0E0,0E0,0E0,0E0,0E0,0E0,0E0,0E0,0E0],"parents":[2147483647,0,0,1,1,2,2,3,3,4,4,5,5,6,6,7,7,8,8,10,10,11,11,12,12,13,13,14,14],"right_children":[2,4,6,8,10,12,14,16,18,-1,20,22,24,26,28,-1,-1,-1,-1,-1,-1,-1,-1,-1,-1,-1,-1,-1,-1],"split_conditions":[6.596846E-1,1.7364818E-1,NaN,5.9848887E-1,3.393031E-1,6.7E1,-4.3412045E-2,1.7449748E-2,-2.419219E-1,-1.20238736E-1,1.25E1,9.2718387E-1,7.431448E-1,1.3697639E0,1.32899E0,-1.6787738E-1,-6.6893525E-2,-2.1765405E-2,-1.2946177E-1,-3.821918E-3,7.7870086E-2,5.1377106E-2,6.2713623E-3,8.607846E-2,2.0274194E-1,-9.00815E-2,-2.5863736E-3,7.7750124E-3,9.0079755E-2],"split_indices":[6,1,5,6,6,0,7,7,1,0,3,1,1,6,6,0,0,0,0,0,0,0,0,0,0,0,0,0,0],"split_type":[0,0,1,0,0,0,0,0,0,0,0,0,0,0,0,0,0,0,0,0,0,0,0,0,0,0,0,0,0],"sum_hessian":[3.85E2,5.5E1,3.3E2,3.6E1,1.9E1,1.3E1,3.17E2,1.7E1,1.9E1,3E0,1.6E1,2E0,1.1E1,3.8E1,2.79E2,1.1E1,6E0,1.5E1,4E0,1.3E1,3E0,1E0,1E0,3E0,8E0,2.8E1,1E1,2.49E2,3E1],"tree_param":{"num_deleted":"0","num_feature":"8","num_nodes":"29","size_leaf_vector":"1"}},{"base_weights":[-2.713226E-2,-1.3644402E0,2.50838E-1,-1.9471308E0,2.3283175E-1,2.8687732E0,1.350137E-1,-2.6029295E-1,-1.6066298E0,-7.4412204E-2,6.7626315E-1,1.1691368E0,3.4942632E0,1.661273E0,-5.628013E-2,-1.0718101E-1,-2.6646018E-2,1.061142E-1,6.89505E-3,2.7980804E-4,7.293115E-2,6.1145783E-3,1.9502366E-1,5.777657E-2,1.687333E-1,-1.2934004E-2,6.602521E-2],"categories":[0,1,3,0,1,3],"categories_nodes":[2,10],"categories_segments":[0,3],"categories_sizes":[3,3],"default_left":[0,0,1,0,0,0,0,0,0,0,1,0,0,0,0,0,0,0,0,0,0,0,0,0,0,0,0],"id":50,"left_children":[1,3,5,7,9,11,13,-1,15,-1,17,19,21,23,25,-1,-1,-1,-1,-1,-1,-1,-1,-1,-1,-1,-1],"loss_changes":[1.3825478E2,6.0019135E1,9.300459E1,4.3787308E1,1.4743669E1,9.735107E0,8.651483E1,0E0,2.4226776E1,0E0,1.1384579E1,1.6759815E0,1.1850555E1,2.469609E1,7.3908104E1,0E0,0E0,0E0,0E0,0E0,0E0,0E0,0E0,0E0,0E0,0E0,0E0],"parents":[2147483647,0,0,1,1,2,2,3,3,4,4,5,5,6,6,8,8,10,10,11,11,12,12,13,13,14,14],"right_children":[2,4,6,8,10,12,14,-1,16,-1,18,20,22,24,26,-1,-1,-1,-1,-1,-1,-1,-1,-1,-1,-1,-1],"split_conditions":[7E-1,1.6728266E-1,NaN,2.7379805E-1,2E-1,-1.7983495E-1,6E1,-2.6029295E-1,-6.975647E-2,-7.4412204E-2,NaN,4.255E1,6.7E1,1.1284276E0,1.3697639E0,-1.0718101E-1,-2.6646018E-2,1.061142E-1,6.89505E-3,2.7980804E-4,7.293115E-2,6.1145783E-3,1.9502366E-1,5.777657E-2,1.687333E-1,-1.2934004E-2,6.602521E-2],"split_indices":[6,7,5,6,6,7,0,0,1,0,5,4,0,6,6,0,0,0,0,0,0,0,0,0,0,0,0],"split_type":[0,0,1,0,0,0,0,0,0,0,1,0,0,0,0,0,0,0,0,0,0,0,0,0,0,0,0],"sum_hessian":[3.7E2,6.3E1,3.07E2,4.6E1,1.7E1,1.2E1,2.95E2,3E0,4.3E1,3E0,1.4E1,4E0,8E0,3.2E1,2.63E2,2.8E1,1.5E1,3E0,1.1E1,1E0,3E0,1E0,7E0,2.6E1,6E0,2.3E2,3.3E1],"tree_param":{"num_deleted":"0","num_feature":"8","num_nodes":"27","size_leaf_vector":"1"}},{"base_weights":[2.4358016E-2,-3.6061494E0,1.2162536E-1,-1.966212E0,-2.7872515E-1,2.189146E0,-3.9598525E-2,-2.182188E-2,-1.0742175E-1,5.578337E-1,2.7322137E0,1.5633001E0,-2.3016974E-1,9.087773E-2,-8.249951E-3,-1.6399836E-2,1.6457725E-1,1.1442415E-1,2.3423368E-2,-2.042292E-2,5.715518E-2],"categories":[0,1],"categories_nodes":[1,2],"categories_segments":[0,1],"categories_sizes":[1,1],"default_left":[0,1,1,0,0,0,0,0,0,0,0,0,0,0,0,0,0,0,0,0,0],"id":51,"left_children":[1,3,5,7,-1,9,11,-1,-1,13,15,17,19,-1,-1,-1,-1,-1,-1,-1,-1],"loss_changes":[1.3533418E2,2.1319107E1,1.24420166E2,1.0136623E0,0E0,2.2395523E1,1.0635665E2,0E0,0E0,7.5844336E0,3.5313034E1,2.8304214E1,7.6611855E1,0E0,0E0,0E0,0E0,0E0,0E0,0E0,0E0],"parents":[2147483647,0,0,1,1,2,2,3,3,5,5,6,6,9,9,10,10,11,11,12,12],"right_children":[2,4,6,8,-1,10,12,-1,-1,14,16,18,20,-1,-1,-1,-1,-1,-1,-1,-1],"split_conditions":[3.393031E-1,NaN,NaN,1.12E1,-2.7872515E-1,6.946584E-1,5.9E1,-2.182188E-2,-1.0742175E-1,7E1,4.255E1,-5E-1,1.3697639E0,9.087773E-2,-8.249951E-3,-1.6399836E-2,1.6457725E-1,1.1442415E-1,2.3423368E-2,-2.042292E-2,5.715518E-2],"split_indices":[6,5,5,3,0,1,0,0,0,0,4,1,6,0,0,0,0,0,0,0,0],"split_type":[0,1,1,0,0,0,0,0,0,0,0,0,0,0,0,0,0,0,0,0,0],"sum_hessian":[3.81E2,9E0,3.72E2,6E0,3E0,2.6E1,3.46E2,1E0,5E0,7E0,1.9E1,3.6E1,3.1E2,2E0,5E0,3E0,1.6E1,2.1E1,1.5E1,2.75E2,3.5E1],"tree_param":{"num_deleted":"0","num_feature":"8","num_nodes":"21","size_leaf_vector":"1"}},{"base_weights":[4.9262125E-2,1.0862922E-1,-2.6827297E-1,1.6688781E0,-5.1966224E-2,1.0548085E0,2.8569503E0,-2.133673E-1,1.3641951E0,6.363484E-2,-4.4732127E-2,4.5805074E-2,1.735128E-1,-2.2290941E-2,3.995582E-2,-1.30046485E-2,8.9747004E-2],"categories":[0],"categories_nodes":[0],"categories_segments":[0],"categories_sizes":[1],"default_left":[1,0,0,0,0,1,0,0,0,0,0,0,0,0,0,0,0],"id":52,"left_children":[1,3,-1,5,7,9,11,13,15,-1,-1,-1,-1,-1,-1,-1,-1],"loss_changes":[1.185573E2,9.129379E1,0E0,2.1791473E1,7.594774E1,1.1332914E1,9.914558E0,7.049157E1,2.425507E1,0E0,0E0,0E0,0E0,0E0,0E0,0E0,0E0],"parents":[2147483647,0,0,1,1,3,3,4,4,5,5,6,6,7,7,8,8],"right_children":[2,4,-1,6,8,10,12,14,16,-1,-1,-1,-1,-1,-1,-1,-1],"split_conditions":[NaN,5.9E1,-2.6827297E-1,1.1095928E0,1.3697639E0,1.28E1,-9.612617E-1,6.0480475E-2,-5.2317355E-2,6.363484E-2,-4.4732127E-2,4.5805074E-2,1.735128E-1,-2.2290941E-2,3.995582E-2,-1.30046485E-2,8.9747004E-2],"split_indices":[5,0,0,6,6,3,1,7,7,0,0,0,0,0,0,0,0],"split_type":[1,0,0,0,0,0,0,0,0,0,0,0,0,0,0,0,0],"sum_hessian":[3.66E2,3.63E2,3E0,3.3E1,3.3E2,2.3E1,1E1,2.97E2,3.3E1,2.1E1,2E0,3E0,7E0,2.42E2,5.5E1,7E0,2.6E1],"tree_param":{"num_deleted":"0","num_feature":"8","num_nodes":"17","size_leaf_vector":"1"}},{"base_weights":[-5.8436222E-2,-1.2110635E0,1.4083102E-1,-2.370666E0,-6.1507607E-1,4.3213166E-2,2.517881E0,-4.7693253E-1,-2.843866E0,-1.0201246E0,3.8129345E-1,2.1848857E0,-4.7914144E-2,3.837433E-1,2.8710203E0,1.262668E-2,-5.2371055E-2,-3.0582396E-2,-1.5701173E-1,-2.8737351E-2,-1.0308625E-1,9.878621E-2,-1.848542E-2,1.2400628E-3,1.1814131E-1,-6.4753555E-2,6.1584995E-3,2.9757215E-2,-9.7646716E-4,1.8739182E-1,7.578503E-2],"categories":[0,1,1,1,0],"categories_nodes":[3,5,10,14],"categories_segments":[0,2,3,4],"categories_sizes":[2,1,1,1],"default_left":[0,0,0,1,0,1,1,0,0,0,1,0,0,0,1,0,0,0,0,0,0,0,0,0,0,0,0,0,0,0,0],"id":53,"left_children":[1,3,5,7,9,11,13,15,17,19,21,23,25,27,29,-1,-1,-1,-1,-1,-1,-1,-1,-1,-1,-1,-1,-1,-1,-1,-1],"loss_changes":[8.882737E1,3.793506E1,7.646523E1,1.5669846E1,1.6128508E1,6.216711E1,8.695686E0,2.3452697E0,8.002663E0,1.180438E1,1.5099486E1,4.938156E0,6.545035E1,2.6737943E-1,7.3914337E0,0E0,0E0,0E0,0E0,0E0,0E0,0E0,0E0,0E0,0E0,0E0,0E0,0E0,0E0,0E0,0E0],"parents":[2147483647,0,0,1,1,2,2,3,3,4,4,5,5,6,6,7,7,8,8,9,9,10,10,11,11,12,12,13,13,14,14],"right_children":[2,4,6,8,10,12,14,16,18,20,22,24,26,28,30,-1,-1,-1,-1,-1,-1,-1,-1,-1,-1,-1,-1,-1,-1,-1,-1],"split_conditions":[6.7E-1,1.2E1,3.4202015E-1,NaN,1.3781868E-1,NaN,1.19E1,5.8778524E-1,-1.1736789E-1,7.5E1,NaN,4.255E1,-4.3412045E-2,6.7E1,NaN,1.262668E-2,-5.2371055E-2,-3.0582396E-2,-1.5701173E-1,-2.8737351E-2,-1.0308625E-1,9.878621E-2,-1.848542E-2,1.2400628E-3,1.1814131E-1,-6.4753555E-2,6.1584995E-3,2.9757215E-2,-9.7646716E-4,1.8739182E-1,7.578503E-2],"split_indices":[6,3,7,5,7,5,3,1,7,0,5,4,7,0,2,0,0,0,0,0,0,0,0,0,0,0,0,0,0,0,0],"split_type":[0,0,0,1,0,1,0,0,0,0,1,0,0,0,1,0,0,0,0,0,0,0,0,0,0,0,0,0,0,0,0],"sum_hessian":[3.85E2,5.6E1,3.29E2,1.8E1,3.8E1,3.17E2,1.2E1,4E0,1.4E1,2.7E1,1.1E1,1.2E1,3.05E2,2E0,1E1,2E0,2E0,2E0,1.2E1,2E1,7E0,3E0,8E0,1E0,1.1E1,3.6E1,2.69E2,1E0,1E0,5E0,5E0],"tree_param":{"num_deleted":"0","num_feature":"8","num_nodes":"31","size_leaf_vector":"1"}},{"base_weights":[2.2193946E-2,7.654285E-2,-2.5392818E-1,5.7936764E-1,-3.7107792E-1,-1.8997324E0,6.9262314E-1,1.3575734E0,-5.826467E-1,-1.01674214E-1,-2.4086714E-2,2.7705017E-2,1.235166E-1,-2.2754418E-2,1.4530244E-1,-6.128199E-2,-6.197035E-3],"categories":[0,1],"categories_nodes":[0,4],"categories_segments":[0,1],"categories_sizes":[1,1],"default_left":[1,0,0,0,1,0,0,0,0,0,0,0,0,0,0,0,0],"id":54,"left_children":[1,3,-1,5,7,9,11,13,15,-1,-1,-1,-1,-1,-1,-1,-1],"loss_changes":[1.051781E2,8.461805E1,0E0,5.1012386E1,7.357099E1,5.376797E-1,4.049424E1,6.3073475E1,5.234827E1,0E0,0E0,0E0,0E0,0E0,0E0,0E0,0E0],"parents":[2147483647,0,0,1,1,3,3,4,4,5,5,6,6,7,7,8,8],"right_children":[2,4,-1,6,8,10,12,14,16,-1,-1,-1,-1,-1,-1,-1,-1],"split_conditions":[NaN,7E1,-2.5392818E-1,-2.2838636E-1,NaN,-2.4984771E-1,3.4202015E-1,6.6728264E-1,8.393031E-1,-1.01674214E-1,-2.4086714E-2,2.7705017E-2,1.235166E-1,-2.2754418E-2,1.4530244E-1,-6.128199E-2,-6.197035E-3],"split_indices":[5,0,0,7,5,7,7,6,6,0,0,0,0,0,0,0,0],"split_type":[1,0,0,0,1,0,0,0,0,0,0,0,0,0,0,0,0],"sum_hessian":[3.77E2,3.74E2,3E0,1.76E2,1.98E2,7E0,1.69E2,2.1E1,1.77E2,6E0,1E0,1.58E2,1.1E1,1E1,1.1E1,7.3E1,1.04E2],"tree_param":{"num_deleted":"0","num_feature":"8","num_nodes":"17","size_leaf_vector":"1"}},{"base_weights":[-5.9451405E-2,-7.6795477E-1,3.3017835E-1,9.9478596E-1,-9.6720827E-1,1.7128368E-1,2.085345E0,9.227427E-2,3.171213E-1,-1.2329159E0,-9.0921536E-2,2.0704849E0,8.173556E-2,2.8638446E0,1.3276917E0,-7.2147846E-3,2.8593956E-2,-1.16995715E-1,-4.5636974E-2,-6.462721E-2,7.651993E-3,-2.4234771E-3,1.1556549E-1,4.3827374E-2,-8.616275E-3,1.5564549E-1,2.1783067E-2,-9.693146E-3,8.256944E-2],"categories":[0,1,3,0],"categories_nodes":[5,6],"categories_segments":[0,3],"categories_sizes":[3,1],"default_left":[0,0,0,0,0,1,1,0,0,0,0,0,0,0,0,0,0,0,0,0,0,0,0,0,0,0,0,0,0],"id":55,"left_children":[1,3,5,7,9,11,13,-1,15,17,19,21,23,25,27,-1,-1,-1,-1,-1,-1,-1,-1,-1,-1,-1,-1,-1,-1],"loss_changes":[1.0349776E2,4.767605E1,6.7133385E1,7.4856005E0,2.7828232E1,3.775635E1,7.9943542E0,0E0,1.140466E0,3.047226E1,8.699148E0,5.2149963E0,4.336424E1,4.0868073E0,6.230419E0,0E0,0E0,0E0,0E0,0E0,0E0,0E0,0E0,0E0,0E0,0E0,0E0,0E0,0E0],"parents":[2147483647,0,0,1,1,2,2,3,3,4,4,5,5,6,6,8,8,9,9,10,10,11,11,12,12,13,13,14,14],"right_children":[2,4,6,8,10,12,14,-1,16,18,20,22,24,26,28,-1,-1,-1,-1,-1,-1,-1,-1,-1,-1,-1,-1,-1,-1],"split_conditions":[7.784276E-1,5.9E1,2.0225425E-1,5.2E1,6.0480475E-2,NaN,NaN,9.227427E-2,4.32E1,5.9848887E-1,3.4E-1,-4.1451877E-1,6.5E1,1.3E1,7.9774576E-1,-7.2147846E-3,2.8593956E-2,-1.16995715E-1,-4.5636974E-2,-6.462721E-2,7.651993E-3,-2.4234771E-3,1.1556549E-1,4.3827374E-2,-8.616275E-3,1.5564549E-1,2.1783067E-2,-9.693146E-3,8.256944E-2],"split_indices":[6,0,7,0,7,5,2,0,4,6,6,7,0,3,6,0,0,0,0,0,0,0,0,0,0,0,0,0,0],"split_type":[0,0,0,0,0,1,1,0,0,0,0,0,0,0,0,0,0,0,0,0,0,0,0,0,0,0,0,0,0],"sum_hessian":[3.73E2,1.32E2,2.41E2,1.3E1,1.19E2,2.22E2,1.9E1,5E0,8E0,9.1E1,2.8E1,9E0,2.13E2,8E0,1.1E1,3E0,5E0,1.9E1,7.2E1,4E0,2.4E1,1E0,8E0,5.1E1,1.62E2,7E0,1E0,2E0,9E0],"tree_param":{"num_deleted":"0","num_feature":"8","num_nodes":"29","size_leaf_vector":"1"}},{"base_weights":[4.666511E-3,-4.6076903E-1,5.7499987E-1,1.8196985E0,-5.94624E-1,-8.663811E-1,7.3762715E-1,5.970669E-3,9.8170705E-2,-2.9584703E0,-4.940807E-1,-8.381667E-2,-4.2591226E-1,4.524888E-1,1.6111492E0,-6.550581E-2,-2.1396478E-1,6.451766E-2,-3.308642E-2,3.9504815E-2,-2.9654384E-2,4.801813E-2,7.894017E-4,1.1481594E-1,5.5789348E-2],"categories":[1,1],"categories_nodes":[10,12],"categories_segments":[0,1],"categories_sizes":[1,1],"default_left":[0,0,0,0,0,0,0,0,0,0,1,0,1,0,0,0,0,0,0,0,0,0,0,0,0],"id":56,"left_children":[1,3,5,7,9,11,13,-1,-1,15,17,-1,19,21,23,-1,-1,-1,-1,-1,-1,-1,-1,-1,-1],"loss_changes":[1.0219905E2,6.579542E1,4.1191628E1,2.6978302E0,4.6309723E1,5.7076883E0,3.8126617E1,0E0,0E0,1.1811127E1,5.889018E1,0E0,3.1113238E0,2.6377712E1,1.0335274E1,0E0,0E0,0E0,0E0,0E0,0E0,0E0,0E0,0E0,0E0],"parents":[2147483647,0,0,1,1,2,2,3,3,4,4,5,5,6,6,9,9,10,10,12,12,13,13,14,14],"right_children":[2,4,6,8,10,12,14,-1,-1,16,18,-1,20,22,24,-1,-1,-1,-1,-1,-1,-1,-1,-1,-1],"split_conditions":[9.1317594E-1,5.2E1,-2.0725939E-1,-9.945219E-1,2.7379805E-1,-3.8302222E-1,1.2808144E0,5.970669E-3,9.8170705E-2,9.702957E-1,NaN,-8.381667E-2,NaN,-6.691306E-1,7E1,-6.550581E-2,-2.1396478E-1,6.451766E-2,-3.308642E-2,3.9504815E-2,-2.9654384E-2,4.801813E-2,7.894017E-4,1.1481594E-1,5.5789348E-2],"split_indices":[6,0,7,1,6,7,6,0,0,1,5,0,5,1,0,0,0,0,0,0,0,0,0,0,0],"split_type":[0,0,0,0,0,0,0,0,0,0,1,0,1,0,0,0,0,0,0,0,0,0,0,0,0],"sum_hessian":[3.83E2,2.11E2,1.72E2,1.1E1,2E2,1.7E1,1.55E2,1E0,1E1,7E0,1.93E2,5E0,1.2E1,1.18E2,3.7E1,4E0,3E0,1.6E1,1.77E2,1E0,1.1E1,5.4E1,6.4E1,1.4E1,2.3E1],"tree_param":{"num_deleted":"0","num_feature":"8","num_nodes":"25","size_leaf_vector":"1"}},{"base_weights":[-8.086844E-3,8.246615E-1,-2.815878E-1,1.901185E0,5.291253E-1,-7.82091E-1,1.7568657E-1,1.721432E-1,1.1046665E0,2.5429922E-1,1.7568512E0,4.8481503E-1,-1.0013413E0,2.7670865E0,4.2965654E-2,-1.4969952E-2,6.8181366E-2,-4.5958202E-2,1.888449E-2,1.2039999E-1,5.244417E-2,-5.100426E-2,7.865445E-2,-1.20339625E-1,-3.622524E-2,6.749665E-2,2.1033238E-1,-4.3781265E-3,7.104042E-2],"categories":[0,1,0,1,3],"categories_nodes":[5,6],"categories_segments":[0,2],"categories_sizes":[2,3],"default_left":[0,0,0,0,0,1,1,0,0,0,0,0,0,0,0,0,0,0,0,0,0,0,0,0,0,0,0,0,0],"id":57,"left_children":[1,3,5,7,9,11,13,-1,15,17,19,21,23,25,27,-1,-1,-1,-1,-1,-1,-1,-1,-1,-1,-1,-1,-1,-1],"loss_changes":[8.290817E1,2.762769E1,6.2847046E1,1.9528328E1,2.384683E1,3.687327E1,4.940746E1,0E0,5.498638E0,9.034816E0,3.467186E0,3.435956E1,4.1833244E1,8.601856E0,2.4943338E1,0E0,0E0,0E0,0E0,0E0,0E0,0E0,0E0,0E0,0E0,0E0,0E0,0E0,0E0],"parents":[2147483647,0,0,1,1,2,2,3,3,4,4,5,5,6,6,8,8,9,9,10,10,11,11,12,12,13,13,14,14],"right_children":[2,4,6,8,10,12,14,-1,16,18,20,22,24,26,28,-1,-1,-1,-1,-1,-1,-1,-1,-1,-1,-1,-1,-1,-1],"split_conditions":[6.5E1,5.4E1,8.9341205E-1,4.161E1,1.1501523E0,NaN,NaN,1.721432E-1,4.7E1,-1.0395584E-1,-9.396926E-1,3.5E-1,6.397982E-1,-1.3023613E-1,1.0959279E-1,-1.4969952E-2,6.8181366E-2,-4.5958202E-2,1.888449E-2,1.2039999E-1,5.244417E-2,-5.100426E-2,7.865445E-2,-1.20339625E-1,-3.622524E-2,6.749665E-2,2.1033238E-1,-4.3781265E-3,7.104042E-2],"split_indices":[0,0,6,4,6,5,5,0,0,7,1,6,6,7,7,0,0,0,0,0,0,0,0,0,0,0,0,0,0],"split_type":[0,0,0,0,0,1,1,0,0,0,0,0,0,0,0,0,0,0,0,0,0,0,0,0,0,0,0,0,0],"sum_hessian":[3.62E2,8.9E1,2.73E2,1.8E1,7.1E1,1.3E2,1.43E2,5E0,1.3E1,5.9E1,1.2E1,1.9E1,1.11E2,6E0,1.37E2,2E0,1.1E1,5E0,5.4E1,5E0,7E0,8E0,1.1E1,1.7E1,9.4E1,4E0,2E0,1.26E2,1.1E1],"tree_param":{"num_deleted":"0","num_feature":"8","num_nodes":"29","size_leaf_vector":"1"}},{"base_weights":[-3.9114255E-2,-1.8563996E-1,1.2925547E0,-1.1552371E0,4.124148E-3,2.0626273E0,3.6510998E-1,-1.5182862E0,1.6427586E-2,-2.4223323E0,9.299023E-2,-8.662033E-2,2.3062449E0,-2.2142737E-1,1.9343926E0,-1.0913148E-1,-4.37292E-2,1.4169678E-2,-8.635326E-2,-2.9518366E-2,-1.2801437E-1,-3.463021E-3,4.5829963E-2,4.1668895E-3,-1.0663414E-2,1.418555E-1,7.300727E-2,4.2520642E-2,-2.9552886E-2,-7.2642327E-3,1.2453165E-1],"categories":[0,1],"categories_nodes":[12,13],"categories_segments":[0,1],"categories_sizes":[1,1],"default_left":[0,0,0,0,0,0,0,0,0,0,0,0,1,1,0,0,0,0,0,0,0,0,0,0,0,0,0,0,0,0,0],"id":58,"left_children":[1,3,5,7,9,11,13,15,17,19,21,23,25,27,29,-1,-1,-1,-1,-1,-1,-1,-1,-1,-1,-1,-1,-1,-1,-1,-1],"loss_changes":[7.282598E1,6.182699E1,2.567231E1,2.3420403E1,6.1032818E1,1.0671646E1,1.6996296E1,1.6051949E1,