{"learner":{"attributes":{},"feature_names":["Age","Steep_axis_term","Eye","WTW_IOLMaster","MeanK_IOLMaster","Treated_astig","Treatment_astigmatism","Type"],"feature_types":["int","float","c","float","float","float","float","c"],"gradient_booster":{"model":{"gbtree_model_param":{"num_parallel_tree":"1","num_trees":"84"},"iteration_indptr":[0,1,2,3,4,5,6,7,8,9,10,11,12,13,14,15,16,17,18,19,20,21,22,23,24,25,26,27,28,29,30,31,32,33,34,35,36,37,38,39,40,41,42,43,44,45,46,47,48,49,50,51,52,53,54,55,56,57,58,59,60,61,62,63,64,65,66,67,68,69,70,71,72,73,74,75,76,77,78,79,80,81,82,83,84],"tree_info":[0,0,0,0,0,0,0,0,0,0,0,0,0,0,0,0,0,0,0,0,0,0,0,0,0,0,0,0,0,0,0,0,0,0,0,0,0,0,0,0,0,0,0,0,0,0,0,0,0,0,0,0,0,0,0,0,0,0,0,0,0,0,0,0,0,0,0,0,0,0,0,0,0,0,0,0,0,0,0,0,0,0,0,0],"trees":[{"base_weights":[-1.0176775E0,-1.1672677E1,8.753113E0,-7.1294266E-1,-6.174146E0,4.180966E0,1.9765385E1,2.0940145E-2,-3.767308E-1,7.8690467E0,-1.1242676E-1,1.1149839E0,3.2094014E-1,1.2512818E-1,4.8826918E-1,-9.049149E-2,5.873394E-2],"categories":[],"categories_nodes":[],"categories_segments":[],"categories_sizes":[],"default_left":[0,0,0,0,0,0,0,0,0,0,0,0,0,0,0,0,0],"id":0,"left_children":[1,3,5,-1,7,9,11,-1,-1,13,15,-1,-1,-1,-1,-1,-1],"loss_changes":[6.9732847E3,3.6700928E2,1.6796018E3,0E0,1.1078964E2,4.1257858E2,1.9510474E2,0E0,0E0,1.1803479E2,3.0527548E1,0E0,0E0,0E0,0E0,0E0,0E0],"parents":[2147483647,0,0,1,1,2,2,4,4,5,5,6,6,9,9,10,10],"right_children":[2,4,6,-1,8,10,12,-1,-1,14,16,-1,-1,-1,-1,-1,-1],"split_conditions":[6.3E-1,5.2E-1,9E-1,-7.1294266E-1,6.6E1,-1.04528464E-1,-5.8778524E-1,2.0940145E-2,-3.767308E-1,6.866317E-1,7.7E-1,1.1149839E0,3.2094014E-1,1.2512818E-1,4.8826918E-1,-9.049149E-2,5.873394E-2],"split_indices":[6,6,6,0,0,1,1,0,0,5,6,0,0,0,0,0,0],"split_type":[0,0,0,0,0,0,0,0,0,0,0,0,0,0,0,0,0],"sum_hessian":[6.5E1,3.1E1,3.4E1,2E1,1.1E1,2.5E1,9E0,2E0,9E0,1.3E1,1.2E1,7E0,2E0,4E0,9E0,5E0,7E0],"tree_param":{"num_deleted":"0","num_feature":"8","num_nodes":"17","size_leaf_vector":"1"}},{"base_weights":[-8.415755E-1,-1.0781281E1,8.503199E0,-1.4367674E1,-6.237045E0,3.230747E0,1.9779516E1,-8.196484E-1,-4.7109365E-1,2.0242183E-2,-7.2900157E0,6.688926E0,5.607664E-2,2.398191E1,3.7402233E-1,-3.8030532E-1,-8.742314E-2,5.4294776E-2,5.588568E-1,-7.634158E-2,8.154869E-2,5.171074E-1,1.3684692E0],"categories":[],"categories_nodes":[],"categories_segments":[],"categories_sizes":[],"default_left":[0,0,0,0,0,0,0,0,0,0,0,0,0,0,0,0,0,0,0,0,0,0,0],"id":1,"left_children":[1,3,5,7,9,11,13,-1,-1,-1,15,17,19,21,-1,-1,-1,-1,-1,-1,-1,-1,-1],"loss_changes":[5.757618E3,3.9931055E2,1.8386201E3,5.8146973E0,1.07857056E2,2.5213225E2,3.3745996E2,0E0,0E0,0E0,9.47229E0,2.6448608E2,3.489815E1,4.037256E1,0E0,0E0,0E0,0E0,0E0,0E0,0E0,0E0,0E0],"parents":[2147483647,0,0,1,1,2,2,3,3,4,4,5,5,6,6,10,10,11,11,12,12,13,13],"right_children":[2,4,6,8,10,12,14,-1,-1,-1,16,18,20,22,-1,-1,-1,-1,-1,-1,-1,-1,-1],"split_conditions":[6.5E-1,5E-1,9E-1,3.5E-1,6.6E1,-1.04528464E-1,-2.419219E-1,-8.196484E-1,-4.7109365E-1,2.0242183E-2,6.3E-1,6.7E-1,7.7E-1,1.02E0,3.7402233E-1,-3.8030532E-1,-8.742314E-2,5.4294776E-2,5.588568E-1,-7.634158E-2,8.154869E-2,5.171074E-1,1.3684692E0],"split_indices":[6,6,6,5,0,1,1,0,0,0,6,6,6,6,0,0,0,0,0,0,0,0,0],"split_type":[0,0,0,0,0,0,0,0,0,0,0,0,0,0,0,0,0,0,0,0,0,0,0],"sum_hessian":[6E1,2.9E1,3.1E1,1.5E1,1.4E1,2.2E1,9E0,9E0,6E0,2E0,1.2E1,1E1,1.2E1,6E0,3E0,1.1E1,1E0,5E0,5E0,6E0,6E0,2E0,4E0],"tree_param":{"num_deleted":"0","num_feature":"8","num_nodes":"23","size_leaf_vector":"1"}},{"base_weights":[4.330957E-2,-6.617143E0,1.6166336E1,-1.2360041E1,2.0965558E-1,2.141094E1,4.1168814E0,-7.332281E-1,-4.3207145E-1,2.5343938E0,-3.429899E0,4.8882967E-1,1.1961793E0,1.9903381E0,3.144413E-1,2.951367E-1,5.3957175E-2,-2.6055342E-1,-8.354016E-2,1.2198067E-2,1.182971E-1],"categories":[],"categories_nodes":[],"categories_segments":[],"categories_sizes":[],"default_left":[0,0,0,0,0,0,0,0,0,0,0,0,0,0,0,0,0,0,0,0,0],"id":2,"left_children":[1,3,5,7,9,11,13,-1,-1,15,17,-1,-1,19,-1,-1,-1,-1,-1,-1,-1],"loss_changes":[6.9797207E3,1.8060491E3,1.1125522E3,8.751782E1,1.9483498E2,1.461377E2,1.9814255E1,0E0,0E0,6.225499E1,1.9492561E1,0E0,0E0,2.70253E0,0E0,0E0,0E0,0E0,0E0,0E0,0E0],"parents":[2147483647,0,0,1,1,2,2,3,3,4,4,5,5,6,6,9,9,10,10,13,13],"right_children":[2,4,6,8,10,12,14,-1,-1,16,18,-1,-1,20,-1,-1,-1,-1,-1,-1,-1],"split_conditions":[7.7E-1,5.6E-1,-2.419219E-1,4.4E-1,6.691306E-1,8.6E-1,1.02E0,-7.332281E-1,-4.3207145E-1,1.2E1,6.3E-1,4.8882967E-1,1.1961793E0,7.193398E-1,3.144413E-1,2.951367E-1,5.3957175E-2,-2.6055342E-1,-8.354016E-2,1.2198067E-2,1.182971E-1],"split_indices":[6,6,1,6,1,6,5,0,0,3,6,0,0,1,0,0,0,0,0,0,0],"split_type":[0,0,0,0,0,0,0,0,0,0,0,0,0,0,0,0,0,0,0,0,0],"sum_hessian":[6.3E1,4.5E1,1.8E1,2.4E1,2.1E1,1.2E1,6E0,1.3E1,1.1E1,1.3E1,8E0,3E0,9E0,4E0,2E0,3E0,1E1,3E0,5E0,1E0,3E0],"tree_param":{"num_deleted":"0","num_feature":"8","num_nodes":"21","size_leaf_vector":"1"}},{"base_weights":[-1.057329E-1,-1.0589319E1,8.230085E0,-7.256383E-1,-7.347523E0,4.226829E0,1.8035934E1,1.3326645E-2,-7.7853336E0,7.1950803E0,2.012869E-2,1.0646422E0,3.5065672E-1,-4.0126872E-1,-9.2615984E-2,6.873706E-2,5.122417E-1,-7.047166E-2,7.234075E-2],"categories":[],"categories_nodes":[],"categories_segments":[],"categories_sizes":[],"default_left":[0,0,0,0,0,0,0,0,0,0,0,0,0,0,0,0,0,0,0],"id":3,"left_children":[1,3,5,-1,7,9,11,-1,13,15,17,-1,-1,-1,-1,-1,-1,-1,-1],"loss_changes":[6.11701E3,2.876565E2,1.4547227E3,0E0,6.541174E1,3.619649E2,2.4557324E2,0E0,1.0769531E1,2.8767627E2,2.855316E1,0E0,0E0,0E0,0E0,0E0,0E0,0E0,0E0],"parents":[2147483647,0,0,1,1,2,2,4,4,5,5,6,6,8,8,9,9,10,10],"right_children":[2,4,6,-1,8,10,12,-1,14,16,18,-1,-1,-1,-1,-1,-1,-1,-1],"split_conditions":[6.5E-1,4.4E-1,9E-1,-7.256383E-1,-9.702957E-1,-1.04528464E-1,-5.8778524E-1,1.3326645E-2,6.3E-1,7E-1,7.7E-1,1.0646422E0,3.5065672E-1,-4.0126872E-1,-9.2615984E-2,6.873706E-2,5.122417E-1,-7.047166E-2,7.234075E-2],"split_indices":[6,6,6,0,1,1,1,0,6,6,6,0,0,0,0,0,0,0,0],"split_type":[0,0,0,0,0,0,0,0,0,0,0,0,0,0,0,0,0,0,0],"sum_hessian":[6.8E1,3E1,3.8E1,1.2E1,1.8E1,2.8E1,1E1,1E0,1.7E1,1.6E1,1.2E1,7E0,3E0,1.6E1,1E0,6E0,1E1,6E0,6E0],"tree_param":{"num_deleted":"0","num_feature":"8","num_nodes":"19","size_leaf_vector":"1"}},{"base_weights":[1.4856297E-1,-1.00654955E1,8.656152E0,-1.21317835E1,-3.8961802E0,4.293788E0,2.1266155E1,-7.5023717E-1,-4.7091624E-1,2.4234517E-2,-2.6085493E-1,6.7923717E0,3.9631143E-1,1.2261641E0,3.2887372E-1,1.4230919E-1,5.4380304E-1,-1.5208721E-2,7.189133E-2],"categories":[],"categories_nodes":[],"categories_segments":[],"categories_sizes":[],"default_left":[0,0,0,0,0,0,0,0,0,0,0,0,0,0,0,0,0,0,0],"id":4,"left_children":[1,3,5,7,9,11,13,-1,-1,-1,-1,15,17,-1,-1,-1,-1,-1,-1],"loss_changes":[5.7354336E3,3.3516016E2,1.8890269E3,3.018457E1,5.4609634E1,2.6997693E2,2.692849E2,0E0,0E0,0E0,0E0,2.4299976E2,9.192148E0,0E0,0E0,0E0,0E0,0E0,0E0],"parents":[2147483647,0,0,1,1,2,2,3,3,4,4,5,5,6,6,11,11,12,12],"right_children":[2,4,6,8,10,12,14,-1,-1,-1,-1,16,18,-1,-1,-1,-1,-1,-1],"split_conditions":[6.5E-1,5.4E-1,9E-1,3.5E-1,6.6E1,-1.04528464E-1,-2.419219E-1,-7.5023717E-1,-4.7091624E-1,2.4234517E-2,-2.6085493E-1,7.7E-1,9.2718387E-1,1.2261641E0,3.2887372E-1,1.4230919E-1,5.4380304E-1,-1.5208721E-2,7.189133E-2],"split_indices":[6,6,6,6,0,1,1,0,0,0,0,6,1,0,0,0,0,0,0],"split_type":[0,0,0,0,0,0,0,0,0,0,0,0,0,0,0,0,0,0,0],"sum_hessian":[6.4E1,2.9E1,3.5E1,2.1E1,8E0,2.7E1,8E0,8E0,1.3E1,2E0,6E0,1.6E1,1.1E1,6E0,2E0,9E0,7E0,7E0,4E0],"tree_param":{"num_deleted":"0","num_feature":"8","num_nodes":"19","size_leaf_vector":"1"}},{"base_weights":[-1.0162934E0,-9.941807E0,7.662057E0,-1.105077E1,-1.9650444E0,3.2957008E0,1.5698218E1,-7.183545E-1,-4.297219E-1,2.2752477E-2,-1.3419151E-1,6.6747007E0,4.4295472E-1,1.8333307E1,3.251743E-1,5.919447E-2,4.429389E-1,7.73997E-2,5.0655887E-3,9.7969526E-1,2.3772812E-1],"categories":[],"categories_nodes":[],"categories_segments":[],"categories_sizes":[],"default_left":[0,0,0,0,0,0,0,0,0,0,0,0,0,0,0,0,0,0,0,0,0],"id":5,"left_children":[1,3,5,7,9,11,13,-1,-1,-1,-1,15,17,19,-1,-1,-1,-1,-1,-1,-1],"loss_changes":[4.878616E3,2.5250854E2,1.071103E3,9.64646E1,9.918922E0,2.0911082E2,1.4728809E2,0E0,0E0,0E0,0E0,1.0943576E2,4.7510457E0,4.3778076E1,0E0,0E0,0E0,0E0,0E0,0E0,0E0],"parents":[2147483647,0,0,1,1,2,2,3,3,4,4,5,5,6,6,11,11,12,12,13,13],"right_children":[2,4,6,8,10,12,14,-1,-1,-1,-1,16,18,20,-1,-1,-1,-1,-1,-1,-1],"split_conditions":[6.5E-1,5.863354E-1,9E-1,3.5E-1,6E1,-2.7563736E-1,-2.419219E-1,-7.183545E-1,-4.297219E-1,2.2752477E-2,-1.3419151E-1,-9.848077E-1,4.4E-1,1.28E1,3.251743E-1,5.919447E-2,4.429389E-1,7.73997E-2,5.0655887E-3,9.7969526E-1,2.3772812E-1],"split_indices":[6,5,6,6,0,1,1,0,0,0,0,1,5,3,0,0,0,0,0,0,0],"split_type":[0,0,0,0,0,0,0,0,0,0,0,0,0,0,0,0,0,0,0,0,0],"sum_hessian":[6.1E1,3E1,3.1E1,2.6E1,4E0,2.1E1,1E1,9E0,1.7E1,1E0,3E0,9E0,1.2E1,7E0,3E0,3E0,6E0,2E0,1E1,6E0,1E0],"tree_param":{"num_deleted":"0","num_feature":"8","num_nodes":"21","size_leaf_vector":"1"}},{"base_weights":[5.9272563E-1,-5.092607E0,1.3070822E1,-9.795827E0,5.250064E-1,1.6559006E1,4.2271943E0,-5.888133E-1,-3.4170166E-1,-2.3106475E0,1.3281395E0,1.0973976E0,4.8869014E-1,1.1379833E0,3.1298032E-1,-4.4576647E-3,-1.4218664E-1,1.2443711E-1,-1.4431548E-2,9.067752E-2,-2.2217942E-2],"categories":[],"categories_nodes":[],"categories_segments":[],"categories_sizes":[],"default_left":[0,0,0,0,0,0,0,0,0,0,0,0,0,0,0,0,0,0,0,0,0],"id":6,"left_children":[1,3,5,7,9,11,13,-1,-1,15,17,-1,-1,19,-1,-1,-1,-1,-1,-1,-1],"loss_changes":[4.5359185E3,1.1676611E3,5.4696606E2,6.0296387E1,5.089443E1,2.9739648E2,3.6826515E1,0E0,0E0,5.6677017E0,3.2617607E1,0E0,0E0,5.0817804E0,0E0,0E0,0E0,0E0,0E0,0E0,0E0],"parents":[2147483647,0,0,1,1,2,2,3,3,4,4,5,5,6,6,9,9,10,10,13,13],"right_children":[2,4,6,8,10,12,14,-1,-1,16,18,-1,-1,20,-1,-1,-1,-1,-1,-1,-1],"split_conditions":[7.9E-1,5.9E-1,-2.419219E-1,4.4E-1,4.29E1,1.2E1,8.9E-1,-5.888133E-1,-3.4170166E-1,6.9E1,-2.0791169E-1,1.0973976E0,4.8869014E-1,7.6E1,3.1298032E-1,-4.4576647E-3,-1.4218664E-1,1.2443711E-1,-1.4431548E-2,9.067752E-2,-2.2217942E-2],"split_indices":[6,6,1,6,4,3,6,0,0,0,1,0,0,0,0,0,0,0,0,0,0],"split_type":[0,0,0,0,0,0,0,0,0,0,0,0,0,0,0,0,0,0,0,0,0],"sum_hessian":[6.2E1,4.3E1,1.9E1,2.3E1,2E1,1.3E1,6E0,1.2E1,1.1E1,4E0,1.6E1,6E0,7E0,3E0,3E0,1E0,3E0,9E0,7E0,2E0,1E0],"tree_param":{"num_deleted":"0","num_feature":"8","num_nodes":"21","size_leaf_vector":"1"}},{"base_weights":[-6.712898E-1,-8.991017E0,5.9039893E0,-9.899912E0,-1.5171213E0,2.401606E0,1.371931E1,-7.0512223E-1,-3.974536E-1,1.907282E-2,-1.13856636E-1,4.8047853E0,-1.4519325E-3,1.5299341E1,2.4663952E-1,-3.1255342E-2,3.3421028E-1,-1.0207782E-1,4.0736753E-2,8.115144E-1,2.1956769E-1],"categories":[],"categories_nodes":[],"categories_segments":[],"categories_sizes":[],"default_left":[0,0,0,0,0,0,0,0,0,0,0,0,0,0,0,0,0,0,0,0,0],"id":7,"left_children":[1,3,5,7,9,11,13,-1,-1,-1,-1,15,17,19,-1,-1,-1,-1,-1,-1,-1],"loss_changes":[3.2259456E3,1.615979E2,8.703358E2,7.6463135E1,6.6403885E0,1.3860648E2,6.336133E1,0E0,0E0,0E0,0E0,1.2663895E2,2.3309715E1,9.96521E0,0E0,0E0,0E0,0E0,0E0,0E0,0E0],"parents":[2147483647,0,0,1,1,2,2,3,3,4,4,5,5,6,6,11,11,12,12,13,13],"right_children":[2,4,6,8,10,12,14,-1,-1,-1,-1,16,18,20,-1,-1,-1,-1,-1,-1,-1],"split_conditions":[6.3E-1,5.863354E-1,8.9E-1,3.4E-1,6E1,-1.04528464E-1,-8.09017E-1,-7.0512223E-1,-3.974536E-1,1.907282E-2,-1.13856636E-1,6.602361E-1,7.1E-1,1.28E1,2.4663952E-1,-3.1255342E-2,3.3421028E-1,-1.0207782E-1,4.0736753E-2,8.115144E-1,2.1956769E-1],"split_indices":[6,5,6,6,0,1,1,0,0,0,0,5,6,3,0,0,0,0,0,0,0],"split_type":[0,0,0,0,0,0,0,0,0,0,0,0,0,0,0,0,0,0,0,0,0],"sum_hessian":[5.7E1,2.5E1,3.2E1,2.2E1,3E0,2.3E1,9E0,5E0,1.7E1,1E0,2E0,1.1E1,1.2E1,7E0,2E0,3E0,8E0,3E0,9E0,6E0,1E0],"tree_param":{"num_deleted":"0","num_feature":"8","num_nodes":"21","size_leaf_vector":"1"}},{"base_weights":[7.232921E-1,-5.087343E0,1.2863514E1,-9.737391E0,4.6925154E-1,1.5566591E1,3.5113895E0,-6.176287E-1,-3.8288823E-1,2.5633538E0,-2.0905964E0,5.201523E-1,1.0359644E0,4.7841325E-2,2.2747321E-1,8.515358E-4,2.1898615E-1,-2.1088009E-1,1.5170415E-3],"categories":[],"categories_nodes":[],"categories_segments":[],"categories_sizes":[],"default_left":[0,0,0,0,0,0,0,0,0,0,0,0,0,0,0,0,0,0,0],"id":8,"left_children":[1,3,5,7,9,11,13,-1,-1,15,17,-1,-1,-1,-1,-1,-1,-1,-1],"loss_changes":[4.580155E3,1.1414601E3,4.7620947E2,3.593335E1,1.1793119E2,2.1015527E2,1.1557915E1,0E0,0E0,5.5426163E1,4.5240417E1,0E0,0E0,0E0,0E0,0E0,0E0,0E0,0E0],"parents":[2147483647,0,0,1,1,2,2,3,3,4,4,5,5,6,6,9,9,10,10],"right_children":[2,4,6,8,10,12,14,-1,-1,16,18,-1,-1,-1,-1,-1,-1,-1,-1],"split_conditions":[7.8E-1,5.9E-1,-2.419219E-1,3.5E-1,-1.04528464E-1,1.02E0,8.023174E-1,-6.176287E-1,-3.8288823E-1,6.602361E-1,7.027406E-1,5.201523E-1,1.0359644E0,4.7841325E-2,2.2747321E-1,8.515358E-4,2.1898615E-1,-2.1088009E-1,1.5170415E-3],"split_indices":[6,6,1,6,1,6,5,0,0,5,5,0,0,0,0,0,0,0,0],"split_type":[0,0,0,0,0,0,0,0,0,0,0,0,0,0,0,0,0,0,0],"sum_hessian":[6.3E1,4.3E1,2E1,2.3E1,2E1,1.5E1,5E0,8E0,1.5E1,1.1E1,9E0,9E0,6E0,2E0,3E0,5E0,6E0,4E0,5E0],"tree_param":{"num_deleted":"0","num_feature":"8","num_nodes":"19","size_leaf_vector":"1"}},{"base_weights":[1.0171944E0,-5.5180464E0,1.0278222E1,-9.198661E0,-6.468138E-1,1.4773428E1,2.8053558E0,-5.450768E-1,-2.8584403E-1,6.994565E-1,-1.9212159E0,4.8777816E-1,9.915659E-1,1.000267E0,2.857097E-1,6.488552E-2,-1.02164365E-1,-1.2147293E-1,-4.745547E-3,-7.7004434E-4,8.0637395E-2],"categories":[],"categories_nodes":[],"categories_segments":[],"categories_sizes":[],"default_left":[0,0,0,0,0,0,0,0,0,0,0,0,0,0,0,0,0,0,0,0,0],"id":9,"left_children":[1,3,5,7,9,11,13,-1,-1,15,17,-1,-1,19,-1,-1,-1,-1,-1,-1,-1],"loss_changes":[3.8091445E3,6.57428E2,8.319492E2,6.218689E1,3.0510534E1,2.1261133E2,5.2042107E1,0E0,0E0,1.741931E1,8.123272E0,0E0,0E0,5.0014563E0,0E0,0E0,0E0,0E0,0E0,0E0,0E0],"parents":[2147483647,0,0,1,1,2,2,3,3,4,4,5,5,6,6,9,9,10,10,13,13],"right_children":[2,4,6,8,10,12,14,-1,-1,16,18,-1,-1,20,-1,-1,-1,-1,-1,-1,-1],"split_conditions":[7.7E-1,5.5E-1,-2.419219E-1,4.4E-1,-2.0791169E-1,9.2E-1,9E-1,-5.450768E-1,-2.8584403E-1,7.6E1,7.1E-1,4.8777816E-1,9.915659E-1,7.193398E-1,2.857097E-1,6.488552E-2,-1.02164365E-1,-1.2147293E-1,-4.745547E-3,-7.7004434E-4,8.0637395E-2],"split_indices":[6,6,1,6,1,6,6,0,0,0,6,0,0,1,0,0,0,0,0,0,0],"split_type":[0,0,0,0,0,0,0,0,0,0,0,0,0,0,0,0,0,0,0,0,0],"sum_hessian":[6.1E1,3.6E1,2.5E1,2E1,1.6E1,1.5E1,1E1,1.2E1,8E0,8E0,8E0,9E0,6E0,7E0,3E0,7E0,1E0,6E0,2E0,3E0,4E0],"tree_param":{"num_deleted":"0","num_feature":"8","num_nodes":"21","size_leaf_vector":"1"}},{"base_weights":[-3.955963E-1,-7.4231744E0,5.313132E0,-5.428442E-1,-5.4345903E0,1.0410104E0,9.305614E0,1.695261E-2,-5.740225E0,2.7417388E0,-7.638191E-1,6.000251E-1,2.9714491E0,-3.0627474E-1,-1.3338862E-1,1.9815956E-1,3.6382407E-2,-1.01530984E-1,3.4591947E-3,4.3417852E-2,2.74306E-1],"categories":[],"categories_nodes":[],"categories_segments":[],"categories_sizes":[],"default_left":[0,0,0,0,0,0,0,0,0,0,0,0,0,0,0,0,0,0,0,0,0],"id":10,"left_children":[1,3,5,-1,7,9,11,-1,13,15,17,-1,19,-1,-1,-1,-1,-1,-1,-1,-1],"loss_changes":[2.6872632E3,1.4584375E2,6.2139844E2,0E0,3.9003418E1,6.0415165E1,2.8866858E2,0E0,7.333008E0,2.1717354E1,1.0692972E1,0E0,3.2256165E1,0E0,0E0,0E0,0E0,0E0,0E0,0E0,0E0],"parents":[2147483647,0,0,1,1,2,2,4,4,5,5,6,6,8,8,9,9,10,10,12,12],"right_children":[2,4,6,-1,8,10,12,-1,14,16,18,-1,20,-1,-1,-1,-1,-1,-1,-1,-1],"split_conditions":[6.5E-1,3.5E-1,7.9E-1,-5.428442E-1,6E1,-2.0791169E-1,-2.7563736E-1,1.695261E-2,1.26E1,4.439E1,7.027406E-1,6.000251E-1,9E-1,-3.0627474E-1,-1.3338862E-1,1.9815956E-1,3.6382407E-2,-1.01530984E-1,3.4591947E-3,4.3417852E-2,2.74306E-1],"split_indices":[6,5,6,0,0,1,1,0,3,4,5,0,6,0,0,0,0,0,0,0,0],"split_type":[0,0,0,0,0,0,0,0,0,0,0,0,0,0,0,0,0,0,0,0,0],"sum_hessian":[6.5E1,2.9E1,3.6E1,9E0,2E1,1.8E1,1.8E1,1E0,1.9E1,9E0,9E0,1.2E1,6E0,1.6E1,3E0,5E0,4E0,3E0,6E0,4E0,2E0],"tree_param":{"num_deleted":"0","num_feature":"8","num_nodes":"21","size_leaf_vector":"1"}},{"base_weights":[-1.559548E-2,-4.667919E0,1.0685529E1,-8.516061E0,-8.285297E-2,1.4858755E1,2.568344E0,-5.751597E-1,-3.216846E-1,1.5869249E0,-2.2452788E0,9.8785394E-1,4.6638346E-1,-1.6209285E-1,3.5055053E0,-3.5947356E-2,1.5589817E-1,-1.5694414E-1,-6.007624E-3,1.727705E-2,-2.9434014E-2,2.255661E-1,9.373832E-2],"categories":[],"categories_nodes":[],"categories_segments":[],"categories_sizes":[],"default_left":[0,0,0,0,0,0,0,0,0,0,0,0,0,0,0,0,0,0,0,0,0,0,0],"id":11,"left_children":[1,3,5,7,9,11,13,-1,-1,15,17,-1,-1,19,21,-1,-1,-1,-1,-1,-1,-1,-1],"loss_changes":[3.28591E3,8.109176E2,6.3933496E2,8.1499756E1,8.300005E1,1.6792188E2,2.1039093E1,0E0,0E0,4.813657E1,1.8613068E1,0E0,0E0,8.530638E-1,1.383667E0,0E0,0E0,0E0,0E0,0E0,0E0,0E0,0E0],"parents":[2147483647,0,0,1,1,2,2,3,3,4,4,5,5,6,6,9,9,10,10,13,13,14,14],"right_children":[2,4,6,8,10,12,14,-1,-1,16,18,-1,-1,20,22,-1,-1,-1,-1,-1,-1,-1,-1],"split_conditions":[7.9E-1,5.5E-1,-2.419219E-1,3.5E-1,-1.04528464E-1,1.2E1,5E-1,-5.751597E-1,-3.216846E-1,6.5E-1,7.1E-1,9.8785394E-1,4.6638346E-1,7E1,9.135454E-1,-3.5947356E-2,1.5589817E-1,-1.5694414E-1,-6.007624E-3,1.727705E-2,-2.9434014E-2,2.255661E-1,9.373832E-2],"split_indices":[6,6,1,6,1,3,1,0,0,5,6,0,0,0,1,0,0,0,0,0,0,0,0],"split_type":[0,0,0,0,0,0,0,0,0,0,0,0,0,0,0,0,0,0,0,0,0,0,0],"sum_hessian":[6.4E1,4.5E1,1.9E1,2.4E1,2.1E1,1.2E1,7E0,8E0,1.6E1,1.2E1,9E0,5E0,7E0,2E0,5E0,5E0,7E0,6E0,3E0,1E0,1E0,2E0,3E0],"tree_param":{"num_deleted":"0","num_feature":"8","num_nodes":"23","size_leaf_vector":"1"}},{"base_weights":[5.893199E-1,-4.6828146E0,9.0831785E0,-7.6262665E0,-1.0637045E0,1.2741157E1,1.9562988E0,-9.638956E0,-2.9551175E-1,1.192458E0,-2.1158068E0,4.5777375E-1,9.757849E-1,8.715687E-1,2.0984066E-1,-5.1338905E-1,-1.152091E-1,8.503395E-2,-2.6031495E-3,-1.6120704E-1,-5.0335885E-3,5.8003396E-2,-2.869816E-2],"categories":[],"categories_nodes":[],"categories_segments":[],"categories_sizes":[],"default_left":[0,0,0,0,0,0,0,0,0,0,0,0,0,0,0,0,0,0,0,0,0,0,0],"id":12,"left_children":[1,3,5,7,9,11,13,15,-1,17,19,-1,-1,21,-1,-1,-1,-1,-1,-1,-1,-1,-1],"loss_changes":[3.0428462E3,4.3930048E2,6.5289355E2,2.2469727E1,4.9997288E1,2.3427759E2,2.0645725E1,1.7851746E1,0E0,4.5159855E0,3.0943615E1,0E0,0E0,4.0021152E0,0E0,0E0,0E0,0E0,0E0,0E0,0E0,0E0,0E0],"parents":[2147483647,0,0,1,1,2,2,3,3,4,4,5,5,6,6,7,7,9,9,10,10,13,13],"right_children":[2,4,6,8,10,12,14,16,-1,18,20,-1,-1,22,-1,-1,-1,-1,-1,-1,-1,-1,-1],"split_conditions":[7.7E-1,5.5E-1,-2.419219E-1,3.5E-1,-8.8294756E-1,1.05E0,9E-1,4.616E1,-2.9551175E-1,4.485E1,6.7E-1,4.5777375E-1,9.757849E-1,7.6E1,2.0984066E-1,-5.1338905E-1,-1.152091E-1,8.503395E-2,-2.6031495E-3,-1.6120704E-1,-5.0335885E-3,5.8003396E-2,-2.869816E-2],"split_indices":[6,6,1,5,1,6,6,4,0,4,6,0,0,0,0,0,0,0,0,0,0,0,0],"split_type":[0,0,0,0,0,0,0,0,0,0,0,0,0,0,0,0,0,0,0,0,0,0,0],"sum_hessian":[6.6E1,4.1E1,2.5E1,2.2E1,1.9E1,1.6E1,9E0,8E0,1.4E1,6E0,1.3E1,1.2E1,4E0,7E0,2E0,7E0,1E0,4E0,2E0,8E0,5E0,6E0,1E0],"tree_param":{"num_deleted":"0","num_feature":"8","num_nodes":"23","size_leaf_vector":"1"}},{"base_weights":[-8.055395E-1,-6.592554E0,4.4797935E0,-8.277642E0,-2.9294348E0,2.271451E0,6.1788577E-1,-5.000893E-1,-2.7766606E-1,3.9614867E-2,-1.9222598E-1,4.085107E0,4.044166E-3,2.990373E-1,1.2242857E-2,-3.4956343E-2,8.804803E-2],"categories":[],"categories_nodes":[],"categories_segments":[],"categories_sizes":[],"default_left":[0,0,0,0,0,0,0,0,0,0,0,0,0,0,0,0,0],"id":13,"left_children":[1,3,5,7,9,11,-1,-1,-1,-1,-1,13,15,-1,-1,-1,-1],"loss_changes":[1.9258838E3,1.6093152E2,5.46036E2,3.839917E1,4.0508713E1,1.1101547E2,0E0,0E0,0E0,0E0,0E0,1.0773149E2,1.72915E1,0E0,0E0,0E0,0E0],"parents":[2147483647,0,0,1,1,2,2,3,3,4,4,5,5,11,11,12,12],"right_children":[2,4,6,8,10,12,-1,-1,-1,-1,-1,14,16,-1,-1,-1,-1],"split_conditions":[6.5E-1,5.1E-1,8.9E-1,3.5E-1,6.6E1,-1.04528464E-1,6.1788577E-1,-5.000893E-1,-2.7766606E-1,3.9614867E-2,-1.9222598E-1,7.3E1,7.9E-1,2.990373E-1,1.2242857E-2,-3.4956343E-2,8.804803E-2],"split_indices":[6,6,6,5,0,1,0,0,0,0,0,0,6,0,0,0,0],"split_type":[0,0,0,0,0,0,0,0,0,0,0,0,0,0,0,0,0],"sum_hessian":[6.1E1,2.9E1,3.2E1,1.9E1,1E1,2.6E1,6E0,1E1,9E0,2E0,8E0,1.4E1,1.2E1,9E0,5E0,9E0,3E0],"tree_param":{"num_deleted":"0","num_feature":"8","num_nodes":"17","size_leaf_vector":"1"}},{"base_weights":[-5.418851E-1,-5.8912807E0,5.7171392E0,-7.934475E0,-2.2597413E0,2.7983847E0,1.2216636E1,-2.7924398E-1,-4.8881775E-1,-7.185364E-2,-3.127711E0,5.4430666E0,1.4089394E-1,8.159278E-1,2.8356946E-1,3.829435E-2,-4.428215E-2,-1.8474217E-1,4.9411964E-2,3.596455E-1,9.523365E-2,-1.5962325E-2,5.7049323E-2],"categories":[],"categories_nodes":[],"categories_segments":[],"categories_sizes":[],"default_left":[0,0,0,0,0,0,0,0,0,0,0,0,0,0,0,0,0,0,0,0,0,0,0],"id":14,"left_children":[1,3,5,7,9,11,13,-1,-1,15,17,19,21,-1,-1,-1,-1,-1,-1,-1,-1,-1,-1],"loss_changes":[2.1765293E3,2.4176794E2,5.349262E2,4.060901E1,2.636155E1,1.5385391E2,1.4908386E2,0E0,0E0,4.087024E0,2.699427E1,5.4407837E1,5.886452E0,0E0,0E0,0E0,0E0,0E0,0E0,0E0,0E0,0E0,0E0],"parents":[2147483647,0,0,1,1,2,2,3,3,4,4,5,5,6,6,9,9,10,10,11,11,12,12],"right_children":[2,4,6,8,10,12,14,-1,-1,16,18,20,22,-1,-1,-1,-1,-1,-1,-1,-1,-1,-1],"split_conditions":[6.7E-1,5.2E-1,9E-1,2.419219E-1,7.1E1,-2.7563736E-1,1.2E1,-2.7924398E-1,-4.8881775E-1,6.6E1,1.28E1,7.3E1,4.52E1,8.159278E-1,2.8356946E-1,3.829435E-2,-4.428215E-2,-1.8474217E-1,4.9411964E-2,3.596455E-1,9.523365E-2,-1.5962325E-2,5.7049323E-2],"split_indices":[6,6,6,1,0,1,3,0,0,0,3,0,4,0,0,0,0,0,0,0,0,0,0],"split_type":[0,0,0,0,0,0,0,0,0,0,0,0,0,0,0,0,0,0,0,0,0,0,0],"sum_hessian":[6.3E1,3.4E1,2.9E1,2.1E1,1.3E1,2.1E1,8E0,1.1E1,1E1,4E0,9E0,1E1,1.1E1,4E0,4E0,2E0,2E0,8E0,1E0,6E0,4E0,8E0,3E0],"tree_param":{"num_deleted":"0","num_feature":"8","num_nodes":"23","size_leaf_vector":"1"}},{"base_weights":[-2.3787238E-1,-4.9922643E0,6.426205E0,-7.2948394E0,-1.516895E0,1.0710325E1,7.6504487E-1,-1.0397264E1,-5.99937E0,1.0400093E0,-2.3217256E0,6.338288E0,8.025312E-1,-1.246802E-2,1.8100409E-1,-1.5110941E-1,-5.6339204E-1,-3.0686787E-1,-8.444033E-2,6.812617E-2,1.8541273E-2,-1.6695742E-1,-2.0431837E-2,3.0765343E-2,3.4245276E-1,-1.3594066E-1,2.4036407E-2],"categories":[],"categories_nodes":[],"categories_segments":[],"categories_sizes":[],"default_left":[0,0,0,0,0,0,0,0,0,0,0,0,0,0,0,0,0,0,0,0,0,0,0,0,0,0,0],"id":15,"left_children":[1,3,5,7,9,11,13,15,17,19,21,23,-1,25,-1,-1,-1,-1,-1,-1,-1,-1,-1,-1,-1,-1,-1],"loss_changes":[2.2816194E3,3.2503113E2,7.193988E2,3.810022E1,3.945636E1,2.9518225E2,3.1122726E1,4.4699097E0,1.531311E0,5.7384825E-1,2.5885391E1,2.7939941E1,0E0,1.7324118E1,0E0,0E0,0E0,0E0,0E0,0E0,0E0,0E0,0E0,0E0,0E0,0E0,0E0],"parents":[2147483647,0,0,1,1,2,2,3,3,4,4,5,5,6,6,7,7,8,8,9,9,10,10,11,11,13,13],"right_children":[2,4,6,8,10,12,14,16,18,20,22,24,-1,26,-1,-1,-1,-1,-1,-1,-1,-1,-1,-1,-1,-1,-1],"split_conditions":[7E-1,5.4E-1,-1.04528464E-1,3.4E-1,6.8E1,1.02E0,9E-1,7.1E1,4.616E1,-8.8294756E-1,6.5E-1,4.382E1,8.025312E-1,6.8E1,1.8100409E-1,-1.5110941E-1,-5.6339204E-1,-3.0686787E-1,-8.444033E-2,6.812617E-2,1.8541273E-2,-1.6695742E-1,-2.0431837E-2,3.0765343E-2,3.4245276E-1,-1.3594066E-1,2.4036407E-2],"split_indices":[6,6,1,6,0,6,6,0,4,1,6,4,0,0,0,0,0,0,0,0,0,0,0,0,0,0,0],"split_type":[0,0,0,0,0,0,0,0,0,0,0,0,0,0,0,0,0,0,0,0,0,0,0,0,0,0,0],"sum_hessian":[7E1,4.1E1,2.9E1,2.4E1,1.7E1,1.6E1,1.3E1,5E0,1.9E1,4E0,1.3E1,1E1,6E0,1.1E1,2E0,1E0,4E0,1.8E1,1E0,2E0,2E0,8E0,5E0,1E0,9E0,1E0,1E1],"tree_param":{"num_deleted":"0","num_feature":"8","num_nodes":"27","size_leaf_vector":"1"}},{"base_weights":[4.0362495E-1,-5.007417E0,5.474494E0,-6.1260786E0,-2.4165702E0,2.5463352E0,1.1099326E1,-2.3902087E-1,-4.067242E-1,3.557339E-2,-3.1907415E0,3.953194E0,-8.13552E-2,1.3167203E1,2.0943704E-1,-1.8677041E-1,-7.8802824E-2,1.104147E-1,3.1012475E-1,-1.3254213E-1,2.8559303E-2,2.6785958E-1,7.438838E-1],"categories":[],"categories_nodes":[],"categories_segments":[],"categories_sizes":[],"default_left":[0,0,0,0,0,0,0,0,0,0,0,0,0,0,0,0,0,0,0,0,0,0,0],"id":16,"left_children":[1,3,5,7,9,11,13,-1,-1,-1,15,17,19,21,-1,-1,-1,-1,-1,-1,-1,-1,-1],"loss_changes":[1.7560502E3,7.50426E1,5.152606E2,1.786914E1,2.8908127E1,8.534775E1,1.020387E2,0E0,0E0,0E0,2.0279694E0,4.5175156E1,1.6604395E1,2.7167847E1,0E0,0E0,0E0,0E0,0E0,0E0,0E0,0E0,0E0],"parents":[2147483647,0,0,1,1,2,2,3,3,4,4,5,5,6,6,10,10,11,11,12,12,13,13],"right_children":[2,4,6,8,10,12,14,-1,-1,-1,16,18,20,22,-1,-1,-1,-1,-1,-1,-1,-1,-1],"split_conditions":[6.5E-1,5.4E-1,9E-1,5.591929E-1,6.6E1,-1.04528464E-1,-2.419219E-1,-2.3902087E-1,-4.067242E-1,3.557339E-2,5.863354E-1,7.7E-1,6.8E1,-9.5105654E-1,2.0943704E-1,-1.8677041E-1,-7.8802824E-2,1.104147E-1,3.1012475E-1,-1.3254213E-1,2.8559303E-2,2.6785958E-1,7.438838E-1],"split_indices":[6,6,6,1,0,1,1,0,0,0,5,6,0,1,0,0,0,0,0,0,0,0,0],"split_type":[0,0,0,0,0,0,0,0,0,0,0,0,0,0,0,0,0,0,0,0,0,0,0],"sum_hessian":[6.2E1,3E1,3.2E1,2E1,1E1,2.2E1,1E1,1.4E1,6E0,2E0,8E0,1.4E1,8E0,7E0,3E0,5E0,3E0,9E0,5E0,1E0,7E0,2E0,5E0],"tree_param":{"num_deleted":"0","num_feature":"8","num_nodes":"23","size_leaf_vector":"1"}},{"base_weights":[4.4711825E-1,-2.9075267E0,8.093587E0,-6.8010063E0,1.1642333E-1,1.0797556E1,2.3499422E0,-5.279414E-1,-5.2957053E0,1.0105838E0,-1.1600059E0,7.608904E0,8.4334797E-1,-4.2754364E-1,3.347028E0,-2.7179012E-1,-7.635374E-2,1.4917862E-1,-3.344328E-2,-1.0216536E-1,-1.1858777E-2,3.9589342E-1,1.1298142E-1,-9.6797943E-4,-3.1097794E-2,6.5925345E-2,2.015831E-1],"categories":[],"categories_nodes":[],"categories_segments":[],"categories_sizes":[],"default_left":[0,0,0,0,0,0,0,0,0,0,0,0,0,0,0,0,0,0,0,0,0,0,0,0,0,0,0],"id":17,"left_children":[1,3,5,7,9,11,13,-1,15,17,19,21,-1,23,25,-1,-1,-1,-1,-1,-1,-1,-1,-1,-1,-1,-1],"loss_changes":[1.7678131E3,5.659287E2,3.0076965E2,6.287329E1,3.3129593E1,1.4260596E2,2.3586136E1,0E0,6.746826E-1,5.8325695E1,9.297024E0,2.886963E-1,0E0,2.2602713E-1,3.0169907E0,0E0,0E0,0E0,0E0,0E0,0E0,0E0,0E0,0E0,0E0,0E0,0E0],"parents":[2147483647,0,0,1,1,2,2,3,3,4,4,5,5,6,6,8,8,9,9,10,10,11,11,13,13,14,14],"right_children":[2,4,6,8,10,12,14,-1,16,18,20,22,-1,24,26,-1,-1,-1,-1,-1,-1,-1,-1,-1,-1,-1,-1],"split_conditions":[7.9E-1,5.4E-1,-2.419219E-1,3.4E-1,-1.04528464E-1,1.1673679E0,5E-1,-5.279414E-1,4.686E1,7.1E1,7.027406E-1,1.28E1,8.4334797E-1,7E1,8.9E-1,-2.7179012E-1,-7.635374E-2,1.4917862E-1,-3.344328E-2,-1.0216536E-1,-1.1858777E-2,3.9589342E-1,1.1298142E-1,-9.6797943E-4,-3.1097794E-2,6.5925345E-2,2.015831E-1],"split_indices":[6,6,1,6,1,5,1,0,4,0,5,3,0,0,6,0,0,0,0,0,0,0,0,0,0,0,0],"split_type":[0,0,0,0,0,0,0,0,0,0,0,0,0,0,0,0,0,0,0,0,0,0,0,0,0,0,0],"sum_hessian":[6.7E1,4.7E1,2E1,2E1,2.7E1,1.3E1,7E0,4E0,1.6E1,1.6E1,1.1E1,1E1,3E0,2E0,5E0,1.5E1,1E0,7E0,9E0,5E0,6E0,9E0,1E0,1E0,1E0,2E0,3E0],"tree_param":{"num_deleted":"0","num_feature":"8","num_nodes":"27","size_leaf_vector":"1"}},{"base_weights":[6.504029E-1,-3.2991288E0,7.101619E0,-5.4782333E0,-2.1037143E-1,1.0151711E1,1.511309E0,-8.007408E0,-2.0951596E-1,1.9002724E0,-7.59185E-1,7.662949E-1,3.2032722E-1,-2.3892212E-1,2.2955399E0,-1.7767785E-1,-4.5391187E-1,1.4590465E-1,2.941507E-2,2.2811357E-2,-6.2131412E-2,4.285431E-3,-3.032036E-2,2.6137352E-2,1.4500539E-1],"categories":[],"categories_nodes":[],"categories_segments":[],"categories_sizes":[],"default_left":[0,0,0,0,0,0,0,0,0,0,0,0,0,0,0,0,0,0,0,0,0,0,0,0,0],"id":18,"left_children":[1,3,5,7,9,11,13,15,-1,17,19,-1,-1,21,23,-1,-1,-1,-1,-1,-1,-1,-1,-1,-1],"loss_changes":[1.6795824E3,2.7480725E2,4.1093176E2,4.4623108E1,2.229296E1,2.1186499E2,1.4274311E1,1.1251526E0,0E0,3.6246862E0,9.380662E0,0E0,0E0,5.2916217E-1,5.986389E0,0E0,0E0,0E0,0E0,0E0,0E0,0E0,0E0,0E0,0E0],"parents":[2147483647,0,0,1,1,2,2,3,3,4,4,5,5,6,6,7,7,9,9,10,10,13,13,14,14],"right_children":[2,4,6,8,10,12,14,16,-1,18,20,-1,-1,22,24,-1,-1,-1,-1,-1,-1,-1,-1,-1,-1],"split_conditions":[7.7E-1,5.9E-1,-2.419219E-1,3.393031E-1,6.6E1,1.2E1,7.193398E-1,7.2E1,-2.0951596E-1,1.2E1,-8.8294756E-1,7.662949E-1,3.2032722E-1,7.1E1,8.1E-1,-1.7767785E-1,-4.5391187E-1,1.4590465E-1,2.941507E-2,2.2811357E-2,-6.2131412E-2,4.285431E-3,-3.032036E-2,2.6137352E-2,1.4500539E-1],"split_indices":[6,6,1,5,0,3,1,0,0,3,1,0,0,0,6,0,0,0,0,0,0,0,0,0,0],"split_type":[0,0,0,0,0,0,0,0,0,0,0,0,0,0,0,0,0,0,0,0,0,0,0,0,0],"sum_hessian":[6.4E1,4E1,2.4E1,2.3E1,1.7E1,1.5E1,9E0,6E0,1.7E1,3E0,1.4E1,5E0,1E1,3E0,6E0,2E0,4E0,1E0,2E0,4E0,1E1,2E0,1E0,2E0,4E0],"tree_param":{"num_deleted":"0","num_feature":"8","num_nodes":"25","size_leaf_vector":"1"}},{"base_weights":[2.4683335E-1,-5.4114966E0,4.566532E0,-8.340799E0,-3.6462069E0,2.119126E0,1.0228394E1,-1.7175528E-1,-4.6258482E-1,2.8959656E-2,-3.9288301E0,3.9007454E0,-1.3602383E-1,1.1673768E1,1.4822985E-1,-2.180577E-1,-7.1674444E-2,2.1261142E-1,-1.6713334E-2,-7.007652E-2,2.2076862E-2,2.3505688E-1,6.607228E-1],"categories":[],"categories_nodes":[],"categories_segments":[],"categories_sizes":[],"default_left":[0,0,0,0,0,0,0,0,0,0,0,0,0,0,0,0,0,0,0,0,0,0,0],"id":19,"left_children":[1,3,5,7,9,11,13,-1,-1,-1,15,17,19,21,-1,-1,-1,-1,-1,-1,-1,-1,-1],"loss_changes":[1.4668063E3,1.0403552E2,4.494585E2,8.436707E0,2.3771057E1,1.0097605E2,7.038086E1,0E0,0E0,0E0,1.2087891E1,2.226088E1,9.389714E0,2.3818237E1,0E0,0E0,0E0,0E0,0E0,0E0,0E0,0E0,0E0],"parents":[2147483647,0,0,1,1,2,2,3,3,4,4,5,5,6,6,10,10,11,11,12,12,13,13],"right_children":[2,4,6,8,10,12,14,-1,-1,-1,16,18,20,22,-1,-1,-1,-1,-1,-1,-1,-1,-1],"split_conditions":[6.5E-1,3.5E-1,9E-1,-7.431448E-1,-9.702957E-1,-1.04528464E-1,-2.419219E-1,-1.7175528E-1,-4.6258482E-1,2.8959656E-2,5.863354E-1,4.518E1,7.1E-1,-9.5105654E-1,1.4822985E-1,-2.180577E-1,-7.1674444E-2,2.1261142E-1,-1.6713334E-2,-7.007652E-2,2.2076862E-2,2.3505688E-1,6.607228E-1],"split_indices":[6,6,6,1,1,1,1,0,0,0,5,4,6,1,0,0,0,0,0,0,0,0,0],"split_type":[0,0,0,0,0,0,0,0,0,0,0,0,0,0,0,0,0,0,0,0,0,0,0],"sum_hessian":[5.8E1,2.5E1,3.3E1,8E0,1.7E1,2.4E1,9E0,2E0,6E0,1E0,1.6E1,1.3E1,1.1E1,7E0,2E0,1.3E1,3E0,1.2E1,1E0,3E0,8E0,2E0,5E0],"tree_param":{"num_deleted":"0","num_feature":"8","num_nodes":"23","size_leaf_vector":"1"}},{"base_weights":[5.8775684E-3,-5.0485373E0,4.482477E0,-6.1872196E0,-2.0385826E0,2.344756E0,8.384379E0,-8.632209E0,-4.9603276E0,2.9146448E-2,-2.7668266E0,3.7421305E0,3.5311925E-1,5.6919974E-1,5.461573E0,-1.1942177E-1,-4.7016382E-1,-2.5554797E-1,-6.375551E-2,-1.6615681E-1,-6.8986654E-2,6.903752E-2,2.670286E-1,-1.0273139E-2,4.2642403E-2,2.9034087E-1,7.6121524E-2],"categories":[0],"categories_nodes":[14],"categories_segments":[0],"categories_sizes":[1],"default_left":[0,0,0,0,0,0,0,0,0,0,0,0,0,0,1,0,0,0,0,0,0,0,0,0,0,0,0],"id":20,"left_children":[1,3,5,7,9,11,13,15,17,-1,19,21,23,-1,25,-1,-1,-1,-1,-1,-1,-1,-1,-1,-1,-1,-1],"loss_changes":[1.4933584E3,9.363568E1,2.7228198E2,2.3175598E1,2.0703865E1,6.547209E1,4.303296E1,6.4270935E0,2.9198608E0,0E0,1.5881844E0,4.546939E1,3.2457635E0,0E0,2.0392609E0,0E0,0E0,0E0,0E0,0E0,0E0,0E0,0E0,0E0,0E0,0E0,0E0],"parents":[2147483647,0,0,1,1,2,2,3,3,4,4,5,5,6,6,7,7,8,8,10,10,11,11,12,12,14,14],"right_children":[2,4,6,8,10,12,14,16,18,-1,20,22,24,-1,26,-1,-1,-1,-1,-1,-1,-1,-1,-1,-1,-1,-1],"split_conditions":[6.5E-1,5.4E-1,9E-1,3.4E-1,6.6E1,-1.04528464E-1,1.19E1,7.1E1,4.616E1,2.9146448E-2,5.863354E-1,7.7E-1,7.6604444E-1,5.6919974E-1,NaN,-1.1942177E-1,-4.7016382E-1,-2.5554797E-1,-6.375551E-2,-1.6615681E-1,-6.8986654E-2,6.903752E-2,2.670286E-1,-1.0273139E-2,4.2642403E-2,2.9034087E-1,7.6121524E-2],"split_indices":[6,6,6,6,0,1,3,0,4,0,5,6,1,0,2,0,0,0,0,0,0,0,0,0,0,0,0],"split_type":[0,0,0,0,0,0,0,0,0,0,0,0,0,0,1,0,0,0,0,0,0,0,0,0,0,0,0],"sum_hessian":[6.4E1,3E1,3.4E1,2.1E1,9E0,2.3E1,1.1E1,5E0,1.6E1,2E0,7E0,1.3E1,1E1,4E0,7E0,1E0,4E0,1.5E1,1E0,4E0,3E0,6E0,7E0,5E0,5E0,6E0,1E0],"tree_param":{"num_deleted":"0","num_feature":"8","num_nodes":"27","size_leaf_vector":"1"}},{"base_weights":[-8.371592E-2,-2.9586873E0,6.6292014E0,-4.6912107E0,1.4986396E-1,3.9638498E0,7.483484E-1,-8.168619E0,-3.7312865E0,1.7637645E-1,-3.104823E-1,2.670562E-1,1.626805E0,-1.164362E-1,-4.5232064E-1,2.7506923E-2,-1.9754516E-1,6.0174417E-2,-3.946328E-2,-2.0802243E-2,1.2635769E-1],"categories":[],"categories_nodes":[],"categories_segments":[],"categories_sizes":[],"default_left":[0,0,0,0,0,0,0,0,0,0,0,0,0,0,0,0,0,0,0,0,0],"id":21,"left_children":[1,3,5,7,9,11,-1,13,15,-1,17,-1,19,-1,-1,-1,-1,-1,-1,-1,-1],"loss_changes":[1.158281E3,2.2689981E2,3.406886E2,5.964789E1,2.5973562E1,3.959227E1,0E0,4.564514E0,2.3799805E1,0E0,1.1822831E1,0E0,1.3926355E1,0E0,0E0,0E0,0E0,0E0,0E0,0E0,0E0],"parents":[2147483647,0,0,1,1,2,2,3,3,4,4,5,5,7,7,8,8,10,10,12,12],"right_children":[2,4,6,8,10,12,-1,14,16,-1,18,-1,20,-1,-1,-1,-1,-1,-1,-1,-1],"split_conditions":[7.9E-1,6.3E-1,1.32E0,3E-1,1.14E1,-2.7563736E-1,7.483484E-1,7.1E1,-9.702957E-1,1.7637645E-1,-8.8294756E-1,2.670562E-1,5E-1,-1.164362E-1,-4.5232064E-1,2.7506923E-2,-1.9754516E-1,6.0174417E-2,-3.946328E-2,-2.0802243E-2,1.2635769E-1],"split_indices":[6,6,5,6,3,1,0,0,1,0,1,0,1,0,0,0,0,0,0,0,0],"split_type":[0,0,0,0,0,0,0,0,0,0,0,0,0,0,0,0,0,0,0,0,0],"sum_hessian":[5.8E1,4.1E1,1.7E1,2.6E1,1.5E1,1.4E1,3E0,4E0,2.2E1,1E0,1.4E1,8E0,6E0,1E0,3E0,1E0,2.1E1,3E0,1.1E1,2E0,4E0],"tree_param":{"num_deleted":"0","num_feature":"8","num_nodes":"21","size_leaf_vector":"1"}},{"base_weights":[-2.229379E-1,-4.1402493E0,3.2968218E0,-5.8562427E0,-2.4914382E0,1.7829692E0,3.523907E-1,-3.1402162E-1,-1.2450981E-1,-1.0545474E0,-1.6660966E-1,3.1190536E0,1.633346E-1,-9.636469E-2,4.0917876E-3,1.735452E-2,2.5247213E-1,-1.4827646E-2,3.872551E-2],"categories":[],"categories_nodes":[],"categories_segments":[],"categories_sizes":[],"default_left":[0,0,0,0,0,0,0,0,0,0,0,0,0,0,0,0,0,0,0],"id":22,"left_children":[1,3,5,7,9,11,-1,-1,-1,13,-1,15,17,-1,-1,-1,-1,-1,-1],"loss_changes":[7.5820135E2,5.8972595E1,1.5210901E2,1.4946289E0,1.460714E1,4.7097855E1,0E0,0E0,0E0,7.100142E0,0E0,6.2459E1,3.3214753E0,0E0,0E0,0E0,0E0,0E0,0E0],"parents":[2147483647,0,0,1,1,2,2,3,3,4,4,5,5,9,9,11,11,12,12],"right_children":[2,4,6,8,10,12,-1,-1,-1,14,-1,16,18,-1,-1,-1,-1,-1,-1],"split_conditions":[6.3E-1,4.4E-1,9E-1,1.24E1,7.2E1,-1.04528464E-1,3.523907E-1,-3.1402162E-1,-1.2450981E-1,5.6E-1,-1.6660966E-1,6.866317E-1,8.660254E-1,-9.636469E-2,4.0917876E-3,1.735452E-2,2.5247213E-1,-1.4827646E-2,3.872551E-2],"split_indices":[6,6,6,3,0,1,0,0,0,6,0,5,1,0,0,0,0,0,0],"split_type":[0,0,0,0,0,0,0,0,0,0,0,0,0,0,0,0,0,0,0],"sum_hessian":[5.3E1,2.5E1,2.8E1,1.1E1,1.4E1,2.1E1,7E0,9E0,2E0,6E0,8E0,1.1E1,1E1,3E0,3E0,5E0,6E0,6E0,4E0],"tree_param":{"num_deleted":"0","num_feature":"8","num_nodes":"19","size_leaf_vector":"1"}},{"base_weights":[8.702688E-2,-2.3296323E0,4.367149E0,-3.7701328E0,-2.4368286E-1,6.498491E0,1.1596893E0,2.6716901E-2,-3.9900787E0,8.368745E-1,-1.0837605E0,3.3974698E-1,7.352763E-2,-2.1094894E-1,1.7772413E0,-2.1701188E-1,-9.657448E-2,5.8651287E-2,-5.719312E-3,-3.256071E-2,-1.24416925E-1,5.2478793E-3,-2.8966714E-2,-5.882263E-4,1.03868484E-1],"categories":[],"categories_nodes":[],"categories_segments":[],"categories_sizes":[],"default_left":[0,0,0,0,0,0,0,0,0,0,0,0,0,0,0,0,0,0,0,0,0,0,0,0,0],"id":23,"left_children":[1,3,5,7,9,11,13,-1,15,17,19,-1,-1,21,23,-1,-1,-1,-1,-1,-1,-1,-1,-1,-1],"loss_changes":[6.307896E2,1.1626892E2,1.4286002E2,2.3907318E1,1.6338755E1,9.3845215E0,8.839312E0,0E0,7.4752502E0,2.6923175E0,4.4550076E0,0E0,0E0,5.263068E-1,3.782959E0,0E0,0E0,0E0,0E0,0E0,0E0,0E0,0E0,0E0,0E0],"parents":[2147483647,0,0,1,1,2,2,3,3,4,4,5,5,6,6,8,8,9,9,10,10,13,13,14,14],"right_children":[2,4,6,8,10,12,14,-1,16,18,20,-1,-1,22,24,-1,-1,-1,-1,-1,-1,-1,-1,-1,-1],"split_conditions":[7.7E-1,5.863354E-1,-5.8778524E-1,-9.702957E-1,-2.0791169E-1,1.28E1,7.193398E-1,2.6716901E-2,1.24E1,6.866317E-1,9.2718387E-1,3.3974698E-1,7.352763E-2,7.1E1,7.8E-1,-2.1701188E-1,-9.657448E-2,5.8651287E-2,-5.719312E-3,-3.256071E-2,-1.24416925E-1,5.2478793E-3,-2.8966714E-2,-5.882263E-4,1.03868484E-1],"split_indices":[6,5,1,1,1,3,1,0,3,5,1,0,0,0,6,0,0,0,0,0,0,0,0,0,0],"split_type":[0,0,0,0,0,0,0,0,0,0,0,0,0,0,0,0,0,0,0,0,0,0,0,0,0],"sum_hessian":[5.9E1,3.8E1,2.1E1,2.2E1,1.6E1,1.2E1,9E0,1E0,2.1E1,7E0,9E0,1.1E1,1E0,3E0,6E0,1.7E1,4E0,5E0,2E0,8E0,1E0,2E0,1E0,1E0,5E0],"tree_param":{"num_deleted":"0","num_feature":"8","num_nodes":"25","size_leaf_vector":"1"}},{"base_weights":[-2.0146686E-1,-4.0438085E0,3.4270687E0,-7.629503E0,-3.131024E0,1.5884757E0,8.562062E0,-1.00249484E-1,-4.1767034E-1,-3.8006945E0,-1.7505608E0,2.686525E0,1.9930503E-1,5.453584E-1,1.4519434E-1,-1.956094E-1,-4.7632504E-2,2.9449526E-2,-1.1679522E-1,7.3899426E-2,2.1264994E-1,-1.4824963E-2,4.1357994E-2],"categories":[],"categories_nodes":[],"categories_segments":[],"categories_sizes":[],"default_left":[0,0,0,0,0,0,0,0,0,0,0,0,0,0,0,0,0,0,0,0,0,0,0],"id":24,"left_children":[1,3,5,7,9,11,13,-1,-1,15,17,19,21,-1,-1,-1,-1,-1,-1,-1,-1,-1,-1],"loss_changes":[9.479773E2,8.411975E1,3.1684003E2,7.681183E0,1.9231445E1,4.0649773E1,8.774811E1,0E0,0E0,1.9887695E0,1.6439686E1,2.2111237E1,4.2920628E0,0E0,0E0,0E0,0E0,0E0,0E0,0E0,0E0,0E0,0E0],"parents":[2147483647,0,0,1,1,2,2,3,3,4,4,5,5,6,6,9,9,10,10,11,11,12,12],"right_children":[2,4,6,8,10,12,14,-1,-1,16,18,20,22,-1,-1,-1,-1,-1,-1,-1,-1,-1,-1],"split_conditions":[6.5E-1,3.4E-1,9.2E-1,7.1E1,5.2E-1,-1.04528464E-1,-2.419219E-1,-1.00249484E-1,-4.1767034E-1,4.616E1,6.6E1,-8.2903755E-1,8.660254E-1,5.453584E-1,1.4519434E-1,-1.956094E-1,-4.7632504E-2,2.9449526E-2,-1.1679522E-1,7.3899426E-2,2.1264994E-1,-1.4824963E-2,4.1357994E-2],"split_indices":[6,6,6,0,6,1,1,0,0,4,0,1,1,0,0,0,0,0,0,0,0,0,0],"split_type":[0,0,0,0,0,0,0,0,0,0,0,0,0,0,0,0,0,0,0,0,0,0,0],"sum_hessian":[6.6E1,3.2E1,3.4E1,5E0,2.7E1,2.6E1,8E0,1E0,4E0,1.7E1,1E1,1.4E1,1.2E1,5E0,3E0,1.6E1,1E0,2E0,8E0,9E0,5E0,7E0,5E0],"tree_param":{"num_deleted":"0","num_feature":"8","num_nodes":"23","size_leaf_vector":"1"}},{"base_weights":[-5.324101E-1,-2.9924712E0,6.155544E0,-4.3597827E0,-6.233319E-1,2.9273949E0,1.1585917E1,-7.334347E0,-3.434484E0,-1.4720778E0,6.2161016E-1,2.1590745E-1,8.169492E-1,6.511079E-1,1.1011791E-1,-9.774323E-2,-4.0096352E-1,-1.831858E-1,-6.8619825E-2,3.0785132E-2,-1.1659791E-1,8.687287E-2,-1.9957542E-3,-1.8725205E-2,7.5315095E-2],"categories":[],"categories_nodes":[],"categories_segments":[],"categories_sizes":[],"default_left":[0,0,0,0,0,0,0,0,0,0,0,0,0,0,0,0,0,0,0,0,0,0,0,0,0],"id":25,"left_children":[1,3,5,7,9,11,13,15,17,19,21,-1,23,-1,-1,-1,-1,-1,-1,-1,-1,-1,-1,-1,-1],"loss_changes":[1.0384923E3,1.462926E2,2.6409442E2,5.4628723E1,1.993457E1,3.1693619E1,5.21828E1,6.4306335E0,6.3165894E0,2.1183447E1,5.9746394E0,0E0,5.492106E0,0E0,0E0,0E0,0E0,0E0,0E0,0E0,0E0,0E0,0E0,0E0,0E0],"parents":[2147483647,0,0,1,1,2,2,3,3,4,4,5,5,6,6,7,7,8,8,9,9,10,10,12,12],"right_children":[2,4,6,8,10,12,14,16,18,20,22,-1,24,-1,-1,-1,-1,-1,-1,-1,-1,-1,-1,-1,-1],"split_conditions":[7.9E-1,5.863354E-1,1.15E0,3.4E-1,7.5E-1,-2.7563736E-1,-2.419219E-1,7.1E1,4.616E1,-8.8294756E-1,-6.691306E-1,2.1590745E-1,5E-1,6.511079E-1,1.1011791E-1,-9.774323E-2,-4.0096352E-1,-1.831858E-1,-6.8619825E-2,3.0785132E-2,-1.1659791E-1,8.687287E-2,-1.9957542E-3,-1.8725205E-2,7.5315095E-2],"split_indices":[6,5,6,6,6,1,1,0,4,1,1,0,1,0,0,0,0,0,0,0,0,0,0,0,0],"split_type":[0,0,0,0,0,0,0,0,0,0,0,0,0,0,0,0,0,0,0,0,0,0,0,0,0],"sum_hessian":[6.1E1,4.5E1,1.6E1,2.8E1,1.7E1,1.1E1,5E0,5E0,2.3E1,1E1,7E0,6E0,5E0,4E0,1E0,1E0,4E0,2E1,3E0,3E0,7E0,2E0,5E0,2E0,3E0],"tree_param":{"num_deleted":"0","num_feature":"8","num_nodes":"25","size_leaf_vector":"1"}},{"base_weights":[-5.166393E-2,-1.697289E0,8.629965E0,-3.9156373E0,9.9472696E-1,5.992669E-1,3.8362648E0,-6.1492705E0,-2.7742472E0,1.4011942E0,-8.463793E-2,2.0851974E-1,5.4140378E-2,-1.9166838E-1,-3.84925E-1,2.989235E-2,-1.4773495E-1,1.3392004E-1,-4.9606166E-3],"categories":[0],"categories_nodes":[6],"categories_segments":[0],"categories_sizes":[1],"default_left":[0,0,0,0,0,0,1,0,0,0,0,0,0,0,0,0,0,0,0],"id":26,"left_children":[1,3,5,7,9,-1,11,13,15,17,-1,-1,-1,-1,-1,-1,-1,-1,-1],"loss_changes":[9.8614355E2,3.5026105E2,1.3095221E2,6.4522705E1,3.186601E1,0E0,1.0043411E0,6.3674927E0,1.5761978E1,4.6257633E1,0E0,0E0,0E0,0E0,0E0,0E0,0E0,0E0,0E0],"parents":[2147483647,0,0,1,1,2,2,3,3,4,4,6,6,7,7,8,8,9,9],"right_children":[2,4,6,8,10,-1,12,14,16,18,-1,-1,-1,-1,-1,-1,-1,-1,-1],"split_conditions":[9E-1,6.3E-1,1.2E1,3.5E-1,7.6E1,5.992669E-1,NaN,7.2E1,-9.702957E-1,-1.04528464E-1,-8.463793E-2,2.0851974E-1,5.4140378E-2,-1.9166838E-1,-3.84925E-1,2.989235E-2,-1.4773495E-1,1.3392004E-1,-4.9606166E-3],"split_indices":[6,6,3,6,0,0,2,0,1,1,0,0,0,0,0,0,0,0,0],"split_type":[0,0,0,0,0,0,1,0,0,0,0,0,0,0,0,0,0,0,0],"sum_hessian":[6.7E1,5.7E1,1E1,3.1E1,2.6E1,5E0,5E0,9E0,2.2E1,2.3E1,3E0,4E0,1E0,5E0,4E0,1E0,2.1E1,1.2E1,1.1E1],"tree_param":{"num_deleted":"0","num_feature":"8","num_nodes":"19","size_leaf_vector":"1"}},{"base_weights":[-2.959024E-1,-3.5685704E0,2.3486328E0,-6.152705E0,-2.291152E0,1.0976118E0,5.979739E0,-7.3260024E-2,-6.5554934E0,2.914505E-2,-2.4639997E0,2.1528025E0,-1.1135047E-1,4.2439982E-1,1.6554724E-1,-9.075866E-2,-3.4866855E-1,2.3997402E-2,-1.3221024E-1,1.8840502E-1,-1.1577606E-2,-6.227174E-2,1.5558329E-2],"categories":[],"categories_nodes":[],"categories_segments":[],"categories_sizes":[],"default_left":[0,0,0,0,0,0,0,0,0,0,0,0,0,0,0,0,0,0,0,0,0,0,0],"id":27,"left_children":[1,3,5,7,9,11,13,-1,15,-1,17,19,21,-1,-1,-1,-1,-1,-1,-1,-1,-1,-1],"loss_changes":[5.622812E2,8.163284E1,1.5696985E2,7.387512E0,1.1868507E1,3.595892E1,3.2142914E1,0E0,3.1891174E0,0E0,1.1879364E1,5.864415E1,7.095917E0,0E0,0E0,0E0,0E0,0E0,0E0,0E0,0E0,0E0,0E0],"parents":[2147483647,0,0,1,1,2,2,3,3,4,4,5,5,6,6,8,8,10,10,11,11,12,12],"right_children":[2,4,6,8,10,12,14,-1,16,-1,18,20,22,-1,-1,-1,-1,-1,-1,-1,-1,-1,-1],"split_conditions":[6.3E-1,3.5E-1,8.9E-1,6.5E1,-9.702957E-1,-1.04528464E-1,1.19E1,-7.3260024E-2,-8.2903755E-1,2.914505E-2,6E1,7.2E1,7.1E-1,4.2439982E-1,1.6554724E-1,-9.075866E-2,-3.4866855E-1,2.3997402E-2,-1.3221024E-1,1.8840502E-1,-1.1577606E-2,-6.227174E-2,1.5558329E-2],"split_indices":[6,6,6,0,1,1,3,0,1,0,0,0,6,0,0,0,0,0,0,0,0,0,0],"split_type":[0,0,0,0,0,0,0,0,0,0,0,0,0,0,0,0,0,0,0,0,0,0,0],"sum_hessian":[6.3E1,2.8E1,3.5E1,8E0,2E1,2.7E1,8E0,1E0,7E0,1E0,1.9E1,1.4E1,1.3E1,3E0,5E0,1E0,6E0,1E0,1.8E1,8E0,6E0,3E0,1E1],"tree_param":{"num_deleted":"0","num_feature":"8","num_nodes":"23","size_leaf_vector":"1"}},{"base_weights":[3.0132097E-1,-1.4647527E0,7.4782887E0,-4.0069685E0,1.9740747E-1,5.5877125E-1,3.7706509E0,-2.1457267E0,-2.3042083E-1,7.417716E-1,-2.3758595E0,4.031326E0,4.8648167E-2,-2.2376347E-2,-1.177086E-1,7.4882634E-2,-2.812793E-2,-1.491981E-1,-3.8655154E-2,2.1679647E-1,5.509262E-2],"categories":[0],"categories_nodes":[6],"categories_segments":[0],"categories_sizes":[1],"default_left":[0,0,0,0,0,0,1,0,0,0,0,0,0,0,0,0,0,0,0,0,0],"id":28,"left_children":[1,3,5,7,9,-1,11,13,-1,15,17,19,-1,-1,-1,-1,-1,-1,-1,-1,-1],"loss_changes":[8.348324E2,2.2474622E2,1.3606067E2,1.3619843E1,4.7988552E1,0E0,1.9119644E0,1.4243202E0,0E0,2.8448236E1,3.5409317E0,1.4687424E0,0E0,0E0,0E0,0E0,0E0,0E0,0E0,0E0,0E0],"parents":[2147483647,0,0,1,1,2,2,3,3,4,4,6,6,7,7,9,9,10,10,11,11],"right_children":[2,4,6,8,10,-1,12,14,-1,16,18,20,-1,-1,-1,-1,-1,-1,-1,-1,-1],"split_conditions":[9E-1,5.4E-1,1.2E1,1.19E1,7.6E1,5.5877125E-1,NaN,6.8E1,-2.3042083E-1,-1.04528464E-1,1.24E1,1.28E1,4.8648167E-2,-2.2376347E-2,-1.177086E-1,7.4882634E-2,-2.812793E-2,-1.491981E-1,-3.8655154E-2,2.1679647E-1,5.509262E-2],"split_indices":[6,6,3,3,0,0,2,0,0,1,3,3,0,0,0,0,0,0,0,0,0],"split_type":[0,0,0,0,0,0,1,0,0,0,0,0,0,0,0,0,0,0,0,0,0],"sum_hessian":[6.4E1,5.2E1,1.2E1,2E1,3.2E1,5E0,7E0,6E0,1.4E1,2.7E1,5E0,6E0,1E0,1E0,5E0,1.7E1,1E1,3E0,2E0,5E0,1E0],"tree_param":{"num_deleted":"0","num_feature":"8","num_nodes":"21","size_leaf_vector":"1"}},{"base_weights":[3.148904E-1,-1.8645827E0,5.345518E0,-3.6950176E0,-1.8526125E-1,2.9589744E0,1.00232E1,-4.798072E0,-1.3235663E-1,1.541378E-1,-4.6138182E-1,4.2523637E0,1.0581044E0,2.4343644E-1,6.7773813E-1,-9.44658E-2,-2.6796216E-1,8.2885884E-2,-4.3106634E-2,2.4478142E-1,7.741897E-2,-1.8513108E-2,8.517517E-2],"categories":[0],"categories_nodes":[6],"categories_segments":[0],"categories_sizes":[1],"default_left":[0,0,0,0,0,0,1,0,0,0,0,0,0,0,0,0,0,0,0,0,0,0,0],"id":29,"left_children":[1,3,5,7,9,11,13,15,-1,-1,17,19,21,-1,-1,-1,-1,-1,-1,-1,-1,-1,-1],"loss_changes":[6.8974243E2,1.3456657E2,1.82448E2,1.1572205E1,2.3079132E1,2.9920479E1,4.3225525E1,4.5654755E0,0E0,0E0,2.0961483E1,6.334732E0,7.0838075E0,0E0,0E0,0E0,0E0,0E0,0E0,0E0,0E0,0E0,0E0],"parents":[2147483647,0,0,1,1,2,2,3,3,4,4,5,5,6,6,7,7,10,10,11,11,12,12],"right_children":[2,4,6,8,10,12,14,16,-1,-1,18,20,22,-1,-1,-1,-1,-1,-1,-1,-1,-1,-1],"split_conditions":[7.9E-1,5.5E-1,1.25E0,3.5E-1,1.14E1,-2.7563736E-1,NaN,7.1E1,-1.3235663E-1,1.541378E-1,6.6E1,1.26E1,5E-1,2.4343644E-1,6.7773813E-1,-9.44658E-2,-2.6796216E-1,8.2885884E-2,-4.3106634E-2,2.4478142E-1,7.741897E-2,-1.8513108E-2,8.517517E-2],"split_indices":[6,6,6,5,3,1,2,0,0,0,0,3,1,0,0,0,0,0,0,0,0,0,0],"split_type":[0,0,0,0,0,0,1,0,0,0,0,0,0,0,0,0,0,0,0,0,0,0,0],"sum_hessian":[6.1E1,4.3E1,1.8E1,2E1,2.3E1,1.3E1,5E0,8E0,1.2E1,1E0,2.2E1,7E0,6E0,3E0,2E0,2E0,6E0,3E0,1.9E1,5E0,2E0,2E0,4E0],"tree_param":{"num_deleted":"0","num_feature":"8","num_nodes":"23","size_leaf_vector":"1"}},{"base_weights":[5.285677E-1,-2.7670195E0,4.019723E0,-5.52263E0,-1.664319E0,2.124614E0,8.416142E0,-6.3306384E-2,-5.896427E0,-2.4136899E0,-9.031211E-1,3.3648205E0,1.7586365E-1,2.6026052E-1,6.5514696E-1,-7.884794E-2,-3.1441072E-1,-1.2550576E-1,-3.3825304E-2,-5.796502E-3,-1.4210582E-1,2.1034293E-1,5.0388988E-2,3.060173E-2,-1.0846138E-2],"categories":[0],"categories_nodes":[6],"categories_segments":[0],"categories_sizes":[1],"default_left":[0,0,0,0,0,0,1,0,0,0,0,0,0,0,0,0,0,0,0,0,0,0,0,0,0],"id":30,"left_children":[1,3,5,7,9,11,13,-1,15,17,19,21,23,-1,-1,-1,-1,-1,-1,-1,-1,-1,-1,-1,-1],"loss_changes":[7.3596326E2,9.1082855E1,2.4040149E2,6.853943E0,1.2080627E1,5.4995857E1,6.7237305E1,0E0,3.6222534E0,3.1199646E-1,2.103955E1,2.3546478E1,1.8459847E0,0E0,0E0,0E0,0E0,0E0,0E0,0E0,0E0,0E0,0E0,0E0,0E0],"parents":[2147483647,0,0,1,1,2,2,3,3,4,4,5,5,6,6,8,8,9,9,10,10,11,11,12,12],"right_children":[2,4,6,8,10,12,14,-1,16,18,20,22,24,-1,-1,-1,-1,-1,-1,-1,-1,-1,-1,-1,-1],"split_conditions":[6.7E-1,3.5E-1,1.02E0,6.5E1,5.4E-1,-1.04528464E-1,NaN,-6.3306384E-2,-8.2903755E-1,4.519E1,7.6E1,7.3E1,7.1E1,2.6026052E-1,6.5514696E-1,-7.884794E-2,-3.1441072E-1,-1.2550576E-1,-3.3825304E-2,-5.796502E-3,-1.4210582E-1,2.1034293E-1,5.0388988E-2,3.060173E-2,-1.0846138E-2],"split_indices":[6,6,6,0,6,1,2,0,1,4,0,0,0,0,0,0,0,0,0,0,0,0,0,0,0],"split_type":[0,0,0,0,0,0,1,0,0,0,0,0,0,0,0,0,0,0,0,0,0,0,0,0,0],"sum_hessian":[6.2E1,3.2E1,3E1,8E0,2.4E1,2.2E1,8E0,1E0,7E0,1.1E1,1.3E1,1.3E1,9E0,6E0,2E0,1E0,6E0,1E1,1E0,1E1,3E0,9E0,4E0,4E0,5E0],"tree_param":{"num_deleted":"0","num_feature":"8","num_nodes":"25","size_leaf_vector":"1"}},{"base_weights":[2.2833985E-1,-1.3324893E0,7.2330422E0,-3.6742756E0,1.5309918E-1,4.879798E0,6.333088E-1,-2.2577136E0,-5.312168E0,5.208878E-1,-2.7355375E0,5.0520133E-2,5.197464E0,-2.8406968E-2,-1.25663E-1,-6.172371E-2,-2.8337854E-1,6.409501E-2,-1.8815944E-2,-1.6605054E-1,-2.4477959E-2,2.863517E-1,1.1146565E-1],"categories":[0],"categories_nodes":[2],"categories_segments":[0],"categories_sizes":[1],"default_left":[0,0,1,0,0,0,0,0,0,0,0,0,0,0,0,0,0,0,0,0,0,0,0],"id":31,"left_children":[1,3,5,7,9,11,-1,13,15,17,19,-1,21,-1,-1,-1,-1,-1,-1,-1,-1,-1,-1],"loss_changes":[7.2029224E2,1.884248E2,9.161749E1,3.6730347E1,3.7546772E1,7.040222E0,0E0,4.1850586E0,6.0465393E0,2.1648754E1,3.6340065E0,0E0,1.3792267E0,0E0,0E0,0E0,0E0,0E0,0E0,0E0,0E0,0E0,0E0],"parents":[2147483647,0,0,1,1,2,2,3,3,4,4,5,5,7,7,8,8,9,9,10,10,12,12],"right_children":[2,4,6,8,10,12,-1,14,16,18,20,-1,22,-1,-1,-1,-1,-1,-1,-1,-1,-1,-1],"split_conditions":[8.7E-1,5.4E-1,NaN,2.419219E-1,7.6E1,-9.848077E-1,6.333088E-1,1.17E1,6.5E1,-1.04528464E-1,6.946584E-1,5.0520133E-2,-5.8778524E-1,-2.8406968E-2,-1.25663E-1,-6.172371E-2,-2.8337854E-1,6.409501E-2,-1.8815944E-2,-1.6605054E-1,-2.4477959E-2,2.863517E-1,1.1146565E-1],"split_indices":[6,6,2,1,0,1,0,3,0,1,1,0,1,0,0,0,0,0,0,0,0,0,0],"split_type":[0,0,1,0,0,0,0,0,0,0,0,0,0,0,0,0,0,0,0,0,0,0,0],"sum_hessian":[6.4E1,5.3E1,1.1E1,2E1,3.3E1,9E0,2E0,1.2E1,8E0,3E1,3E0,1E0,8E0,2E0,1E1,1E0,7E0,1.6E1,1.4E1,2E0,1E0,6E0,2E0],"tree_param":{"num_deleted":"0","num_feature":"8","num_nodes":"23","size_leaf_vector":"1"}},{"base_weights":[-3.0698538E-2,-1.8543662E0,3.7917812E0,-2.975902E0,-6.9042206E-2,5.108468E0,1.0136065E0,-3.6406162E0,-2.0986233E0,-1.3962492E0,5.488258E-1,3.3780801E0,3.4263194E-1,-3.9962515E-1,1.551288E0,-2.0565474E-1,-7.155728E-2,-7.895425E-2,-1.7386176E-1,-1.1006915E-1,-2.2166824E-2,7.214772E-2,-4.4464535E-4,9.302769E-2,2.1099953E-1,9.8374365E-3,-3.9809324E-2,1.6919581E-2,1.0365691E-1],"categories":[],"categories_nodes":[],"categories_segments":[],"categories_sizes":[],"default_left":[0,0,0,0,0,0,0,0,0,0,0,0,0,0,0,0,0,0,0,0,0,0,0,0,0,0,0,0,0],"id":32,"left_children":[1,3,5,7,9,11,13,15,17,19,21,23,-1,25,27,-1,-1,-1,-1,-1,-1,-1,-1,-1,-1,-1,-1,-1,-1],"loss_changes":[4.5317108E2,8.789595E1,7.163974E1,8.104492E0,1.5526994E1,1.9104492E1,6.698881E0,8.728561E0,4.5365334E0,3.6273794E0,6.49557E0,3.6470718E0,0E0,8.6614513E-1,3.0961695E0,0E0,0E0,0E0,0E0,0E0,0E0,0E0,0E0,0E0,0E0,0E0,0E0,0E0,0E0],"parents":[2147483647,0,0,1,1,2,2,3,3,4,4,5,5,6,6,7,7,8,8,9,9,10,10,11,11,13,13,14,14],"right_children":[2,4,6,8,10,12,14,16,18,20,22,24,-1,26,28,-1,-1,-1,-1,-1,-1,-1,-1,-1,-1,-1,-1,-1,-1],"split_conditions":[7.7E-1,5.863354E-1,-2.7563736E-1,4.4E-1,4.29E1,1.02E0,7.193398E-1,1.24E1,7.7E1,3.09017E-1,6.8E1,-9.781476E-1,3.4263194E-1,7.1E1,8.1E-1,-2.0565474E-1,-7.155728E-2,-7.895425E-2,-1.7386176E-1,-1.1006915E-1,-2.2166824E-2,7.214772E-2,-4.4464535E-4,9.302769E-2,2.1099953E-1,9.8374365E-3,-3.9809324E-2,1.6919581E-2,1.0365691E-1],"split_indices":[6,5,1,6,4,6,1,3,0,1,0,1,0,0,6,0,0,0,0,0,0,0,0,0,0,0,0,0,0],"split_type":[0,0,0,0,0,0,0,0,0,0,0,0,0,0,0,0,0,0,0,0,0,0,0,0,0,0,0,0,0],"sum_hessian":[6.3E1,4.3E1,2E1,2.6E1,1.7E1,1.3E1,7E0,1.3E1,1.3E1,5E0,1.2E1,8E0,5E0,2E0,5E0,1E1,3E0,1.1E1,2E0,2E0,3E0,4E0,8E0,4E0,4E0,1E0,1E0,2E0,3E0],"tree_param":{"num_deleted":"0","num_feature":"8","num_nodes":"29","size_leaf_vector":"1"}},{"base_weights":[6.7373556E-1,-6.7216533E-1,6.6078634E0,-2.5728014E0,1.2553574E0,4.0341167E0,6.0632414E-1,-3.6325846E0,-1.6241069E0,2.2071285E0,4.0344555E-2,4.4858823E0,1.0499763E-2,-1.9788049E-1,-7.233238E-2,-2.3227474E-2,-1.1727643E-1,1.594209E-1,1.8367006E-2,-1.8322945E-2,3.415806E-2,7.345321E-2,2.6233223E-1],"categories":[0],"categories_nodes":[5],"categories_segments":[0],"categories_sizes":[1],"default_left":[0,0,0,0,0,1,0,0,0,0,0,0,0,0,0,0,0,0,0,0,0,0,0],"id":33,"left_children":[1,3,5,7,9,11,-1,13,15,17,19,21,-1,-1,-1,-1,-1,-1,-1,-1,-1,-1,-1],"loss_changes":[4.7565967E2,1.8274223E2,1.0731915E2,1.923555E1,2.8821308E1,1.4606461E1,0E0,2.0900574E0,1.1458332E1,2.4103867E1,3.3883507E0,1.0652985E1,0E0,0E0,0E0,0E0,0E0,0E0,0E0,0E0,0E0,0E0,0E0],"parents":[2147483647,0,0,1,1,2,2,3,3,4,4,5,5,7,7,8,8,9,9,10,10,11,11],"right_children":[2,4,6,8,10,12,-1,14,16,18,20,22,-1,-1,-1,-1,-1,-1,-1,-1,-1,-1,-1],"split_conditions":[9E-1,6.3E-1,1.37E0,4.4E-1,-1.04528464E-1,NaN,6.0632414E-1,1.24E1,-5.8778524E-1,7.2E1,8.660254E-1,-9.848077E-1,1.0499763E-2,-1.9788049E-1,-7.233238E-2,-2.3227474E-2,-1.1727643E-1,1.594209E-1,1.8367006E-2,-1.8322945E-2,3.415806E-2,7.345321E-2,2.6233223E-1],"split_indices":[6,6,5,6,1,2,0,3,1,0,1,1,0,0,0,0,0,0,0,0,0,0,0],"split_type":[0,0,0,0,0,1,0,0,0,0,0,0,0,0,0,0,0,0,0,0,0,0,0],"sum_hessian":[5.8E1,4.8E1,1E1,2.4E1,2.4E1,8E0,2E0,1E1,1.4E1,1.3E1,1.1E1,7E0,1E0,8E0,2E0,6E0,8E0,8E0,5E0,7E0,4E0,2E0,5E0],"tree_param":{"num_deleted":"0","num_feature":"8","num_nodes":"23","size_leaf_vector":"1"}},{"base_weights":[2.1597946E-1,-1.6305537E0,4.675166E0,-2.948879E0,-2.9921898E-1,8.396405E0,2.311794E0,-1.823726E0,-4.010525E0,1.4532194E0,-6.187682E-1,2.3608032E-1,5.861134E-1,3.4836278E0,3.640499E-1,-9.887331E-2,-3.260517E-2,-2.4838805E-1,-9.34145E-2,1.0297976E-1,2.8228125E-2,-4.589119E-2,5.523028E-3,2.0144168E-1,6.160037E-2,-3.8225304E-2,5.597272E-2],"categories":[0],"categories_nodes":[5],"categories_segments":[0],"categories_sizes":[1],"default_left":[0,0,0,0,0,1,0,0,0,0,0,0,0,0,0,0,0,0,0,0,0,0,0,0,0,0,0],"id":34,"left_children":[1,3,5,7,9,11,13,15,17,19,21,-1,-1,23,25,-1,-1,-1,-1,-1,-1,-1,-1,-1,-1,-1,-1],"loss_changes":[5.3460144E2,7.985371E1,1.4768799E2,2.0159744E1,1.4338976E1,3.020523E1,2.8403412E1,1.0521164E0,1.3275635E1,9.926691E-1,4.6810617E0,0E0,0E0,4.8572083E0,5.970927E0,0E0,0E0,0E0,0E0,0E0,0E0,0E0,0E0,0E0,0E0,0E0,0E0],"parents":[2147483647,0,0,1,1,2,2,3,3,4,4,5,5,6,6,7,7,8,8,9,9,10,10,13,13,14,14],"right_children":[2,4,6,8,10,12,14,16,18,20,22,-1,-1,24,26,-1,-1,-1,-1,-1,-1,-1,-1,-1,-1,-1,-1],"split_conditions":[7.9E-1,5.4E-1,1.2E1,2.419219E-1,6.6E1,NaN,-2.7563736E-1,4.616E1,4.2E-1,1.2E1,7.5E-1,2.3608032E-1,5.861134E-1,1.26E1,5E-1,-9.887331E-2,-3.260517E-2,-2.4838805E-1,-9.34145E-2,1.0297976E-1,2.8228125E-2,-4.589119E-2,5.523028E-3,2.0144168E-1,6.160037E-2,-3.8225304E-2,5.597272E-2],"split_indices":[6,6,3,1,0,2,1,4,6,3,5,0,0,3,1,0,0,0,0,0,0,0,0,0,0,0,0],"split_type":[0,0,0,0,0,1,0,0,0,0,0,0,0,0,0,0,0,0,0,0,0,0,0,0,0,0,0],"sum_hessian":[6.3E1,4.5E1,1.8E1,2.2E1,2.3E1,6E0,1.2E1,1.2E1,1E1,3E0,2E1,4E0,2E0,7E0,5E0,1E1,2E0,6E0,4E0,1E0,2E0,1.4E1,6E0,5E0,2E0,2E0,3E0],"tree_param":{"num_deleted":"0","num_feature":"8","num_nodes":"27","size_leaf_vector":"1"}},{"base_weights":[6.414026E-2,-2.4355693E0,2.3477564E0,-3.3778598E0,-1.5150179E0,1.1898965E0,6.8092113E0,-2.3738143E0,-2.4555938E-1,3.129692E-1,-1.9014798E0,2.4181573E0,-2.9882294E-1,7.5569763E0,5.806551E-2,-1.2556595E-1,-2.4969196E-2,2.7287165E-2,-9.633827E-3,-1.06666885E-1,-3.6526825E-2,1.6412696E-2,1.5437187E-1,-5.905204E-2,2.4574627E-3,1.586408E-1,4.4779262E-1],"categories":[],"categories_nodes":[],"categories_segments":[],"categories_sizes":[],"default_left":[0,0,0,0,0,0,0,0,0,0,0,0,0,0,0,0,0,0,0,0,0,0,0,0,0,0,0],"id":35,"left_children":[1,3,5,7,9,11,13,15,-1,17,19,21,23,25,-1,-1,-1,-1,-1,-1,-1,-1,-1,-1,-1,-1,-1],"loss_changes":[3.8247104E2,2.2640121E1,1.7269867E2,1.1434738E1,1.3311161E1,5.375014E1,2.078711E1,1.5810585E0,0E0,5.759568E-1,2.5139084E0,2.1366219E1,4.3558693E0,8.382111E0,0E0,0E0,0E0,0E0,0E0,0E0,0E0,0E0,0E0,0E0,0E0,0E0,0E0],"parents":[2147483647,0,0,1,1,2,2,3,3,4,4,5,5,6,6,7,7,9,9,10,10,11,11,12,12,13,13],"right_children":[2,4,6,8,10,12,14,16,-1,18,20,22,24,26,-1,-1,-1,-1,-1,-1,-1,-1,-1,-1,-1,-1,-1],"split_conditions":[6.5E-1,4.4E-1,1.02E0,7.3E1,6.8E1,-1.04528464E-1,-2.419219E-1,7.2E1,-2.4555938E-1,6.6E1,6.946584E-1,6.7E-1,7.1E-1,-9.2718387E-1,5.806551E-2,-1.2556595E-1,-2.4969196E-2,2.7287165E-2,-9.633827E-3,-1.06666885E-1,-3.6526825E-2,1.6412696E-2,1.5437187E-1,-5.905204E-2,2.4574627E-3,1.586408E-1,4.4779262E-1],"split_indices":[6,6,6,0,0,1,1,0,0,0,1,6,6,1,0,0,0,0,0,0,0,0,0,0,0,0,0],"split_type":[0,0,0,0,0,0,0,0,0,0,0,0,0,0,0,0,0,0,0,0,0,0,0,0,0,0,0],"sum_hessian":[6.5E1,3.1E1,3.4E1,1.4E1,1.7E1,2.8E1,6E0,1E1,4E0,3E0,1.4E1,1.5E1,1.3E1,5E0,1E0,9E0,1E0,2E0,1E0,1.1E1,3E0,4E0,1.1E1,3E0,1E1,2E0,3E0],"tree_param":{"num_deleted":"0","num_feature":"8","num_nodes":"27","size_leaf_vector":"1"}},{"base_weights":[2.4345236E-1,-1.5453187E0,4.4348917E0,-2.694795E0,6.165641E-3,5.905726E0,8.596682E-1,-5.0759096E0,-2.0599961E0,1.3673706E-1,-2.670002E-1,4.107668E0,5.5646914E-1,-3.7461758E-2,1.2526913E0,-4.696784E-2,-2.9376042E-1,-1.1167677E-1,-3.386512E-2,7.462057E-2,-2.7270107E-2,2.1683721E-1,3.969574E-2,7.928767E-2,1.955223E-2],"categories":[0],"categories_nodes":[14],"categories_segments":[0],"categories_sizes":[1],"default_left":[0,0,0,0,0,0,0,0,0,0,0,0,0,0,1,0,0,0,0,0,0,0,0,0,0],"id":36,"left_children":[1,3,5,7,9,11,13,15,17,-1,19,21,-1,-1,23,-1,-1,-1,-1,-1,-1,-1,-1,-1,-1],"loss_changes":[5.0169006E2,8.383613E1,1.0009424E2,3.035492E1,1.63826E1,8.577835E1,5.3649125E0,1.1012802E1,4.0061035E0,0E0,1.0610435E1,5.6662292E0,0E0,0E0,1.1017914E0,0E0,0E0,0E0,0E0,0E0,0E0,0E0,0E0,0E0,0E0],"parents":[2147483647,0,0,1,1,2,2,3,3,4,4,5,5,6,6,7,7,8,8,10,10,11,11,14,14],"right_children":[2,4,6,8,10,12,14,16,18,-1,20,22,-1,-1,24,-1,-1,-1,-1,-1,-1,-1,-1,-1,-1],"split_conditions":[7.9E-1,5.863354E-1,-2.419219E-1,3E-1,1.14E1,1.37E0,5E-1,7.1E1,4.616E1,1.3673706E-1,6E1,1.28E1,5.5646914E-1,-3.7461758E-2,NaN,-4.696784E-2,-2.9376042E-1,-1.1167677E-1,-3.386512E-2,7.462057E-2,-2.7270107E-2,2.1683721E-1,3.969574E-2,7.928767E-2,1.955223E-2],"split_indices":[6,5,1,6,3,5,1,0,4,0,0,3,0,0,2,0,0,0,0,0,0,0,0,0,0],"split_type":[0,0,0,0,0,0,0,0,0,0,0,0,0,0,1,0,0,0,0,0,0,0,0,0,0],"sum_hessian":[6.5E1,4.6E1,1.9E1,2.6E1,2E1,1.3E1,6E0,4E0,2.2E1,1E0,1.9E1,1.1E1,2E0,1E0,5E0,1E0,3E0,1.9E1,3E0,2E0,1.7E1,1E1,1E0,3E0,2E0],"tree_param":{"num_deleted":"0","num_feature":"8","num_nodes":"25","size_leaf_vector":"1"}},{"base_weights":[-5.794929E-2,-1.7771438E0,2.970151E0,-4.8902597E0,-1.3435757E0,4.10125E0,8.633774E-1,-4.579363E-2,-2.827444E-1,1.4426651E0,-1.5281849E0,4.8146443E0,2.1098187E0,4.5392418E-1,8.3373E-2,9.4680406E-2,1.3519478E-2,-8.8617116E-2,3.4689268E-3,1.6404276E-1,2.9995105E-1,5.0889015E-2,1.4312987E-1,-1.7151166E-2,3.0838856E-2],"categories":[],"categories_nodes":[],"categories_segments":[],"categories_sizes":[],"default_left":[0,0,0,0,0,0,0,0,0,0,0,0,0,0,0,0,0,0,0,0,0,0,0,0,0],"id":37,"left_children":[1,3,5,7,9,11,13,-1,-1,15,17,19,21,23,-1,-1,-1,-1,-1,-1,-1,-1,-1,-1,-1],"loss_changes":[3.5927914E2,5.2818466E1,5.603331E1,1.0015488E1,2.2779282E1,1.2572784E1,2.5354414E0,0E0,0E0,1.0738769E0,1.4945129E1,3.0052185E-1,2.0188847E0,1.2498511E0,0E0,0E0,0E0,0E0,0E0,0E0,0E0,0E0,0E0,0E0,0E0],"parents":[2147483647,0,0,1,1,2,2,3,3,4,4,5,5,6,6,9,9,10,10,11,11,12,12,13,13],"right_children":[2,4,6,8,10,12,14,-1,-1,16,18,20,22,24,-1,-1,-1,-1,-1,-1,-1,-1,-1,-1,-1],"split_conditions":[7.7E-1,3E-1,-2.7563736E-1,7.1E1,6E1,1.25E1,1.15E0,-4.579363E-2,-2.827444E-1,-6.4278764E-1,7.5E-1,1.02E0,8.6E-1,3.09017E-1,8.3373E-2,9.4680406E-2,1.3519478E-2,-8.8617116E-2,3.4689268E-3,1.6404276E-1,2.9995105E-1,5.0889015E-2,1.4312987E-1,-1.7151166E-2,3.0838856E-2],"split_indices":[6,6,1,0,0,3,6,0,0,1,5,6,5,1,0,0,0,0,0,0,0,0,0,0,0],"split_type":[0,0,0,0,0,0,0,0,0,0,0,0,0,0,0,0,0,0,0,0,0,0,0,0,0],"sum_hessian":[6.7E1,4.3E1,2.4E1,4E0,3.9E1,1.5E1,9E0,1E0,3E0,2E0,3.7E1,1E1,5E0,7E0,2E0,1E0,1E0,3.2E1,5E0,6E0,4E0,3E0,2E0,1E0,6E0],"tree_param":{"num_deleted":"0","num_feature":"8","num_nodes":"25","size_leaf_vector":"1"}},{"base_weights":[2.7079758E-1,-1.8989124E0,2.432045E0,-8.6172724E-1,-3.3485117E0,4.1415057E0,2.1855621E-1,-1.4215821E0,-1.9506667E-2,-2.7214152E-1,-2.1759331E0,2.6345859E0,3.76629E-1,-1.2606888E0,5.431084E-1,-7.806283E-2,-2.410698E-2,3.1099727E-2,-7.549203E-2,-4.0086057E-2,-1.3251747E-1,8.625164E-2,1.7799088E-1,1.8843843E-2,-1.13395505E-1,-1.4825669E-2,4.746098E-2],"categories":[],"categories_nodes":[],"categories_segments":[],"categories_sizes":[],"default_left":[0,0,0,0,0,0,0,0,0,0,0,0,0,0,0,0,0,0,0,0,0,0,0,0,0,0,0],"id":38,"left_children":[1,3,5,7,9,11,13,15,17,-1,19,21,-1,23,25,-1,-1,-1,-1,-1,-1,-1,-1,-1,-1,-1,-1],"loss_changes":[3.000429E2,4.5226585E1,1.2017871E2,9.402695E0,2.0081558E1,7.213617E1,7.886075E0,8.218498E-1,9.543572E0,0E0,4.3946457E0,5.6408463E0,0E0,5.802895E0,4.7141933E0,0E0,0E0,0E0,0E0,0E0,0E0,0E0,0E0,0E0,0E0,0E0,0E0],"parents":[2147483647,0,0,1,1,2,2,3,3,4,4,5,5,6,6,7,7,8,8,10,10,11,11,13,13,14,14],"right_children":[2,4,6,8,10,12,14,16,18,-1,20,22,-1,24,26,-1,-1,-1,-1,-1,-1,-1,-1,-1,-1,-1,-1],"split_conditions":[6.7E-1,2.419219E-1,-1.04528464E-1,5.9E-1,3E-1,4.515E1,6.8E1,-1.391731E-1,6.6E-1,-2.7214152E-1,7E1,-8.2903755E-1,3.76629E-1,9.2718387E-1,7.6604444E-1,-7.806283E-2,-2.410698E-2,3.1099727E-2,-7.549203E-2,-4.0086057E-2,-1.3251747E-1,8.625164E-2,1.7799088E-1,1.8843843E-2,-1.13395505E-1,-1.4825669E-2,4.746098E-2],"split_indices":[6,1,1,6,6,4,0,1,6,0,0,1,0,1,1,0,0,0,0,0,0,0,0,0,0,0,0],"split_type":[0,0,0,0,0,0,0,0,0,0,0,0,0,0,0,0,0,0,0,0,0,0,0,0,0,0,0],"sum_hessian":[6.2E1,3.1E1,3.1E1,1.9E1,1.2E1,1.7E1,1.4E1,1.1E1,8E0,3E0,9E0,1.3E1,4E0,2E0,1.2E1,9E0,2E0,6E0,2E0,3E0,6E0,8E0,5E0,1E0,1E0,4E0,8E0],"tree_param":{"num_deleted":"0","num_feature":"8","num_nodes":"27","size_leaf_vector":"1"}},{"base_weights":[5.8323747E-1,-6.3127035E-1,5.2914567E0,-2.5591307E0,3.5238707E-1,7.8825927E0,2.3145604E0,-1.6978649E0,-2.0571713E-1,1.473261E0,-6.012516E-1,1.9833203E-1,5.238165E-1,1.3336936E-1,4.940033E-3,-4.1760676E-2,-1.0123944E-1,2.9824084E-2,1.3445082E-1,-7.419913E-2,4.7696894E-3],"categories":[0,0,0],"categories_nodes":[5,6,7],"categories_segments":[0,1,2],"categories_sizes":[1,1,1],"default_left":[0,0,0,0,0,1,1,1,0,0,0,0,0,0,0,0,0,0,0,0,0],"id":39,"left_children":[1,3,5,7,9,11,13,15,-1,17,19,-1,-1,-1,-1,-1,-1,-1,-1,-1,-1],"loss_changes":[3.3499414E2,9.003046E1,7.431781E1,1.4445618E1,3.5090885E1,1.9385864E1,5.2089157E0,1.6931267E0,0E0,1.4385284E1,1.121067E1,0E0,0E0,0E0,0E0,0E0,0E0,0E0,0E0,0E0,0E0],"parents":[2147483647,0,0,1,1,2,2,3,3,4,4,5,5,6,6,7,7,9,9,10,10],"right_children":[2,4,6,8,10,12,14,16,-1,18,20,-1,-1,-1,-1,-1,-1,-1,-1,-1,-1],"split_conditions":[9E-1,5.4E-1,1.2E1,7.3E1,-1.04528464E-1,NaN,NaN,NaN,-2.0571713E-1,7.7E-1,7.027406E-1,1.9833203E-1,5.238165E-1,1.3336936E-1,4.940033E-3,-4.1760676E-2,-1.0123944E-1,2.9824084E-2,1.3445082E-1,-7.419913E-2,4.7696894E-3],"split_indices":[6,6,3,0,1,2,2,2,0,6,5,0,0,0,0,0,0,0,0,0,0],"split_type":[0,0,0,0,0,1,1,1,0,0,0,0,0,0,0,0,0,0,0,0,0],"sum_hessian":[5.7E1,4.6E1,1.1E1,1.5E1,3.1E1,5E0,6E0,1.1E1,4E0,1.4E1,1.7E1,3E0,2E0,5E0,1E0,4E0,7E0,9E0,5E0,7E0,1E1],"tree_param":{"num_deleted":"0","num_feature":"8","num_nodes":"21","size_leaf_vector":"1"}},{"base_weights":[-1.7470202E-1,-1.4634407E0,2.6450324E0,-3.1102505E0,-6.2064075E-1,1.4833018E0,6.298256E0,-1.6694105E0,-4.045414E0,2.0764122E0,-8.616252E-1,2.5231812E0,1.6306898E-1,3.8089475E-1,2.5492478E-2,-1.00834005E-1,-2.0920055E-2,-3.2202866E-2,-2.195038E-1,3.035822E-2,1.253727E-1,8.711805E-2,-5.0325174E-2,1.6450806E-1,5.490845E-2,2.78052E-2,-2.3362542E-2],"categories":[0],"categories_nodes":[5],"categories_segments":[0],"categories_sizes":[1],"default_left":[0,0,0,0,0,1,0,0,0,0,0,0,0,0,0,0,0,0,0,0,0,0,0,0,0,0,0],"id":40,"left_children":[1,3,5,7,9,11,13,15,17,19,21,23,25,-1,-1,-1,-1,-1,-1,-1,-1,-1,-1,-1,-1,-1,-1],"loss_changes":[2.5461E2,6.4690346E1,8.402713E1,1.4805283E1,2.3237366E1,2.4300434E1,3.4309067E1,2.6317196E0,7.723404E0,3.7748432E-1,1.3448782E1,7.316414E0,2.48948E0,0E0,0E0,0E0,0E0,0E0,0E0,0E0,0E0,0E0,0E0,0E0,0E0,0E0,0E0],"parents":[2147483647,0,0,1,1,2,2,3,3,4,4,5,5,6,6,7,7,8,8,9,9,10,10,11,11,12,12],"right_children":[2,4,6,8,10,12,14,16,18,20,22,24,26,-1,-1,-1,-1,-1,-1,-1,-1,-1,-1,-1,-1,-1,-1],"split_conditions":[7.7E-1,4.4E-1,4.564E1,2.419219E-1,1.15E1,NaN,7E1,-1.391731E-1,6.5E1,6.8E1,6E1,4.476E1,8.7E-1,3.8089475E-1,2.5492478E-2,-1.00834005E-1,-2.0920055E-2,-3.2202866E-2,-2.195038E-1,3.035822E-2,1.253727E-1,8.711805E-2,-5.0325174E-2,1.6450806E-1,5.490845E-2,2.78052E-2,-2.3362542E-2],"split_indices":[6,6,4,1,3,2,0,1,0,0,0,4,6,0,0,0,0,0,0,0,0,0,0,0,0,0,0],"split_type":[0,0,0,0,0,1,0,0,0,0,0,0,0,0,0,0,0,0,0,0,0,0,0,0,0,0,0],"sum_hessian":[6.8E1,4.7E1,2.1E1,1.5E1,3.2E1,1.7E1,4E0,7E0,8E0,2E0,3E1,9E0,8E0,3E0,1E0,5E0,2E0,1E0,7E0,1E0,1E0,1E0,2.9E1,5E0,4E0,5E0,3E0],"tree_param":{"num_deleted":"0","num_feature":"8","num_nodes":"27","size_leaf_vector":"1"}},{"base_weights":[3.6433488E-1,-1.277936E0,3.5576673E0,-2.275356E0,-1.7135238E-2,2.1505451E0,6.9515686E0,-3.703568E0,-1.5935315E0,1.0371575E0,-6.646127E-1,2.8354592E0,7.67031E-1,1.4606991E-1,5.0039697E-1,-3.764539E-2,-2.03493E-1,-6.307489E-2,-1.4166006E-1,9.0388075E-2,-9.269333E-3,-1.8091934E-2,-1.0744753E-1,1.8938993E-1,8.7507576E-2,-5.6748074E-3,5.7097055E-2],"categories":[0],"categories_nodes":[6],"categories_segments":[0],"categories_sizes":[1],"default_left":[0,0,0,0,0,0,1,0,0,0,0,0,0,0,0,0,0,0,0,0,0,0,0,0,0,0,0],"id":41,"left_children":[1,3,5,7,9,11,13,15,17,19,21,23,25,-1,-1,-1,-1,-1,-1,-1,-1,-1,-1,-1,-1,-1,-1],"loss_changes":[3.4018274E2,5.4035576E1,9.011429E1,1.7469208E1,1.4341924E1,1.3934105E1,4.4669006E1,4.501404E0,3.8349419E0,7.871912E0,5.0648737E0,4.7401657E0,2.4404354E0,0E0,0E0,0E0,0E0,0E0,0E0,0E0,0E0,0E0,0E0,0E0,0E0,0E0,0E0],"parents":[2147483647,0,0,1,1,2,2,3,3,4,4,5,5,6,6,7,7,8,8,9,9,10,10,11,11,12,12],"right_children":[2,4,6,8,10,12,14,16,18,20,22,24,26,-1,-1,-1,-1,-1,-1,-1,-1,-1,-1,-1,-1,-1,-1],"split_conditions":[7.9E-1,5.863354E-1,1.25E0,3.5E-1,1.2E1,-2.7563736E-1,NaN,-7.431448E-1,7.7E1,7.1E1,9.2718387E-1,8E-1,9.135454E-1,1.4606991E-1,5.0039697E-1,-3.764539E-2,-2.03493E-1,-6.307489E-2,-1.4166006E-1,9.0388075E-2,-9.269333E-3,-1.8091934E-2,-1.0744753E-1,1.8938993E-1,8.7507576E-2,-5.6748074E-3,5.7097055E-2],"split_indices":[6,5,6,6,3,1,2,1,0,0,1,5,1,0,0,0,0,0,0,0,0,0,0,0,0,0,0],"split_type":[0,0,0,0,0,0,1,0,0,0,0,0,0,0,0,0,0,0,0,0,0,0,0,0,0,0,0],"sum_hessian":[6.3E1,4.2E1,2.1E1,2.3E1,1.9E1,1.6E1,5E0,6E0,1.7E1,7E0,1.2E1,1E1,6E0,3E0,2E0,1E0,5E0,1.5E1,2E0,4E0,3E0,1.1E1,1E0,4E0,6E0,2E0,4E0],"tree_param":{"num_deleted":"0","num_feature":"8","num_nodes":"27","size_leaf_vector":"1"}},{"base_weights":[-1.270121E-1,-2.274503E0,1.2891532E0,-4.0592484E0,-1.625354E0,5.6770223E-1,3.5507507E0,-3.6704253E-2,-2.2887321E-1,-2.089254E0,-1.0558677E0,1.1338087E0,-3.759416E-1,4.6139455E0,1.0682707E0,-1.1022289E-1,-2.6310444E-2,1.4448166E-3,-5.8361687E-2,1.0511791E-1,-8.797625E-3,-5.7801723E-2,6.2688196E-4,6.45196E-2,2.510289E-1,6.752307E-2,5.542469E-3],"categories":[0],"categories_nodes":[14],"categories_segments":[0],"categories_sizes":[1],"default_left":[0,0,0,0,0,0,0,0,0,0,0,0,0,0,1,0,0,0,0,0,0,0,0,0,0,0,0],"id":42,"left_children":[1,3,5,7,9,11,13,-1,-1,15,17,19,21,23,25,-1,-1,-1,-1,-1,-1,-1,-1,-1,-1,-1,-1],"loss_changes":[1.9148672E2,2.2366425E1,5.998624E1,6.978653E0,3.0777168E0,1.6452333E1,1.8825294E1,0E0,0E0,6.4068604E-1,1.3625927E0,2.4472713E1,3.6510925E0,1.6302719E0,9.310036E-1,0E0,0E0,0E0,0E0,0E0,0E0,0E0,0E0,0E0,0E0,0E0,0E0],"parents":[2147483647,0,0,1,1,2,2,3,3,4,4,5,5,6,6,9,9,10,10,11,11,12,12,13,13,14,14],"right_children":[2,4,6,8,10,12,14,-1,-1,16,18,20,22,24,26,-1,-1,-1,-1,-1,-1,-1,-1,-1,-1,-1,-1],"split_conditions":[5.9E-1,3.4E-1,8.9E-1,7.1E1,4.4E-1,-1.04528464E-1,-5.8778524E-1,-3.6704253E-2,-2.2887321E-1,9.702957E-1,6.8E1,7.2E1,7.027406E-1,9E-1,NaN,-1.1022289E-1,-2.6310444E-2,1.4448166E-3,-5.8361687E-2,1.0511791E-1,-8.797625E-3,-5.7801723E-2,6.2688196E-4,6.45196E-2,2.510289E-1,6.752307E-2,5.542469E-3],"split_indices":[6,6,6,0,6,1,1,0,0,1,0,0,5,6,2,0,0,0,0,0,0,0,0,0,0,0,0],"split_type":[0,0,0,0,0,0,0,0,0,0,0,0,0,0,1,0,0,0,0,0,0,0,0,0,0,0,0],"sum_hessian":[6.1E1,2.4E1,3.7E1,5E0,1.9E1,2.9E1,8E0,1E0,4E0,9E0,1E1,1.8E1,1.1E1,5E0,3E0,8E0,1E0,1E0,9E0,1E1,8E0,3E0,8E0,1E0,4E0,2E0,1E0],"tree_param":{"num_deleted":"0","num_feature":"8","num_nodes":"27","size_leaf_vector":"1"}},{"base_weights":[-2.6129752E-1,-1.9196415E0,1.0903678E0,-3.9005497E0,-1.3674378E0,2.644675E-1,2.0464582E0,-3.578663E-2,-2.1971832E-1,2.7872657E-2,-1.470869E0,5.905202E-1,-1.2688866E0,2.890412E0,7.357087E-1,-8.3254404E-2,-4.175043E-3,4.1021787E-2,-8.295107E-2,1.9948293E-2,-9.78913E-2,1.8741837E-1,9.93618E-2,-3.6334515E-2,5.242179E-2],"categories":[0],"categories_nodes":[12],"categories_segments":[0],"categories_sizes":[1],"default_left":[0,0,0,0,0,0,0,0,0,0,0,0,1,0,0,0,0,0,0,0,0,0,0,0,0],"id":43,"left_children":[1,3,5,7,9,11,13,-1,-1,-1,15,17,19,21,23,-1,-1,-1,-1,-1,-1,-1,-1,-1,-1],"loss_changes":[1.5003383E2,2.7482178E1,2.8675293E1,6.2910995E0,5.7972794E0,1.1248342E1,1.66791E1,0E0,0E0,0E0,6.3278503E0,1.0670801E1,5.377303E0,2.9995728E-1,4.4205422E0,0E0,0E0,0E0,0E0,0E0,0E0,0E0,0E0,0E0,0E0],"parents":[2147483647,0,0,1,1,2,2,3,3,4,4,5,5,6,6,10,10,11,11,12,12,13,13,14,14],"right_children":[2,4,6,8,10,12,14,-1,-1,-1,16,18,20,22,24,-1,-1,-1,-1,-1,-1,-1,-1,-1,-1],"split_conditions":[6.5E-1,3.4E-1,7.9E-1,7.1E1,-9.702957E-1,4.569E1,-2.7563736E-1,-3.578663E-2,-2.1971832E-1,2.7872657E-2,4.558E1,7.6E1,NaN,8E-1,5E-1,-8.3254404E-2,-4.175043E-3,4.1021787E-2,-8.295107E-2,1.9948293E-2,-9.78913E-2,1.8741837E-1,9.93618E-2,-3.6334515E-2,5.242179E-2],"split_indices":[6,6,6,0,1,4,1,0,0,0,4,0,2,5,1,0,0,0,0,0,0,0,0,0,0],"split_type":[0,0,0,0,0,0,0,0,0,0,0,0,1,0,0,0,0,0,0,0,0,0,0,0,0],"sum_hessian":[6.5E1,2.9E1,3.6E1,5E0,2.4E1,2E1,1.6E1,1E0,4E0,1E0,2.3E1,1.7E1,3E0,9E0,7E0,2E1,3E0,1.6E1,1E0,1E0,2E0,3E0,6E0,1E0,6E0],"tree_param":{"num_deleted":"0","num_feature":"8","num_nodes":"25","size_leaf_vector":"1"}},{"base_weights":[2.2890091E-2,-1.089187E0,2.6907306E0,-2.9597332E0,-4.5308587E-1,1.5738144E0,5.7267165E0,-1.118309E0,-1.8703285E-1,1.16325095E-1,-5.949217E-1,2.5145497E0,3.187604E-1,2.5042038E0,4.654192E-1,-6.5260746E-2,-9.267139E-3,-1.4895121E-2,-7.986257E-2,1.4597094E-1,3.6583584E-2,4.3234367E-2,-2.216692E-2,1.5221259E-1,2.2101497E-2],"categories":[0],"categories_nodes":[5],"categories_segments":[0],"categories_sizes":[1],"default_left":[0,0,0,0,0,1,0,0,0,0,0,0,0,0,0,0,0,0,0,0,0,0,0,0,0],"id":44,"left_children":[1,3,5,7,9,11,13,15,-1,-1,17,19,21,23,-1,-1,-1,-1,-1,-1,-1,-1,-1,-1,-1],"loss_changes":[2.0170927E2,5.5772114E1,5.8806046E1,1.3072922E1,1.5971157E1,1.8089241E1,3.4399765E1,6.29972E-1,0E0,0E0,1.024178E1,4.3604317E0,3.7117512E0,3.1090412E0,0E0,0E0,0E0,0E0,0E0,0E0,0E0,0E0,0E0,0E0,0E0],"parents":[2147483647,0,0,1,1,2,2,3,3,4,4,5,5,6,6,7,7,10,10,11,11,12,12,13,13],"right_children":[2,4,6,8,10,12,14,16,-1,-1,18,20,22,24,-1,-1,-1,-1,-1,-1,-1,-1,-1,-1,-1],"split_conditions":[7.9E-1,4.2E-1,4.564E1,2.419219E-1,1.14E1,NaN,1.02E0,7.2E1,-1.8703285E-1,1.16325095E-1,7.6E1,4.476E1,8.7E-1,6.9E1,4.654192E-1,-6.5260746E-2,-9.267139E-3,-1.4895121E-2,-7.986257E-2,1.4597094E-1,3.6583584E-2,4.3234367E-2,-2.216692E-2,1.5221259E-1,2.2101497E-2],"split_indices":[6,6,4,1,3,2,5,0,0,0,0,4,6,0,0,0,0,0,0,0,0,0,0,0,0],"split_type":[0,0,0,0,0,1,0,0,0,0,0,0,0,0,0,0,0,0,0,0,0,0,0,0,0],"sum_hessian":[6.6E1,4.7E1,1.9E1,1.1E1,3.6E1,1.5E1,4E0,4E0,7E0,1E0,3.5E1,8E0,7E0,3E0,1E0,3E0,1E0,2.8E1,7E0,6E0,2E0,4E0,3E0,2E0,1E0],"tree_param":{"num_deleted":"0","num_feature":"8","num_nodes":"25","size_leaf_vector":"1"}},{"base_weights":[2.8675273E-1,-3.2925293E-1,6.3990173E0,-1.7084423E0,1.2039647E0,2.5334835E0,4.7100282E-1,-2.7230666E0,-1.0473026E0,2.0749137E0,2.527514E-1,3.9088823E-2,1.4283969E-1,-7.448523E-2,-1.6956124E-1,4.0165903E-3,-7.023545E-2,6.529135E-2,1.6759609E-1,-1.1217666E-2,3.491311E-2],"categories":[0],"categories_nodes":[2],"categories_segments":[0],"categories_sizes":[1],"default_left":[0,0,1,0,0,0,0,0,0,0,0,0,0,0,0,0,0,0,0,0,0],"id":45,"left_children":[1,3,5,7,9,11,-1,13,15,17,19,-1,-1,-1,-1,-1,-1,-1,-1,-1,-1],"loss_changes":[2.4684422E2,1.2893275E2,4.620204E1,1.8613998E1,2.3500858E1,3.200531E-2,0E0,4.837044E0,8.576345E0,1.0354919E1,3.344987E0,0E0,0E0,0E0,0E0,0E0,0E0,0E0,0E0,0E0,0E0],"parents":[2147483647,0,0,1,1,2,2,3,3,4,4,5,5,7,7,8,8,9,9,10,10],"right_children":[2,4,6,8,10,12,-1,14,16,18,20,-1,-1,-1,-1,-1,-1,-1,-1,-1,-1],"split_conditions":[1.25E0,6.7E-1,NaN,4.4E-1,-1.04528464E-1,7.2E1,4.7100282E-1,2.419219E-1,7E1,-8.09017E-1,9.135454E-1,3.9088823E-2,1.4283969E-1,-7.448523E-2,-1.6956124E-1,4.0165903E-3,-7.023545E-2,6.529135E-2,1.6759609E-1,-1.1217666E-2,3.491311E-2],"split_indices":[6,6,2,6,1,0,0,1,0,1,1,0,0,0,0,0,0,0,0,0,0],"split_type":[0,0,1,0,0,0,0,0,0,0,0,0,0,0,0,0,0,0,0,0,0],"sum_hessian":[6.4E1,5.9E1,5E0,3.1E1,2.8E1,3E0,2E0,1.1E1,2E1,1.4E1,1.4E1,1E0,2E0,5E0,6E0,5E0,1.5E1,1E1,4E0,7E0,7E0],"tree_param":{"num_deleted":"0","num_feature":"8","num_nodes":"21","size_leaf_vector":"1"}},{"base_weights":[3.0360928E-1,-2.2564645E-1,6.488105E0,-1.3023627E0,1.1910458E0,8.537261E-2,4.553028E-1,-7.8867644E-1,-2.456342E0,1.9604172E0,1.3007767E-1,-6.911166E-2,1.19940955E-2,-1.620227E-1,-8.2868606E-2,4.8607934E-2,1.4754878E-1,-3.1171927E-2,1.715624E-2],"categories":[0],"categories_nodes":[2],"categories_segments":[0],"categories_sizes":[1],"default_left":[0,0,1,0,0,0,0,0,0,0,0,0,0,0,0,0,0,0,0],"id":46,"left_children":[1,3,5,7,9,-1,-1,11,13,15,17,-1,-1,-1,-1,-1,-1,-1,-1],"loss_changes":[2.0767435E2,9.154832E1,4.702942E1,1.8217373E1,2.0968235E1,0E0,0E0,1.5594266E1,8.941803E-1,1.1815105E1,2.1403303E0,0E0,0E0,0E0,0E0,0E0,0E0,0E0,0E0],"parents":[2147483647,0,0,1,1,2,2,3,3,4,4,7,7,8,8,9,9,10,10],"right_children":[2,4,6,8,10,-1,-1,12,14,16,18,-1,-1,-1,-1,-1,-1,-1,-1],"split_conditions":[1.32E0,7E-1,NaN,7.6E1,-1.04528464E-1,8.537261E-2,4.553028E-1,5.9E-1,2.7379805E-1,-8.2903755E-1,5E-1,-6.911166E-2,1.19940955E-2,-1.620227E-1,-8.2868606E-2,4.8607934E-2,1.4754878E-1,-3.1171927E-2,1.715624E-2],"split_indices":[5,6,2,0,1,0,0,6,5,1,1,0,0,0,0,0,0,0,0],"split_type":[0,0,1,0,0,0,0,0,0,0,0,0,0,0,0,0,0,0,0],"sum_hessian":[6.2E1,5.8E1,4E0,3.3E1,2.5E1,2E0,2E0,2.4E1,9E0,1.4E1,1.1E1,1.5E1,9E0,3E0,6E0,8E0,6E0,2E0,9E0],"tree_param":{"num_deleted":"0","num_feature":"8","num_nodes":"19","size_leaf_vector":"1"}},{"base_weights":[3.792232E-2,-6.054121E-1,2.958722E0,-1.5631018E0,3.387284E-1,2.1221574E-1,1.6177673E0,-2.674982E0,-1.1513826E0,9.214167E-1,-4.178594E-1,1.15761474E-1,5.158634E-1,-3.7002515E-2,-1.4569792E-1,-2.5888432E-2,-7.2636545E-2,-5.1111435E-3,1.052947E-1,-3.2850895E-2,2.5931105E-2,3.1391464E-2,4.4991495E-3],"categories":[],"categories_nodes":[],"categories_segments":[],"categories_sizes":[],"default_left":[0,0,0,0,0,0,0,0,0,0,0,0,0,0,0,0,0,0,0,0,0,0,0],"id":47,"left_children":[1,3,5,7,9,-1,11,13,15,17,19,-1,21,-1,-1,-1,-1,-1,-1,-1,-1,-1,-1],"loss_changes":[1.1453432E2,4.5739147E1,1.2096817E1,8.364639E0,1.184725E1,0E0,4.1854134E0,6.17939E-1,3.0665894E0,1.8402435E1,3.0283544E0,0E0,1.3424218E-1,0E0,0E0,0E0,0E0,0E0,0E0,0E0,0E0,0E0,0E0],"parents":[2147483647,0,0,1,1,2,2,3,3,4,4,6,6,7,7,8,8,9,9,10,10,12,12],"right_children":[2,4,6,8,10,-1,12,14,16,18,20,-1,22,-1,-1,-1,-1,-1,-1,-1,-1,-1,-1],"split_conditions":[9E-1,5.9E-1,1.19E1,2.7379805E-1,-1.04528464E-1,2.1221574E-1,4.365E1,7.2E1,1.19E1,-8.2903755E-1,4.621E1,1.15761474E-1,7.6E1,-3.7002515E-2,-1.4569792E-1,-2.5888432E-2,-7.2636545E-2,-5.1111435E-3,1.052947E-1,-3.2850895E-2,2.5931105E-2,3.1391464E-2,4.4991495E-3],"split_indices":[6,6,3,5,1,0,4,0,3,1,4,0,0,0,0,0,0,0,0,0,0,0,0],"split_type":[0,0,0,0,0,0,0,0,0,0,0,0,0,0,0,0,0,0,0,0,0,0,0],"sum_hessian":[5.9E1,4.9E1,1E1,2.4E1,2.5E1,4E0,6E0,5E0,1.9E1,1.4E1,1.1E1,3E0,3E0,1E0,4E0,7E0,1.2E1,8E0,6E0,9E0,2E0,2E0,1E0],"tree_param":{"num_deleted":"0","num_feature":"8","num_nodes":"23","size_leaf_vector":"1"}},{"base_weights":[1.25228E-1,-6.5860486E-1,4.9014034E0,-2.4634974E0,-4.1293006E-2,2.5640967E0,4.360659E-1,-1.8767643E-1,-1.5721319E0,2.7743116E-1,-1.674547E0,3.519249E-2,1.3784148E-1,-9.7666614E-2,-2.559991E-2,3.6821347E-2,-1.7117012E-2,-1.0011219E-1,7.29084E-3],"categories":[0],"categories_nodes":[2],"categories_segments":[0],"categories_sizes":[1],"default_left":[0,0,1,0,0,0,0,0,0,0,0,0,0,0,0,0,0,0,0],"id":48,"left_children":[1,3,5,7,9,11,-1,-1,13,15,17,-1,-1,-1,-1,-1,-1,-1,-1],"loss_changes":[2.3908266E2,6.117826E1,5.7992523E1,1.0197411E1,2.2327986E1,5.693245E-1,0E0,0E0,3.041132E0,1.0493116E1,4.4676514E0,0E0,0E0,0E0,0E0,0E0,0E0,0E0,0E0],"parents":[2147483647,0,0,1,1,2,2,3,3,4,4,5,5,8,8,9,9,10,10],"right_children":[2,4,6,8,10,12,-1,-1,14,16,18,-1,-1,-1,-1,-1,-1,-1,-1],"split_conditions":[1.02E0,4.4E-1,NaN,3.4E-1,7.6E1,7.2E1,4.360659E-1,-1.8767643E-1,1.24E1,-1.04528464E-1,6.946584E-1,3.519249E-2,1.3784148E-1,-9.7666614E-2,-2.559991E-2,3.6821347E-2,-1.7117012E-2,-1.0011219E-1,7.29084E-3],"split_indices":[6,6,2,6,0,0,0,0,3,1,1,0,0,0,0,0,0,0,0],"split_type":[0,0,1,0,0,0,0,0,0,0,0,0,0,0,0,0,0,0,0],"sum_hessian":[6.2E1,5.4E1,8E0,1.3E1,4.1E1,6E0,2E0,4E0,9E0,3.5E1,6E0,1E0,5E0,6E0,3E0,2E1,1.5E1,5E0,1E0],"tree_param":{"num_deleted":"0","num_feature":"8","num_nodes":"19","size_leaf_vector":"1"}},{"base_weights":[1.6576852E-1,-8.4982E-1,2.639109E0,-1.7084428E0,-6.311592E-2,1.3412546E0,5.011275E0,-2.8111527E0,-1.2836198E0,1.0198555E-1,-2.4322626E-1,1.7808728E0,2.8169098E-1,2.6620116E0,4.189398E-1,-2.4053574E-2,-1.6367026E-1,-6.812206E-2,-5.619049E-4,1.4071994E-3,-5.0839968E-2,1.9414203E-2,1.061643E-1,-1.110185E-2,3.45761E-2,1.563623E-1,2.0026876E-2],"categories":[0],"categories_nodes":[5],"categories_segments":[0],"categories_sizes":[1],"default_left":[0,0,0,0,0,1,0,0,0,0,0,0,0,0,0,0,0,0,0,0,0,0,0,0,0,0,0],"id":49,"left_children":[1,3,5,7,9,11,13,15,17,-1,19,21,23,25,-1,-1,-1,-1,-1,-1,-1,-1,-1,-1,-1,-1,-1],"loss_changes":[1.5546844E2,2.961338E1,4.869567E1,6.229141E0,9.585893E0,5.553787E0,2.5162704E1,3.8106842E0,1.6896362E0,0E0,4.856885E0,3.4671307E0,1.1857601E0,4.0079994E0,0E0,0E0,0E0,0E0,0E0,0E0,0E0,0E0,0E0,0E0,0E0,0E0,0E0],"parents":[2147483647,0,0,1,1,2,2,3,3,4,4,5,5,6,6,7,7,8,8,10,10,11,11,12,12,13,13],"right_children":[2,4,6,8,10,12,14,16,18,-1,20,22,24,26,-1,-1,-1,-1,-1,-1,-1,-1,-1,-1,-1,-1,-1],"split_conditions":[7.9E-1,5.2E-1,4.564E1,3.4E-1,1.14E1,NaN,1.02E0,7.1E1,1.25E1,1.0198555E-1,4.569E1,-9.848077E-1,9.135454E-1,-6.4278764E-1,4.189398E-1,-2.4053574E-2,-1.6367026E-1,-6.812206E-2,-5.619049E-4,1.4071994E-3,-5.0839968E-2,1.9414203E-2,1.061643E-1,-1.110185E-2,3.45761E-2,1.563623E-1,2.0026876E-2],"split_indices":[6,6,4,6,3,2,5,0,3,0,4,1,1,1,0,0,0,0,0,0,0,0,0,0,0,0,0],"split_type":[0,0,0,0,0,1,0,0,0,0,0,0,0,0,0,0,0,0,0,0,0,0,0,0,0,0,0],"sum_hessian":[6E1,4.3E1,1.7E1,2E1,2.3E1,1.2E1,5E0,4E0,1.6E1,1E0,2.2E1,8E0,4E0,4E0,1E0,1E0,3E0,1.5E1,1E0,1.7E1,5E0,2E0,6E0,2E0,2E0,3E0,1E0],"tree_param":{"num_deleted":"0","num_feature":"8","num_nodes":"27","size_leaf_vector":"1"}},{"base_weights":[1.2271253E-1,-3.9515892E-1,5.539911E0,-1.2301215E0,4.0117437E-1,2.088869E0,4.1473314E-1,-2.3752863E0,-8.6027044E-1,-5.625572E-2,1.0259906E0,3.1658556E-2,1.1815224E-1,-3.6923315E-2,-1.4411606E-1,-3.1329375E-2,-1.1825415E-1,9.94359E-2,-1.3427764E-2,6.59241E-2,-2.4298605E-2],"categories":[0],"categories_nodes":[2],"categories_segments":[0],"categories_sizes":[1],"default_left":[0,0,1,0,0,0,0,0,0,0,0,0,0,0,0,0,0,0,0,0,0],"id":50,"left_children":[1,3,5,7,9,11,-1,13,15,17,19,-1,-1,-1,-1,-1,-1,-1,-1,-1,-1],"loss_changes":[1.9295717E2,4.238273E1,3.971411E1,1.1086365E1,9.489441E0,1.00255966E-1,0E0,3.6809769E0,7.3092957E0,9.217021E0,6.8320494E0,0E0,0E0,0E0,0E0,0E0,0E0,0E0,0E0,0E0,0E0],"parents":[2147483647,0,0,1,1,2,2,3,3,4,4,5,5,7,7,8,8,9,9,10,10],"right_children":[2,4,6,8,10,12,-1,14,16,18,20,-1,-1,-1,-1,-1,-1,-1,-1,-1,-1],"split_conditions":[1.25E0,6.3E-1,NaN,3E-1,7.9E-1,7.2E1,4.1473314E-1,7.2E1,7.7E1,1.14E1,1.1673679E0,3.1658556E-2,1.1815224E-1,-3.6923315E-2,-1.4411606E-1,-3.1329375E-2,-1.1825415E-1,9.94359E-2,-1.3427764E-2,6.59241E-2,-2.4298605E-2],"split_indices":[6,6,2,5,6,0,0,0,0,3,5,0,0,0,0,0,0,0,0,0,0],"split_type":[0,0,1,0,0,0,0,0,0,0,0,0,0,0,0,0,0,0,0,0,0],"sum_hessian":[6.7E1,6.2E1,5E0,3E1,3.2E1,3E0,2E0,6E0,2.4E1,1.9E1,1.3E1,1E0,2E0,2E0,4E0,2.2E1,2E0,1E0,1.8E1,1.1E1,2E0],"tree_param":{"num_deleted":"0","num_feature":"8","num_nodes":"21","size_leaf_vector":"1"}},{"base_weights":[-1.3765825E-1,-1.1855948E0,9.8232776E-1,-2.3840005E0,-7.7125484E-1,1.8525045E0,-6.936111E-2,-3.5692565E-2,-1.410871E-1,-4.6132016E-1,-1.7274837E0,2.555208E0,1.3834698E-1,3.8802244E-2,-3.4538302E-1,-4.0902335E-2,1.1030817E-2,-9.969807E-3,-9.9661104E-2,1.8683434E-1,8.730971E-2,-4.2734433E-2,2.5394592E-2,-9.894238E-2,-8.495504E-4],"categories":[0],"categories_nodes":[6],"categories_segments":[0],"categories_sizes":[1],"default_left":[0,0,0,0,0,0,1,0,0,0,0,0,0,0,0,0,0,0,0,0,0,0,0,0,0],"id":51,"left_children":[1,3,5,7,9,11,13,-1,-1,15,17,19,21,-1,23,-1,-1,-1,-1,-1,-1,-1,-1,-1,-1],"loss_changes":[7.510612E1,1.4547394E1,2.8498302E1,3.8344421E0,6.90866E0,2.0123749E1,3.768291E0,0E0,0E0,5.2890368E0,2.038988E0,4.9450073E0,2.6359165E0,0E0,6.4033775E0,0E0,0E0,0E0,0E0,0E0,0E0,0E0,0E0,0E0,0E0],"parents":[2147483647,0,0,1,1,2,2,3,3,4,4,5,5,6,6,9,9,10,10,11,11,12,12,14,14],"right_children":[2,4,6,8,10,12,14,-1,-1,16,18,20,22,-1,24,-1,-1,-1,-1,-1,-1,-1,-1,-1,-1],"split_conditions":[6.7E-1,3.393031E-1,-1.04528464E-1,7.2E1,7.6E1,7.4E1,NaN,-3.5692565E-2,-1.410871E-1,5.9E-1,1.19E1,1.19E1,1.22E1,3.8802244E-2,6.8E1,-4.0902335E-2,1.1030817E-2,-9.969807E-3,-9.9661104E-2,1.8683434E-1,8.730971E-2,-4.2734433E-2,2.5394592E-2,-9.894238E-2,-8.495504E-4],"split_indices":[6,5,1,0,0,0,2,0,0,6,3,3,3,0,0,0,0,0,0,0,0,0,0,0,0],"split_type":[0,0,0,0,0,0,1,0,0,0,0,0,0,0,0,0,0,0,0,0,0,0,0,0,0],"sum_hessian":[6.2E1,3.2E1,3E1,7E0,2.5E1,1.6E1,1.4E1,2E0,5E0,2E1,5E0,1.1E1,5E0,3E0,1.1E1,1.3E1,7E0,1E0,4E0,3E0,8E0,1E0,4E0,1E0,1E1],"tree_param":{"num_deleted":"0","num_feature":"8","num_nodes":"25","size_leaf_vector":"1"}},{"base_weights":[-4.8069123E-2,-8.846401E-1,2.218421E0,-2.0430467E0,-3.6638758E-1,1.04609E0,4.8227973E0,-1.0338423E0,-2.9045594E0,9.5590085E-1,-4.82532E-1,1.3256156E0,8.575344E-2,2.0693445E0,3.9591524E-1,-6.951521E-2,1.1847814E-3,-1.761355E-1,-7.801344E-2,6.608563E-2,5.6069377E-3,-3.4705512E-2,1.0625958E-2,8.1790924E-2,2.2567844E-2,-1.1487198E-2,1.3375028E-2,1.2668432E-1,1.6907979E-2],"categories":[],"categories_nodes":[],"categories_segments":[],"categories_sizes":[],"default_left":[0,0,0,0,0,0,0,0,0,0,0,0,0,0,0,0,0,0,0,0,0,0,0,0,0,0,0,0,0],"id":52,"left_children":[1,3,5,7,9,11,13,15,17,19,21,23,25,27,-1,-1,-1,-1,-1,-1,-1,-1,-1,-1,-1,-1,-1,-1,-1],"loss_changes":[1.1951945E2,2.6867424E1,4.685917E1,9.169331E0,5.5292754E0,3.376027E0,2.6230957E1,3.0487204E0,3.20446E-1,7.7775884E-1,4.7062993E0,1.9736366E0,2.908196E-1,2.3586578E0,0E0,0E0,0E0,0E0,0E0,0E0,0E0,0E0,0E0,0E0,0E0,0E0,0E0,0E0,0E0],"parents":[2147483647,0,0,1,1,2,2,3,3,4,4,5,5,6,6,7,7,8,8,9,9,10,10,11,11,12,12,13,13],"right_children":[2,4,6,8,10,12,14,16,18,20,22,24,26,28,-1,-1,-1,-1,-1,-1,-1,-1,-1,-1,-1,-1,-1,-1,-1],"split_conditions":[7.9E-1,4.4E-1,4.564E1,2.419219E-1,6E1,1.26E1,1.02E0,-1.391731E-1,3E-1,-6.4278764E-1,1.24E1,4.476E1,7E1,6.9E1,3.9591524E-1,-6.951521E-2,1.1847814E-3,-1.761355E-1,-7.801344E-2,6.608563E-2,5.6069377E-3,-3.4705512E-2,1.0625958E-2,8.1790924E-2,2.2567844E-2,-1.1487198E-2,1.3375028E-2,1.2668432E-1,1.6907979E-2],"split_indices":[6,6,4,1,0,3,5,1,6,1,3,4,0,0,0,0,0,0,0,0,0,0,0,0,0,0,0,0,0],"split_type":[0,0,0,0,0,0,0,0,0,0,0,0,0,0,0,0,0,0,0,0,0,0,0,0,0,0,0,0,0],"sum_hessian":[6.1E1,4.5E1,1.6E1,1.3E1,3.2E1,1.2E1,4E0,7E0,6E0,2E0,3E1,9E0,3E0,3E0,1E0,5E0,2E0,3E0,3E0,1E0,1E0,2.3E1,7E0,6E0,3E0,1E0,2E0,2E0,1E0],"tree_param":{"num_deleted":"0","num_feature":"8","num_nodes":"29","size_leaf_vector":"1"}},{"base_weights":[1.7973214E-1,-2.919453E-1,5.181003E0,-1.3748337E0,6.445861E-1,1.945838E0,3.8837776E-1,-2.7539623E0,-9.888496E-1,1.1916815E0,-1.6431986E-1,2.933283E-2,1.1016732E-1,-1.9898986E-2,-1.5727814E-1,-5.9491534E-2,2.652054E-3,-7.473101E-3,8.690515E-2,-5.04453E-2,2.1612316E-3],"categories":[0],"categories_nodes":[2],"categories_segments":[0],"categories_sizes":[1],"default_left":[0,0,1,0,0,0,0,0,0,0,0,0,0,0,0,0,0,0,0,0,0],"id":53,"left_children":[1,3,5,7,9,11,-1,13,15,17,19,-1,-1,-1,-1,-1,-1,-1,-1,-1,-1],"loss_changes":[1.6428264E2,6.579237E1,3.509314E1,1.3246399E1,1.5685023E1,1.0739422E-1,0E0,4.2837524E0,5.2981186E0,1.5649202E1,2.6729481E0,0E0,0E0,0E0,0E0,0E0,0E0,0E0,0E0,0E0,0E0],"parents":[2147483647,0,0,1,1,2,2,3,3,4,4,5,5,7,7,8,8,9,9,10,10],"right_children":[2,4,6,8,10,12,-1,14,16,18,20,-1,-1,-1,-1,-1,-1,-1,-1,-1,-1],"split_conditions":[1.15E0,6.3E-1,NaN,3.4E-1,-1.04528464E-1,7.2E1,3.8837776E-1,7.1E1,4.616E1,6.7E-1,6.8E1,2.933283E-2,1.1016732E-1,-1.9898986E-2,-1.5727814E-1,-5.9491534E-2,2.652054E-3,-7.473101E-3,8.690515E-2,-5.04453E-2,2.1612316E-3],"split_indices":[6,6,2,6,1,0,0,0,4,6,0,0,0,0,0,0,0,0,0,0,0],"split_type":[0,0,1,0,0,0,0,0,0,0,0,0,0,0,0,0,0,0,0,0,0],"sum_hessian":[6.8E1,6.3E1,5E0,2.9E1,3.4E1,3E0,2E0,5E0,2.4E1,2E1,1.4E1,1E0,2E0,1E0,4E0,2E1,4E0,6E0,1.4E1,2E0,1.2E1],"tree_param":{"num_deleted":"0","num_feature":"8","num_nodes":"21","size_leaf_vector":"1"}},{"base_weights":[9.371599E-2,-9.883123E-1,1.1411636E0,-2.6457937E0,-5.9784085E-1,2.2636375E0,1.765124E-2,-1.9401504E-2,-1.5098701E-1,-1.1739782E0,-3.0868703E-1,2.750329E0,9.129817E-1,6.1512214E-1,-3.3234438E-1,2.3944665E-2,-7.202244E-2,-2.7339453E-2,5.840731E-3,2.912674E-2,1.4472218E-1,7.623577E-3,8.1133395E-2,4.9996693E-3,4.0058747E-2,-9.434004E-2,-9.7514066E-4],"categories":[0],"categories_nodes":[6],"categories_segments":[0],"categories_sizes":[1],"default_left":[0,0,0,0,0,0,1,0,0,0,0,0,0,0,0,0,0,0,0,0,0,0,0,0,0,0,0],"id":54,"left_children":[1,3,5,7,9,11,13,-1,-1,15,17,19,21,23,25,-1,-1,-1,-1,-1,-1,-1,-1,-1,-1,-1,-1],"loss_changes":[7.59301E1,1.977581E1,4.2837906E1,3.8939476E0,4.3021927E0,8.663994E0,3.968452E0,0E0,0E0,4.6537943E0,2.090129E0,2.0628052E0,2.9909315E0,5.907757E-1,5.7987847E0,0E0,0E0,0E0,0E0,0E0,0E0,0E0,0E0,0E0,0E0,0E0,0E0],"parents":[2147483647,0,0,1,1,2,2,3,3,4,4,5,5,6,6,9,9,10,10,11,11,12,12,13,13,14,14],"right_children":[2,4,6,8,10,12,14,-1,-1,16,18,20,22,24,26,-1,-1,-1,-1,-1,-1,-1,-1,-1,-1,-1,-1],"split_conditions":[6.7E-1,3.4E-1,-1.04528464E-1,7.1E1,-7.6604444E-1,1.25E1,NaN,-1.9401504E-2,-1.5098701E-1,1.15E1,7.5E1,7E-1,8.6E-1,7.193398E-1,6.8E1,2.3944665E-2,-7.202244E-2,-2.7339453E-2,5.840731E-3,2.912674E-2,1.4472218E-1,7.623577E-3,8.1133395E-2,4.9996693E-3,4.0058747E-2,-9.434004E-2,-9.7514066E-4],"split_indices":[6,6,1,0,1,3,2,0,0,3,0,6,5,1,0,0,0,0,0,0,0,0,0,0,0,0,0],"split_type":[0,0,0,0,0,0,1,0,0,0,0,0,0,0,0,0,0,0,0,0,0,0,0,0,0,0,0],"sum_hessian":[6.5E1,3.2E1,3.3E1,5E0,2.7E1,1.6E1,1.7E1,1E0,4E0,8E0,1.9E1,1.1E1,5E0,6E0,1.1E1,1E0,7E0,1.2E1,7E0,1E0,1E1,3E0,2E0,2E0,4E0,1E0,1E1],"tree_param":{"num_deleted":"0","num_feature":"8","num_nodes":"27","size_leaf_vector":"1"}},{"base_weights":[1.236352E-1,-2.3102936E-1,3.7060788E-1,-1.0740764E0,7.6533717E-1,-2.5419016E0,-7.3335135E-1,1.529833E0,-5.0181072E-2,-1.8916463E-2,-1.4494751E-1,3.048916E-2,-4.2771365E-2,1.21414244E-1,4.1888922E-2,-4.083724E-2,1.04760965E-2],"categories":[],"categories_nodes":[],"categories_segments":[],"categories_sizes":[],"default_left":[0,0,0,0,0,0,0,0,0,0,0,0,0,0,0,0,0],"id":55,"left_children":[1,3,-1,5,7,9,11,13,15,-1,-1,-1,-1,-1,-1,-1,-1],"loss_changes":[1.6715117E2,5.290103E1,0E0,1.5140137E1,1.815712E1,3.5382462E0,5.276595E0,7.2922974E0,3.1573093E0,0E0,0E0,0E0,0E0,0E0,0E0,0E0,0E0],"parents":[2147483647,0,0,1,1,3,3,4,4,5,5,6,6,7,7,8,8],"right_children":[2,4,-1,6,8,10,12,14,16,-1,-1,-1,-1,-1,-1,-1,-1],"split_conditions":[1.37E0,6.7E-1,3.7060788E-1,3.4E-1,-1.04528464E-1,7.1E1,-9.702957E-1,7.2E1,7.1E-1,-1.8916463E-2,-1.4494751E-1,3.048916E-2,-4.2771365E-2,1.21414244E-1,4.1888922E-2,-4.083724E-2,1.04760965E-2],"split_indices":[5,6,0,6,1,0,1,0,6,0,0,0,0,0,0,0,0],"split_type":[0,0,0,0,0,0,0,0,0,0,0,0,0,0,0,0,0],"sum_hessian":[6.3E1,6.1E1,2E0,3.3E1,2.8E1,5E0,2.8E1,1.4E1,1.4E1,1E0,4E0,2E0,2.6E1,5E0,9E0,3E0,1.1E1],"tree_param":{"num_deleted":"0","num_feature":"8","num_nodes":"17","size_leaf_vector":"1"}},{"base_weights":[2.842467E-2,-7.07461E-1,1.2537165E0,-2.4676006E-1,-1.316247E0,2.1203563E0,2.1038024E-1,-8.0685776E-1,3.805758E-1,-1.5053883E0,6.820806E-2,1.3852E0,3.0195663E0,-2.7799478E-2,4.1925317E-1,-4.916854E-2,5.4654437E-3,3.964318E-2,-3.2110788E-2,-4.692032E-2,-1.22583546E-1,4.9308776E-3,1.8472671E-4,9.602191E-2,1.1802149E-2,1.6702452E-1,4.339676E-2,1.4547826E-3,2.9115349E-2],"categories":[],"categories_nodes":[],"categories_segments":[],"categories_sizes":[],"default_left":[0,0,0,0,0,0,0,0,0,0,0,0,0,0,0,0,0,0,0,0,0,0,0,0,0,0,0,0,0],"id":56,"left_children":[1,3,5,7,9,11,13,15,17,19,21,23,25,-1,27,-1,-1,-1,-1,-1,-1,-1,-1,-1,-1,-1,-1,-1,-1],"loss_changes":[5.769246E1,1.0893934E1,2.1254639E1,8.739936E0,4.5542603E0,4.4110756E0,2.1539872E0,2.2097902E0,5.569403E0,5.7472115E0,5.521125E-3,5.08235E0,5.5321884E-1,0E0,6.192241E-1,0E0,0E0,0E0,0E0,0E0,0E0,0E0,0E0,0E0,0E0,0E0,0E0,0E0,0E0],"parents":[2147483647,0,0,1,1,2,2,3,3,4,4,5,5,6,6,7,7,8,8,9,9,10,10,11,11,12,12,14,14],"right_children":[2,4,6,8,10,12,14,16,18,20,22,24,26,-1,28,-1,-1,-1,-1,-1,-1,-1,-1,-1,-1,-1,-1,-1,-1],"split_conditions":[7.7E-1,2.419219E-1,-2.7563736E-1,5.9E-1,7.1E-1,1.02E0,5E-1,-1.391731E-1,4.485E1,4.432E1,6.9E1,7.2E1,1.24E1,-2.7799478E-2,7.9E-1,-4.916854E-2,5.4654437E-3,3.964318E-2,-3.2110788E-2,-4.692032E-2,-1.22583546E-1,4.9308776E-3,1.8472671E-4,9.602191E-2,1.1802149E-2,1.6702452E-1,4.339676E-2,1.4547826E-3,2.9115349E-2],"split_indices":[6,1,1,6,6,6,1,1,4,4,0,0,3,0,6,0,0,0,0,0,0,0,0,0,0,0,0,0,0],"split_type":[0,0,0,0,0,0,0,0,0,0,0,0,0,0,0,0,0,0,0,0,0,0,0,0,0,0,0,0,0],"sum_hessian":[6.2E1,3.9E1,2.3E1,2.3E1,1.6E1,1.2E1,1.1E1,1.2E1,1.1E1,1.4E1,2E0,8E0,4E0,2E0,9E0,1E1,2E0,8E0,3E0,1E1,4E0,1E0,1E0,5E0,3E0,3E0,1E0,3E0,6E0],"tree_param":{"num_deleted":"0","num_feature":"8","num_nodes":"29","size_leaf_vector":"1"}},{"base_weights":[1.7522296E-1,-3.045372E-1,4.6237807E0,-9.597697E-1,7.517208E-1,1.5966606E0,3.5593402E-1,-2.3774214E0,-6.4424706E-1,1.6579714E0,-3.052545E-1,1.760502E-2,9.470736E-2,-1.7214347E-2,-1.3575955E-1,-2.4108598E-2,-7.885962E-2,1.1734491E-1,1.120472E-2,-8.789597E-2,7.901955E-4],"categories":[0],"categories_nodes":[2],"categories_segments":[0],"categories_sizes":[1],"default_left":[0,0,1,0,0,0,0,0,0,0,0,0,0,0,0,0,0,0,0,0,0],"id":57,"left_children":[1,3,5,7,9,11,-1,13,15,17,19,-1,-1,-1,-1,-1,-1,-1,-1,-1,-1],"loss_changes":[1.3159679E2,3.9478775E1,3.3948044E1,1.412389E1,2.1579563E1,8.140297E-1,0E0,3.1855812E0,3.7757378E0,1.1328106E1,5.158075E0,0E0,0E0,0E0,0E0,0E0,0E0,0E0,0E0,0E0,0E0],"parents":[2147483647,0,0,1,1,2,2,3,3,4,4,5,5,7,7,8,8,9,9,10,10],"right_children":[2,4,6,8,10,12,-1,14,16,18,20,-1,-1,-1,-1,-1,-1,-1,-1,-1,-1],"split_conditions":[1.25E0,6.7E-1,NaN,3.4E-1,-1.04528464E-1,7.2E1,3.5593402E-1,7.1E1,7.7E1,8E-1,6.8E1,1.760502E-2,9.470736E-2,-1.7214347E-2,-1.3575955E-1,-2.4108598E-2,-7.885962E-2,1.1734491E-1,1.120472E-2,-8.789597E-2,7.901955E-4],"split_indices":[6,6,2,6,1,0,0,0,0,5,0,0,0,0,0,0,0,0,0,0,0],"split_type":[0,0,1,0,0,0,0,0,0,0,0,0,0,0,0,0,0,0,0,0,0],"sum_hessian":[6E1,5.5E1,5E0,3.4E1,2.1E1,3E0,2E0,5E0,2.9E1,1.1E1,1E1,1E0,2E0,1E0,4E0,2.6E1,3E0,7E0,4E0,1E0,9E0],"tree_param":{"num_deleted":"0","num_feature":"8","num_nodes":"21","size_leaf_vector":"1"}},{"base_weights":[6.511199E-2,-2.5048724E-1,3.4406957E-1,-1.0632622E0,5.2184474E-1,-2.4349575E0,-7.80343E-1,1.0012817E0,-8.010197E-2,-1.6784001E-2,-1.4379285E-1,-3.0349845E-2,-1.01128064E-1,-6.6094495E-2,6.018926E-2,2.1639792E-2,-1.7629122E-2],"categories":[0],"categories_nodes":[8],"categories_segments":[0],"categories_sizes":[1],"default_left":[0,0,0,0,0,0,0,0,1,0,0,0,0,0,0,0,0],"id":58,"left_children":[1,3,-1,5,7,9,11,13,15,-1,-1,-1,-1,-1,-1,-1,-1],"loss_changes":[1.4585492E2,4.1357445E1,0E0,1.0518425E1,9.892451E0,3.6624813E0,4.8016567E0,1.0529825E1,2.3886702E0,0E0,0E0,0E0,0E0,0E0,0E0,0E0,0E0],"parents":[2147483647,0,0,1,1,3,3,4,4,5,5,6,6,7,7,8,8],"right_children":[2,4,-1,6,8,10,12,14,16,-1,-1,-1,-1,-1,-1,-1,-1],"split_conditions":[1.37E0,6.3E-1,3.4406957E-1,3E-1,-2.0791169E-1,7.1E1,7.7E1,4.169E1,NaN,-1.6784001E-2,-1.4379285E-1,-3.0349845E-2,-1.01128064E-1,-6.6094495E-2,6.018926E-2,2.1639792E-2,-1.7629122E-2],"split_indices":[5,6,0,6,1,0,0,4,2,0,0,0,0,0,0,0,0],"split_type":[0,0,0,0,0,0,0,0,1,0,0,0,0,0,0,0,0],"sum_hessian":[6.6E1,6.4E1,2E0,3.1E1,3.3E1,4E0,2.7E1,1.8E1,1.5E1,1E0,3E0,2.5E1,2E0,1E0,1.7E1,5E0,1E1],"tree_param":{"num_deleted":"0","num_feature":"8","num_nodes":"17","size_leaf_vector":"1"}},{"base_weights":[1.16953105E-1,-1.0108788E0,8.369235E-1,-4.2530018E-1,-1.6098138E0,1.5065718E0,-1.1830206E-1,2.1712367E-1,-8.0632716E-1,-4.962921E-1,-2.1045382E0,9.9332154E-1,2.795227E0,-8.525791E-2,8.7448835E-2,2.585404E-2,-1.27596855E-2,-6.486297E-2,6.5826415E-3,-3.9210286E-2,-2.1473884E-3,-1.1638673E-1,-1.3554096E-2,7.952171E-2,1.78294E-2,1.5150283E-1,4.0526964E-2,-2.909174E-2,8.542837E-3],"categories":[0],"categories_nodes":[7],"categories_segments":[0],"categories_sizes":[1],"default_left":[0,0,0,0,0,0,0,1,0,0,0,0,0,0,0,0,0,0,0,0,0,0,0,0,0,0,0,0,0],"id":59,"left_children":[1,3,5,7,9,11,13,15,17,19,21,23,25,-1,27,-1,-1,-1,-1,-1,-1,-1,-1,-1,-1,-1,-1,-1,-1],"loss_changes":[5.2002377E1,8.083431E0,2.5125168E1,3.6020043E0,5.5661697E0,1.2435703E1,5.699565E0,9.820056E-1,4.3151493E0,6.1894023E-1,2.6427612E0,6.276499E0,3.404045E-1,0E0,9.92587E-1,0E0,0E0,0E0,0E0,0E0,0E0,0E0,0E0,0E0,0E0,0E0,0E0,0E0,0E0],"parents":[2147483647,0,0,1,1,2,2,3,3,4,4,5,5,6,6,7,7,8,8,9,9,10,10,11,11,12,12,14,14],"right_children":[2,4,6,8,10,12,14,16,18,20,22,24,26,-1,28,-1,-1,-1,-1,-1,-1,-1,-1,-1,-1,-1,-1,-1,-1],"split_conditions":[5.863354E-1,2.419219E-1,-1.04528464E-1,4.407E1,7E1,9.2E-1,6.8E1,NaN,4.558E1,9.396926E-1,4.488E1,7.1E1,1.24E1,-8.525791E-2,5E-1,2.585404E-2,-1.27596855E-2,-6.486297E-2,6.5826415E-3,-3.9210286E-2,-2.1473884E-3,-1.1638673E-1,-1.3554096E-2,7.952171E-2,1.78294E-2,1.5150283E-1,4.0526964E-2,-2.909174E-2,8.542837E-3],"split_indices":[5,1,1,4,0,6,0,2,4,1,4,0,3,0,1,0,0,0,0,0,0,0,0,0,0,0,0,0,0],"split_type":[0,0,0,0,0,0,0,1,0,0,0,0,0,0,0,0,0,0,0,0,0,0,0,0,0,0,0,0,0],"sum_hessian":[6.2E1,2.4E1,3.8E1,1.3E1,1.1E1,2.2E1,1.6E1,5E0,8E0,4E0,7E0,1.7E1,5E0,1E0,1.5E1,3E0,2E0,5E0,3E0,2E0,2E0,6E0,1E0,8E0,9E0,4E0,1E0,1E0,1.4E1],"tree_param":{"num_deleted":"0","num_feature":"8","num_nodes":"29","size_leaf_vector":"1"}},{"base_weights":[2.9066804E-1,-2.109353E-1,3.4909265E0,-1.1499056E0,1.4335446E-1,1.6807594E0,3.2755038E-1,-7.761213E-1,-9.085034E-2,5.452931E-1,-3.9305717E-1,8.34961E-3,9.52611E-2,-4.863138E-2,6.8803467E-3,6.4851634E-2,2.068758E-3,-1.0642836E-2,-9.091663E-2],"categories":[0],"categories_nodes":[2],"categories_segments":[0],"categories_sizes":[1],"default_left":[0,0,1,0,0,0,0,0,0,0,0,0,0,0,0,0,0,0,0],"id":60,"left_children":[1,3,5,7,9,11,-1,13,-1,15,17,-1,-1,-1,-1,-1,-1,-1,-1],"loss_changes":[1.0668354E2,1.945956E1,3.884265E1,2.5794125E0,9.485328E0,2.0603313E0,0E0,2.2884812E0,0E0,9.416708E0,4.4928265E0,0E0,0E0,0E0,0E0,0E0,0E0,0E0,0E0],"parents":[2147483647,0,0,1,1,2,2,3,3,4,4,5,5,7,7,9,9,10,10],"right_children":[2,4,6,8,10,12,-1,14,-1,16,18,-1,-1,-1,-1,-1,-1,-1,-1],"split_conditions":[1.02E0,4.6E-1,NaN,7.3E1,-1.04528464E-1,7.2E1,3.2755038E-1,1.24E1,-9.085034E-2,7.1E1,7.7E1,8.34961E-3,9.52611E-2,-4.863138E-2,6.8803467E-3,6.4851634E-2,2.068758E-3,-1.0642836E-2,-9.091663E-2],"split_indices":[6,6,2,0,1,0,0,3,0,0,0,0,0,0,0,0,0,0,0],"split_type":[0,0,1,0,0,0,0,0,0,0,0,0,0,0,0,0,0,0,0],"sum_hessian":[6.5E1,5.7E1,8E0,1.5E1,4.2E1,6E0,2E0,1.1E1,4E0,2.4E1,1.8E1,1E0,5E0,9E0,2E0,9E0,1.5E1,1.7E1,1E0],"tree_param":{"num_deleted":"0","num_feature":"8","num_nodes":"19","size_leaf_vector":"1"}},{"base_weights":[2.4643019E-1,-2.4162391E-1,3.3642867E0,-7.147858E-1,5.094827E-1,1.6115233E0,3.1663197E-1,-1.3915371E0,-3.6135375E-1,1.0605422E0,-1.8808608E-1,8.14085E-3,9.1291904E-2,-3.749014E-2,-1.07000224E-1,-7.4750236E-3,-9.325555E-2,9.603247E-2,2.4464473E-3,-8.286037E-2,6.2273405E-3],"categories":[0],"categories_nodes":[2],"categories_segments":[0],"categories_sizes":[1],"default_left":[0,0,1,0,0,0,0,0,0,0,0,0,0,0,0,0,0,0,0,0,0],"id":61,"left_children":[1,3,5,7,9,11,-1,13,15,17,19,-1,-1,-1,-1,-1,-1,-1,-1,-1,-1],"loss_changes":[1.0124394E2,2.0977081E1,3.6620186E1,8.107843E0,9.040716E0,1.8760757E0,0E0,4.1592236E0,7.6855636E0,1.1217272E1,5.258652E0,0E0,0E0,0E0,0E0,0E0,0E0,0E0,0E0,0E0,0E0],"parents":[2147483647,0,0,1,1,2,2,3,3,4,4,5,5,7,7,8,8,9,9,10,10],"right_children":[2,4,6,8,10,12,-1,14,16,18,20,-1,-1,-1,-1,-1,-1,-1,-1,-1,-1],"split_conditions":[1.02E0,6.7E-1,NaN,4.4E-1,-1.04528464E-1,7.2E1,3.1663197E-1,2.419219E-1,7.7E1,7.2E1,6.8E1,8.14085E-3,9.1291904E-2,-3.749014E-2,-1.07000224E-1,-7.4750236E-3,-9.325555E-2,9.603247E-2,2.4464473E-3,-8.286037E-2,6.2273405E-3],"split_indices":[6,6,2,6,1,0,0,1,0,0,0,0,0,0,0,0,0,0,0,0,0],"split_type":[0,0,1,0,0,0,0,0,0,0,0,0,0,0,0,0,0,0,0,0,0],"sum_hessian":[6.5E1,5.7E1,8E0,3.5E1,2.2E1,6E0,2E0,1.1E1,2.4E1,1.2E1,1E1,1E0,5E0,7E0,4E0,2.2E1,2E0,6E0,6E0,1E0,9E0],"tree_param":{"num_deleted":"0","num_feature":"8","num_nodes":"21","size_leaf_vector":"1"}},{"base_weights":[1.7851119E-1,-1.5142712E-1,4.670535E0,-6.915249E-1,7.5594676E-1,3.0607745E-1,7.937336E-3,-1.7462647E0,-4.990984E-1,1.3522782E0,9.089279E-2,-1.2589741E-2,-1.02846675E-1,3.3783436E-2,-3.0170787E-2,8.548229E-2,1.4973688E-2,1.729321E-2,-3.521595E-2],"categories":[],"categories_nodes":[],"categories_segments":[],"categories_sizes":[],"default_left":[0,0,0,0,0,0,0,0,0,0,0,0,0,0,0,0,0,0,0],"id":62,"left_children":[1,3,5,7,9,-1,-1,11,13,15,17,-1,-1,-1,-1,-1,-1,-1,-1],"loss_changes":[8.666851E1,2.747664E1,2.521489E1,6.2320404E0,8.205531E0,0E0,0E0,1.8034992E0,4.206715E0,3.626625E0,2.4739175E0,0E0,0E0,0E0,0E0,0E0,0E0,0E0,0E0],"parents":[2147483647,0,0,1,1,2,2,3,3,4,4,7,7,8,8,9,9,10,10],"right_children":[2,4,6,8,10,-1,-1,12,14,16,18,-1,-1,-1,-1,-1,-1,-1,-1],"split_conditions":[1.37E0,7.7E-1,-2.419219E-1,3.4E-1,-2.7563736E-1,3.0607745E-1,7.937336E-3,7.1E1,6.5E1,1.26E1,1.02E0,-1.2589741E-2,-1.02846675E-1,3.3783436E-2,-3.0170787E-2,8.548229E-2,1.4973688E-2,1.729321E-2,-3.521595E-2],"split_indices":[5,6,1,6,1,0,0,0,0,3,5,0,0,0,0,0,0,0,0],"split_type":[0,0,0,0,0,0,0,0,0,0,0,0,0,0,0,0,0,0,0],"sum_hessian":[5.7E1,5.4E1,3E0,3.4E1,2E1,2E0,1E0,4E0,3E1,1E1,1E1,1E0,3E0,2E0,2.8E1,7E0,3E0,8E0,2E0],"tree_param":{"num_deleted":"0","num_feature":"8","num_nodes":"19","size_leaf_vector":"1"}},{"base_weights":[1.9474652E-1,-1.7159075E-1,3.7646053E0,-7.8148234E-1,3.326112E-1,1.2087841E0,2.9587492E-1,-9.047342E-1,1.5339947E-1,7.815825E-1,-3.3253425E-1,7.7388766E-3,7.542636E-2,-3.2190472E-2,-7.2321795E-2,-4.590416E-3,1.3286908E-2,1.3247231E-2,8.516017E-2,-8.0034636E-2,-5.592669E-3],"categories":[0],"categories_nodes":[2],"categories_segments":[0],"categories_sizes":[1],"default_left":[0,0,1,0,0,0,0,0,0,0,0,0,0,0,0,0,0,0,0,0,0],"id":63,"left_children":[1,3,5,7,9,11,-1,13,15,17,19,-1,-1,-1,-1,-1,-1,-1,-1,-1,-1],"loss_changes":[8.43434E1,1.8402933E1,2.5861473E1,3.2498856E0,1.0114732E1,1.0302382E0,0E0,2.4610138E0,1.3458228E-1,9.0716305E0,3.7389736E0,0E0,0E0,0E0,0E0,0E0,0E0,0E0,0E0,0E0,0E0],"parents":[2147483647,0,0,1,1,2,2,3,3,4,4,5,5,7,7,8,8,9,9,10,10],"right_children":[2,4,6,8,10,12,-1,14,16,18,20,-1,-1,-1,-1,-1,-1,-1,-1,-1,-1],"split_conditions":[1.25E0,5.863354E-1,NaN,4.616E1,-1.04528464E-1,7.2E1,2.9587492E-1,4.459E1,7.2E1,-8.09017E-1,6.8E1,7.7388766E-3,7.542636E-2,-3.2190472E-2,-7.2321795E-2,-4.590416E-3,1.3286908E-2,1.3247231E-2,8.516017E-2,-8.0034636E-2,-5.592669E-3],"split_indices":[6,5,2,4,1,0,0,4,0,1,0,0,0,0,0,0,0,0,0,0,0],"split_type":[0,0,1,0,0,0,0,0,0,0,0,0,0,0,0,0,0,0,0,0,0],"sum_hessian":[6.3E1,5.8E1,5E0,2.6E1,3.2E1,3E0,2E0,2.3E1,3E0,1.9E1,1.3E1,1E0,2E0,1.7E1,6E0,1E0,2E0,1.3E1,6E0,1E0,1.2E1],"tree_param":{"num_deleted":"0","num_feature":"8","num_nodes":"21","size_leaf_vector":"1"}},{"base_weights":[1.1232652E-1,-1.6135201E-1,3.428739E0,-1.3384763E0,1.8533742E-1,3.116787E-1,1.169137E0,-6.625917E-1,-1.919705E0,8.045515E-2,8.845408E-2,7.5453757E-3,7.2912216E-2,-4.9162485E-2,9.979407E-3,-1.210773E-1,-4.6896886E-2,-3.3663057E-3,4.8299517E-2],"categories":[],"categories_nodes":[],"categories_segments":[],"categories_sizes":[],"default_left":[0,0,0,0,0,0,0,0,0,0,0,0,0,0,0,0,0,0,0],"id":64,"left_children":[1,3,5,7,9,-1,11,13,15,-1,17,-1,-1,-1,-1,-1,-1,-1,-1],"loss_changes":[5.9549244E1,2.514196E1,2.4401157E1,4.227829E0,6.4787474E0,0E0,9.574499E-1,2.407964E0,1.177578E0,0E0,6.3533635E0,0E0,0E0,0E0,0E0,0E0,0E0,0E0,0E0],"parents":[2147483647,0,0,1,1,2,2,3,3,4,4,6,6,7,7,8,8,10,10],"right_children":[2,4,6,8,10,-1,12,14,16,-1,18,-1,-1,-1,-1,-1,-1,-1,-1],"split_conditions":[1.25E0,4.4E-1,7E1,2.419219E-1,6E1,3.116787E-1,7.2E1,-1.391731E-1,3E-1,8.045515E-2,9E-1,7.5453757E-3,7.2912216E-2,-4.9162485E-2,9.979407E-3,-1.210773E-1,-4.6896886E-2,-3.3663057E-3,4.8299517E-2],"split_indices":[6,6,0,1,0,0,0,1,6,0,6,0,0,0,0,0,0,0,0],"split_type":[0,0,0,0,0,0,0,0,0,0,0,0,0,0,0,0,0,0,0],"sum_hessian":[6.4E1,6E1,4E0,1.3E1,4.7E1,1E0,3E0,7E0,6E0,2E0,4.5E1,1E0,2E0,5E0,2E0,3E0,3E0,3.9E1,6E0],"tree_param":{"num_deleted":"0","num_feature":"8","num_nodes":"19","size_leaf_vector":"1"}},{"base_weights":[1.17739424E-1,-3.5552543E-1,3.0609274E0,-1.2882825E0,-5.9407208E-2,1.285211E0,2.7960256E-1,-1.43318E0,7.639742E-3,1.1817901E0,-2.3502377E-1,7.4169956E-2,7.356739E-3,-1.0817458E-1,-5.1525034E-2,7.340679E-2,9.101868E-4,5.9265137E-2,-1.7851122E-2],"categories":[0],"categories_nodes":[2],"categories_segments":[0],"categories_sizes":[1],"default_left":[0,0,1,0,0,0,0,0,0,0,0,0,0,0,0,0,0,0,0],"id":65,"left_children":[1,3,5,7,9,11,-1,13,-1,15,17,-1,-1,-1,-1,-1,-1,-1,-1],"loss_changes":[8.0483955E1,1.3733786E1,2.87695E1,2.7246838E0,8.778768E0,1.1350603E0,0E0,1.0054169E0,0E0,1.6392145E0,6.487907E0,0E0,0E0,0E0,0E0,0E0,0E0,0E0,0E0],"parents":[2147483647,0,0,1,1,2,2,3,3,4,4,5,5,7,7,9,9,10,10],"right_children":[2,4,6,8,10,12,-1,14,-1,16,18,-1,-1,-1,-1,-1,-1,-1,-1],"split_conditions":[9E-1,4.4E-1,NaN,9.781476E-1,6.6E1,1.37E0,2.7960256E-1,2.9E-1,7.639742E-3,-6.4278764E-1,1.14E1,7.4169956E-2,7.356739E-3,-1.0817458E-1,-5.1525034E-2,7.340679E-2,9.101868E-4,5.9265137E-2,-1.7851122E-2],"split_indices":[6,6,2,1,0,5,0,6,0,1,3,0,0,0,0,0,0,0,0],"split_type":[0,0,1,0,0,0,0,0,0,0,0,0,0,0,0,0,0,0,0],"sum_hessian":[5.6E1,4.9E1,7E0,1.1E1,3.8E1,5E0,2E0,1E1,1E0,4E0,3.4E1,4E0,1E0,2E0,8E0,3E0,1E0,2E0,3.2E1],"tree_param":{"num_deleted":"0","num_feature":"8","num_nodes":"19","size_leaf_vector":"1"}},{"base_weights":[1.7722332E-1,-9.163265E-2,2.7028248E-1,-6.3647646E-1,4.9394634E-1,